//Numpy array shape [120, 84]
//Min -0.062500000000
//Max 0.062500000000
//Number of zeros 0

#ifndef W11_H_
#define W11_H_

#ifndef __SYNTHESIS__
weight_default_t w11[10080];
#else
weight_default_t w11[10080] = {-0.0625, 0.0625, -0.0625, -0.0625, 0.0625, 0.0625, 0.0625, 0.0625, -0.0625, -0.0625, 0.0625, 0.0625, 0.0625, -0.0625, 0.0625, -0.0625, 0.0625, 0.0625, -0.0625, -0.0625, -0.0625, 0.0625, 0.0625, -0.0625, 0.0625, 0.0625, -0.0625, 0.0625, 0.0625, 0.0625, 0.0625, 0.0625, -0.0625, 0.0625, -0.0625, 0.0625, -0.0625, 0.0625, -0.0625, -0.0625, -0.0625, 0.0625, -0.0625, 0.0625, -0.0625, -0.0625, 0.0625, -0.0625, -0.0625, 0.0625, 0.0625, 0.0625, -0.0625, -0.0625, -0.0625, -0.0625, 0.0625, -0.0625, 0.0625, 0.0625, -0.0625, -0.0625, 0.0625, -0.0625, 0.0625, -0.0625, -0.0625, -0.0625, 0.0625, 0.0625, -0.0625, -0.0625, -0.0625, 0.0625, -0.0625, 0.0625, -0.0625, -0.0625, -0.0625, 0.0625, 0.0625, 0.0625, -0.0625, -0.0625, -0.0625, -0.0625, 0.0625, -0.0625, -0.0625, -0.0625, 0.0625, 0.0625, -0.0625, -0.0625, 0.0625, 0.0625, -0.0625, -0.0625, 0.0625, -0.0625, 0.0625, 0.0625, 0.0625, 0.0625, 0.0625, -0.0625, 0.0625, 0.0625, -0.0625, -0.0625, 0.0625, -0.0625, 0.0625, -0.0625, -0.0625, 0.0625, -0.0625, -0.0625, -0.0625, 0.0625, 0.0625, 0.0625, 0.0625, 0.0625, 0.0625, -0.0625, -0.0625, 0.0625, -0.0625, 0.0625, -0.0625, -0.0625, 0.0625, 0.0625, -0.0625, -0.0625, 0.0625, 0.0625, -0.0625, 0.0625, -0.0625, -0.0625, 0.0625, 0.0625, 0.0625, -0.0625, 0.0625, 0.0625, -0.0625, 0.0625, -0.0625, -0.0625, 0.0625, -0.0625, -0.0625, 0.0625, -0.0625, 0.0625, -0.0625, 0.0625, -0.0625, 0.0625, -0.0625, -0.0625, -0.0625, 0.0625, 0.0625, -0.0625, -0.0625, -0.0625, 0.0625, -0.0625, 0.0625, 0.0625, -0.0625, 0.0625, -0.0625, 0.0625, 0.0625, -0.0625, 0.0625, -0.0625, -0.0625, 0.0625, -0.0625, -0.0625, 0.0625, 0.0625, -0.0625, -0.0625, 0.0625, -0.0625, 0.0625, -0.0625, 0.0625, -0.0625, -0.0625, 0.0625, 0.0625, -0.0625, 0.0625, -0.0625, -0.0625, -0.0625, -0.0625, 0.0625, -0.0625, 0.0625, -0.0625, -0.0625, 0.0625, 0.0625, 0.0625, 0.0625, 0.0625, 0.0625, 0.0625, -0.0625, -0.0625, 0.0625, 0.0625, -0.0625, -0.0625, -0.0625, -0.0625, 0.0625, -0.0625, -0.0625, -0.0625, -0.0625, 0.0625, 0.0625, 0.0625, -0.0625, 0.0625, -0.0625, 0.0625, -0.0625, 0.0625, -0.0625, 0.0625, 0.0625, -0.0625, -0.0625, -0.0625, 0.0625, -0.0625, 0.0625, -0.0625, 0.0625, 0.0625, -0.0625, -0.0625, -0.0625, -0.0625, 0.0625, 0.0625, -0.0625, 0.0625, -0.0625, -0.0625, -0.0625, -0.0625, 0.0625, 0.0625, -0.0625, -0.0625, -0.0625, -0.0625, -0.0625, -0.0625, 0.0625, -0.0625, 0.0625, -0.0625, -0.0625, 0.0625, 0.0625, 0.0625, 0.0625, 0.0625, 0.0625, -0.0625, 0.0625, 0.0625, -0.0625, -0.0625, 0.0625, -0.0625, 0.0625, 0.0625, -0.0625, -0.0625, -0.0625, -0.0625, 0.0625, 0.0625, -0.0625, -0.0625, -0.0625, -0.0625, 0.0625, -0.0625, 0.0625, -0.0625, -0.0625, 0.0625, -0.0625, 0.0625, -0.0625, -0.0625, 0.0625, 0.0625, -0.0625, -0.0625, -0.0625, -0.0625, -0.0625, 0.0625, -0.0625, -0.0625, 0.0625, -0.0625, 0.0625, -0.0625, 0.0625, -0.0625, 0.0625, -0.0625, -0.0625, -0.0625, 0.0625, 0.0625, -0.0625, 0.0625, -0.0625, -0.0625, 0.0625, 0.0625, 0.0625, -0.0625, -0.0625, -0.0625, 0.0625, -0.0625, 0.0625, -0.0625, -0.0625, -0.0625, 0.0625, -0.0625, 0.0625, 0.0625, 0.0625, 0.0625, 0.0625, 0.0625, 0.0625, -0.0625, 0.0625, -0.0625, -0.0625, -0.0625, -0.0625, -0.0625, -0.0625, -0.0625, -0.0625, 0.0625, -0.0625, 0.0625, -0.0625, -0.0625, -0.0625, 0.0625, -0.0625, 0.0625, 0.0625, 0.0625, -0.0625, 0.0625, -0.0625, 0.0625, 0.0625, -0.0625, 0.0625, 0.0625, 0.0625, 0.0625, 0.0625, -0.0625, -0.0625, -0.0625, -0.0625, -0.0625, 0.0625, -0.0625, -0.0625, -0.0625, 0.0625, 0.0625, 0.0625, 0.0625, 0.0625, -0.0625, -0.0625, -0.0625, 0.0625, 0.0625, -0.0625, -0.0625, -0.0625, -0.0625, 0.0625, 0.0625, -0.0625, 0.0625, 0.0625, 0.0625, -0.0625, -0.0625, 0.0625, 0.0625, 0.0625, -0.0625, 0.0625, -0.0625, -0.0625, -0.0625, -0.0625, 0.0625, 0.0625, -0.0625, 0.0625, -0.0625, 0.0625, -0.0625, -0.0625, -0.0625, 0.0625, -0.0625, -0.0625, 0.0625, -0.0625, 0.0625, -0.0625, -0.0625, -0.0625, 0.0625, 0.0625, -0.0625, 0.0625, 0.0625, -0.0625, -0.0625, -0.0625, -0.0625, -0.0625, -0.0625, 0.0625, -0.0625, 0.0625, 0.0625, -0.0625, 0.0625, 0.0625, -0.0625, -0.0625, -0.0625, -0.0625, 0.0625, -0.0625, -0.0625, 0.0625, -0.0625, -0.0625, 0.0625, -0.0625, -0.0625, 0.0625, -0.0625, 0.0625, -0.0625, -0.0625, 0.0625, -0.0625, 0.0625, -0.0625, -0.0625, -0.0625, -0.0625, -0.0625, 0.0625, 0.0625, -0.0625, -0.0625, -0.0625, 0.0625, -0.0625, 0.0625, -0.0625, -0.0625, 0.0625, 0.0625, 0.0625, 0.0625, 0.0625, 0.0625, 0.0625, 0.0625, -0.0625, 0.0625, 0.0625, -0.0625, -0.0625, 0.0625, -0.0625, 0.0625, -0.0625, 0.0625, -0.0625, 0.0625, 0.0625, -0.0625, -0.0625, 0.0625, 0.0625, 0.0625, -0.0625, 0.0625, 0.0625, 0.0625, -0.0625, 0.0625, -0.0625, -0.0625, 0.0625, -0.0625, 0.0625, 0.0625, -0.0625, -0.0625, 0.0625, -0.0625, 0.0625, -0.0625, -0.0625, 0.0625, 0.0625, 0.0625, -0.0625, -0.0625, -0.0625, 0.0625, -0.0625, -0.0625, -0.0625, -0.0625, -0.0625, 0.0625, -0.0625, -0.0625, -0.0625, -0.0625, 0.0625, -0.0625, -0.0625, 0.0625, -0.0625, 0.0625, -0.0625, -0.0625, 0.0625, -0.0625, 0.0625, -0.0625, 0.0625, -0.0625, 0.0625, -0.0625, 0.0625, 0.0625, 0.0625, 0.0625, -0.0625, -0.0625, 0.0625, 0.0625, 0.0625, -0.0625, -0.0625, 0.0625, -0.0625, -0.0625, -0.0625, -0.0625, -0.0625, -0.0625, -0.0625, 0.0625, 0.0625, -0.0625, -0.0625, -0.0625, 0.0625, 0.0625, 0.0625, -0.0625, 0.0625, -0.0625, 0.0625, 0.0625, -0.0625, -0.0625, 0.0625, -0.0625, -0.0625, -0.0625, -0.0625, 0.0625, -0.0625, -0.0625, 0.0625, -0.0625, -0.0625, -0.0625, -0.0625, 0.0625, 0.0625, -0.0625, -0.0625, -0.0625, -0.0625, 0.0625, -0.0625, -0.0625, 0.0625, -0.0625, 0.0625, -0.0625, 0.0625, -0.0625, 0.0625, 0.0625, -0.0625, 0.0625, -0.0625, 0.0625, 0.0625, 0.0625, -0.0625, -0.0625, -0.0625, -0.0625, 0.0625, -0.0625, 0.0625, 0.0625, -0.0625, 0.0625, 0.0625, 0.0625, 0.0625, 0.0625, 0.0625, 0.0625, 0.0625, 0.0625, 0.0625, -0.0625, 0.0625, 0.0625, 0.0625, 0.0625, -0.0625, -0.0625, -0.0625, -0.0625, -0.0625, -0.0625, -0.0625, 0.0625, 0.0625, 0.0625, 0.0625, 0.0625, -0.0625, -0.0625, -0.0625, 0.0625, -0.0625, -0.0625, 0.0625, -0.0625, 0.0625, -0.0625, 0.0625, 0.0625, -0.0625, -0.0625, -0.0625, 0.0625, -0.0625, 0.0625, -0.0625, 0.0625, 0.0625, -0.0625, -0.0625, 0.0625, -0.0625, 0.0625, -0.0625, 0.0625, -0.0625, 0.0625, 0.0625, 0.0625, -0.0625, 0.0625, -0.0625, 0.0625, -0.0625, 0.0625, 0.0625, 0.0625, 0.0625, 0.0625, 0.0625, 0.0625, -0.0625, -0.0625, 0.0625, -0.0625, 0.0625, 0.0625, -0.0625, -0.0625, -0.0625, -0.0625, 0.0625, 0.0625, -0.0625, 0.0625, 0.0625, -0.0625, -0.0625, -0.0625, 0.0625, -0.0625, 0.0625, -0.0625, 0.0625, -0.0625, 0.0625, 0.0625, 0.0625, -0.0625, 0.0625, -0.0625, -0.0625, 0.0625, -0.0625, -0.0625, 0.0625, -0.0625, -0.0625, 0.0625, -0.0625, -0.0625, 0.0625, -0.0625, -0.0625, 0.0625, 0.0625, 0.0625, -0.0625, 0.0625, -0.0625, -0.0625, -0.0625, 0.0625, -0.0625, -0.0625, 0.0625, -0.0625, 0.0625, 0.0625, -0.0625, -0.0625, 0.0625, -0.0625, 0.0625, -0.0625, 0.0625, -0.0625, 0.0625, 0.0625, 0.0625, -0.0625, -0.0625, 0.0625, 0.0625, 0.0625, 0.0625, 0.0625, -0.0625, 0.0625, -0.0625, -0.0625, -0.0625, 0.0625, -0.0625, 0.0625, -0.0625, 0.0625, 0.0625, -0.0625, -0.0625, 0.0625, 0.0625, -0.0625, 0.0625, 0.0625, -0.0625, -0.0625, -0.0625, 0.0625, -0.0625, 0.0625, -0.0625, -0.0625, 0.0625, -0.0625, 0.0625, -0.0625, 0.0625, -0.0625, -0.0625, 0.0625, -0.0625, 0.0625, 0.0625, -0.0625, -0.0625, -0.0625, -0.0625, 0.0625, -0.0625, 0.0625, 0.0625, 0.0625, -0.0625, 0.0625, 0.0625, 0.0625, 0.0625, 0.0625, 0.0625, 0.0625, 0.0625, -0.0625, -0.0625, 0.0625, 0.0625, -0.0625, 0.0625, -0.0625, -0.0625, -0.0625, -0.0625, -0.0625, 0.0625, -0.0625, -0.0625, -0.0625, -0.0625, -0.0625, 0.0625, 0.0625, 0.0625, -0.0625, -0.0625, 0.0625, 0.0625, -0.0625, -0.0625, 0.0625, 0.0625, -0.0625, 0.0625, -0.0625, -0.0625, -0.0625, 0.0625, 0.0625, 0.0625, 0.0625, -0.0625, 0.0625, 0.0625, -0.0625, 0.0625, 0.0625, -0.0625, 0.0625, -0.0625, -0.0625, -0.0625, 0.0625, -0.0625, 0.0625, -0.0625, 0.0625, -0.0625, -0.0625, 0.0625, 0.0625, -0.0625, -0.0625, -0.0625, -0.0625, 0.0625, 0.0625, 0.0625, -0.0625, 0.0625, -0.0625, -0.0625, 0.0625, 0.0625, -0.0625, 0.0625, -0.0625, -0.0625, 0.0625, -0.0625, -0.0625, -0.0625, -0.0625, -0.0625, 0.0625, -0.0625, 0.0625, -0.0625, 0.0625, -0.0625, 0.0625, 0.0625, 0.0625, -0.0625, -0.0625, -0.0625, 0.0625, 0.0625, -0.0625, 0.0625, -0.0625, 0.0625, 0.0625, 0.0625, 0.0625, 0.0625, -0.0625, -0.0625, 0.0625, -0.0625, 0.0625, -0.0625, -0.0625, -0.0625, 0.0625, -0.0625, -0.0625, -0.0625, 0.0625, 0.0625, -0.0625, -0.0625, -0.0625, 0.0625, -0.0625, -0.0625, 0.0625, 0.0625, 0.0625, -0.0625, -0.0625, -0.0625, 0.0625, 0.0625, -0.0625, -0.0625, 0.0625, 0.0625, 0.0625, -0.0625, 0.0625, 0.0625, -0.0625, -0.0625, -0.0625, -0.0625, 0.0625, -0.0625, 0.0625, -0.0625, -0.0625, -0.0625, 0.0625, 0.0625, -0.0625, 0.0625, 0.0625, 0.0625, 0.0625, 0.0625, -0.0625, -0.0625, -0.0625, 0.0625, -0.0625, 0.0625, 0.0625, -0.0625, -0.0625, 0.0625, -0.0625, -0.0625, -0.0625, -0.0625, 0.0625, -0.0625, -0.0625, 0.0625, -0.0625, -0.0625, -0.0625, -0.0625, -0.0625, -0.0625, -0.0625, 0.0625, 0.0625, 0.0625, 0.0625, 0.0625, 0.0625, -0.0625, -0.0625, 0.0625, 0.0625, -0.0625, -0.0625, 0.0625, 0.0625, -0.0625, -0.0625, -0.0625, 0.0625, 0.0625, -0.0625, -0.0625, 0.0625, -0.0625, -0.0625, 0.0625, -0.0625, -0.0625, -0.0625, 0.0625, -0.0625, 0.0625, 0.0625, 0.0625, -0.0625, 0.0625, -0.0625, 0.0625, 0.0625, -0.0625, -0.0625, 0.0625, 0.0625, -0.0625, 0.0625, -0.0625, -0.0625, 0.0625, -0.0625, -0.0625, 0.0625, -0.0625, 0.0625, -0.0625, 0.0625, 0.0625, 0.0625, 0.0625, 0.0625, -0.0625, 0.0625, -0.0625, -0.0625, 0.0625, 0.0625, -0.0625, 0.0625, -0.0625, -0.0625, 0.0625, 0.0625, -0.0625, -0.0625, 0.0625, 0.0625, 0.0625, 0.0625, -0.0625, -0.0625, -0.0625, -0.0625, 0.0625, -0.0625, 0.0625, -0.0625, -0.0625, -0.0625, -0.0625, 0.0625, 0.0625, 0.0625, 0.0625, 0.0625, -0.0625, -0.0625, 0.0625, -0.0625, 0.0625, -0.0625, 0.0625, -0.0625, -0.0625, 0.0625, 0.0625, 0.0625, -0.0625, 0.0625, -0.0625, 0.0625, 0.0625, 0.0625, 0.0625, -0.0625, 0.0625, 0.0625, 0.0625, -0.0625, 0.0625, 0.0625, -0.0625, 0.0625, 0.0625, -0.0625, 0.0625, 0.0625, -0.0625, -0.0625, 0.0625, 0.0625, 0.0625, -0.0625, 0.0625, 0.0625, -0.0625, -0.0625, -0.0625, 0.0625, -0.0625, -0.0625, 0.0625, -0.0625, -0.0625, -0.0625, 0.0625, -0.0625, 0.0625, 0.0625, 0.0625, 0.0625, 0.0625, -0.0625, -0.0625, -0.0625, -0.0625, 0.0625, -0.0625, 0.0625, 0.0625, -0.0625, 0.0625, 0.0625, -0.0625, -0.0625, 0.0625, 0.0625, 0.0625, 0.0625, 0.0625, -0.0625, 0.0625, 0.0625, -0.0625, 0.0625, -0.0625, 0.0625, -0.0625, 0.0625, 0.0625, -0.0625, -0.0625, -0.0625, 0.0625, -0.0625, -0.0625, -0.0625, -0.0625, 0.0625, 0.0625, 0.0625, 0.0625, 0.0625, 0.0625, 0.0625, 0.0625, -0.0625, 0.0625, -0.0625, 0.0625, 0.0625, 0.0625, 0.0625, 0.0625, 0.0625, -0.0625, -0.0625, -0.0625, -0.0625, 0.0625, 0.0625, 0.0625, 0.0625, -0.0625, -0.0625, 0.0625, -0.0625, -0.0625, -0.0625, -0.0625, 0.0625, 0.0625, -0.0625, 0.0625, -0.0625, 0.0625, -0.0625, 0.0625, 0.0625, 0.0625, 0.0625, 0.0625, 0.0625, 0.0625, -0.0625, -0.0625, -0.0625, 0.0625, -0.0625, -0.0625, -0.0625, 0.0625, 0.0625, 0.0625, 0.0625, 0.0625, 0.0625, 0.0625, 0.0625, -0.0625, -0.0625, -0.0625, 0.0625, -0.0625, -0.0625, 0.0625, 0.0625, 0.0625, 0.0625, -0.0625, -0.0625, -0.0625, 0.0625, 0.0625, 0.0625, -0.0625, -0.0625, 0.0625, 0.0625, -0.0625, -0.0625, 0.0625, 0.0625, -0.0625, 0.0625, 0.0625, 0.0625, -0.0625, 0.0625, -0.0625, 0.0625, 0.0625, -0.0625, -0.0625, 0.0625, -0.0625, -0.0625, -0.0625, -0.0625, -0.0625, 0.0625, -0.0625, 0.0625, -0.0625, 0.0625, 0.0625, 0.0625, 0.0625, 0.0625, 0.0625, -0.0625, 0.0625, 0.0625, 0.0625, -0.0625, 0.0625, 0.0625, 0.0625, 0.0625, 0.0625, 0.0625, 0.0625, -0.0625, 0.0625, -0.0625, 0.0625, -0.0625, 0.0625, 0.0625, -0.0625, 0.0625, 0.0625, 0.0625, -0.0625, 0.0625, -0.0625, 0.0625, 0.0625, -0.0625, -0.0625, -0.0625, 0.0625, 0.0625, 0.0625, 0.0625, -0.0625, -0.0625, 0.0625, -0.0625, 0.0625, -0.0625, -0.0625, 0.0625, -0.0625, 0.0625, 0.0625, 0.0625, -0.0625, -0.0625, -0.0625, 0.0625, -0.0625, -0.0625, -0.0625, 0.0625, -0.0625, 0.0625, -0.0625, -0.0625, -0.0625, 0.0625, -0.0625, -0.0625, 0.0625, -0.0625, 0.0625, -0.0625, -0.0625, -0.0625, 0.0625, 0.0625, -0.0625, -0.0625, 0.0625, 0.0625, -0.0625, -0.0625, 0.0625, 0.0625, -0.0625, -0.0625, 0.0625, -0.0625, 0.0625, -0.0625, 0.0625, 0.0625, 0.0625, 0.0625, 0.0625, -0.0625, 0.0625, -0.0625, -0.0625, -0.0625, -0.0625, 0.0625, -0.0625, -0.0625, 0.0625, -0.0625, 0.0625, -0.0625, -0.0625, 0.0625, -0.0625, 0.0625, -0.0625, -0.0625, -0.0625, -0.0625, -0.0625, -0.0625, -0.0625, -0.0625, -0.0625, 0.0625, -0.0625, 0.0625, -0.0625, 0.0625, -0.0625, 0.0625, -0.0625, -0.0625, 0.0625, 0.0625, -0.0625, 0.0625, 0.0625, 0.0625, 0.0625, -0.0625, 0.0625, -0.0625, 0.0625, 0.0625, 0.0625, -0.0625, 0.0625, -0.0625, -0.0625, -0.0625, 0.0625, -0.0625, 0.0625, -0.0625, -0.0625, 0.0625, 0.0625, -0.0625, -0.0625, 0.0625, 0.0625, -0.0625, -0.0625, -0.0625, 0.0625, 0.0625, 0.0625, -0.0625, -0.0625, 0.0625, -0.0625, -0.0625, 0.0625, 0.0625, -0.0625, 0.0625, 0.0625, -0.0625, -0.0625, 0.0625, 0.0625, -0.0625, -0.0625, -0.0625, -0.0625, -0.0625, 0.0625, 0.0625, -0.0625, 0.0625, -0.0625, -0.0625, 0.0625, -0.0625, -0.0625, -0.0625, 0.0625, 0.0625, -0.0625, 0.0625, 0.0625, 0.0625, -0.0625, -0.0625, 0.0625, 0.0625, -0.0625, 0.0625, 0.0625, -0.0625, -0.0625, -0.0625, 0.0625, 0.0625, -0.0625, -0.0625, -0.0625, 0.0625, 0.0625, 0.0625, -0.0625, 0.0625, -0.0625, 0.0625, -0.0625, 0.0625, 0.0625, 0.0625, -0.0625, -0.0625, 0.0625, -0.0625, -0.0625, -0.0625, 0.0625, 0.0625, 0.0625, 0.0625, 0.0625, 0.0625, 0.0625, -0.0625, 0.0625, -0.0625, -0.0625, 0.0625, 0.0625, -0.0625, 0.0625, 0.0625, 0.0625, -0.0625, -0.0625, 0.0625, 0.0625, -0.0625, 0.0625, -0.0625, -0.0625, 0.0625, 0.0625, 0.0625, -0.0625, -0.0625, -0.0625, -0.0625, -0.0625, 0.0625, 0.0625, 0.0625, 0.0625, 0.0625, -0.0625, -0.0625, 0.0625, -0.0625, 0.0625, 0.0625, 0.0625, 0.0625, -0.0625, -0.0625, 0.0625, -0.0625, 0.0625, -0.0625, 0.0625, 0.0625, 0.0625, -0.0625, 0.0625, 0.0625, -0.0625, -0.0625, 0.0625, -0.0625, -0.0625, 0.0625, 0.0625, 0.0625, -0.0625, 0.0625, -0.0625, 0.0625, -0.0625, -0.0625, -0.0625, 0.0625, 0.0625, 0.0625, 0.0625, -0.0625, 0.0625, -0.0625, 0.0625, -0.0625, 0.0625, 0.0625, 0.0625, -0.0625, 0.0625, -0.0625, 0.0625, 0.0625, -0.0625, 0.0625, 0.0625, -0.0625, -0.0625, 0.0625, -0.0625, -0.0625, 0.0625, -0.0625, 0.0625, 0.0625, 0.0625, -0.0625, 0.0625, -0.0625, -0.0625, 0.0625, -0.0625, 0.0625, 0.0625, 0.0625, -0.0625, 0.0625, -0.0625, -0.0625, -0.0625, 0.0625, -0.0625, -0.0625, 0.0625, -0.0625, 0.0625, 0.0625, 0.0625, -0.0625, -0.0625, -0.0625, 0.0625, 0.0625, -0.0625, -0.0625, 0.0625, 0.0625, 0.0625, -0.0625, -0.0625, -0.0625, -0.0625, -0.0625, 0.0625, 0.0625, 0.0625, 0.0625, 0.0625, -0.0625, -0.0625, -0.0625, 0.0625, -0.0625, -0.0625, -0.0625, 0.0625, 0.0625, -0.0625, -0.0625, 0.0625, 0.0625, -0.0625, -0.0625, -0.0625, 0.0625, 0.0625, -0.0625, 0.0625, -0.0625, -0.0625, -0.0625, 0.0625, -0.0625, 0.0625, 0.0625, 0.0625, 0.0625, 0.0625, 0.0625, 0.0625, 0.0625, -0.0625, 0.0625, -0.0625, -0.0625, -0.0625, -0.0625, 0.0625, 0.0625, -0.0625, -0.0625, -0.0625, -0.0625, -0.0625, 0.0625, -0.0625, 0.0625, 0.0625, 0.0625, 0.0625, 0.0625, 0.0625, -0.0625, 0.0625, -0.0625, 0.0625, -0.0625, 0.0625, -0.0625, -0.0625, -0.0625, 0.0625, -0.0625, 0.0625, -0.0625, -0.0625, -0.0625, 0.0625, 0.0625, -0.0625, -0.0625, -0.0625, -0.0625, -0.0625, -0.0625, -0.0625, -0.0625, -0.0625, -0.0625, -0.0625, 0.0625, 0.0625, -0.0625, 0.0625, -0.0625, -0.0625, -0.0625, -0.0625, 0.0625, -0.0625, 0.0625, 0.0625, -0.0625, 0.0625, -0.0625, 0.0625, 0.0625, -0.0625, -0.0625, 0.0625, 0.0625, -0.0625, -0.0625, -0.0625, 0.0625, -0.0625, -0.0625, -0.0625, 0.0625, 0.0625, 0.0625, 0.0625, -0.0625, 0.0625, 0.0625, 0.0625, -0.0625, -0.0625, -0.0625, -0.0625, 0.0625, -0.0625, 0.0625, -0.0625, -0.0625, -0.0625, -0.0625, 0.0625, 0.0625, 0.0625, -0.0625, 0.0625, -0.0625, 0.0625, -0.0625, 0.0625, 0.0625, 0.0625, -0.0625, -0.0625, 0.0625, -0.0625, 0.0625, -0.0625, -0.0625, -0.0625, 0.0625, 0.0625, -0.0625, -0.0625, 0.0625, 0.0625, -0.0625, 0.0625, 0.0625, 0.0625, 0.0625, -0.0625, -0.0625, -0.0625, -0.0625, -0.0625, -0.0625, 0.0625, 0.0625, 0.0625, 0.0625, -0.0625, 0.0625, 0.0625, -0.0625, 0.0625, -0.0625, 0.0625, 0.0625, -0.0625, -0.0625, 0.0625, -0.0625, 0.0625, 0.0625, -0.0625, 0.0625, 0.0625, 0.0625, 0.0625, -0.0625, -0.0625, -0.0625, -0.0625, 0.0625, -0.0625, -0.0625, 0.0625, 0.0625, 0.0625, 0.0625, 0.0625, 0.0625, 0.0625, -0.0625, 0.0625, 0.0625, -0.0625, -0.0625, -0.0625, -0.0625, 0.0625, -0.0625, 0.0625, -0.0625, -0.0625, 0.0625, -0.0625, 0.0625, 0.0625, -0.0625, 0.0625, 0.0625, -0.0625, -0.0625, -0.0625, -0.0625, -0.0625, -0.0625, 0.0625, -0.0625, -0.0625, 0.0625, -0.0625, -0.0625, -0.0625, 0.0625, -0.0625, -0.0625, -0.0625, 0.0625, 0.0625, -0.0625, -0.0625, 0.0625, 0.0625, 0.0625, 0.0625, 0.0625, 0.0625, -0.0625, -0.0625, -0.0625, -0.0625, 0.0625, -0.0625, 0.0625, -0.0625, -0.0625, -0.0625, 0.0625, 0.0625, 0.0625, 0.0625, -0.0625, -0.0625, -0.0625, -0.0625, -0.0625, 0.0625, 0.0625, -0.0625, -0.0625, -0.0625, 0.0625, 0.0625, 0.0625, 0.0625, -0.0625, -0.0625, -0.0625, 0.0625, 0.0625, -0.0625, -0.0625, 0.0625, 0.0625, -0.0625, -0.0625, -0.0625, 0.0625, 0.0625, 0.0625, -0.0625, -0.0625, 0.0625, -0.0625, -0.0625, -0.0625, -0.0625, -0.0625, 0.0625, 0.0625, -0.0625, 0.0625, -0.0625, 0.0625, -0.0625, -0.0625, -0.0625, -0.0625, 0.0625, -0.0625, -0.0625, -0.0625, 0.0625, -0.0625, 0.0625, 0.0625, -0.0625, -0.0625, 0.0625, -0.0625, 0.0625, -0.0625, -0.0625, 0.0625, 0.0625, -0.0625, -0.0625, 0.0625, 0.0625, 0.0625, 0.0625, -0.0625, -0.0625, 0.0625, 0.0625, 0.0625, -0.0625, 0.0625, -0.0625, -0.0625, 0.0625, -0.0625, 0.0625, 0.0625, 0.0625, -0.0625, -0.0625, 0.0625, 0.0625, 0.0625, -0.0625, -0.0625, 0.0625, -0.0625, -0.0625, -0.0625, -0.0625, 0.0625, 0.0625, -0.0625, -0.0625, -0.0625, 0.0625, 0.0625, 0.0625, 0.0625, 0.0625, -0.0625, -0.0625, -0.0625, -0.0625, 0.0625, -0.0625, -0.0625, -0.0625, 0.0625, -0.0625, -0.0625, 0.0625, -0.0625, 0.0625, 0.0625, 0.0625, 0.0625, 0.0625, -0.0625, -0.0625, -0.0625, 0.0625, 0.0625, -0.0625, 0.0625, -0.0625, -0.0625, 0.0625, -0.0625, -0.0625, -0.0625, 0.0625, 0.0625, 0.0625, -0.0625, 0.0625, 0.0625, -0.0625, 0.0625, 0.0625, -0.0625, 0.0625, 0.0625, 0.0625, -0.0625, 0.0625, 0.0625, -0.0625, -0.0625, 0.0625, -0.0625, 0.0625, -0.0625, -0.0625, 0.0625, 0.0625, 0.0625, -0.0625, -0.0625, -0.0625, 0.0625, 0.0625, -0.0625, 0.0625, 0.0625, -0.0625, -0.0625, 0.0625, -0.0625, -0.0625, 0.0625, -0.0625, -0.0625, 0.0625, -0.0625, -0.0625, 0.0625, 0.0625, -0.0625, 0.0625, -0.0625, -0.0625, -0.0625, 0.0625, 0.0625, 0.0625, -0.0625, 0.0625, 0.0625, 0.0625, -0.0625, 0.0625, -0.0625, 0.0625, -0.0625, 0.0625, -0.0625, -0.0625, 0.0625, -0.0625, -0.0625, 0.0625, -0.0625, 0.0625, 0.0625, -0.0625, -0.0625, 0.0625, 0.0625, 0.0625, 0.0625, -0.0625, 0.0625, -0.0625, -0.0625, -0.0625, 0.0625, -0.0625, -0.0625, -0.0625, 0.0625, -0.0625, 0.0625, 0.0625, 0.0625, -0.0625, -0.0625, 0.0625, 0.0625, 0.0625, 0.0625, -0.0625, -0.0625, -0.0625, 0.0625, -0.0625, -0.0625, -0.0625, -0.0625, -0.0625, 0.0625, 0.0625, 0.0625, 0.0625, -0.0625, 0.0625, -0.0625, 0.0625, 0.0625, 0.0625, -0.0625, 0.0625, -0.0625, -0.0625, 0.0625, 0.0625, -0.0625, 0.0625, 0.0625, -0.0625, -0.0625, 0.0625, -0.0625, 0.0625, 0.0625, -0.0625, -0.0625, 0.0625, 0.0625, 0.0625, -0.0625, 0.0625, -0.0625, -0.0625, -0.0625, -0.0625, 0.0625, 0.0625, -0.0625, 0.0625, 0.0625, 0.0625, 0.0625, 0.0625, -0.0625, -0.0625, 0.0625, 0.0625, -0.0625, 0.0625, 0.0625, 0.0625, -0.0625, 0.0625, 0.0625, 0.0625, -0.0625, 0.0625, -0.0625, -0.0625, 0.0625, -0.0625, 0.0625, 0.0625, 0.0625, 0.0625, 0.0625, 0.0625, 0.0625, 0.0625, -0.0625, 0.0625, -0.0625, -0.0625, 0.0625, 0.0625, 0.0625, -0.0625, 0.0625, -0.0625, 0.0625, -0.0625, -0.0625, 0.0625, -0.0625, -0.0625, -0.0625, 0.0625, 0.0625, 0.0625, 0.0625, -0.0625, -0.0625, -0.0625, 0.0625, -0.0625, -0.0625, -0.0625, -0.0625, 0.0625, -0.0625, 0.0625, 0.0625, 0.0625, 0.0625, 0.0625, -0.0625, -0.0625, 0.0625, 0.0625, -0.0625, 0.0625, -0.0625, -0.0625, -0.0625, 0.0625, -0.0625, 0.0625, 0.0625, -0.0625, 0.0625, 0.0625, -0.0625, 0.0625, -0.0625, 0.0625, 0.0625, 0.0625, -0.0625, 0.0625, -0.0625, -0.0625, -0.0625, -0.0625, 0.0625, 0.0625, -0.0625, 0.0625, 0.0625, -0.0625, -0.0625, -0.0625, -0.0625, 0.0625, 0.0625, -0.0625, -0.0625, 0.0625, 0.0625, -0.0625, -0.0625, -0.0625, -0.0625, 0.0625, -0.0625, -0.0625, -0.0625, 0.0625, -0.0625, -0.0625, -0.0625, -0.0625, -0.0625, -0.0625, 0.0625, -0.0625, -0.0625, 0.0625, 0.0625, -0.0625, -0.0625, -0.0625, 0.0625, 0.0625, 0.0625, 0.0625, 0.0625, -0.0625, -0.0625, -0.0625, 0.0625, -0.0625, -0.0625, 0.0625, 0.0625, -0.0625, -0.0625, 0.0625, 0.0625, 0.0625, 0.0625, -0.0625, -0.0625, 0.0625, -0.0625, -0.0625, 0.0625, -0.0625, -0.0625, 0.0625, -0.0625, 0.0625, 0.0625, -0.0625, -0.0625, -0.0625, -0.0625, 0.0625, -0.0625, 0.0625, 0.0625, 0.0625, 0.0625, -0.0625, -0.0625, 0.0625, 0.0625, 0.0625, -0.0625, -0.0625, 0.0625, -0.0625, -0.0625, -0.0625, -0.0625, 0.0625, 0.0625, 0.0625, -0.0625, 0.0625, 0.0625, -0.0625, 0.0625, -0.0625, 0.0625, -0.0625, 0.0625, -0.0625, -0.0625, 0.0625, 0.0625, -0.0625, 0.0625, -0.0625, -0.0625, 0.0625, -0.0625, 0.0625, -0.0625, -0.0625, 0.0625, 0.0625, -0.0625, 0.0625, -0.0625, 0.0625, 0.0625, -0.0625, 0.0625, 0.0625, -0.0625, -0.0625, 0.0625, 0.0625, -0.0625, 0.0625, 0.0625, 0.0625, -0.0625, 0.0625, 0.0625, 0.0625, -0.0625, -0.0625, 0.0625, -0.0625, 0.0625, -0.0625, 0.0625, -0.0625, 0.0625, -0.0625, -0.0625, 0.0625, -0.0625, 0.0625, -0.0625, -0.0625, -0.0625, 0.0625, 0.0625, -0.0625, -0.0625, 0.0625, -0.0625, -0.0625, -0.0625, -0.0625, -0.0625, -0.0625, -0.0625, -0.0625, -0.0625, -0.0625, 0.0625, -0.0625, -0.0625, 0.0625, -0.0625, -0.0625, 0.0625, -0.0625, -0.0625, 0.0625, -0.0625, 0.0625, 0.0625, -0.0625, -0.0625, -0.0625, -0.0625, 0.0625, 0.0625, 0.0625, 0.0625, 0.0625, 0.0625, -0.0625, -0.0625, 0.0625, 0.0625, 0.0625, 0.0625, -0.0625, -0.0625, -0.0625, 0.0625, 0.0625, -0.0625, -0.0625, 0.0625, -0.0625, 0.0625, -0.0625, -0.0625, 0.0625, -0.0625, 0.0625, 0.0625, -0.0625, -0.0625, -0.0625, -0.0625, -0.0625, 0.0625, -0.0625, -0.0625, 0.0625, -0.0625, 0.0625, 0.0625, -0.0625, 0.0625, 0.0625, -0.0625, -0.0625, -0.0625, -0.0625, -0.0625, 0.0625, 0.0625, -0.0625, -0.0625, -0.0625, 0.0625, 0.0625, 0.0625, -0.0625, -0.0625, -0.0625, 0.0625, -0.0625, 0.0625, 0.0625, -0.0625, -0.0625, -0.0625, 0.0625, -0.0625, 0.0625, 0.0625, -0.0625, -0.0625, -0.0625, 0.0625, 0.0625, -0.0625, 0.0625, 0.0625, -0.0625, 0.0625, 0.0625, 0.0625, 0.0625, -0.0625, 0.0625, 0.0625, -0.0625, -0.0625, -0.0625, 0.0625, 0.0625, -0.0625, -0.0625, -0.0625, -0.0625, -0.0625, -0.0625, 0.0625, -0.0625, -0.0625, -0.0625, 0.0625, 0.0625, -0.0625, -0.0625, 0.0625, -0.0625, 0.0625, -0.0625, 0.0625, 0.0625, -0.0625, -0.0625, -0.0625, 0.0625, 0.0625, 0.0625, -0.0625, 0.0625, 0.0625, 0.0625, 0.0625, -0.0625, 0.0625, 0.0625, -0.0625, -0.0625, -0.0625, 0.0625, -0.0625, 0.0625, -0.0625, 0.0625, 0.0625, 0.0625, -0.0625, 0.0625, -0.0625, 0.0625, -0.0625, 0.0625, -0.0625, 0.0625, 0.0625, 0.0625, -0.0625, -0.0625, 0.0625, 0.0625, -0.0625, 0.0625, -0.0625, 0.0625, -0.0625, 0.0625, -0.0625, 0.0625, 0.0625, -0.0625, 0.0625, 0.0625, 0.0625, -0.0625, -0.0625, -0.0625, 0.0625, 0.0625, -0.0625, -0.0625, -0.0625, -0.0625, 0.0625, 0.0625, 0.0625, -0.0625, -0.0625, 0.0625, -0.0625, 0.0625, -0.0625, -0.0625, 0.0625, 0.0625, 0.0625, -0.0625, 0.0625, 0.0625, -0.0625, -0.0625, 0.0625, -0.0625, 0.0625, -0.0625, -0.0625, -0.0625, 0.0625, -0.0625, -0.0625, -0.0625, 0.0625, -0.0625, 0.0625, -0.0625, 0.0625, -0.0625, 0.0625, -0.0625, -0.0625, -0.0625, 0.0625, -0.0625, 0.0625, -0.0625, 0.0625, 0.0625, -0.0625, 0.0625, 0.0625, 0.0625, -0.0625, 0.0625, 0.0625, -0.0625, -0.0625, 0.0625, 0.0625, 0.0625, 0.0625, 0.0625, -0.0625, -0.0625, 0.0625, 0.0625, 0.0625, -0.0625, -0.0625, -0.0625, -0.0625, -0.0625, -0.0625, -0.0625, -0.0625, -0.0625, -0.0625, 0.0625, -0.0625, -0.0625, -0.0625, -0.0625, 0.0625, 0.0625, 0.0625, 0.0625, 0.0625, 0.0625, 0.0625, 0.0625, 0.0625, 0.0625, -0.0625, -0.0625, 0.0625, -0.0625, 0.0625, -0.0625, 0.0625, -0.0625, 0.0625, -0.0625, 0.0625, 0.0625, -0.0625, 0.0625, -0.0625, 0.0625, 0.0625, -0.0625, -0.0625, -0.0625, 0.0625, -0.0625, -0.0625, -0.0625, 0.0625, -0.0625, -0.0625, 0.0625, 0.0625, 0.0625, -0.0625, -0.0625, -0.0625, 0.0625, -0.0625, 0.0625, -0.0625, 0.0625, 0.0625, 0.0625, -0.0625, 0.0625, 0.0625, -0.0625, 0.0625, 0.0625, 0.0625, -0.0625, 0.0625, -0.0625, -0.0625, 0.0625, 0.0625, -0.0625, -0.0625, 0.0625, 0.0625, 0.0625, -0.0625, 0.0625, 0.0625, 0.0625, -0.0625, -0.0625, 0.0625, -0.0625, -0.0625, 0.0625, 0.0625, -0.0625, -0.0625, 0.0625, 0.0625, 0.0625, -0.0625, 0.0625, 0.0625, 0.0625, 0.0625, 0.0625, 0.0625, -0.0625, 0.0625, 0.0625, -0.0625, -0.0625, -0.0625, -0.0625, -0.0625, 0.0625, 0.0625, 0.0625, 0.0625, -0.0625, -0.0625, 0.0625, 0.0625, -0.0625, -0.0625, 0.0625, -0.0625, 0.0625, 0.0625, -0.0625, -0.0625, -0.0625, 0.0625, 0.0625, -0.0625, 0.0625, -0.0625, 0.0625, 0.0625, -0.0625, 0.0625, 0.0625, -0.0625, 0.0625, -0.0625, 0.0625, -0.0625, 0.0625, -0.0625, 0.0625, -0.0625, 0.0625, -0.0625, -0.0625, 0.0625, 0.0625, 0.0625, -0.0625, -0.0625, -0.0625, -0.0625, 0.0625, -0.0625, 0.0625, 0.0625, 0.0625, 0.0625, 0.0625, 0.0625, 0.0625, 0.0625, 0.0625, 0.0625, -0.0625, -0.0625, 0.0625, 0.0625, 0.0625, 0.0625, 0.0625, 0.0625, 0.0625, -0.0625, 0.0625, -0.0625, 0.0625, -0.0625, -0.0625, 0.0625, 0.0625, 0.0625, 0.0625, 0.0625, 0.0625, -0.0625, -0.0625, 0.0625, -0.0625, -0.0625, -0.0625, 0.0625, 0.0625, -0.0625, 0.0625, 0.0625, -0.0625, -0.0625, -0.0625, 0.0625, -0.0625, 0.0625, 0.0625, -0.0625, -0.0625, 0.0625, 0.0625, 0.0625, -0.0625, 0.0625, -0.0625, 0.0625, -0.0625, -0.0625, -0.0625, 0.0625, -0.0625, -0.0625, 0.0625, -0.0625, 0.0625, 0.0625, -0.0625, -0.0625, -0.0625, -0.0625, -0.0625, -0.0625, -0.0625, -0.0625, 0.0625, -0.0625, 0.0625, -0.0625, 0.0625, 0.0625, -0.0625, 0.0625, -0.0625, -0.0625, 0.0625, 0.0625, -0.0625, -0.0625, 0.0625, -0.0625, 0.0625, 0.0625, 0.0625, 0.0625, 0.0625, -0.0625, 0.0625, 0.0625, 0.0625, 0.0625, -0.0625, 0.0625, -0.0625, -0.0625, 0.0625, -0.0625, -0.0625, 0.0625, 0.0625, 0.0625, -0.0625, -0.0625, -0.0625, 0.0625, 0.0625, 0.0625, -0.0625, 0.0625, 0.0625, 0.0625, 0.0625, -0.0625, -0.0625, 0.0625, 0.0625, 0.0625, -0.0625, -0.0625, -0.0625, -0.0625, -0.0625, -0.0625, 0.0625, -0.0625, -0.0625, 0.0625, 0.0625, 0.0625, -0.0625, -0.0625, 0.0625, 0.0625, 0.0625, -0.0625, -0.0625, -0.0625, 0.0625, 0.0625, -0.0625, -0.0625, 0.0625, 0.0625, 0.0625, 0.0625, 0.0625, 0.0625, 0.0625, -0.0625, 0.0625, -0.0625, -0.0625, 0.0625, 0.0625, -0.0625, 0.0625, -0.0625, 0.0625, 0.0625, -0.0625, -0.0625, -0.0625, -0.0625, 0.0625, -0.0625, -0.0625, -0.0625, -0.0625, -0.0625, 0.0625, -0.0625, 0.0625, -0.0625, 0.0625, -0.0625, -0.0625, 0.0625, -0.0625, 0.0625, -0.0625, -0.0625, -0.0625, -0.0625, 0.0625, -0.0625, -0.0625, 0.0625, -0.0625, -0.0625, -0.0625, 0.0625, 0.0625, -0.0625, -0.0625, 0.0625, -0.0625, 0.0625, 0.0625, -0.0625, 0.0625, 0.0625, 0.0625, -0.0625, -0.0625, -0.0625, 0.0625, 0.0625, -0.0625, -0.0625, 0.0625, 0.0625, 0.0625, -0.0625, 0.0625, 0.0625, 0.0625, -0.0625, 0.0625, -0.0625, -0.0625, -0.0625, 0.0625, -0.0625, -0.0625, 0.0625, -0.0625, -0.0625, -0.0625, 0.0625, -0.0625, -0.0625, -0.0625, 0.0625, -0.0625, 0.0625, -0.0625, 0.0625, 0.0625, -0.0625, -0.0625, 0.0625, 0.0625, -0.0625, -0.0625, 0.0625, 0.0625, 0.0625, -0.0625, -0.0625, -0.0625, -0.0625, 0.0625, 0.0625, -0.0625, 0.0625, -0.0625, 0.0625, 0.0625, 0.0625, -0.0625, -0.0625, 0.0625, -0.0625, -0.0625, 0.0625, 0.0625, -0.0625, -0.0625, -0.0625, 0.0625, 0.0625, -0.0625, 0.0625, 0.0625, 0.0625, -0.0625, -0.0625, 0.0625, 0.0625, -0.0625, -0.0625, 0.0625, 0.0625, 0.0625, 0.0625, 0.0625, 0.0625, -0.0625, 0.0625, -0.0625, 0.0625, 0.0625, -0.0625, -0.0625, -0.0625, -0.0625, -0.0625, 0.0625, -0.0625, 0.0625, -0.0625, -0.0625, 0.0625, 0.0625, 0.0625, 0.0625, -0.0625, 0.0625, -0.0625, 0.0625, 0.0625, -0.0625, -0.0625, 0.0625, 0.0625, 0.0625, 0.0625, -0.0625, 0.0625, 0.0625, -0.0625, -0.0625, -0.0625, -0.0625, -0.0625, -0.0625, 0.0625, -0.0625, -0.0625, -0.0625, -0.0625, -0.0625, 0.0625, 0.0625, 0.0625, -0.0625, -0.0625, 0.0625, 0.0625, 0.0625, -0.0625, 0.0625, 0.0625, -0.0625, -0.0625, -0.0625, 0.0625, -0.0625, -0.0625, -0.0625, 0.0625, 0.0625, 0.0625, -0.0625, 0.0625, 0.0625, 0.0625, -0.0625, -0.0625, -0.0625, -0.0625, -0.0625, 0.0625, 0.0625, -0.0625, -0.0625, 0.0625, -0.0625, 0.0625, 0.0625, -0.0625, -0.0625, 0.0625, -0.0625, -0.0625, -0.0625, -0.0625, -0.0625, -0.0625, 0.0625, -0.0625, 0.0625, 0.0625, 0.0625, -0.0625, 0.0625, 0.0625, 0.0625, -0.0625, -0.0625, 0.0625, 0.0625, 0.0625, -0.0625, 0.0625, 0.0625, 0.0625, -0.0625, -0.0625, -0.0625, 0.0625, 0.0625, 0.0625, 0.0625, -0.0625, -0.0625, -0.0625, -0.0625, -0.0625, 0.0625, -0.0625, -0.0625, 0.0625, 0.0625, -0.0625, 0.0625, 0.0625, -0.0625, -0.0625, -0.0625, 0.0625, -0.0625, -0.0625, -0.0625, -0.0625, 0.0625, 0.0625, -0.0625, -0.0625, 0.0625, 0.0625, -0.0625, 0.0625, -0.0625, -0.0625, -0.0625, -0.0625, -0.0625, -0.0625, 0.0625, -0.0625, -0.0625, 0.0625, -0.0625, 0.0625, -0.0625, -0.0625, 0.0625, -0.0625, -0.0625, 0.0625, -0.0625, 0.0625, 0.0625, -0.0625, 0.0625, -0.0625, -0.0625, -0.0625, 0.0625, -0.0625, 0.0625, -0.0625, -0.0625, -0.0625, 0.0625, 0.0625, -0.0625, 0.0625, -0.0625, 0.0625, 0.0625, -0.0625, -0.0625, -0.0625, 0.0625, 0.0625, -0.0625, 0.0625, 0.0625, 0.0625, -0.0625, -0.0625, 0.0625, -0.0625, 0.0625, 0.0625, -0.0625, -0.0625, -0.0625, -0.0625, 0.0625, 0.0625, 0.0625, -0.0625, -0.0625, -0.0625, 0.0625, 0.0625, -0.0625, -0.0625, 0.0625, -0.0625, -0.0625, -0.0625, 0.0625, 0.0625, 0.0625, 0.0625, 0.0625, -0.0625, -0.0625, 0.0625, 0.0625, -0.0625, 0.0625, -0.0625, 0.0625, 0.0625, -0.0625, -0.0625, 0.0625, -0.0625, 0.0625, -0.0625, 0.0625, -0.0625, -0.0625, -0.0625, 0.0625, -0.0625, 0.0625, -0.0625, 0.0625, 0.0625, -0.0625, -0.0625, 0.0625, 0.0625, 0.0625, -0.0625, 0.0625, 0.0625, 0.0625, 0.0625, 0.0625, 0.0625, -0.0625, -0.0625, -0.0625, -0.0625, -0.0625, 0.0625, 0.0625, 0.0625, 0.0625, 0.0625, 0.0625, 0.0625, 0.0625, -0.0625, -0.0625, -0.0625, 0.0625, -0.0625, 0.0625, 0.0625, -0.0625, -0.0625, 0.0625, 0.0625, -0.0625, -0.0625, 0.0625, 0.0625, -0.0625, -0.0625, 0.0625, -0.0625, 0.0625, -0.0625, 0.0625, 0.0625, -0.0625, 0.0625, -0.0625, -0.0625, -0.0625, 0.0625, -0.0625, -0.0625, 0.0625, 0.0625, 0.0625, -0.0625, -0.0625, -0.0625, -0.0625, -0.0625, 0.0625, 0.0625, 0.0625, 0.0625, -0.0625, -0.0625, 0.0625, -0.0625, 0.0625, 0.0625, 0.0625, -0.0625, 0.0625, -0.0625, -0.0625, 0.0625, 0.0625, -0.0625, 0.0625, -0.0625, 0.0625, 0.0625, -0.0625, -0.0625, 0.0625, 0.0625, 0.0625, -0.0625, 0.0625, -0.0625, 0.0625, 0.0625, 0.0625, -0.0625, -0.0625, -0.0625, -0.0625, 0.0625, 0.0625, -0.0625, 0.0625, 0.0625, 0.0625, 0.0625, -0.0625, 0.0625, -0.0625, 0.0625, -0.0625, 0.0625, -0.0625, 0.0625, -0.0625, -0.0625, 0.0625, -0.0625, -0.0625, 0.0625, -0.0625, -0.0625, -0.0625, 0.0625, -0.0625, -0.0625, 0.0625, -0.0625, 0.0625, -0.0625, 0.0625, -0.0625, -0.0625, -0.0625, -0.0625, -0.0625, 0.0625, -0.0625, -0.0625, -0.0625, -0.0625, 0.0625, 0.0625, -0.0625, 0.0625, -0.0625, 0.0625, -0.0625, -0.0625, -0.0625, 0.0625, 0.0625, 0.0625, -0.0625, 0.0625, 0.0625, -0.0625, -0.0625, -0.0625, -0.0625, 0.0625, 0.0625, 0.0625, 0.0625, -0.0625, -0.0625, -0.0625, -0.0625, -0.0625, -0.0625, -0.0625, -0.0625, -0.0625, -0.0625, -0.0625, 0.0625, -0.0625, 0.0625, 0.0625, -0.0625, -0.0625, -0.0625, 0.0625, 0.0625, -0.0625, 0.0625, 0.0625, -0.0625, -0.0625, 0.0625, 0.0625, 0.0625, -0.0625, -0.0625, 0.0625, 0.0625, 0.0625, 0.0625, 0.0625, 0.0625, 0.0625, 0.0625, -0.0625, -0.0625, 0.0625, 0.0625, -0.0625, -0.0625, -0.0625, 0.0625, -0.0625, 0.0625, 0.0625, 0.0625, 0.0625, 0.0625, 0.0625, 0.0625, 0.0625, -0.0625, 0.0625, 0.0625, -0.0625, -0.0625, -0.0625, 0.0625, -0.0625, 0.0625, -0.0625, -0.0625, -0.0625, 0.0625, 0.0625, 0.0625, -0.0625, -0.0625, 0.0625, 0.0625, 0.0625, 0.0625, -0.0625, -0.0625, -0.0625, -0.0625, 0.0625, -0.0625, -0.0625, 0.0625, 0.0625, 0.0625, -0.0625, 0.0625, 0.0625, 0.0625, 0.0625, -0.0625, -0.0625, -0.0625, -0.0625, 0.0625, -0.0625, 0.0625, -0.0625, 0.0625, -0.0625, 0.0625, -0.0625, -0.0625, 0.0625, -0.0625, 0.0625, 0.0625, 0.0625, 0.0625, 0.0625, 0.0625, -0.0625, -0.0625, 0.0625, 0.0625, -0.0625, -0.0625, -0.0625, -0.0625, -0.0625, -0.0625, 0.0625, 0.0625, 0.0625, 0.0625, -0.0625, 0.0625, -0.0625, 0.0625, 0.0625, -0.0625, 0.0625, -0.0625, -0.0625, -0.0625, -0.0625, 0.0625, 0.0625, 0.0625, -0.0625, -0.0625, 0.0625, 0.0625, 0.0625, -0.0625, -0.0625, 0.0625, -0.0625, 0.0625, -0.0625, 0.0625, 0.0625, -0.0625, -0.0625, -0.0625, 0.0625, -0.0625, -0.0625, -0.0625, 0.0625, -0.0625, 0.0625, 0.0625, -0.0625, -0.0625, 0.0625, 0.0625, 0.0625, -0.0625, -0.0625, 0.0625, 0.0625, -0.0625, 0.0625, -0.0625, -0.0625, -0.0625, 0.0625, -0.0625, -0.0625, -0.0625, 0.0625, -0.0625, 0.0625, -0.0625, 0.0625, 0.0625, 0.0625, -0.0625, 0.0625, -0.0625, -0.0625, -0.0625, 0.0625, 0.0625, 0.0625, -0.0625, 0.0625, -0.0625, 0.0625, -0.0625, -0.0625, 0.0625, -0.0625, 0.0625, -0.0625, -0.0625, -0.0625, 0.0625, -0.0625, 0.0625, -0.0625, -0.0625, 0.0625, -0.0625, -0.0625, -0.0625, 0.0625, 0.0625, 0.0625, 0.0625, -0.0625, -0.0625, 0.0625, -0.0625, 0.0625, -0.0625, -0.0625, -0.0625, -0.0625, -0.0625, 0.0625, -0.0625, 0.0625, 0.0625, -0.0625, 0.0625, -0.0625, -0.0625, 0.0625, -0.0625, 0.0625, 0.0625, 0.0625, -0.0625, 0.0625, -0.0625, 0.0625, 0.0625, -0.0625, -0.0625, 0.0625, -0.0625, 0.0625, 0.0625, 0.0625, 0.0625, 0.0625, 0.0625, -0.0625, -0.0625, -0.0625, 0.0625, 0.0625, 0.0625, -0.0625, -0.0625, -0.0625, -0.0625, -0.0625, 0.0625, 0.0625, -0.0625, -0.0625, -0.0625, -0.0625, -0.0625, -0.0625, -0.0625, 0.0625, 0.0625, -0.0625, 0.0625, 0.0625, -0.0625, -0.0625, -0.0625, -0.0625, -0.0625, -0.0625, -0.0625, 0.0625, -0.0625, -0.0625, -0.0625, -0.0625, 0.0625, -0.0625, -0.0625, -0.0625, 0.0625, 0.0625, 0.0625, -0.0625, 0.0625, 0.0625, -0.0625, -0.0625, -0.0625, 0.0625, 0.0625, 0.0625, 0.0625, 0.0625, 0.0625, 0.0625, 0.0625, -0.0625, 0.0625, -0.0625, -0.0625, -0.0625, -0.0625, 0.0625, 0.0625, -0.0625, -0.0625, -0.0625, 0.0625, -0.0625, -0.0625, -0.0625, -0.0625, 0.0625, -0.0625, 0.0625, -0.0625, -0.0625, 0.0625, 0.0625, 0.0625, -0.0625, -0.0625, 0.0625, 0.0625, -0.0625, 0.0625, -0.0625, 0.0625, 0.0625, -0.0625, -0.0625, 0.0625, 0.0625, -0.0625, 0.0625, 0.0625, 0.0625, 0.0625, -0.0625, -0.0625, -0.0625, -0.0625, 0.0625, 0.0625, -0.0625, 0.0625, 0.0625, -0.0625, -0.0625, 0.0625, -0.0625, -0.0625, -0.0625, -0.0625, 0.0625, 0.0625, 0.0625, 0.0625, 0.0625, 0.0625, -0.0625, -0.0625, 0.0625, -0.0625, -0.0625, -0.0625, 0.0625, 0.0625, 0.0625, -0.0625, 0.0625, -0.0625, -0.0625, -0.0625, 0.0625, -0.0625, -0.0625, 0.0625, -0.0625, -0.0625, -0.0625, -0.0625, 0.0625, -0.0625, 0.0625, -0.0625, 0.0625, 0.0625, 0.0625, -0.0625, -0.0625, -0.0625, -0.0625, 0.0625, 0.0625, -0.0625, 0.0625, 0.0625, -0.0625, 0.0625, 0.0625, 0.0625, 0.0625, -0.0625, 0.0625, 0.0625, -0.0625, 0.0625, -0.0625, -0.0625, 0.0625, 0.0625, 0.0625, -0.0625, -0.0625, 0.0625, -0.0625, -0.0625, -0.0625, 0.0625, 0.0625, 0.0625, -0.0625, -0.0625, -0.0625, 0.0625, 0.0625, -0.0625, -0.0625, -0.0625, -0.0625, -0.0625, 0.0625, 0.0625, 0.0625, -0.0625, -0.0625, -0.0625, -0.0625, -0.0625, 0.0625, -0.0625, 0.0625, 0.0625, -0.0625, -0.0625, 0.0625, -0.0625, 0.0625, 0.0625, 0.0625, -0.0625, -0.0625, 0.0625, 0.0625, -0.0625, -0.0625, 0.0625, 0.0625, -0.0625, -0.0625, -0.0625, -0.0625, -0.0625, 0.0625, 0.0625, 0.0625, -0.0625, -0.0625, -0.0625, -0.0625, 0.0625, -0.0625, -0.0625, -0.0625, 0.0625, -0.0625, 0.0625, 0.0625, -0.0625, -0.0625, 0.0625, 0.0625, -0.0625, -0.0625, -0.0625, 0.0625, -0.0625, 0.0625, -0.0625, -0.0625, 0.0625, -0.0625, 0.0625, 0.0625, 0.0625, -0.0625, 0.0625, -0.0625, -0.0625, -0.0625, 0.0625, 0.0625, -0.0625, -0.0625, 0.0625, -0.0625, 0.0625, 0.0625, 0.0625, -0.0625, 0.0625, -0.0625, 0.0625, -0.0625, 0.0625, -0.0625, -0.0625, -0.0625, 0.0625, -0.0625, 0.0625, 0.0625, 0.0625, 0.0625, 0.0625, 0.0625, 0.0625, 0.0625, -0.0625, 0.0625, -0.0625, -0.0625, -0.0625, 0.0625, 0.0625, 0.0625, 0.0625, -0.0625, -0.0625, 0.0625, 0.0625, 0.0625, -0.0625, 0.0625, -0.0625, 0.0625, 0.0625, -0.0625, 0.0625, -0.0625, 0.0625, 0.0625, -0.0625, -0.0625, 0.0625, -0.0625, 0.0625, -0.0625, 0.0625, 0.0625, -0.0625, -0.0625, 0.0625, -0.0625, 0.0625, 0.0625, 0.0625, -0.0625, 0.0625, 0.0625, -0.0625, -0.0625, 0.0625, -0.0625, -0.0625, 0.0625, -0.0625, -0.0625, 0.0625, 0.0625, 0.0625, -0.0625, -0.0625, -0.0625, -0.0625, 0.0625, -0.0625, -0.0625, -0.0625, -0.0625, 0.0625, 0.0625, -0.0625, -0.0625, -0.0625, -0.0625, -0.0625, 0.0625, -0.0625, 0.0625, -0.0625, -0.0625, 0.0625, -0.0625, 0.0625, -0.0625, -0.0625, -0.0625, 0.0625, 0.0625, 0.0625, -0.0625, -0.0625, 0.0625, 0.0625, 0.0625, -0.0625, 0.0625, -0.0625, 0.0625, 0.0625, -0.0625, -0.0625, -0.0625, -0.0625, -0.0625, 0.0625, 0.0625, -0.0625, 0.0625, 0.0625, 0.0625, -0.0625, 0.0625, -0.0625, 0.0625, -0.0625, -0.0625, -0.0625, 0.0625, -0.0625, -0.0625, 0.0625, -0.0625, 0.0625, 0.0625, -0.0625, -0.0625, 0.0625, -0.0625, -0.0625, 0.0625, -0.0625, -0.0625, -0.0625, -0.0625, -0.0625, 0.0625, 0.0625, 0.0625, 0.0625, -0.0625, 0.0625, -0.0625, 0.0625, 0.0625, 0.0625, 0.0625, 0.0625, 0.0625, -0.0625, 0.0625, -0.0625, -0.0625, -0.0625, 0.0625, 0.0625, -0.0625, -0.0625, -0.0625, 0.0625, -0.0625, -0.0625, -0.0625, -0.0625, -0.0625, -0.0625, 0.0625, -0.0625, 0.0625, 0.0625, 0.0625, 0.0625, 0.0625, -0.0625, -0.0625, 0.0625, 0.0625, -0.0625, 0.0625, -0.0625, 0.0625, 0.0625, 0.0625, 0.0625, 0.0625, 0.0625, 0.0625, -0.0625, 0.0625, -0.0625, -0.0625, 0.0625, -0.0625, 0.0625, -0.0625, -0.0625, -0.0625, -0.0625, -0.0625, 0.0625, 0.0625, 0.0625, -0.0625, -0.0625, 0.0625, -0.0625, 0.0625, 0.0625, -0.0625, -0.0625, -0.0625, -0.0625, -0.0625, -0.0625, 0.0625, -0.0625, 0.0625, 0.0625, 0.0625, 0.0625, 0.0625, 0.0625, 0.0625, -0.0625, -0.0625, -0.0625, 0.0625, 0.0625, -0.0625, 0.0625, -0.0625, -0.0625, -0.0625, -0.0625, -0.0625, -0.0625, 0.0625, 0.0625, -0.0625, 0.0625, -0.0625, -0.0625, 0.0625, -0.0625, 0.0625, -0.0625, 0.0625, 0.0625, -0.0625, -0.0625, -0.0625, 0.0625, 0.0625, -0.0625, -0.0625, -0.0625, -0.0625, -0.0625, -0.0625, -0.0625, 0.0625, 0.0625, 0.0625, -0.0625, -0.0625, 0.0625, -0.0625, 0.0625, -0.0625, 0.0625, 0.0625, 0.0625, 0.0625, 0.0625, 0.0625, 0.0625, 0.0625, 0.0625, 0.0625, 0.0625, 0.0625, -0.0625, -0.0625, 0.0625, -0.0625, 0.0625, -0.0625, -0.0625, -0.0625, 0.0625, 0.0625, -0.0625, -0.0625, 0.0625, 0.0625, 0.0625, -0.0625, -0.0625, -0.0625, 0.0625, -0.0625, 0.0625, -0.0625, -0.0625, 0.0625, -0.0625, 0.0625, -0.0625, -0.0625, 0.0625, 0.0625, -0.0625, 0.0625, -0.0625, -0.0625, 0.0625, 0.0625, 0.0625, 0.0625, -0.0625, 0.0625, 0.0625, 0.0625, -0.0625, 0.0625, -0.0625, -0.0625, 0.0625, -0.0625, -0.0625, 0.0625, -0.0625, 0.0625, -0.0625, 0.0625, 0.0625, 0.0625, 0.0625, -0.0625, 0.0625, 0.0625, 0.0625, 0.0625, -0.0625, 0.0625, -0.0625, -0.0625, -0.0625, 0.0625, -0.0625, 0.0625, 0.0625, 0.0625, 0.0625, -0.0625, 0.0625, -0.0625, 0.0625, 0.0625, 0.0625, -0.0625, -0.0625, -0.0625, -0.0625, -0.0625, -0.0625, 0.0625, -0.0625, -0.0625, 0.0625, -0.0625, -0.0625, -0.0625, 0.0625, -0.0625, -0.0625, -0.0625, 0.0625, 0.0625, 0.0625, -0.0625, -0.0625, 0.0625, 0.0625, -0.0625, -0.0625, 0.0625, 0.0625, -0.0625, 0.0625, -0.0625, -0.0625, 0.0625, -0.0625, -0.0625, -0.0625, 0.0625, -0.0625, 0.0625, -0.0625, -0.0625, 0.0625, 0.0625, 0.0625, 0.0625, -0.0625, 0.0625, -0.0625, -0.0625, 0.0625, -0.0625, -0.0625, 0.0625, -0.0625, -0.0625, 0.0625, 0.0625, -0.0625, -0.0625, 0.0625, -0.0625, -0.0625, -0.0625, -0.0625, -0.0625, -0.0625, 0.0625, -0.0625, -0.0625, 0.0625, -0.0625, -0.0625, 0.0625, 0.0625, 0.0625, 0.0625, 0.0625, 0.0625, -0.0625, 0.0625, 0.0625, -0.0625, 0.0625, 0.0625, -0.0625, -0.0625, 0.0625, 0.0625, -0.0625, 0.0625, 0.0625, 0.0625, 0.0625, 0.0625, -0.0625, -0.0625, 0.0625, 0.0625, -0.0625, 0.0625, -0.0625, 0.0625, 0.0625, -0.0625, 0.0625, 0.0625, -0.0625, -0.0625, -0.0625, -0.0625, 0.0625, 0.0625, 0.0625, 0.0625, -0.0625, 0.0625, -0.0625, 0.0625, -0.0625, 0.0625, -0.0625, 0.0625, -0.0625, 0.0625, -0.0625, 0.0625, -0.0625, -0.0625, -0.0625, 0.0625, -0.0625, 0.0625, -0.0625, 0.0625, -0.0625, -0.0625, -0.0625, 0.0625, 0.0625, 0.0625, -0.0625, -0.0625, 0.0625, -0.0625, 0.0625, -0.0625, -0.0625, 0.0625, 0.0625, 0.0625, 0.0625, -0.0625, 0.0625, 0.0625, 0.0625, 0.0625, 0.0625, -0.0625, 0.0625, 0.0625, -0.0625, 0.0625, -0.0625, -0.0625, 0.0625, -0.0625, -0.0625, -0.0625, 0.0625, -0.0625, -0.0625, -0.0625, 0.0625, -0.0625, 0.0625, 0.0625, 0.0625, 0.0625, -0.0625, 0.0625, -0.0625, -0.0625, -0.0625, -0.0625, 0.0625, -0.0625, 0.0625, 0.0625, -0.0625, 0.0625, 0.0625, -0.0625, -0.0625, -0.0625, -0.0625, -0.0625, 0.0625, 0.0625, 0.0625, -0.0625, 0.0625, -0.0625, 0.0625, 0.0625, -0.0625, -0.0625, 0.0625, 0.0625, -0.0625, 0.0625, 0.0625, 0.0625, 0.0625, 0.0625, 0.0625, -0.0625, 0.0625, 0.0625, 0.0625, -0.0625, 0.0625, 0.0625, -0.0625, -0.0625, -0.0625, 0.0625, 0.0625, 0.0625, -0.0625, 0.0625, 0.0625, 0.0625, 0.0625, 0.0625, -0.0625, 0.0625, 0.0625, 0.0625, -0.0625, 0.0625, -0.0625, -0.0625, -0.0625, 0.0625, -0.0625, 0.0625, -0.0625, -0.0625, -0.0625, -0.0625, 0.0625, 0.0625, -0.0625, -0.0625, 0.0625, -0.0625, 0.0625, 0.0625, 0.0625, -0.0625, -0.0625, 0.0625, -0.0625, -0.0625, -0.0625, 0.0625, -0.0625, -0.0625, -0.0625, 0.0625, 0.0625, -0.0625, 0.0625, 0.0625, 0.0625, 0.0625, 0.0625, -0.0625, -0.0625, -0.0625, -0.0625, -0.0625, -0.0625, -0.0625, -0.0625, 0.0625, -0.0625, -0.0625, 0.0625, -0.0625, 0.0625, -0.0625, 0.0625, 0.0625, -0.0625, -0.0625, 0.0625, 0.0625, -0.0625, 0.0625, 0.0625, 0.0625, 0.0625, 0.0625, -0.0625, 0.0625, 0.0625, -0.0625, 0.0625, -0.0625, 0.0625, 0.0625, 0.0625, 0.0625, 0.0625, -0.0625, -0.0625, 0.0625, -0.0625, 0.0625, 0.0625, 0.0625, -0.0625, -0.0625, 0.0625, -0.0625, -0.0625, 0.0625, -0.0625, -0.0625, -0.0625, -0.0625, -0.0625, -0.0625, 0.0625, -0.0625, 0.0625, 0.0625, 0.0625, -0.0625, 0.0625, 0.0625, 0.0625, -0.0625, 0.0625, 0.0625, 0.0625, -0.0625, -0.0625, -0.0625, -0.0625, -0.0625, -0.0625, -0.0625, -0.0625, 0.0625, 0.0625, 0.0625, 0.0625, 0.0625, -0.0625, 0.0625, -0.0625, -0.0625, -0.0625, -0.0625, 0.0625, 0.0625, -0.0625, -0.0625, -0.0625, 0.0625, -0.0625, -0.0625, -0.0625, -0.0625, 0.0625, -0.0625, -0.0625, -0.0625, 0.0625, 0.0625, -0.0625, -0.0625, -0.0625, -0.0625, 0.0625, 0.0625, -0.0625, 0.0625, -0.0625, 0.0625, -0.0625, -0.0625, 0.0625, -0.0625, 0.0625, 0.0625, -0.0625, 0.0625, 0.0625, -0.0625, 0.0625, 0.0625, 0.0625, 0.0625, 0.0625, 0.0625, -0.0625, -0.0625, 0.0625, -0.0625, -0.0625, -0.0625, -0.0625, 0.0625, 0.0625, -0.0625, -0.0625, 0.0625, 0.0625, 0.0625, -0.0625, 0.0625, -0.0625, 0.0625, 0.0625, -0.0625, -0.0625, 0.0625, -0.0625, 0.0625, 0.0625, 0.0625, -0.0625, 0.0625, -0.0625, -0.0625, 0.0625, -0.0625, 0.0625, -0.0625, 0.0625, 0.0625, -0.0625, 0.0625, 0.0625, 0.0625, 0.0625, -0.0625, -0.0625, -0.0625, 0.0625, -0.0625, -0.0625, -0.0625, 0.0625, -0.0625, -0.0625, 0.0625, -0.0625, 0.0625, 0.0625, -0.0625, 0.0625, -0.0625, -0.0625, 0.0625, 0.0625, -0.0625, 0.0625, -0.0625, 0.0625, 0.0625, -0.0625, -0.0625, -0.0625, -0.0625, 0.0625, -0.0625, -0.0625, -0.0625, -0.0625, -0.0625, -0.0625, -0.0625, 0.0625, -0.0625, -0.0625, -0.0625, -0.0625, 0.0625, -0.0625, 0.0625, -0.0625, -0.0625, 0.0625, -0.0625, -0.0625, -0.0625, -0.0625, 0.0625, 0.0625, 0.0625, -0.0625, -0.0625, 0.0625, 0.0625, -0.0625, 0.0625, -0.0625, -0.0625, -0.0625, -0.0625, -0.0625, -0.0625, 0.0625, 0.0625, 0.0625, -0.0625, -0.0625, 0.0625, 0.0625, 0.0625, 0.0625, -0.0625, -0.0625, -0.0625, -0.0625, 0.0625, -0.0625, 0.0625, -0.0625, -0.0625, -0.0625, 0.0625, -0.0625, -0.0625, 0.0625, 0.0625, -0.0625, 0.0625, 0.0625, -0.0625, 0.0625, -0.0625, 0.0625, 0.0625, -0.0625, 0.0625, -0.0625, -0.0625, 0.0625, -0.0625, -0.0625, 0.0625, 0.0625, 0.0625, -0.0625, 0.0625, -0.0625, -0.0625, 0.0625, 0.0625, 0.0625, -0.0625, -0.0625, 0.0625, 0.0625, 0.0625, 0.0625, -0.0625, 0.0625, 0.0625, -0.0625, 0.0625, -0.0625, -0.0625, -0.0625, -0.0625, -0.0625, 0.0625, 0.0625, -0.0625, 0.0625, 0.0625, -0.0625, -0.0625, 0.0625, -0.0625, 0.0625, -0.0625, 0.0625, -0.0625, 0.0625, 0.0625, -0.0625, 0.0625, 0.0625, -0.0625, 0.0625, -0.0625, 0.0625, 0.0625, -0.0625, 0.0625, -0.0625, -0.0625, -0.0625, -0.0625, -0.0625, 0.0625, 0.0625, 0.0625, -0.0625, -0.0625, -0.0625, -0.0625, -0.0625, -0.0625, -0.0625, 0.0625, -0.0625, 0.0625, 0.0625, -0.0625, 0.0625, 0.0625, -0.0625, 0.0625, 0.0625, -0.0625, 0.0625, 0.0625, -0.0625, 0.0625, 0.0625, 0.0625, 0.0625, 0.0625, 0.0625, -0.0625, 0.0625, -0.0625, 0.0625, -0.0625, -0.0625, -0.0625, -0.0625, 0.0625, 0.0625, -0.0625, -0.0625, -0.0625, -0.0625, -0.0625, -0.0625, -0.0625, 0.0625, 0.0625, 0.0625, 0.0625, -0.0625, 0.0625, 0.0625, -0.0625, 0.0625, -0.0625, 0.0625, -0.0625, -0.0625, 0.0625, 0.0625, 0.0625, -0.0625, 0.0625, -0.0625, 0.0625, -0.0625, 0.0625, 0.0625, 0.0625, -0.0625, 0.0625, 0.0625, 0.0625, -0.0625, 0.0625, 0.0625, 0.0625, 0.0625, 0.0625, -0.0625, -0.0625, -0.0625, 0.0625, 0.0625, 0.0625, -0.0625, -0.0625, 0.0625, 0.0625, -0.0625, -0.0625, 0.0625, -0.0625, -0.0625, -0.0625, 0.0625, -0.0625, 0.0625, -0.0625, 0.0625, -0.0625, 0.0625, 0.0625, -0.0625, 0.0625, 0.0625, 0.0625, -0.0625, -0.0625, -0.0625, 0.0625, -0.0625, -0.0625, 0.0625, 0.0625, -0.0625, -0.0625, 0.0625, -0.0625, 0.0625, -0.0625, -0.0625, -0.0625, -0.0625, 0.0625, 0.0625, 0.0625, 0.0625, 0.0625, -0.0625, -0.0625, 0.0625, -0.0625, -0.0625, -0.0625, 0.0625, 0.0625, 0.0625, 0.0625, -0.0625, -0.0625, 0.0625, -0.0625, 0.0625, -0.0625, -0.0625, -0.0625, -0.0625, 0.0625, -0.0625, 0.0625, -0.0625, 0.0625, -0.0625, 0.0625, 0.0625, -0.0625, -0.0625, 0.0625, 0.0625, 0.0625, 0.0625, 0.0625, 0.0625, 0.0625, -0.0625, 0.0625, -0.0625, -0.0625, -0.0625, -0.0625, -0.0625, -0.0625, 0.0625, 0.0625, 0.0625, -0.0625, 0.0625, -0.0625, -0.0625, -0.0625, -0.0625, -0.0625, -0.0625, 0.0625, 0.0625, -0.0625, -0.0625, 0.0625, -0.0625, 0.0625, 0.0625, -0.0625, 0.0625, 0.0625, -0.0625, 0.0625, 0.0625, -0.0625, -0.0625, -0.0625, 0.0625, -0.0625, -0.0625, 0.0625, 0.0625, -0.0625, 0.0625, -0.0625, 0.0625, -0.0625, -0.0625, 0.0625, 0.0625, -0.0625, -0.0625, 0.0625, 0.0625, 0.0625, 0.0625, -0.0625, -0.0625, 0.0625, 0.0625, 0.0625, -0.0625, -0.0625, -0.0625, -0.0625, -0.0625, -0.0625, -0.0625, 0.0625, -0.0625, -0.0625, -0.0625, 0.0625, 0.0625, -0.0625, 0.0625, 0.0625, 0.0625, 0.0625, -0.0625, 0.0625, -0.0625, -0.0625, -0.0625, 0.0625, 0.0625, 0.0625, -0.0625, -0.0625, -0.0625, -0.0625, -0.0625, 0.0625, 0.0625, 0.0625, 0.0625, -0.0625, 0.0625, -0.0625, -0.0625, -0.0625, -0.0625, -0.0625, -0.0625, 0.0625, -0.0625, -0.0625, -0.0625, -0.0625, -0.0625, -0.0625, -0.0625, 0.0625, -0.0625, 0.0625, 0.0625, 0.0625, 0.0625, 0.0625, 0.0625, -0.0625, 0.0625, -0.0625, -0.0625, 0.0625, 0.0625, 0.0625, 0.0625, -0.0625, -0.0625, -0.0625, 0.0625, -0.0625, -0.0625, 0.0625, -0.0625, -0.0625, 0.0625, -0.0625, 0.0625, 0.0625, -0.0625, -0.0625, -0.0625, -0.0625, -0.0625, -0.0625, 0.0625, 0.0625, 0.0625, -0.0625, -0.0625, -0.0625, 0.0625, 0.0625, 0.0625, -0.0625, 0.0625, 0.0625, -0.0625, -0.0625, 0.0625, 0.0625, -0.0625, -0.0625, 0.0625, 0.0625, -0.0625, -0.0625, 0.0625, 0.0625, 0.0625, 0.0625, -0.0625, 0.0625, -0.0625, -0.0625, -0.0625, 0.0625, 0.0625, 0.0625, -0.0625, 0.0625, 0.0625, -0.0625, 0.0625, -0.0625, -0.0625, -0.0625, 0.0625, 0.0625, 0.0625, -0.0625, 0.0625, 0.0625, -0.0625, -0.0625, 0.0625, 0.0625, 0.0625, -0.0625, -0.0625, -0.0625, 0.0625, -0.0625, -0.0625, -0.0625, 0.0625, -0.0625, -0.0625, 0.0625, -0.0625, -0.0625, -0.0625, 0.0625, -0.0625, -0.0625, -0.0625, -0.0625, -0.0625, 0.0625, -0.0625, -0.0625, 0.0625, -0.0625, 0.0625, -0.0625, 0.0625, -0.0625, 0.0625, 0.0625, -0.0625, -0.0625, -0.0625, -0.0625, -0.0625, -0.0625, 0.0625, 0.0625, 0.0625, -0.0625, -0.0625, -0.0625, 0.0625, 0.0625, -0.0625, 0.0625, -0.0625, 0.0625, -0.0625, -0.0625, -0.0625, 0.0625, -0.0625, -0.0625, -0.0625, -0.0625, 0.0625, 0.0625, -0.0625, -0.0625, 0.0625, -0.0625, -0.0625, -0.0625, 0.0625, -0.0625, -0.0625, 0.0625, 0.0625, -0.0625, 0.0625, -0.0625, -0.0625, -0.0625, 0.0625, 0.0625, -0.0625, -0.0625, 0.0625, -0.0625, -0.0625, -0.0625, -0.0625, 0.0625, 0.0625, 0.0625, 0.0625, -0.0625, -0.0625, 0.0625, -0.0625, -0.0625, 0.0625, -0.0625, 0.0625, 0.0625, -0.0625, -0.0625, -0.0625, -0.0625, -0.0625, -0.0625, 0.0625, 0.0625, -0.0625, 0.0625, 0.0625, -0.0625, -0.0625, -0.0625, -0.0625, 0.0625, 0.0625, -0.0625, 0.0625, 0.0625, -0.0625, -0.0625, -0.0625, 0.0625, -0.0625, -0.0625, -0.0625, -0.0625, 0.0625, 0.0625, -0.0625, -0.0625, -0.0625, -0.0625, 0.0625, -0.0625, 0.0625, 0.0625, 0.0625, -0.0625, -0.0625, -0.0625, -0.0625, 0.0625, 0.0625, -0.0625, -0.0625, -0.0625, -0.0625, 0.0625, -0.0625, -0.0625, 0.0625, -0.0625, 0.0625, 0.0625, -0.0625, 0.0625, -0.0625, 0.0625, -0.0625, 0.0625, -0.0625, -0.0625, 0.0625, -0.0625, -0.0625, 0.0625, 0.0625, 0.0625, 0.0625, -0.0625, -0.0625, 0.0625, 0.0625, -0.0625, -0.0625, -0.0625, -0.0625, -0.0625, 0.0625, 0.0625, 0.0625, -0.0625, -0.0625, -0.0625, 0.0625, -0.0625, -0.0625, -0.0625, 0.0625, 0.0625, 0.0625, -0.0625, -0.0625, -0.0625, -0.0625, 0.0625, -0.0625, -0.0625, 0.0625, 0.0625, -0.0625, -0.0625, -0.0625, 0.0625, 0.0625, -0.0625, 0.0625, 0.0625, -0.0625, -0.0625, 0.0625, -0.0625, 0.0625, 0.0625, -0.0625, 0.0625, -0.0625, -0.0625, -0.0625, 0.0625, -0.0625, -0.0625, -0.0625, 0.0625, 0.0625, -0.0625, 0.0625, -0.0625, 0.0625, -0.0625, 0.0625, 0.0625, -0.0625, -0.0625, 0.0625, 0.0625, -0.0625, 0.0625, -0.0625, -0.0625, 0.0625, 0.0625, 0.0625, 0.0625, 0.0625, -0.0625, -0.0625, 0.0625, 0.0625, -0.0625, -0.0625, -0.0625, 0.0625, 0.0625, -0.0625, -0.0625, -0.0625, 0.0625, 0.0625, -0.0625, 0.0625, -0.0625, 0.0625, -0.0625, 0.0625, -0.0625, 0.0625, -0.0625, 0.0625, -0.0625, 0.0625, 0.0625, -0.0625, -0.0625, -0.0625, -0.0625, 0.0625, -0.0625, -0.0625, 0.0625, 0.0625, 0.0625, -0.0625, 0.0625, 0.0625, 0.0625, -0.0625, 0.0625, -0.0625, 0.0625, 0.0625, 0.0625, -0.0625, 0.0625, -0.0625, -0.0625, 0.0625, -0.0625, 0.0625, 0.0625, 0.0625, 0.0625, 0.0625, 0.0625, 0.0625, -0.0625, 0.0625, -0.0625, 0.0625, 0.0625, 0.0625, -0.0625, -0.0625, 0.0625, 0.0625, -0.0625, 0.0625, 0.0625, -0.0625, -0.0625, 0.0625, -0.0625, 0.0625, -0.0625, -0.0625, 0.0625, 0.0625, 0.0625, 0.0625, 0.0625, -0.0625, -0.0625, -0.0625, -0.0625, 0.0625, -0.0625, 0.0625, 0.0625, -0.0625, 0.0625, 0.0625, 0.0625, -0.0625, -0.0625, -0.0625, 0.0625, -0.0625, 0.0625, -0.0625, 0.0625, -0.0625, -0.0625, -0.0625, -0.0625, 0.0625, -0.0625, 0.0625, 0.0625, 0.0625, 0.0625, 0.0625, -0.0625, 0.0625, -0.0625, 0.0625, 0.0625, -0.0625, -0.0625, -0.0625, 0.0625, 0.0625, -0.0625, -0.0625, -0.0625, -0.0625, -0.0625, -0.0625, -0.0625, 0.0625, 0.0625, 0.0625, -0.0625, -0.0625, 0.0625, -0.0625, 0.0625, 0.0625, 0.0625, 0.0625, -0.0625, 0.0625, 0.0625, -0.0625, 0.0625, 0.0625, -0.0625, -0.0625, -0.0625, -0.0625, 0.0625, 0.0625, 0.0625, -0.0625, -0.0625, -0.0625, -0.0625, 0.0625, -0.0625, -0.0625, 0.0625, -0.0625, 0.0625, -0.0625, 0.0625, 0.0625, 0.0625, 0.0625, 0.0625, 0.0625, 0.0625, 0.0625, -0.0625, 0.0625, -0.0625, 0.0625, -0.0625, 0.0625, -0.0625, 0.0625, 0.0625, 0.0625, -0.0625, 0.0625, 0.0625, -0.0625, 0.0625, 0.0625, 0.0625, -0.0625, -0.0625, 0.0625, -0.0625, -0.0625, -0.0625, -0.0625, -0.0625, 0.0625, 0.0625, 0.0625, 0.0625, 0.0625, -0.0625, -0.0625, -0.0625, 0.0625, -0.0625, -0.0625, 0.0625, -0.0625, 0.0625, -0.0625, -0.0625, -0.0625, 0.0625, 0.0625, 0.0625, -0.0625, 0.0625, 0.0625, 0.0625, -0.0625, -0.0625, 0.0625, -0.0625, 0.0625, -0.0625, 0.0625, 0.0625, -0.0625, 0.0625, 0.0625, 0.0625, -0.0625, 0.0625, -0.0625, -0.0625, -0.0625, 0.0625, 0.0625, -0.0625, 0.0625, -0.0625, -0.0625, 0.0625, -0.0625, -0.0625, -0.0625, 0.0625, -0.0625, -0.0625, -0.0625, -0.0625, 0.0625, -0.0625, 0.0625, 0.0625, 0.0625, -0.0625, 0.0625, -0.0625, -0.0625, -0.0625, 0.0625, -0.0625, -0.0625, 0.0625, 0.0625, -0.0625, -0.0625, -0.0625, -0.0625, 0.0625, 0.0625, 0.0625, -0.0625, -0.0625, 0.0625, -0.0625, -0.0625, -0.0625, 0.0625, -0.0625, 0.0625, -0.0625, -0.0625, 0.0625, -0.0625, -0.0625, -0.0625, -0.0625, -0.0625, 0.0625, 0.0625, 0.0625, -0.0625, -0.0625, 0.0625, 0.0625, 0.0625, -0.0625, -0.0625, 0.0625, 0.0625, 0.0625, 0.0625, -0.0625, -0.0625, -0.0625, -0.0625, -0.0625, -0.0625, 0.0625, 0.0625, -0.0625, 0.0625, 0.0625, -0.0625, 0.0625, -0.0625, 0.0625, 0.0625, -0.0625, 0.0625, -0.0625, -0.0625, -0.0625, 0.0625, -0.0625, 0.0625, 0.0625, 0.0625, -0.0625, 0.0625, -0.0625, 0.0625, -0.0625, -0.0625, 0.0625, -0.0625, -0.0625, -0.0625, -0.0625, 0.0625, -0.0625, 0.0625, 0.0625, -0.0625, -0.0625, 0.0625, 0.0625, 0.0625, -0.0625, -0.0625, 0.0625, 0.0625, 0.0625, -0.0625, -0.0625, 0.0625, 0.0625, -0.0625, -0.0625, 0.0625, -0.0625, -0.0625, 0.0625, -0.0625, 0.0625, 0.0625, 0.0625, 0.0625, 0.0625, -0.0625, 0.0625, -0.0625, -0.0625, 0.0625, -0.0625, -0.0625, 0.0625, 0.0625, 0.0625, 0.0625, -0.0625, 0.0625, 0.0625, -0.0625, 0.0625, 0.0625, 0.0625, 0.0625, 0.0625, -0.0625, 0.0625, 0.0625, -0.0625, -0.0625, -0.0625, -0.0625, 0.0625, 0.0625, 0.0625, 0.0625, 0.0625, 0.0625, -0.0625, 0.0625, 0.0625, -0.0625, 0.0625, -0.0625, -0.0625, 0.0625, -0.0625, -0.0625, 0.0625, 0.0625, -0.0625, -0.0625, 0.0625, -0.0625, 0.0625, 0.0625, -0.0625, -0.0625, -0.0625, 0.0625, -0.0625, -0.0625, -0.0625, 0.0625, 0.0625, -0.0625, -0.0625, -0.0625, -0.0625, 0.0625, 0.0625, 0.0625, -0.0625, -0.0625, 0.0625, -0.0625, 0.0625, 0.0625, -0.0625, -0.0625, 0.0625, 0.0625, -0.0625, -0.0625, -0.0625, 0.0625, -0.0625, 0.0625, 0.0625, -0.0625, 0.0625, 0.0625, -0.0625, -0.0625, 0.0625, 0.0625, -0.0625, 0.0625, 0.0625, -0.0625, -0.0625, -0.0625, 0.0625, -0.0625, 0.0625, -0.0625, -0.0625, 0.0625, 0.0625, -0.0625, -0.0625, 0.0625, 0.0625, 0.0625, 0.0625, -0.0625, -0.0625, -0.0625, 0.0625, 0.0625, -0.0625, 0.0625, 0.0625, -0.0625, 0.0625, -0.0625, -0.0625, 0.0625, -0.0625, 0.0625, 0.0625, -0.0625, 0.0625, 0.0625, 0.0625, -0.0625, -0.0625, 0.0625, -0.0625, -0.0625, 0.0625, -0.0625, -0.0625, -0.0625, -0.0625, 0.0625, -0.0625, 0.0625, 0.0625, 0.0625, 0.0625, 0.0625, 0.0625, 0.0625, -0.0625, -0.0625, -0.0625, -0.0625, 0.0625, -0.0625, 0.0625, 0.0625, -0.0625, -0.0625, -0.0625, 0.0625, -0.0625, 0.0625, -0.0625, -0.0625, -0.0625, -0.0625, 0.0625, 0.0625, -0.0625, 0.0625, -0.0625, -0.0625, -0.0625, 0.0625, 0.0625, -0.0625, -0.0625, 0.0625, -0.0625, -0.0625, 0.0625, 0.0625, 0.0625, 0.0625, 0.0625, -0.0625, -0.0625, -0.0625, 0.0625, 0.0625, -0.0625, -0.0625, -0.0625, -0.0625, 0.0625, -0.0625, -0.0625, -0.0625, -0.0625, -0.0625, -0.0625, 0.0625, -0.0625, 0.0625, -0.0625, 0.0625, -0.0625, 0.0625, -0.0625, 0.0625, -0.0625, 0.0625, -0.0625, -0.0625, 0.0625, 0.0625, 0.0625, -0.0625, -0.0625, 0.0625, 0.0625, -0.0625, 0.0625, -0.0625, -0.0625, 0.0625, -0.0625, -0.0625, 0.0625, 0.0625, -0.0625, -0.0625, -0.0625, -0.0625, -0.0625, -0.0625, -0.0625, -0.0625, 0.0625, -0.0625, -0.0625, 0.0625, 0.0625, 0.0625, 0.0625, 0.0625, 0.0625, 0.0625, 0.0625, -0.0625, -0.0625, -0.0625, 0.0625, -0.0625, -0.0625, 0.0625, 0.0625, -0.0625, 0.0625, 0.0625, -0.0625, 0.0625, -0.0625, 0.0625, -0.0625, 0.0625, 0.0625, -0.0625, -0.0625, 0.0625, 0.0625, -0.0625, -0.0625, -0.0625, 0.0625, 0.0625, 0.0625, -0.0625, -0.0625, 0.0625, 0.0625, 0.0625, -0.0625, -0.0625, -0.0625, -0.0625, 0.0625, 0.0625, -0.0625, 0.0625, 0.0625, 0.0625, 0.0625, 0.0625, 0.0625, -0.0625, -0.0625, -0.0625, -0.0625, 0.0625, 0.0625, -0.0625, 0.0625, -0.0625, 0.0625, -0.0625, -0.0625, -0.0625, 0.0625, 0.0625, 0.0625, 0.0625, -0.0625, -0.0625, 0.0625, 0.0625, -0.0625, -0.0625, -0.0625, -0.0625, -0.0625, 0.0625, 0.0625, 0.0625, 0.0625, 0.0625, 0.0625, -0.0625, 0.0625, -0.0625, 0.0625, -0.0625, -0.0625, 0.0625, 0.0625, 0.0625, 0.0625, 0.0625, -0.0625, -0.0625, 0.0625, -0.0625, -0.0625, 0.0625, 0.0625, -0.0625, 0.0625, -0.0625, 0.0625, 0.0625, -0.0625, 0.0625, -0.0625, 0.0625, -0.0625, -0.0625, 0.0625, -0.0625, 0.0625, -0.0625, -0.0625, -0.0625, 0.0625, -0.0625, -0.0625, -0.0625, -0.0625, 0.0625, -0.0625, 0.0625, 0.0625, 0.0625, 0.0625, -0.0625, -0.0625, -0.0625, -0.0625, -0.0625, -0.0625, 0.0625, -0.0625, -0.0625, 0.0625, 0.0625, 0.0625, 0.0625, 0.0625, -0.0625, 0.0625, 0.0625, -0.0625, -0.0625, 0.0625, 0.0625, -0.0625, 0.0625, -0.0625, 0.0625, -0.0625, -0.0625, 0.0625, 0.0625, 0.0625, 0.0625, -0.0625, 0.0625, 0.0625, -0.0625, -0.0625, -0.0625, -0.0625, 0.0625, 0.0625, -0.0625, -0.0625, 0.0625, 0.0625, -0.0625, -0.0625, 0.0625, 0.0625, -0.0625, -0.0625, 0.0625, 0.0625, -0.0625, -0.0625, -0.0625, -0.0625, 0.0625, 0.0625, -0.0625, 0.0625, -0.0625, -0.0625, 0.0625, 0.0625, -0.0625, -0.0625, -0.0625, 0.0625, 0.0625, 0.0625, 0.0625, -0.0625, 0.0625, -0.0625, 0.0625, 0.0625, 0.0625, 0.0625, -0.0625, -0.0625, 0.0625, 0.0625, -0.0625, 0.0625, -0.0625, -0.0625, 0.0625, 0.0625, -0.0625, 0.0625, -0.0625, 0.0625, 0.0625, -0.0625, -0.0625, 0.0625, -0.0625, 0.0625, -0.0625, -0.0625, -0.0625, 0.0625, -0.0625, 0.0625, -0.0625, 0.0625, -0.0625, 0.0625, 0.0625, 0.0625, 0.0625, 0.0625, 0.0625, 0.0625, -0.0625, -0.0625, 0.0625, -0.0625, 0.0625, 0.0625, -0.0625, 0.0625, -0.0625, -0.0625, -0.0625, -0.0625, 0.0625, 0.0625, 0.0625, -0.0625, -0.0625, -0.0625, -0.0625, -0.0625, 0.0625, -0.0625, 0.0625, -0.0625, -0.0625, 0.0625, -0.0625, 0.0625, 0.0625, 0.0625, -0.0625, -0.0625, -0.0625, 0.0625, 0.0625, 0.0625, -0.0625, -0.0625, -0.0625, -0.0625, -0.0625, 0.0625, 0.0625, 0.0625, -0.0625, -0.0625, -0.0625, 0.0625, -0.0625, -0.0625, 0.0625, 0.0625, -0.0625, 0.0625, 0.0625, -0.0625, -0.0625, -0.0625, 0.0625, 0.0625, -0.0625, -0.0625, 0.0625, -0.0625, -0.0625, -0.0625, 0.0625, 0.0625, 0.0625, -0.0625, -0.0625, -0.0625, 0.0625, 0.0625, 0.0625, 0.0625, -0.0625, 0.0625, -0.0625, 0.0625, 0.0625, 0.0625, 0.0625, 0.0625, -0.0625, -0.0625, 0.0625, 0.0625, 0.0625, 0.0625, -0.0625, 0.0625, 0.0625, 0.0625, -0.0625, -0.0625, 0.0625, 0.0625, 0.0625, 0.0625, -0.0625, -0.0625, 0.0625, -0.0625, 0.0625, 0.0625, 0.0625, 0.0625, -0.0625, 0.0625, -0.0625, 0.0625, 0.0625, -0.0625, -0.0625, 0.0625, -0.0625, 0.0625, -0.0625, 0.0625, -0.0625, 0.0625, -0.0625, 0.0625, -0.0625, 0.0625, -0.0625, 0.0625, 0.0625, -0.0625, -0.0625, 0.0625, 0.0625, -0.0625, -0.0625, 0.0625, 0.0625, 0.0625, 0.0625, -0.0625, -0.0625, -0.0625, -0.0625, -0.0625, -0.0625, -0.0625, -0.0625, -0.0625, -0.0625, 0.0625, 0.0625, -0.0625, -0.0625, -0.0625, -0.0625, 0.0625, -0.0625, -0.0625, 0.0625, 0.0625, -0.0625, -0.0625, -0.0625, -0.0625, -0.0625, 0.0625, -0.0625, 0.0625, 0.0625, 0.0625, -0.0625, 0.0625, 0.0625, 0.0625, -0.0625, -0.0625, 0.0625, -0.0625, -0.0625, -0.0625, 0.0625, -0.0625, 0.0625, 0.0625, -0.0625, 0.0625, -0.0625, -0.0625, 0.0625, 0.0625, -0.0625, -0.0625, 0.0625, 0.0625, 0.0625, -0.0625, 0.0625, 0.0625, 0.0625, -0.0625, 0.0625, 0.0625, 0.0625, 0.0625, 0.0625, -0.0625, -0.0625, -0.0625, -0.0625, -0.0625, -0.0625, 0.0625, -0.0625, 0.0625, -0.0625, -0.0625, 0.0625, 0.0625, 0.0625, -0.0625, 0.0625, 0.0625, 0.0625, 0.0625, -0.0625, 0.0625, 0.0625, -0.0625, -0.0625, -0.0625, -0.0625, -0.0625, -0.0625, 0.0625, -0.0625, -0.0625, -0.0625, -0.0625, -0.0625, -0.0625, 0.0625, 0.0625, 0.0625, 0.0625, -0.0625, 0.0625, 0.0625, -0.0625, -0.0625, 0.0625, 0.0625, -0.0625, 0.0625, -0.0625, 0.0625, 0.0625, -0.0625, 0.0625, 0.0625, 0.0625, -0.0625, -0.0625, 0.0625, -0.0625, -0.0625, 0.0625, -0.0625, -0.0625, -0.0625, -0.0625, -0.0625, -0.0625, -0.0625, 0.0625, 0.0625, -0.0625, 0.0625, -0.0625, 0.0625, -0.0625, 0.0625, 0.0625, -0.0625, -0.0625, -0.0625, 0.0625, 0.0625, -0.0625, 0.0625, 0.0625, -0.0625, 0.0625, 0.0625, 0.0625, -0.0625, 0.0625, -0.0625, 0.0625, -0.0625, -0.0625, 0.0625, -0.0625, 0.0625, -0.0625, -0.0625, 0.0625, -0.0625, -0.0625, -0.0625, -0.0625, 0.0625, 0.0625, -0.0625, -0.0625, -0.0625, -0.0625, 0.0625, -0.0625, 0.0625, 0.0625, 0.0625, -0.0625, 0.0625, 0.0625, -0.0625, -0.0625, -0.0625, 0.0625, -0.0625, -0.0625, -0.0625, 0.0625, 0.0625, 0.0625, -0.0625, -0.0625, -0.0625, 0.0625, 0.0625, -0.0625, -0.0625, -0.0625, 0.0625, -0.0625, -0.0625, 0.0625, 0.0625, -0.0625, -0.0625, 0.0625, -0.0625, -0.0625, -0.0625, -0.0625, -0.0625, 0.0625, -0.0625, -0.0625, 0.0625, 0.0625, 0.0625, 0.0625, 0.0625, -0.0625, -0.0625, 0.0625, 0.0625, 0.0625, -0.0625, 0.0625, -0.0625, -0.0625, 0.0625, -0.0625, -0.0625, -0.0625, 0.0625, 0.0625, 0.0625, 0.0625, -0.0625, -0.0625, -0.0625, 0.0625, -0.0625, -0.0625, -0.0625, 0.0625, -0.0625, -0.0625, 0.0625, -0.0625, -0.0625, 0.0625, 0.0625, -0.0625, -0.0625, -0.0625, -0.0625, 0.0625, 0.0625, -0.0625, -0.0625, 0.0625, -0.0625, 0.0625, -0.0625, 0.0625, -0.0625, 0.0625, -0.0625, -0.0625, 0.0625, 0.0625, -0.0625, -0.0625, -0.0625, 0.0625, -0.0625, 0.0625, -0.0625, -0.0625, -0.0625, -0.0625, -0.0625, 0.0625, -0.0625, 0.0625, -0.0625, -0.0625, -0.0625, 0.0625, -0.0625, 0.0625, 0.0625, 0.0625, 0.0625, 0.0625, 0.0625, 0.0625, 0.0625, -0.0625, 0.0625, 0.0625, 0.0625, 0.0625, -0.0625, -0.0625, -0.0625, -0.0625, -0.0625, 0.0625, -0.0625, 0.0625, -0.0625, 0.0625, -0.0625, 0.0625, 0.0625, 0.0625, -0.0625, 0.0625, -0.0625, 0.0625, 0.0625, 0.0625, 0.0625, -0.0625, 0.0625, 0.0625, -0.0625, -0.0625, -0.0625, 0.0625, -0.0625, -0.0625, -0.0625, 0.0625, -0.0625, 0.0625, 0.0625, -0.0625, 0.0625, -0.0625, -0.0625, -0.0625, 0.0625, -0.0625, -0.0625, -0.0625, -0.0625, -0.0625, -0.0625, 0.0625, 0.0625, 0.0625, 0.0625, 0.0625, -0.0625, 0.0625, 0.0625, -0.0625, 0.0625, -0.0625, -0.0625, 0.0625, -0.0625, 0.0625, -0.0625, -0.0625, -0.0625, 0.0625, -0.0625, 0.0625, 0.0625, 0.0625, -0.0625, 0.0625, 0.0625, 0.0625, 0.0625, 0.0625, -0.0625, -0.0625, -0.0625, -0.0625, 0.0625, -0.0625, 0.0625, 0.0625, 0.0625, 0.0625, 0.0625, 0.0625, 0.0625, 0.0625, -0.0625, 0.0625, -0.0625, -0.0625, 0.0625, 0.0625, -0.0625, -0.0625, -0.0625, 0.0625, -0.0625, 0.0625, -0.0625, -0.0625, 0.0625, -0.0625, 0.0625, 0.0625, 0.0625, -0.0625, 0.0625, -0.0625, -0.0625, -0.0625, 0.0625, -0.0625, -0.0625, 0.0625, -0.0625, -0.0625, 0.0625, 0.0625, 0.0625, -0.0625, 0.0625, -0.0625, 0.0625, -0.0625, 0.0625, 0.0625, 0.0625, -0.0625, -0.0625, 0.0625, 0.0625, -0.0625, 0.0625, -0.0625, 0.0625, 0.0625, 0.0625, -0.0625, 0.0625, 0.0625, 0.0625, 0.0625, 0.0625, 0.0625, -0.0625, 0.0625, -0.0625, 0.0625, -0.0625, -0.0625, -0.0625, 0.0625, 0.0625, 0.0625, -0.0625, 0.0625, -0.0625, 0.0625, 0.0625, 0.0625, 0.0625, 0.0625, 0.0625, -0.0625, -0.0625, -0.0625, 0.0625, -0.0625, 0.0625, -0.0625, -0.0625, 0.0625, 0.0625, 0.0625, 0.0625, -0.0625, 0.0625, -0.0625, 0.0625, -0.0625, 0.0625, -0.0625, 0.0625, -0.0625, -0.0625, 0.0625, -0.0625, -0.0625, -0.0625, -0.0625, -0.0625, -0.0625, -0.0625, -0.0625, 0.0625, 0.0625, -0.0625, -0.0625, 0.0625, 0.0625, -0.0625, -0.0625, -0.0625, -0.0625, 0.0625, -0.0625, 0.0625, -0.0625, 0.0625, -0.0625, 0.0625, -0.0625, -0.0625, 0.0625, -0.0625, 0.0625, 0.0625, -0.0625, 0.0625, 0.0625, 0.0625, 0.0625, -0.0625, 0.0625, -0.0625, 0.0625, 0.0625, -0.0625, -0.0625, 0.0625, -0.0625, 0.0625, 0.0625, 0.0625, -0.0625, -0.0625, -0.0625, -0.0625, -0.0625, 0.0625, -0.0625, 0.0625, 0.0625, 0.0625, -0.0625, -0.0625, 0.0625, 0.0625, -0.0625, 0.0625, 0.0625, -0.0625, 0.0625, -0.0625, 0.0625, 0.0625, -0.0625, 0.0625, -0.0625, 0.0625, 0.0625, 0.0625, 0.0625, -0.0625, 0.0625, 0.0625, -0.0625, -0.0625, -0.0625, 0.0625, 0.0625, 0.0625, 0.0625, 0.0625, -0.0625, 0.0625, 0.0625, -0.0625, 0.0625, 0.0625, 0.0625, 0.0625, -0.0625, -0.0625, -0.0625, -0.0625, 0.0625, -0.0625, 0.0625, 0.0625, -0.0625, 0.0625, 0.0625, 0.0625, 0.0625, -0.0625, -0.0625, 0.0625, -0.0625, -0.0625, 0.0625, -0.0625, -0.0625, 0.0625, -0.0625, 0.0625, -0.0625, 0.0625, -0.0625, -0.0625, 0.0625, -0.0625, -0.0625, -0.0625, 0.0625, 0.0625, -0.0625, 0.0625, 0.0625, -0.0625, -0.0625, 0.0625, -0.0625, 0.0625, 0.0625, -0.0625, 0.0625, 0.0625, -0.0625, 0.0625, -0.0625, 0.0625, -0.0625, 0.0625, -0.0625, 0.0625, -0.0625, 0.0625, -0.0625, -0.0625, -0.0625, 0.0625, 0.0625, 0.0625, -0.0625, 0.0625, 0.0625, -0.0625, 0.0625, 0.0625, -0.0625, 0.0625, 0.0625, -0.0625, -0.0625, -0.0625, 0.0625, -0.0625, -0.0625, -0.0625, 0.0625, -0.0625, 0.0625, -0.0625, -0.0625, -0.0625, 0.0625, -0.0625, 0.0625, 0.0625, -0.0625, 0.0625, -0.0625, -0.0625, 0.0625, -0.0625, -0.0625, 0.0625, 0.0625, 0.0625, 0.0625, 0.0625, -0.0625, 0.0625, 0.0625, -0.0625, -0.0625, -0.0625, -0.0625, 0.0625, 0.0625, 0.0625, 0.0625, -0.0625, 0.0625, 0.0625, -0.0625, 0.0625, 0.0625, 0.0625, -0.0625, -0.0625, -0.0625, -0.0625, 0.0625, -0.0625, -0.0625, -0.0625, 0.0625, 0.0625, 0.0625, -0.0625, 0.0625, -0.0625, 0.0625, -0.0625, -0.0625, 0.0625, -0.0625, -0.0625, -0.0625, -0.0625, 0.0625, -0.0625, -0.0625, 0.0625, -0.0625, 0.0625, -0.0625, -0.0625, -0.0625, 0.0625, 0.0625, -0.0625, -0.0625, 0.0625, -0.0625, -0.0625, 0.0625, -0.0625, 0.0625, 0.0625, -0.0625, 0.0625, 0.0625, -0.0625, -0.0625, -0.0625, 0.0625, -0.0625, -0.0625, 0.0625, 0.0625, 0.0625, -0.0625, -0.0625, 0.0625, 0.0625, 0.0625, -0.0625, 0.0625, 0.0625, 0.0625, -0.0625, -0.0625, 0.0625, 0.0625, -0.0625, 0.0625, -0.0625, 0.0625, 0.0625, -0.0625, -0.0625, 0.0625, 0.0625, 0.0625, -0.0625, 0.0625, 0.0625, 0.0625, -0.0625, -0.0625, -0.0625, 0.0625, 0.0625, -0.0625, -0.0625, -0.0625, 0.0625, 0.0625, 0.0625, -0.0625, -0.0625, 0.0625, -0.0625, -0.0625, -0.0625, 0.0625, -0.0625, 0.0625, 0.0625, -0.0625, 0.0625, -0.0625, -0.0625, 0.0625, 0.0625, -0.0625, -0.0625, -0.0625, 0.0625, -0.0625, -0.0625, -0.0625, 0.0625, -0.0625, 0.0625, -0.0625, 0.0625, -0.0625, -0.0625, -0.0625, -0.0625, 0.0625, 0.0625, -0.0625, 0.0625, -0.0625, -0.0625, -0.0625, 0.0625, -0.0625, -0.0625, -0.0625, -0.0625, 0.0625, -0.0625, 0.0625, 0.0625, 0.0625, -0.0625, 0.0625, -0.0625, -0.0625, -0.0625, 0.0625, -0.0625, 0.0625, 0.0625, 0.0625, -0.0625, 0.0625, -0.0625, -0.0625, -0.0625, -0.0625, -0.0625, -0.0625, 0.0625, -0.0625, -0.0625, -0.0625, -0.0625, -0.0625, 0.0625, 0.0625, 0.0625, 0.0625, -0.0625, -0.0625, 0.0625, -0.0625, -0.0625, 0.0625, -0.0625, -0.0625, 0.0625, 0.0625, 0.0625, -0.0625, -0.0625, -0.0625, -0.0625, 0.0625, -0.0625, -0.0625, 0.0625, 0.0625, -0.0625, -0.0625, -0.0625, -0.0625, -0.0625, -0.0625, 0.0625, 0.0625, -0.0625, -0.0625, -0.0625, -0.0625, -0.0625, 0.0625, -0.0625, -0.0625, -0.0625, 0.0625, 0.0625, -0.0625, 0.0625, -0.0625, 0.0625, 0.0625, 0.0625, -0.0625, -0.0625, -0.0625, -0.0625, -0.0625, 0.0625, 0.0625, 0.0625, -0.0625, -0.0625, -0.0625, -0.0625, 0.0625, 0.0625, 0.0625, -0.0625, 0.0625, -0.0625, -0.0625, -0.0625, 0.0625, 0.0625, -0.0625, 0.0625, -0.0625, 0.0625, 0.0625, -0.0625, -0.0625, -0.0625, -0.0625, -0.0625, 0.0625, -0.0625, 0.0625, 0.0625, -0.0625, -0.0625, 0.0625, 0.0625, 0.0625, 0.0625, 0.0625, 0.0625, 0.0625, -0.0625, -0.0625, -0.0625, -0.0625, 0.0625, -0.0625, 0.0625, 0.0625, 0.0625, 0.0625, -0.0625, -0.0625, 0.0625, -0.0625, 0.0625, 0.0625, 0.0625, -0.0625, 0.0625, 0.0625, -0.0625, 0.0625, 0.0625, -0.0625, -0.0625, -0.0625, -0.0625, -0.0625, -0.0625, 0.0625, 0.0625, -0.0625, -0.0625, -0.0625, -0.0625, 0.0625, -0.0625, 0.0625, -0.0625, 0.0625, -0.0625, -0.0625, 0.0625, -0.0625, -0.0625, -0.0625, 0.0625, 0.0625, -0.0625, -0.0625, -0.0625, -0.0625, -0.0625, -0.0625, 0.0625, 0.0625, -0.0625, -0.0625, -0.0625, 0.0625, -0.0625, -0.0625, 0.0625, 0.0625, 0.0625, -0.0625, -0.0625, 0.0625, -0.0625, 0.0625, -0.0625, -0.0625, -0.0625, 0.0625, -0.0625, 0.0625, 0.0625, 0.0625, 0.0625, 0.0625, -0.0625, -0.0625, -0.0625, 0.0625, -0.0625, -0.0625, -0.0625, -0.0625, 0.0625, 0.0625, 0.0625, -0.0625, 0.0625, 0.0625, 0.0625, -0.0625, 0.0625, 0.0625, -0.0625, 0.0625, 0.0625, -0.0625, 0.0625, -0.0625, -0.0625, 0.0625, 0.0625, -0.0625, 0.0625, 0.0625, 0.0625, -0.0625, -0.0625, -0.0625, -0.0625, -0.0625, -0.0625, -0.0625, -0.0625, -0.0625, -0.0625, -0.0625, 0.0625, -0.0625, -0.0625, -0.0625, 0.0625, -0.0625, 0.0625, -0.0625, -0.0625, 0.0625, -0.0625, -0.0625, -0.0625, -0.0625, 0.0625, -0.0625, 0.0625, 0.0625, 0.0625, -0.0625, 0.0625, 0.0625, 0.0625, 0.0625, -0.0625, 0.0625, -0.0625, -0.0625, -0.0625, 0.0625, 0.0625, 0.0625, 0.0625, 0.0625, -0.0625, -0.0625, 0.0625, -0.0625, -0.0625, 0.0625, -0.0625, -0.0625, -0.0625, 0.0625, -0.0625, 0.0625, -0.0625, 0.0625, -0.0625, 0.0625, 0.0625, -0.0625, 0.0625, -0.0625, 0.0625, 0.0625, 0.0625, 0.0625, -0.0625, 0.0625, -0.0625, -0.0625, -0.0625, 0.0625, 0.0625, 0.0625, 0.0625, -0.0625, 0.0625, 0.0625, 0.0625, -0.0625, 0.0625, -0.0625, -0.0625, 0.0625, -0.0625, 0.0625, -0.0625, 0.0625, 0.0625, 0.0625, 0.0625, -0.0625, -0.0625, 0.0625, 0.0625, 0.0625, -0.0625, 0.0625, 0.0625, -0.0625, 0.0625, -0.0625, -0.0625, -0.0625, -0.0625, 0.0625, 0.0625, -0.0625, -0.0625, -0.0625, -0.0625, 0.0625, 0.0625, -0.0625, 0.0625, -0.0625, -0.0625, -0.0625, 0.0625, -0.0625, 0.0625, -0.0625, -0.0625, 0.0625, -0.0625, 0.0625, 0.0625, 0.0625, 0.0625, 0.0625, -0.0625, -0.0625, -0.0625, 0.0625, -0.0625, 0.0625, 0.0625, 0.0625, -0.0625, 0.0625, 0.0625, 0.0625, -0.0625, 0.0625, 0.0625, -0.0625, 0.0625, -0.0625, -0.0625, -0.0625, -0.0625, -0.0625, 0.0625, 0.0625, 0.0625, 0.0625, -0.0625, -0.0625, -0.0625, 0.0625, -0.0625, 0.0625, -0.0625, 0.0625, -0.0625, -0.0625, 0.0625, 0.0625, 0.0625, -0.0625, -0.0625, 0.0625, -0.0625, -0.0625, -0.0625, 0.0625, -0.0625, -0.0625, -0.0625, 0.0625, -0.0625, -0.0625, -0.0625, -0.0625, 0.0625, -0.0625, 0.0625, -0.0625, 0.0625, 0.0625, 0.0625, 0.0625, -0.0625, -0.0625, -0.0625, 0.0625, -0.0625, -0.0625, 0.0625, 0.0625, 0.0625, -0.0625, -0.0625, -0.0625, 0.0625, -0.0625, -0.0625, -0.0625, -0.0625, 0.0625, 0.0625, 0.0625, 0.0625, 0.0625, 0.0625, 0.0625, 0.0625, -0.0625, -0.0625, 0.0625, -0.0625, -0.0625, 0.0625, 0.0625, 0.0625, -0.0625, -0.0625, -0.0625, 0.0625, 0.0625, 0.0625, -0.0625, -0.0625, -0.0625, -0.0625, -0.0625, -0.0625, 0.0625, 0.0625, 0.0625, -0.0625, -0.0625, 0.0625, -0.0625, 0.0625, -0.0625, -0.0625, 0.0625, 0.0625, 0.0625, -0.0625, -0.0625, -0.0625, -0.0625, 0.0625, -0.0625, -0.0625, -0.0625, 0.0625, 0.0625, 0.0625, 0.0625, 0.0625, -0.0625, -0.0625, 0.0625, -0.0625, -0.0625, 0.0625, 0.0625, -0.0625, 0.0625, -0.0625, 0.0625, 0.0625, -0.0625, 0.0625, 0.0625, -0.0625, -0.0625, 0.0625, -0.0625, 0.0625, 0.0625, -0.0625, 0.0625, 0.0625, 0.0625, -0.0625, 0.0625, 0.0625, 0.0625, 0.0625, -0.0625, 0.0625, 0.0625, 0.0625, -0.0625, 0.0625, -0.0625, 0.0625, -0.0625, -0.0625, -0.0625, -0.0625, -0.0625, 0.0625, -0.0625, 0.0625, -0.0625, 0.0625, -0.0625, -0.0625, 0.0625, 0.0625, 0.0625, -0.0625, -0.0625, 0.0625, 0.0625, 0.0625, -0.0625, -0.0625, 0.0625, 0.0625, -0.0625, -0.0625, -0.0625, -0.0625, 0.0625, -0.0625, -0.0625, -0.0625, 0.0625, -0.0625, 0.0625, -0.0625, -0.0625, -0.0625, -0.0625, -0.0625, -0.0625, 0.0625, 0.0625, 0.0625, -0.0625, 0.0625, -0.0625, -0.0625, 0.0625, -0.0625, -0.0625, 0.0625, 0.0625, 0.0625, 0.0625, 0.0625, -0.0625, -0.0625, -0.0625, 0.0625, -0.0625, 0.0625, -0.0625, -0.0625, 0.0625, -0.0625, -0.0625, 0.0625, -0.0625, 0.0625, 0.0625, -0.0625, 0.0625, 0.0625, -0.0625, 0.0625, 0.0625, 0.0625, -0.0625, 0.0625, 0.0625, 0.0625, 0.0625, 0.0625, 0.0625, 0.0625, -0.0625, -0.0625, 0.0625, 0.0625, -0.0625, 0.0625, 0.0625, 0.0625, -0.0625, -0.0625, 0.0625, -0.0625, -0.0625, 0.0625, 0.0625, 0.0625, -0.0625, -0.0625, -0.0625, 0.0625, -0.0625, 0.0625, -0.0625, -0.0625, -0.0625, -0.0625, 0.0625, -0.0625, 0.0625, -0.0625, 0.0625, -0.0625, -0.0625, -0.0625, 0.0625, 0.0625, 0.0625, -0.0625, 0.0625, -0.0625, 0.0625, 0.0625, -0.0625, -0.0625, -0.0625, -0.0625, 0.0625, 0.0625, -0.0625, -0.0625, 0.0625, 0.0625, 0.0625, 0.0625, -0.0625, -0.0625, -0.0625, -0.0625, 0.0625, -0.0625, 0.0625, -0.0625, -0.0625, 0.0625, 0.0625, -0.0625, -0.0625, 0.0625, -0.0625, -0.0625, -0.0625, -0.0625, -0.0625, -0.0625, 0.0625, 0.0625, 0.0625, -0.0625, -0.0625, 0.0625, 0.0625, 0.0625, -0.0625, -0.0625, -0.0625, 0.0625, 0.0625, -0.0625, 0.0625, 0.0625, 0.0625, 0.0625, 0.0625, -0.0625, 0.0625, 0.0625, 0.0625, -0.0625, -0.0625, -0.0625, 0.0625, 0.0625, -0.0625, -0.0625, -0.0625, -0.0625, 0.0625, 0.0625, 0.0625, 0.0625, -0.0625, 0.0625, -0.0625, 0.0625, 0.0625, 0.0625, -0.0625, -0.0625, 0.0625, 0.0625, 0.0625, 0.0625, -0.0625, -0.0625, -0.0625, 0.0625, -0.0625, -0.0625, -0.0625, 0.0625, 0.0625, -0.0625, 0.0625, 0.0625, -0.0625, 0.0625, -0.0625, -0.0625, -0.0625, 0.0625, 0.0625, 0.0625, -0.0625, 0.0625, -0.0625, 0.0625, 0.0625, -0.0625, -0.0625, -0.0625, -0.0625, -0.0625, 0.0625, 0.0625, 0.0625, -0.0625, 0.0625, 0.0625, 0.0625, 0.0625, 0.0625, -0.0625, 0.0625, -0.0625, 0.0625, -0.0625, -0.0625, -0.0625, -0.0625, -0.0625, 0.0625, -0.0625, -0.0625, -0.0625, 0.0625, -0.0625, -0.0625, -0.0625, 0.0625, -0.0625, 0.0625, -0.0625, -0.0625, -0.0625, -0.0625, 0.0625, 0.0625, 0.0625, 0.0625, 0.0625, 0.0625, 0.0625, -0.0625, 0.0625, -0.0625, -0.0625, 0.0625, 0.0625, 0.0625, 0.0625, 0.0625, -0.0625, -0.0625, -0.0625, -0.0625, -0.0625, -0.0625, 0.0625, -0.0625, -0.0625, -0.0625, 0.0625, -0.0625, 0.0625, -0.0625, -0.0625, 0.0625, -0.0625, 0.0625, 0.0625, 0.0625, -0.0625, 0.0625, -0.0625, 0.0625, -0.0625, 0.0625, -0.0625, 0.0625, 0.0625, 0.0625, -0.0625, 0.0625, 0.0625, -0.0625, 0.0625, 0.0625, 0.0625, -0.0625, 0.0625, -0.0625, -0.0625, -0.0625, -0.0625, -0.0625, 0.0625, 0.0625, 0.0625, 0.0625, 0.0625, 0.0625, 0.0625, -0.0625, -0.0625, -0.0625, 0.0625, -0.0625, 0.0625, -0.0625, 0.0625, -0.0625, -0.0625, -0.0625, 0.0625, 0.0625, 0.0625, -0.0625, 0.0625, -0.0625, 0.0625, -0.0625, -0.0625, 0.0625, -0.0625, 0.0625, 0.0625, -0.0625, 0.0625, 0.0625, 0.0625, 0.0625, 0.0625, -0.0625, 0.0625, 0.0625, -0.0625, -0.0625, -0.0625, 0.0625, -0.0625, -0.0625, -0.0625, -0.0625, 0.0625, -0.0625, -0.0625, -0.0625, 0.0625, -0.0625, -0.0625, -0.0625, -0.0625, -0.0625, -0.0625, -0.0625, -0.0625, -0.0625, 0.0625, 0.0625, 0.0625, -0.0625, 0.0625, -0.0625, -0.0625, 0.0625, -0.0625, 0.0625, -0.0625, 0.0625, -0.0625, 0.0625, 0.0625, -0.0625, -0.0625, 0.0625, 0.0625, 0.0625, 0.0625, -0.0625, -0.0625, 0.0625, 0.0625, -0.0625, -0.0625, -0.0625, -0.0625, 0.0625, 0.0625, 0.0625, -0.0625, -0.0625, 0.0625, 0.0625, -0.0625, -0.0625, -0.0625, -0.0625, 0.0625, 0.0625, 0.0625, -0.0625, -0.0625, 0.0625, 0.0625, 0.0625, -0.0625, 0.0625, 0.0625, 0.0625, -0.0625, 0.0625, 0.0625, 0.0625, -0.0625, -0.0625, 0.0625, -0.0625, 0.0625, -0.0625, -0.0625, 0.0625, -0.0625, 0.0625, -0.0625, -0.0625, -0.0625, 0.0625, -0.0625, 0.0625, 0.0625, 0.0625, -0.0625, 0.0625, -0.0625, 0.0625, 0.0625, -0.0625, 0.0625, 0.0625, -0.0625, -0.0625, 0.0625, 0.0625, 0.0625, -0.0625, 0.0625, -0.0625, 0.0625, -0.0625, -0.0625, -0.0625, -0.0625, -0.0625, -0.0625, -0.0625, 0.0625, -0.0625, 0.0625, 0.0625, 0.0625, 0.0625, 0.0625, -0.0625, 0.0625, 0.0625, -0.0625, 0.0625, 0.0625, -0.0625, 0.0625, 0.0625, -0.0625, 0.0625, -0.0625, -0.0625, -0.0625, 0.0625, -0.0625, 0.0625, -0.0625, 0.0625, -0.0625, -0.0625, -0.0625, 0.0625, -0.0625, 0.0625, 0.0625, -0.0625, 0.0625, 0.0625, -0.0625, -0.0625, 0.0625, 0.0625, 0.0625, -0.0625, -0.0625, 0.0625, 0.0625, 0.0625, -0.0625, -0.0625, 0.0625, -0.0625, 0.0625, 0.0625, 0.0625, -0.0625, 0.0625, -0.0625, -0.0625, -0.0625, 0.0625, 0.0625, -0.0625, -0.0625, -0.0625, -0.0625, -0.0625, 0.0625, 0.0625, -0.0625, 0.0625, 0.0625, 0.0625, 0.0625, 0.0625, -0.0625, -0.0625, 0.0625, 0.0625, -0.0625, 0.0625, -0.0625, 0.0625, 0.0625, -0.0625, 0.0625, 0.0625, -0.0625, -0.0625, 0.0625, -0.0625, -0.0625, -0.0625, 0.0625, 0.0625, -0.0625, -0.0625, -0.0625, 0.0625, 0.0625, -0.0625, -0.0625, 0.0625, -0.0625, -0.0625, -0.0625, 0.0625, 0.0625, -0.0625, -0.0625, -0.0625, 0.0625, 0.0625, 0.0625, 0.0625, 0.0625, 0.0625, -0.0625, -0.0625, -0.0625, -0.0625, 0.0625, 0.0625, -0.0625, -0.0625, -0.0625, 0.0625, -0.0625, -0.0625, -0.0625, -0.0625, 0.0625, 0.0625, 0.0625, 0.0625, 0.0625, 0.0625, 0.0625, 0.0625, -0.0625, -0.0625, -0.0625, -0.0625, -0.0625, 0.0625, -0.0625, -0.0625, -0.0625, -0.0625, 0.0625, 0.0625, 0.0625, -0.0625, -0.0625, -0.0625, -0.0625, -0.0625, -0.0625, -0.0625, 0.0625, 0.0625, 0.0625, 0.0625, -0.0625, 0.0625, -0.0625, -0.0625, 0.0625, -0.0625, -0.0625, -0.0625, -0.0625, 0.0625, 0.0625, 0.0625, -0.0625, 0.0625, 0.0625, -0.0625, -0.0625, -0.0625, 0.0625, -0.0625, -0.0625, -0.0625, 0.0625, 0.0625, 0.0625, -0.0625, -0.0625, -0.0625, -0.0625, -0.0625, 0.0625, -0.0625, -0.0625, 0.0625, -0.0625, -0.0625, -0.0625, 0.0625, 0.0625, -0.0625, 0.0625, -0.0625, 0.0625, -0.0625, -0.0625, -0.0625, -0.0625, -0.0625, 0.0625, 0.0625, -0.0625, -0.0625, 0.0625, 0.0625, 0.0625, 0.0625, 0.0625, 0.0625, 0.0625, -0.0625, -0.0625, -0.0625, -0.0625, -0.0625, 0.0625, 0.0625, 0.0625, -0.0625, 0.0625, 0.0625, -0.0625, -0.0625, -0.0625, -0.0625, 0.0625, 0.0625, -0.0625, 0.0625, -0.0625, 0.0625, -0.0625, 0.0625, 0.0625, 0.0625, -0.0625, -0.0625, 0.0625, 0.0625, -0.0625, -0.0625, 0.0625, -0.0625, 0.0625, 0.0625, -0.0625, 0.0625, -0.0625, 0.0625, 0.0625, -0.0625, -0.0625, -0.0625, -0.0625, 0.0625, -0.0625, -0.0625, 0.0625, -0.0625, 0.0625, 0.0625, -0.0625, 0.0625, -0.0625, -0.0625, 0.0625, 0.0625, 0.0625, -0.0625, 0.0625, 0.0625, 0.0625, 0.0625, 0.0625, 0.0625, 0.0625, -0.0625, 0.0625, -0.0625, -0.0625, 0.0625, -0.0625, 0.0625, -0.0625, -0.0625, -0.0625, -0.0625, -0.0625, 0.0625, 0.0625, 0.0625, -0.0625, 0.0625, 0.0625, -0.0625, -0.0625, 0.0625, 0.0625, -0.0625, -0.0625, -0.0625, 0.0625, -0.0625, 0.0625, 0.0625, -0.0625, 0.0625, 0.0625, 0.0625, 0.0625, 0.0625, -0.0625, 0.0625, -0.0625, -0.0625, -0.0625, -0.0625, 0.0625, 0.0625, -0.0625, 0.0625, -0.0625, -0.0625, 0.0625, -0.0625, 0.0625, -0.0625, 0.0625, 0.0625, 0.0625, 0.0625, 0.0625, -0.0625, 0.0625, -0.0625, 0.0625, 0.0625, -0.0625, -0.0625, -0.0625, 0.0625, -0.0625, 0.0625, -0.0625, -0.0625, -0.0625, -0.0625, -0.0625, -0.0625, 0.0625, -0.0625, 0.0625, 0.0625, 0.0625, -0.0625, -0.0625, 0.0625, 0.0625, 0.0625, -0.0625, 0.0625, 0.0625, 0.0625, -0.0625, -0.0625, 0.0625, 0.0625, 0.0625, 0.0625, 0.0625, 0.0625, 0.0625, 0.0625, 0.0625, 0.0625, -0.0625, -0.0625, -0.0625, 0.0625, -0.0625, 0.0625, -0.0625, -0.0625, 0.0625, 0.0625, -0.0625, 0.0625, 0.0625, 0.0625, -0.0625, 0.0625, -0.0625, -0.0625, 0.0625, -0.0625, 0.0625, 0.0625, -0.0625, 0.0625, 0.0625, -0.0625, 0.0625, -0.0625, -0.0625, -0.0625, -0.0625, 0.0625, -0.0625, -0.0625, -0.0625, 0.0625, 0.0625, 0.0625, -0.0625, -0.0625, -0.0625, 0.0625, -0.0625, 0.0625, 0.0625, -0.0625, 0.0625, 0.0625, -0.0625, 0.0625, 0.0625, 0.0625, -0.0625, -0.0625, -0.0625, -0.0625, 0.0625, -0.0625, -0.0625, -0.0625, 0.0625, -0.0625, 0.0625, 0.0625, 0.0625, -0.0625, 0.0625, -0.0625, 0.0625, 0.0625, -0.0625, -0.0625, 0.0625, -0.0625, -0.0625, -0.0625, -0.0625, 0.0625, -0.0625, -0.0625, -0.0625, 0.0625, 0.0625, -0.0625, -0.0625, 0.0625, -0.0625, -0.0625, 0.0625, 0.0625, 0.0625, -0.0625, 0.0625, 0.0625, 0.0625, -0.0625, 0.0625, -0.0625, 0.0625, 0.0625, 0.0625, -0.0625, 0.0625, -0.0625, -0.0625, 0.0625, -0.0625, -0.0625, 0.0625, -0.0625, 0.0625, 0.0625, -0.0625, 0.0625, -0.0625, 0.0625, -0.0625, 0.0625, -0.0625, 0.0625, 0.0625, 0.0625, 0.0625, -0.0625, -0.0625, 0.0625, -0.0625, 0.0625, 0.0625, 0.0625, 0.0625, 0.0625, -0.0625, -0.0625, 0.0625, -0.0625, 0.0625, -0.0625, -0.0625, 0.0625, -0.0625, 0.0625, -0.0625, 0.0625, 0.0625, -0.0625, -0.0625, 0.0625, 0.0625, -0.0625, -0.0625, -0.0625, 0.0625, -0.0625, -0.0625, 0.0625, -0.0625, -0.0625, -0.0625, -0.0625, -0.0625, 0.0625, 0.0625, -0.0625, -0.0625, -0.0625, 0.0625, 0.0625, 0.0625, -0.0625, 0.0625, -0.0625, 0.0625, -0.0625, -0.0625, 0.0625, 0.0625, 0.0625, 0.0625, -0.0625, -0.0625, 0.0625, -0.0625, 0.0625, 0.0625, -0.0625, -0.0625, 0.0625, 0.0625, -0.0625, -0.0625, 0.0625, -0.0625, -0.0625, 0.0625, 0.0625, -0.0625, -0.0625, 0.0625, -0.0625, -0.0625, 0.0625, 0.0625, -0.0625, 0.0625, -0.0625, 0.0625, 0.0625, -0.0625, 0.0625, -0.0625, -0.0625, -0.0625, 0.0625, -0.0625, 0.0625, -0.0625, -0.0625, 0.0625, 0.0625, -0.0625, 0.0625, -0.0625, 0.0625, -0.0625, 0.0625, -0.0625, 0.0625, -0.0625, 0.0625, -0.0625, -0.0625, -0.0625, -0.0625, 0.0625, 0.0625, 0.0625, -0.0625, 0.0625, 0.0625, -0.0625, -0.0625, 0.0625, -0.0625, 0.0625, -0.0625, 0.0625, -0.0625, 0.0625, -0.0625, -0.0625, 0.0625, -0.0625, 0.0625, 0.0625, 0.0625, -0.0625, -0.0625, 0.0625, -0.0625, 0.0625, -0.0625, 0.0625, -0.0625, -0.0625, 0.0625, 0.0625, 0.0625, -0.0625, 0.0625, 0.0625, 0.0625, -0.0625, 0.0625, 0.0625, -0.0625, -0.0625, 0.0625, 0.0625, -0.0625, 0.0625, 0.0625, 0.0625, 0.0625, -0.0625, -0.0625, 0.0625, -0.0625, -0.0625, -0.0625, 0.0625, 0.0625, 0.0625, -0.0625, 0.0625, -0.0625, 0.0625, 0.0625, -0.0625, 0.0625, 0.0625, -0.0625, -0.0625, -0.0625, -0.0625, -0.0625, 0.0625, -0.0625, 0.0625, 0.0625, 0.0625, -0.0625, 0.0625, 0.0625, -0.0625, 0.0625, -0.0625, 0.0625, -0.0625, 0.0625, 0.0625, -0.0625, 0.0625, -0.0625, -0.0625, -0.0625, -0.0625, -0.0625, -0.0625, -0.0625, -0.0625, 0.0625, -0.0625, 0.0625, 0.0625, 0.0625, -0.0625, -0.0625, -0.0625, 0.0625, -0.0625, 0.0625, -0.0625, 0.0625, -0.0625, -0.0625, 0.0625, 0.0625, 0.0625, 0.0625, -0.0625, -0.0625, -0.0625, -0.0625, 0.0625, 0.0625, -0.0625, -0.0625, 0.0625, 0.0625, -0.0625, 0.0625, 0.0625, -0.0625, 0.0625, -0.0625, 0.0625, -0.0625, 0.0625, -0.0625, 0.0625, 0.0625, -0.0625, 0.0625, 0.0625, -0.0625, -0.0625, 0.0625, -0.0625, 0.0625, 0.0625, -0.0625, 0.0625, -0.0625, -0.0625, 0.0625, 0.0625, 0.0625, 0.0625, 0.0625, 0.0625, 0.0625, -0.0625, 0.0625, 0.0625, 0.0625, -0.0625, -0.0625, 0.0625, -0.0625, 0.0625, 0.0625, 0.0625, 0.0625, -0.0625, -0.0625, 0.0625, -0.0625, -0.0625, -0.0625, 0.0625, 0.0625, 0.0625, -0.0625, 0.0625, 0.0625, 0.0625, -0.0625, -0.0625, 0.0625, 0.0625, -0.0625, -0.0625, -0.0625, -0.0625, 0.0625, 0.0625, -0.0625, -0.0625, 0.0625, 0.0625, 0.0625, -0.0625, 0.0625, -0.0625, -0.0625, -0.0625, 0.0625, -0.0625, 0.0625, 0.0625, -0.0625, 0.0625, -0.0625, -0.0625, -0.0625, 0.0625, 0.0625, -0.0625, 0.0625, -0.0625, -0.0625, 0.0625, 0.0625, -0.0625, 0.0625, -0.0625, 0.0625, 0.0625, -0.0625, 0.0625, 0.0625, -0.0625, 0.0625, 0.0625, -0.0625, -0.0625, 0.0625, -0.0625, 0.0625, -0.0625, 0.0625, 0.0625, 0.0625, -0.0625, 0.0625, 0.0625, 0.0625, 0.0625, 0.0625, -0.0625, 0.0625, 0.0625, -0.0625, -0.0625, 0.0625, -0.0625, -0.0625, -0.0625, -0.0625, 0.0625, -0.0625, -0.0625, 0.0625, -0.0625, -0.0625, -0.0625, -0.0625, -0.0625, -0.0625, -0.0625, -0.0625, 0.0625, 0.0625, -0.0625, 0.0625, -0.0625, -0.0625, -0.0625, 0.0625, 0.0625, -0.0625, 0.0625, 0.0625, 0.0625, 0.0625, -0.0625, 0.0625, -0.0625, 0.0625, -0.0625, 0.0625, 0.0625, 0.0625, -0.0625, 0.0625, -0.0625, 0.0625, -0.0625, -0.0625, -0.0625, 0.0625, -0.0625, 0.0625, 0.0625, -0.0625, -0.0625, 0.0625, -0.0625, 0.0625, -0.0625, -0.0625, -0.0625, -0.0625, -0.0625, -0.0625, 0.0625, 0.0625, 0.0625, 0.0625, -0.0625, -0.0625, 0.0625, 0.0625, -0.0625, 0.0625, -0.0625, 0.0625, 0.0625, 0.0625, 0.0625, 0.0625, 0.0625, -0.0625, -0.0625, -0.0625, -0.0625, -0.0625, 0.0625, 0.0625, -0.0625, -0.0625, 0.0625, 0.0625, 0.0625, -0.0625, 0.0625, -0.0625, 0.0625, -0.0625, -0.0625, -0.0625, 0.0625, -0.0625, 0.0625, 0.0625, -0.0625, -0.0625, 0.0625, -0.0625, -0.0625, -0.0625, -0.0625, 0.0625, -0.0625, 0.0625, -0.0625, 0.0625, 0.0625, 0.0625, -0.0625, 0.0625, -0.0625, 0.0625, -0.0625, -0.0625, -0.0625, 0.0625, -0.0625, 0.0625, -0.0625, 0.0625, -0.0625, 0.0625, -0.0625, -0.0625, -0.0625, 0.0625, -0.0625, -0.0625, -0.0625, 0.0625, -0.0625, 0.0625, 0.0625, -0.0625, -0.0625, -0.0625, 0.0625, 0.0625, -0.0625, -0.0625, 0.0625, -0.0625, -0.0625, 0.0625, -0.0625, 0.0625, -0.0625, 0.0625, 0.0625, -0.0625, 0.0625, 0.0625, 0.0625, -0.0625, -0.0625, 0.0625, -0.0625, -0.0625, 0.0625, -0.0625, 0.0625, -0.0625, -0.0625, 0.0625, -0.0625, 0.0625, 0.0625, 0.0625, 0.0625, 0.0625, -0.0625, 0.0625, 0.0625, -0.0625, 0.0625, 0.0625, 0.0625, -0.0625, 0.0625, 0.0625, -0.0625, -0.0625, -0.0625, -0.0625, -0.0625, -0.0625, 0.0625, 0.0625, -0.0625, 0.0625, 0.0625, 0.0625, -0.0625, -0.0625, 0.0625, 0.0625, -0.0625, -0.0625, -0.0625, 0.0625, 0.0625, -0.0625, 0.0625, 0.0625, -0.0625, -0.0625, 0.0625, 0.0625, 0.0625, -0.0625, -0.0625, -0.0625, 0.0625, 0.0625, 0.0625, 0.0625, 0.0625, 0.0625, 0.0625, -0.0625, -0.0625, -0.0625, -0.0625, 0.0625, -0.0625, 0.0625, -0.0625, 0.0625, -0.0625, -0.0625, -0.0625, 0.0625, -0.0625, -0.0625, 0.0625, -0.0625, 0.0625, 0.0625, -0.0625, -0.0625, 0.0625, 0.0625, 0.0625, -0.0625, -0.0625, 0.0625, 0.0625, 0.0625, -0.0625, -0.0625, -0.0625, 0.0625, 0.0625, 0.0625, -0.0625, -0.0625, -0.0625, 0.0625, 0.0625, -0.0625, -0.0625, -0.0625, 0.0625, -0.0625, -0.0625, -0.0625, -0.0625, 0.0625, 0.0625, 0.0625, -0.0625, -0.0625, -0.0625, 0.0625, 0.0625, -0.0625, 0.0625, 0.0625, -0.0625, 0.0625, -0.0625, 0.0625, 0.0625, -0.0625, 0.0625, 0.0625, 0.0625, 0.0625, 0.0625, 0.0625, 0.0625, -0.0625, 0.0625, 0.0625, -0.0625, 0.0625, 0.0625, -0.0625, -0.0625, -0.0625, 0.0625, 0.0625, -0.0625, -0.0625, 0.0625, 0.0625, -0.0625, 0.0625, 0.0625, 0.0625, 0.0625, -0.0625, 0.0625, -0.0625, -0.0625, -0.0625, 0.0625, -0.0625, 0.0625, 0.0625, -0.0625, 0.0625, 0.0625, 0.0625, -0.0625, -0.0625, 0.0625, -0.0625, 0.0625, 0.0625, -0.0625, 0.0625, -0.0625, 0.0625, -0.0625, -0.0625, 0.0625, -0.0625, -0.0625, -0.0625, -0.0625, 0.0625, -0.0625, -0.0625, -0.0625, 0.0625, 0.0625, -0.0625, 0.0625, 0.0625, 0.0625, -0.0625, -0.0625, -0.0625, 0.0625, -0.0625, 0.0625, -0.0625, 0.0625, 0.0625, -0.0625, -0.0625, 0.0625, 0.0625, 0.0625, 0.0625, -0.0625, 0.0625, -0.0625, 0.0625, -0.0625, -0.0625, -0.0625, -0.0625, -0.0625, -0.0625, -0.0625, 0.0625, -0.0625, 0.0625, 0.0625, -0.0625, 0.0625, -0.0625, 0.0625, 0.0625, 0.0625, 0.0625, 0.0625, 0.0625, 0.0625, -0.0625, -0.0625, -0.0625, -0.0625, 0.0625, 0.0625, -0.0625, 0.0625, 0.0625, 0.0625, -0.0625, -0.0625, 0.0625, -0.0625, 0.0625, -0.0625, -0.0625, 0.0625, -0.0625, -0.0625, -0.0625, 0.0625, -0.0625, 0.0625, 0.0625, -0.0625, 0.0625, 0.0625, -0.0625, -0.0625, -0.0625, 0.0625, -0.0625, -0.0625, -0.0625, 0.0625, -0.0625, -0.0625, -0.0625, -0.0625, -0.0625, 0.0625, 0.0625, -0.0625, 0.0625, -0.0625, -0.0625, 0.0625, 0.0625, -0.0625, 0.0625, -0.0625, 0.0625, 0.0625, 0.0625, -0.0625, -0.0625, -0.0625, 0.0625, 0.0625, 0.0625, -0.0625, -0.0625, -0.0625, 0.0625, -0.0625, -0.0625, 0.0625, 0.0625, 0.0625, 0.0625, -0.0625, 0.0625, 0.0625, -0.0625, 0.0625, -0.0625, -0.0625, -0.0625, -0.0625, -0.0625, 0.0625, 0.0625, 0.0625, 0.0625, -0.0625, -0.0625, 0.0625, 0.0625, 0.0625, 0.0625, -0.0625, 0.0625, 0.0625, -0.0625, 0.0625, -0.0625, 0.0625, 0.0625, -0.0625, 0.0625, -0.0625, 0.0625, 0.0625, -0.0625, -0.0625, -0.0625, -0.0625, 0.0625, -0.0625, 0.0625, -0.0625, -0.0625, 0.0625, 0.0625, 0.0625, -0.0625, -0.0625, 0.0625, -0.0625, 0.0625, 0.0625, -0.0625, 0.0625, -0.0625, 0.0625, -0.0625, -0.0625, 0.0625, 0.0625, -0.0625, -0.0625, 0.0625, 0.0625, -0.0625, -0.0625, 0.0625, 0.0625, -0.0625, 0.0625, -0.0625, -0.0625, -0.0625, 0.0625, -0.0625, 0.0625, 0.0625, 0.0625, 0.0625, -0.0625, -0.0625, -0.0625, 0.0625, -0.0625, 0.0625, -0.0625, 0.0625, -0.0625, -0.0625};
#endif

#endif
