//Numpy array shape [120, 84]
//Min -0.125000000000
//Max 0.125000000000
//Number of zeros 0

#ifndef W11_H_
#define W11_H_

#ifndef __SYNTHESIS__
model_default_t w11[10080];
#else
model_default_t w11[10080] = {-0.1250000000, 0.1250000000, 0.1250000000, -0.1250000000, -0.1250000000, 0.1250000000, -0.1250000000, -0.1250000000, 0.1250000000, -0.1250000000, 0.1250000000, 0.1250000000, 0.1250000000, -0.1250000000, -0.1250000000, -0.1250000000, 0.1250000000, 0.1250000000, -0.1250000000, -0.1250000000, -0.1250000000, -0.1250000000, -0.1250000000, 0.1250000000, -0.1250000000, 0.1250000000, 0.1250000000, -0.1250000000, 0.1250000000, 0.1250000000, 0.1250000000, 0.1250000000, -0.1250000000, 0.1250000000, 0.1250000000, 0.1250000000, -0.1250000000, -0.1250000000, -0.1250000000, -0.1250000000, -0.1250000000, -0.1250000000, -0.1250000000, -0.1250000000, -0.1250000000, -0.1250000000, 0.1250000000, -0.1250000000, -0.1250000000, -0.1250000000, 0.1250000000, 0.1250000000, 0.1250000000, 0.1250000000, -0.1250000000, 0.1250000000, 0.1250000000, 0.1250000000, 0.1250000000, 0.1250000000, -0.1250000000, 0.1250000000, 0.1250000000, -0.1250000000, -0.1250000000, -0.1250000000, -0.1250000000, 0.1250000000, -0.1250000000, -0.1250000000, 0.1250000000, 0.1250000000, 0.1250000000, -0.1250000000, 0.1250000000, -0.1250000000, 0.1250000000, 0.1250000000, 0.1250000000, 0.1250000000, 0.1250000000, 0.1250000000, 0.1250000000, -0.1250000000, 0.1250000000, 0.1250000000, 0.1250000000, -0.1250000000, 0.1250000000, -0.1250000000, 0.1250000000, 0.1250000000, 0.1250000000, -0.1250000000, 0.1250000000, -0.1250000000, -0.1250000000, -0.1250000000, -0.1250000000, 0.1250000000, -0.1250000000, 0.1250000000, -0.1250000000, 0.1250000000, -0.1250000000, -0.1250000000, 0.1250000000, 0.1250000000, 0.1250000000, -0.1250000000, -0.1250000000, -0.1250000000, -0.1250000000, 0.1250000000, -0.1250000000, 0.1250000000, -0.1250000000, 0.1250000000, 0.1250000000, -0.1250000000, -0.1250000000, -0.1250000000, 0.1250000000, 0.1250000000, -0.1250000000, -0.1250000000, -0.1250000000, -0.1250000000, -0.1250000000, 0.1250000000, -0.1250000000, 0.1250000000, -0.1250000000, -0.1250000000, -0.1250000000, -0.1250000000, -0.1250000000, -0.1250000000, 0.1250000000, 0.1250000000, 0.1250000000, 0.1250000000, 0.1250000000, 0.1250000000, 0.1250000000, 0.1250000000, -0.1250000000, -0.1250000000, -0.1250000000, 0.1250000000, 0.1250000000, -0.1250000000, 0.1250000000, -0.1250000000, 0.1250000000, -0.1250000000, 0.1250000000, -0.1250000000, -0.1250000000, -0.1250000000, -0.1250000000, -0.1250000000, -0.1250000000, -0.1250000000, -0.1250000000, 0.1250000000, -0.1250000000, -0.1250000000, -0.1250000000, 0.1250000000, -0.1250000000, -0.1250000000, -0.1250000000, -0.1250000000, -0.1250000000, 0.1250000000, 0.1250000000, 0.1250000000, -0.1250000000, -0.1250000000, -0.1250000000, 0.1250000000, -0.1250000000, -0.1250000000, 0.1250000000, 0.1250000000, 0.1250000000, 0.1250000000, 0.1250000000, -0.1250000000, 0.1250000000, -0.1250000000, 0.1250000000, 0.1250000000, -0.1250000000, -0.1250000000, 0.1250000000, -0.1250000000, -0.1250000000, 0.1250000000, 0.1250000000, 0.1250000000, 0.1250000000, -0.1250000000, 0.1250000000, -0.1250000000, -0.1250000000, -0.1250000000, 0.1250000000, -0.1250000000, -0.1250000000, -0.1250000000, 0.1250000000, 0.1250000000, 0.1250000000, 0.1250000000, 0.1250000000, 0.1250000000, 0.1250000000, 0.1250000000, 0.1250000000, 0.1250000000, -0.1250000000, -0.1250000000, -0.1250000000, 0.1250000000, -0.1250000000, 0.1250000000, -0.1250000000, -0.1250000000, -0.1250000000, 0.1250000000, -0.1250000000, 0.1250000000, -0.1250000000, -0.1250000000, -0.1250000000, 0.1250000000, 0.1250000000, 0.1250000000, -0.1250000000, 0.1250000000, 0.1250000000, -0.1250000000, -0.1250000000, 0.1250000000, -0.1250000000, -0.1250000000, -0.1250000000, -0.1250000000, 0.1250000000, 0.1250000000, -0.1250000000, 0.1250000000, -0.1250000000, -0.1250000000, -0.1250000000, -0.1250000000, 0.1250000000, -0.1250000000, -0.1250000000, 0.1250000000, -0.1250000000, 0.1250000000, 0.1250000000, -0.1250000000, 0.1250000000, 0.1250000000, -0.1250000000, -0.1250000000, 0.1250000000, 0.1250000000, 0.1250000000, 0.1250000000, -0.1250000000, -0.1250000000, -0.1250000000, 0.1250000000, 0.1250000000, -0.1250000000, 0.1250000000, -0.1250000000, 0.1250000000, 0.1250000000, 0.1250000000, 0.1250000000, -0.1250000000, -0.1250000000, -0.1250000000, 0.1250000000, -0.1250000000, 0.1250000000, 0.1250000000, 0.1250000000, 0.1250000000, 0.1250000000, -0.1250000000, -0.1250000000, 0.1250000000, -0.1250000000, 0.1250000000, -0.1250000000, -0.1250000000, 0.1250000000, 0.1250000000, -0.1250000000, -0.1250000000, -0.1250000000, -0.1250000000, -0.1250000000, -0.1250000000, 0.1250000000, -0.1250000000, -0.1250000000, -0.1250000000, 0.1250000000, 0.1250000000, -0.1250000000, 0.1250000000, -0.1250000000, -0.1250000000, 0.1250000000, -0.1250000000, 0.1250000000, 0.1250000000, 0.1250000000, 0.1250000000, 0.1250000000, 0.1250000000, -0.1250000000, -0.1250000000, -0.1250000000, -0.1250000000, -0.1250000000, -0.1250000000, 0.1250000000, 0.1250000000, 0.1250000000, -0.1250000000, -0.1250000000, 0.1250000000, 0.1250000000, 0.1250000000, -0.1250000000, -0.1250000000, -0.1250000000, 0.1250000000, -0.1250000000, -0.1250000000, -0.1250000000, -0.1250000000, 0.1250000000, -0.1250000000, -0.1250000000, 0.1250000000, 0.1250000000, -0.1250000000, -0.1250000000, -0.1250000000, 0.1250000000, -0.1250000000, -0.1250000000, -0.1250000000, 0.1250000000, -0.1250000000, 0.1250000000, -0.1250000000, -0.1250000000, 0.1250000000, 0.1250000000, -0.1250000000, 0.1250000000, -0.1250000000, 0.1250000000, -0.1250000000, -0.1250000000, -0.1250000000, -0.1250000000, -0.1250000000, 0.1250000000, 0.1250000000, 0.1250000000, -0.1250000000, 0.1250000000, -0.1250000000, 0.1250000000, 0.1250000000, -0.1250000000, -0.1250000000, -0.1250000000, 0.1250000000, 0.1250000000, 0.1250000000, -0.1250000000, -0.1250000000, -0.1250000000, 0.1250000000, -0.1250000000, 0.1250000000, 0.1250000000, 0.1250000000, -0.1250000000, 0.1250000000, -0.1250000000, -0.1250000000, 0.1250000000, 0.1250000000, -0.1250000000, -0.1250000000, 0.1250000000, -0.1250000000, -0.1250000000, -0.1250000000, 0.1250000000, -0.1250000000, 0.1250000000, -0.1250000000, 0.1250000000, -0.1250000000, -0.1250000000, 0.1250000000, -0.1250000000, 0.1250000000, -0.1250000000, -0.1250000000, 0.1250000000, 0.1250000000, -0.1250000000, 0.1250000000, 0.1250000000, 0.1250000000, -0.1250000000, 0.1250000000, -0.1250000000, -0.1250000000, -0.1250000000, 0.1250000000, 0.1250000000, -0.1250000000, 0.1250000000, -0.1250000000, -0.1250000000, 0.1250000000, 0.1250000000, -0.1250000000, -0.1250000000, 0.1250000000, -0.1250000000, -0.1250000000, 0.1250000000, -0.1250000000, -0.1250000000, -0.1250000000, 0.1250000000, 0.1250000000, 0.1250000000, -0.1250000000, -0.1250000000, 0.1250000000, 0.1250000000, -0.1250000000, -0.1250000000, 0.1250000000, 0.1250000000, -0.1250000000, 0.1250000000, -0.1250000000, 0.1250000000, 0.1250000000, 0.1250000000, 0.1250000000, -0.1250000000, -0.1250000000, 0.1250000000, 0.1250000000, 0.1250000000, 0.1250000000, -0.1250000000, 0.1250000000, -0.1250000000, 0.1250000000, -0.1250000000, -0.1250000000, -0.1250000000, -0.1250000000, -0.1250000000, 0.1250000000, 0.1250000000, -0.1250000000, -0.1250000000, 0.1250000000, 0.1250000000, 0.1250000000, 0.1250000000, -0.1250000000, 0.1250000000, -0.1250000000, 0.1250000000, -0.1250000000, 0.1250000000, -0.1250000000, 0.1250000000, -0.1250000000, 0.1250000000, 0.1250000000, -0.1250000000, -0.1250000000, -0.1250000000, 0.1250000000, 0.1250000000, 0.1250000000, -0.1250000000, -0.1250000000, -0.1250000000, 0.1250000000, -0.1250000000, -0.1250000000, 0.1250000000, 0.1250000000, 0.1250000000, -0.1250000000, 0.1250000000, 0.1250000000, 0.1250000000, 0.1250000000, 0.1250000000, -0.1250000000, 0.1250000000, -0.1250000000, -0.1250000000, -0.1250000000, 0.1250000000, -0.1250000000, 0.1250000000, -0.1250000000, -0.1250000000, 0.1250000000, -0.1250000000, -0.1250000000, 0.1250000000, -0.1250000000, -0.1250000000, -0.1250000000, -0.1250000000, 0.1250000000, -0.1250000000, -0.1250000000, -0.1250000000, -0.1250000000, 0.1250000000, 0.1250000000, -0.1250000000, -0.1250000000, 0.1250000000, -0.1250000000, 0.1250000000, -0.1250000000, 0.1250000000, 0.1250000000, -0.1250000000, 0.1250000000, -0.1250000000, -0.1250000000, -0.1250000000, 0.1250000000, -0.1250000000, -0.1250000000, 0.1250000000, -0.1250000000, 0.1250000000, 0.1250000000, -0.1250000000, -0.1250000000, 0.1250000000, 0.1250000000, 0.1250000000, -0.1250000000, 0.1250000000, -0.1250000000, -0.1250000000, 0.1250000000, -0.1250000000, -0.1250000000, -0.1250000000, 0.1250000000, -0.1250000000, 0.1250000000, -0.1250000000, 0.1250000000, 0.1250000000, 0.1250000000, -0.1250000000, -0.1250000000, -0.1250000000, 0.1250000000, 0.1250000000, 0.1250000000, -0.1250000000, 0.1250000000, -0.1250000000, -0.1250000000, 0.1250000000, -0.1250000000, -0.1250000000, 0.1250000000, 0.1250000000, 0.1250000000, 0.1250000000, 0.1250000000, -0.1250000000, 0.1250000000, 0.1250000000, -0.1250000000, -0.1250000000, -0.1250000000, -0.1250000000, 0.1250000000, -0.1250000000, 0.1250000000, -0.1250000000, -0.1250000000, 0.1250000000, -0.1250000000, 0.1250000000, -0.1250000000, -0.1250000000, -0.1250000000, -0.1250000000, -0.1250000000, -0.1250000000, -0.1250000000, -0.1250000000, -0.1250000000, 0.1250000000, 0.1250000000, -0.1250000000, -0.1250000000, 0.1250000000, 0.1250000000, 0.1250000000, 0.1250000000, 0.1250000000, 0.1250000000, 0.1250000000, 0.1250000000, -0.1250000000, -0.1250000000, -0.1250000000, -0.1250000000, 0.1250000000, -0.1250000000, 0.1250000000, -0.1250000000, -0.1250000000, -0.1250000000, 0.1250000000, 0.1250000000, -0.1250000000, 0.1250000000, 0.1250000000, -0.1250000000, 0.1250000000, -0.1250000000, -0.1250000000, 0.1250000000, 0.1250000000, -0.1250000000, 0.1250000000, 0.1250000000, -0.1250000000, -0.1250000000, -0.1250000000, -0.1250000000, -0.1250000000, -0.1250000000, 0.1250000000, -0.1250000000, 0.1250000000, 0.1250000000, -0.1250000000, -0.1250000000, 0.1250000000, 0.1250000000, -0.1250000000, -0.1250000000, 0.1250000000, 0.1250000000, 0.1250000000, 0.1250000000, -0.1250000000, 0.1250000000, 0.1250000000, 0.1250000000, -0.1250000000, -0.1250000000, 0.1250000000, 0.1250000000, -0.1250000000, -0.1250000000, -0.1250000000, -0.1250000000, 0.1250000000, -0.1250000000, 0.1250000000, 0.1250000000, -0.1250000000, -0.1250000000, -0.1250000000, 0.1250000000, -0.1250000000, -0.1250000000, -0.1250000000, 0.1250000000, 0.1250000000, 0.1250000000, -0.1250000000, -0.1250000000, -0.1250000000, 0.1250000000, -0.1250000000, 0.1250000000, 0.1250000000, 0.1250000000, 0.1250000000, -0.1250000000, -0.1250000000, 0.1250000000, -0.1250000000, -0.1250000000, -0.1250000000, -0.1250000000, -0.1250000000, 0.1250000000, -0.1250000000, 0.1250000000, 0.1250000000, -0.1250000000, -0.1250000000, 0.1250000000, -0.1250000000, -0.1250000000, 0.1250000000, 0.1250000000, 0.1250000000, -0.1250000000, -0.1250000000, 0.1250000000, -0.1250000000, 0.1250000000, -0.1250000000, -0.1250000000, -0.1250000000, -0.1250000000, -0.1250000000, 0.1250000000, 0.1250000000, -0.1250000000, 0.1250000000, 0.1250000000, -0.1250000000, -0.1250000000, -0.1250000000, 0.1250000000, 0.1250000000, -0.1250000000, -0.1250000000, -0.1250000000, 0.1250000000, -0.1250000000, 0.1250000000, 0.1250000000, 0.1250000000, -0.1250000000, 0.1250000000, -0.1250000000, -0.1250000000, 0.1250000000, 0.1250000000, 0.1250000000, -0.1250000000, 0.1250000000, -0.1250000000, -0.1250000000, 0.1250000000, -0.1250000000, 0.1250000000, -0.1250000000, -0.1250000000, -0.1250000000, -0.1250000000, 0.1250000000, -0.1250000000, 0.1250000000, -0.1250000000, 0.1250000000, 0.1250000000, 0.1250000000, -0.1250000000, -0.1250000000, -0.1250000000, 0.1250000000, 0.1250000000, -0.1250000000, 0.1250000000, 0.1250000000, -0.1250000000, 0.1250000000, -0.1250000000, 0.1250000000, -0.1250000000, -0.1250000000, -0.1250000000, 0.1250000000, 0.1250000000, 0.1250000000, 0.1250000000, -0.1250000000, 0.1250000000, -0.1250000000, -0.1250000000, -0.1250000000, 0.1250000000, -0.1250000000, 0.1250000000, 0.1250000000, 0.1250000000, -0.1250000000, 0.1250000000, -0.1250000000, -0.1250000000, 0.1250000000, -0.1250000000, -0.1250000000, -0.1250000000, 0.1250000000, -0.1250000000, -0.1250000000, 0.1250000000, 0.1250000000, 0.1250000000, 0.1250000000, -0.1250000000, 0.1250000000, 0.1250000000, -0.1250000000, 0.1250000000, -0.1250000000, 0.1250000000, -0.1250000000, -0.1250000000, 0.1250000000, -0.1250000000, -0.1250000000, 0.1250000000, 0.1250000000, -0.1250000000, 0.1250000000, -0.1250000000, 0.1250000000, 0.1250000000, -0.1250000000, -0.1250000000, 0.1250000000, -0.1250000000, 0.1250000000, -0.1250000000, 0.1250000000, 0.1250000000, -0.1250000000, 0.1250000000, 0.1250000000, -0.1250000000, -0.1250000000, -0.1250000000, 0.1250000000, 0.1250000000, 0.1250000000, -0.1250000000, 0.1250000000, 0.1250000000, 0.1250000000, -0.1250000000, -0.1250000000, -0.1250000000, 0.1250000000, -0.1250000000, -0.1250000000, -0.1250000000, 0.1250000000, 0.1250000000, -0.1250000000, -0.1250000000, -0.1250000000, 0.1250000000, -0.1250000000, 0.1250000000, 0.1250000000, -0.1250000000, 0.1250000000, -0.1250000000, 0.1250000000, 0.1250000000, 0.1250000000, -0.1250000000, 0.1250000000, 0.1250000000, -0.1250000000, 0.1250000000, -0.1250000000, -0.1250000000, 0.1250000000, -0.1250000000, -0.1250000000, -0.1250000000, -0.1250000000, -0.1250000000, 0.1250000000, -0.1250000000, -0.1250000000, 0.1250000000, 0.1250000000, 0.1250000000, -0.1250000000, -0.1250000000, 0.1250000000, -0.1250000000, -0.1250000000, -0.1250000000, -0.1250000000, 0.1250000000, -0.1250000000, 0.1250000000, 0.1250000000, 0.1250000000, 0.1250000000, 0.1250000000, -0.1250000000, 0.1250000000, -0.1250000000, -0.1250000000, 0.1250000000, -0.1250000000, -0.1250000000, -0.1250000000, -0.1250000000, -0.1250000000, -0.1250000000, 0.1250000000, 0.1250000000, -0.1250000000, -0.1250000000, 0.1250000000, -0.1250000000, 0.1250000000, -0.1250000000, 0.1250000000, 0.1250000000, -0.1250000000, 0.1250000000, 0.1250000000, 0.1250000000, -0.1250000000, 0.1250000000, 0.1250000000, -0.1250000000, -0.1250000000, -0.1250000000, -0.1250000000, 0.1250000000, -0.1250000000, -0.1250000000, -0.1250000000, 0.1250000000, -0.1250000000, 0.1250000000, 0.1250000000, -0.1250000000, 0.1250000000, 0.1250000000, 0.1250000000, 0.1250000000, 0.1250000000, 0.1250000000, 0.1250000000, -0.1250000000, 0.1250000000, -0.1250000000, -0.1250000000, -0.1250000000, 0.1250000000, -0.1250000000, 0.1250000000, 0.1250000000, -0.1250000000, -0.1250000000, 0.1250000000, -0.1250000000, -0.1250000000, 0.1250000000, -0.1250000000, 0.1250000000, 0.1250000000, 0.1250000000, 0.1250000000, 0.1250000000, -0.1250000000, 0.1250000000, 0.1250000000, 0.1250000000, 0.1250000000, -0.1250000000, -0.1250000000, 0.1250000000, -0.1250000000, 0.1250000000, -0.1250000000, -0.1250000000, -0.1250000000, -0.1250000000, -0.1250000000, -0.1250000000, 0.1250000000, -0.1250000000, 0.1250000000, -0.1250000000, 0.1250000000, 0.1250000000, -0.1250000000, 0.1250000000, 0.1250000000, -0.1250000000, 0.1250000000, -0.1250000000, 0.1250000000, -0.1250000000, 0.1250000000, 0.1250000000, 0.1250000000, 0.1250000000, 0.1250000000, -0.1250000000, 0.1250000000, -0.1250000000, 0.1250000000, -0.1250000000, 0.1250000000, -0.1250000000, -0.1250000000, -0.1250000000, 0.1250000000, -0.1250000000, -0.1250000000, 0.1250000000, -0.1250000000, 0.1250000000, -0.1250000000, 0.1250000000, 0.1250000000, -0.1250000000, 0.1250000000, 0.1250000000, -0.1250000000, -0.1250000000, -0.1250000000, -0.1250000000, -0.1250000000, -0.1250000000, -0.1250000000, 0.1250000000, -0.1250000000, -0.1250000000, 0.1250000000, -0.1250000000, -0.1250000000, 0.1250000000, 0.1250000000, -0.1250000000, -0.1250000000, 0.1250000000, 0.1250000000, -0.1250000000, 0.1250000000, -0.1250000000, 0.1250000000, 0.1250000000, -0.1250000000, 0.1250000000, -0.1250000000, 0.1250000000, 0.1250000000, 0.1250000000, -0.1250000000, -0.1250000000, 0.1250000000, -0.1250000000, -0.1250000000, 0.1250000000, -0.1250000000, -0.1250000000, 0.1250000000, -0.1250000000, 0.1250000000, 0.1250000000, 0.1250000000, -0.1250000000, -0.1250000000, -0.1250000000, 0.1250000000, -0.1250000000, -0.1250000000, -0.1250000000, 0.1250000000, -0.1250000000, -0.1250000000, -0.1250000000, 0.1250000000, -0.1250000000, -0.1250000000, 0.1250000000, -0.1250000000, 0.1250000000, 0.1250000000, -0.1250000000, 0.1250000000, 0.1250000000, 0.1250000000, -0.1250000000, -0.1250000000, 0.1250000000, 0.1250000000, -0.1250000000, -0.1250000000, 0.1250000000, 0.1250000000, 0.1250000000, 0.1250000000, 0.1250000000, 0.1250000000, -0.1250000000, -0.1250000000, -0.1250000000, 0.1250000000, -0.1250000000, 0.1250000000, 0.1250000000, 0.1250000000, -0.1250000000, 0.1250000000, -0.1250000000, -0.1250000000, -0.1250000000, 0.1250000000, 0.1250000000, -0.1250000000, -0.1250000000, 0.1250000000, -0.1250000000, -0.1250000000, 0.1250000000, -0.1250000000, -0.1250000000, -0.1250000000, -0.1250000000, -0.1250000000, 0.1250000000, 0.1250000000, 0.1250000000, -0.1250000000, -0.1250000000, 0.1250000000, 0.1250000000, 0.1250000000, -0.1250000000, 0.1250000000, 0.1250000000, 0.1250000000, 0.1250000000, -0.1250000000, -0.1250000000, 0.1250000000, -0.1250000000, 0.1250000000, 0.1250000000, 0.1250000000, -0.1250000000, -0.1250000000, -0.1250000000, 0.1250000000, -0.1250000000, 0.1250000000, 0.1250000000, -0.1250000000, -0.1250000000, 0.1250000000, 0.1250000000, 0.1250000000, -0.1250000000, 0.1250000000, 0.1250000000, -0.1250000000, 0.1250000000, 0.1250000000, -0.1250000000, 0.1250000000, -0.1250000000, -0.1250000000, 0.1250000000, -0.1250000000, -0.1250000000, -0.1250000000, -0.1250000000, 0.1250000000, -0.1250000000, 0.1250000000, 0.1250000000, 0.1250000000, -0.1250000000, -0.1250000000, 0.1250000000, -0.1250000000, -0.1250000000, 0.1250000000, -0.1250000000, 0.1250000000, -0.1250000000, -0.1250000000, -0.1250000000, -0.1250000000, -0.1250000000, -0.1250000000, 0.1250000000, -0.1250000000, 0.1250000000, 0.1250000000, -0.1250000000, -0.1250000000, 0.1250000000, 0.1250000000, 0.1250000000, -0.1250000000, 0.1250000000, 0.1250000000, 0.1250000000, -0.1250000000, 0.1250000000, 0.1250000000, -0.1250000000, -0.1250000000, -0.1250000000, -0.1250000000, -0.1250000000, 0.1250000000, 0.1250000000, -0.1250000000, -0.1250000000, -0.1250000000, 0.1250000000, -0.1250000000, -0.1250000000, 0.1250000000, -0.1250000000, -0.1250000000, 0.1250000000, -0.1250000000, -0.1250000000, -0.1250000000, 0.1250000000, 0.1250000000, 0.1250000000, 0.1250000000, 0.1250000000, 0.1250000000, 0.1250000000, -0.1250000000, 0.1250000000, -0.1250000000, -0.1250000000, 0.1250000000, -0.1250000000, 0.1250000000, 0.1250000000, 0.1250000000, 0.1250000000, -0.1250000000, 0.1250000000, -0.1250000000, -0.1250000000, -0.1250000000, -0.1250000000, -0.1250000000, -0.1250000000, 0.1250000000, -0.1250000000, -0.1250000000, 0.1250000000, -0.1250000000, 0.1250000000, -0.1250000000, 0.1250000000, -0.1250000000, -0.1250000000, -0.1250000000, 0.1250000000, 0.1250000000, -0.1250000000, 0.1250000000, -0.1250000000, 0.1250000000, 0.1250000000, -0.1250000000, 0.1250000000, -0.1250000000, -0.1250000000, -0.1250000000, 0.1250000000, 0.1250000000, 0.1250000000, 0.1250000000, 0.1250000000, 0.1250000000, -0.1250000000, 0.1250000000, -0.1250000000, -0.1250000000, 0.1250000000, -0.1250000000, 0.1250000000, -0.1250000000, 0.1250000000, 0.1250000000, -0.1250000000, -0.1250000000, 0.1250000000, -0.1250000000, 0.1250000000, 0.1250000000, -0.1250000000, -0.1250000000, -0.1250000000, 0.1250000000, -0.1250000000, -0.1250000000, -0.1250000000, 0.1250000000, 0.1250000000, 0.1250000000, 0.1250000000, 0.1250000000, -0.1250000000, -0.1250000000, -0.1250000000, 0.1250000000, 0.1250000000, 0.1250000000, -0.1250000000, 0.1250000000, -0.1250000000, -0.1250000000, -0.1250000000, -0.1250000000, -0.1250000000, 0.1250000000, -0.1250000000, -0.1250000000, -0.1250000000, -0.1250000000, 0.1250000000, -0.1250000000, -0.1250000000, 0.1250000000, -0.1250000000, 0.1250000000, 0.1250000000, -0.1250000000, -0.1250000000, 0.1250000000, -0.1250000000, -0.1250000000, 0.1250000000, 0.1250000000, 0.1250000000, -0.1250000000, -0.1250000000, 0.1250000000, -0.1250000000, -0.1250000000, -0.1250000000, 0.1250000000, 0.1250000000, -0.1250000000, 0.1250000000, -0.1250000000, 0.1250000000, -0.1250000000, 0.1250000000, 0.1250000000, 0.1250000000, 0.1250000000, -0.1250000000, 0.1250000000, 0.1250000000, 0.1250000000, 0.1250000000, 0.1250000000, -0.1250000000, -0.1250000000, 0.1250000000, -0.1250000000, -0.1250000000, 0.1250000000, -0.1250000000, 0.1250000000, 0.1250000000, -0.1250000000, -0.1250000000, 0.1250000000, 0.1250000000, -0.1250000000, 0.1250000000, 0.1250000000, 0.1250000000, 0.1250000000, -0.1250000000, 0.1250000000, 0.1250000000, 0.1250000000, 0.1250000000, -0.1250000000, 0.1250000000, 0.1250000000, -0.1250000000, 0.1250000000, 0.1250000000, -0.1250000000, -0.1250000000, 0.1250000000, -0.1250000000, 0.1250000000, 0.1250000000, 0.1250000000, 0.1250000000, 0.1250000000, -0.1250000000, 0.1250000000, -0.1250000000, -0.1250000000, 0.1250000000, 0.1250000000, -0.1250000000, -0.1250000000, -0.1250000000, -0.1250000000, -0.1250000000, 0.1250000000, 0.1250000000, 0.1250000000, 0.1250000000, -0.1250000000, -0.1250000000, 0.1250000000, 0.1250000000, 0.1250000000, -0.1250000000, 0.1250000000, 0.1250000000, 0.1250000000, -0.1250000000, -0.1250000000, 0.1250000000, -0.1250000000, -0.1250000000, -0.1250000000, -0.1250000000, -0.1250000000, -0.1250000000, -0.1250000000, -0.1250000000, 0.1250000000, -0.1250000000, 0.1250000000, 0.1250000000, -0.1250000000, 0.1250000000, -0.1250000000, 0.1250000000, -0.1250000000, -0.1250000000, 0.1250000000, 0.1250000000, 0.1250000000, 0.1250000000, 0.1250000000, 0.1250000000, -0.1250000000, 0.1250000000, -0.1250000000, -0.1250000000, -0.1250000000, -0.1250000000, -0.1250000000, 0.1250000000, 0.1250000000, 0.1250000000, -0.1250000000, 0.1250000000, 0.1250000000, 0.1250000000, -0.1250000000, -0.1250000000, 0.1250000000, -0.1250000000, -0.1250000000, -0.1250000000, -0.1250000000, 0.1250000000, 0.1250000000, -0.1250000000, -0.1250000000, -0.1250000000, 0.1250000000, -0.1250000000, 0.1250000000, 0.1250000000, 0.1250000000, -0.1250000000, 0.1250000000, 0.1250000000, -0.1250000000, 0.1250000000, -0.1250000000, -0.1250000000, -0.1250000000, 0.1250000000, -0.1250000000, 0.1250000000, -0.1250000000, 0.1250000000, -0.1250000000, 0.1250000000, -0.1250000000, -0.1250000000, -0.1250000000, -0.1250000000, 0.1250000000, -0.1250000000, -0.1250000000, -0.1250000000, -0.1250000000, 0.1250000000, -0.1250000000, 0.1250000000, -0.1250000000, -0.1250000000, 0.1250000000, 0.1250000000, 0.1250000000, -0.1250000000, -0.1250000000, -0.1250000000, -0.1250000000, -0.1250000000, 0.1250000000, 0.1250000000, -0.1250000000, 0.1250000000, -0.1250000000, -0.1250000000, -0.1250000000, -0.1250000000, 0.1250000000, -0.1250000000, -0.1250000000, 0.1250000000, 0.1250000000, -0.1250000000, 0.1250000000, -0.1250000000, -0.1250000000, 0.1250000000, -0.1250000000, -0.1250000000, 0.1250000000, 0.1250000000, -0.1250000000, 0.1250000000, -0.1250000000, -0.1250000000, -0.1250000000, 0.1250000000, -0.1250000000, -0.1250000000, 0.1250000000, -0.1250000000, 0.1250000000, 0.1250000000, -0.1250000000, -0.1250000000, 0.1250000000, -0.1250000000, -0.1250000000, 0.1250000000, 0.1250000000, -0.1250000000, 0.1250000000, -0.1250000000, 0.1250000000, -0.1250000000, -0.1250000000, 0.1250000000, -0.1250000000, 0.1250000000, -0.1250000000, -0.1250000000, 0.1250000000, -0.1250000000, 0.1250000000, -0.1250000000, -0.1250000000, 0.1250000000, -0.1250000000, -0.1250000000, 0.1250000000, -0.1250000000, -0.1250000000, 0.1250000000, 0.1250000000, -0.1250000000, -0.1250000000, 0.1250000000, -0.1250000000, -0.1250000000, 0.1250000000, 0.1250000000, 0.1250000000, 0.1250000000, 0.1250000000, -0.1250000000, 0.1250000000, 0.1250000000, 0.1250000000, -0.1250000000, -0.1250000000, 0.1250000000, -0.1250000000, -0.1250000000, -0.1250000000, -0.1250000000, -0.1250000000, 0.1250000000, 0.1250000000, 0.1250000000, 0.1250000000, -0.1250000000, 0.1250000000, -0.1250000000, 0.1250000000, -0.1250000000, -0.1250000000, 0.1250000000, 0.1250000000, 0.1250000000, -0.1250000000, 0.1250000000, 0.1250000000, 0.1250000000, 0.1250000000, -0.1250000000, -0.1250000000, 0.1250000000, -0.1250000000, -0.1250000000, 0.1250000000, -0.1250000000, 0.1250000000, 0.1250000000, 0.1250000000, -0.1250000000, -0.1250000000, 0.1250000000, 0.1250000000, -0.1250000000, -0.1250000000, -0.1250000000, 0.1250000000, -0.1250000000, -0.1250000000, 0.1250000000, 0.1250000000, 0.1250000000, -0.1250000000, -0.1250000000, 0.1250000000, -0.1250000000, 0.1250000000, 0.1250000000, -0.1250000000, -0.1250000000, 0.1250000000, 0.1250000000, -0.1250000000, 0.1250000000, 0.1250000000, 0.1250000000, -0.1250000000, 0.1250000000, -0.1250000000, -0.1250000000, 0.1250000000, -0.1250000000, 0.1250000000, 0.1250000000, -0.1250000000, -0.1250000000, -0.1250000000, -0.1250000000, -0.1250000000, 0.1250000000, -0.1250000000, -0.1250000000, 0.1250000000, -0.1250000000, -0.1250000000, -0.1250000000, -0.1250000000, 0.1250000000, -0.1250000000, -0.1250000000, 0.1250000000, 0.1250000000, -0.1250000000, -0.1250000000, 0.1250000000, -0.1250000000, 0.1250000000, 0.1250000000, -0.1250000000, 0.1250000000, 0.1250000000, 0.1250000000, -0.1250000000, 0.1250000000, 0.1250000000, -0.1250000000, -0.1250000000, 0.1250000000, 0.1250000000, -0.1250000000, 0.1250000000, 0.1250000000, 0.1250000000, -0.1250000000, -0.1250000000, -0.1250000000, -0.1250000000, 0.1250000000, 0.1250000000, 0.1250000000, -0.1250000000, -0.1250000000, -0.1250000000, 0.1250000000, -0.1250000000, -0.1250000000, 0.1250000000, 0.1250000000, -0.1250000000, -0.1250000000, -0.1250000000, -0.1250000000, -0.1250000000, 0.1250000000, -0.1250000000, -0.1250000000, 0.1250000000, -0.1250000000, 0.1250000000, 0.1250000000, 0.1250000000, -0.1250000000, 0.1250000000, 0.1250000000, 0.1250000000, -0.1250000000, -0.1250000000, 0.1250000000, 0.1250000000, 0.1250000000, -0.1250000000, 0.1250000000, -0.1250000000, 0.1250000000, 0.1250000000, -0.1250000000, 0.1250000000, -0.1250000000, -0.1250000000, -0.1250000000, -0.1250000000, -0.1250000000, 0.1250000000, -0.1250000000, 0.1250000000, 0.1250000000, 0.1250000000, 0.1250000000, 0.1250000000, 0.1250000000, 0.1250000000, 0.1250000000, 0.1250000000, -0.1250000000, -0.1250000000, 0.1250000000, -0.1250000000, 0.1250000000, -0.1250000000, -0.1250000000, -0.1250000000, -0.1250000000, 0.1250000000, -0.1250000000, 0.1250000000, -0.1250000000, 0.1250000000, -0.1250000000, -0.1250000000, -0.1250000000, -0.1250000000, 0.1250000000, -0.1250000000, 0.1250000000, 0.1250000000, 0.1250000000, 0.1250000000, -0.1250000000, 0.1250000000, 0.1250000000, -0.1250000000, 0.1250000000, 0.1250000000, -0.1250000000, 0.1250000000, 0.1250000000, 0.1250000000, -0.1250000000, -0.1250000000, 0.1250000000, 0.1250000000, 0.1250000000, 0.1250000000, -0.1250000000, 0.1250000000, 0.1250000000, 0.1250000000, -0.1250000000, -0.1250000000, -0.1250000000, -0.1250000000, 0.1250000000, 0.1250000000, -0.1250000000, 0.1250000000, -0.1250000000, 0.1250000000, -0.1250000000, -0.1250000000, 0.1250000000, 0.1250000000, -0.1250000000, 0.1250000000, -0.1250000000, -0.1250000000, -0.1250000000, 0.1250000000, -0.1250000000, 0.1250000000, -0.1250000000, 0.1250000000, -0.1250000000, -0.1250000000, 0.1250000000, 0.1250000000, 0.1250000000, 0.1250000000, 0.1250000000, 0.1250000000, -0.1250000000, 0.1250000000, 0.1250000000, -0.1250000000, -0.1250000000, 0.1250000000, 0.1250000000, 0.1250000000, -0.1250000000, 0.1250000000, -0.1250000000, -0.1250000000, -0.1250000000, -0.1250000000, -0.1250000000, -0.1250000000, 0.1250000000, -0.1250000000, 0.1250000000, -0.1250000000, -0.1250000000, 0.1250000000, 0.1250000000, 0.1250000000, 0.1250000000, 0.1250000000, -0.1250000000, 0.1250000000, -0.1250000000, -0.1250000000, -0.1250000000, -0.1250000000, 0.1250000000, -0.1250000000, 0.1250000000, 0.1250000000, -0.1250000000, -0.1250000000, -0.1250000000, -0.1250000000, -0.1250000000, 0.1250000000, 0.1250000000, 0.1250000000, -0.1250000000, -0.1250000000, -0.1250000000, 0.1250000000, 0.1250000000, 0.1250000000, 0.1250000000, -0.1250000000, 0.1250000000, 0.1250000000, 0.1250000000, -0.1250000000, -0.1250000000, -0.1250000000, -0.1250000000, -0.1250000000, -0.1250000000, 0.1250000000, -0.1250000000, -0.1250000000, 0.1250000000, -0.1250000000, -0.1250000000, 0.1250000000, 0.1250000000, -0.1250000000, -0.1250000000, 0.1250000000, 0.1250000000, 0.1250000000, -0.1250000000, 0.1250000000, -0.1250000000, 0.1250000000, -0.1250000000, -0.1250000000, 0.1250000000, -0.1250000000, -0.1250000000, 0.1250000000, -0.1250000000, -0.1250000000, -0.1250000000, 0.1250000000, -0.1250000000, -0.1250000000, 0.1250000000, 0.1250000000, 0.1250000000, 0.1250000000, -0.1250000000, -0.1250000000, -0.1250000000, 0.1250000000, 0.1250000000, -0.1250000000, -0.1250000000, -0.1250000000, 0.1250000000, 0.1250000000, 0.1250000000, 0.1250000000, 0.1250000000, 0.1250000000, -0.1250000000, -0.1250000000, -0.1250000000, 0.1250000000, -0.1250000000, -0.1250000000, -0.1250000000, -0.1250000000, -0.1250000000, -0.1250000000, -0.1250000000, 0.1250000000, -0.1250000000, 0.1250000000, 0.1250000000, 0.1250000000, -0.1250000000, -0.1250000000, 0.1250000000, 0.1250000000, 0.1250000000, -0.1250000000, 0.1250000000, 0.1250000000, 0.1250000000, -0.1250000000, 0.1250000000, -0.1250000000, 0.1250000000, 0.1250000000, 0.1250000000, 0.1250000000, -0.1250000000, 0.1250000000, 0.1250000000, -0.1250000000, -0.1250000000, 0.1250000000, -0.1250000000, 0.1250000000, -0.1250000000, -0.1250000000, -0.1250000000, 0.1250000000, 0.1250000000, 0.1250000000, -0.1250000000, -0.1250000000, 0.1250000000, -0.1250000000, -0.1250000000, 0.1250000000, -0.1250000000, -0.1250000000, -0.1250000000, 0.1250000000, 0.1250000000, -0.1250000000, -0.1250000000, 0.1250000000, 0.1250000000, 0.1250000000, 0.1250000000, -0.1250000000, -0.1250000000, 0.1250000000, -0.1250000000, 0.1250000000, -0.1250000000, 0.1250000000, -0.1250000000, -0.1250000000, -0.1250000000, -0.1250000000, 0.1250000000, -0.1250000000, 0.1250000000, -0.1250000000, 0.1250000000, 0.1250000000, 0.1250000000, 0.1250000000, 0.1250000000, -0.1250000000, -0.1250000000, -0.1250000000, -0.1250000000, 0.1250000000, 0.1250000000, -0.1250000000, 0.1250000000, -0.1250000000, -0.1250000000, -0.1250000000, 0.1250000000, 0.1250000000, 0.1250000000, 0.1250000000, -0.1250000000, -0.1250000000, 0.1250000000, -0.1250000000, -0.1250000000, 0.1250000000, -0.1250000000, -0.1250000000, 0.1250000000, -0.1250000000, -0.1250000000, 0.1250000000, 0.1250000000, -0.1250000000, -0.1250000000, -0.1250000000, 0.1250000000, 0.1250000000, -0.1250000000, 0.1250000000, 0.1250000000, 0.1250000000, -0.1250000000, -0.1250000000, 0.1250000000, -0.1250000000, -0.1250000000, -0.1250000000, -0.1250000000, 0.1250000000, -0.1250000000, -0.1250000000, 0.1250000000, -0.1250000000, -0.1250000000, 0.1250000000, -0.1250000000, 0.1250000000, 0.1250000000, 0.1250000000, -0.1250000000, -0.1250000000, -0.1250000000, 0.1250000000, -0.1250000000, 0.1250000000, -0.1250000000, 0.1250000000, 0.1250000000, -0.1250000000, -0.1250000000, 0.1250000000, -0.1250000000, -0.1250000000, -0.1250000000, -0.1250000000, 0.1250000000, -0.1250000000, 0.1250000000, 0.1250000000, -0.1250000000, -0.1250000000, -0.1250000000, 0.1250000000, 0.1250000000, -0.1250000000, -0.1250000000, -0.1250000000, -0.1250000000, 0.1250000000, 0.1250000000, -0.1250000000, -0.1250000000, 0.1250000000, -0.1250000000, 0.1250000000, 0.1250000000, -0.1250000000, -0.1250000000, 0.1250000000, 0.1250000000, 0.1250000000, -0.1250000000, 0.1250000000, -0.1250000000, 0.1250000000, 0.1250000000, 0.1250000000, -0.1250000000, 0.1250000000, -0.1250000000, 0.1250000000, -0.1250000000, 0.1250000000, -0.1250000000, 0.1250000000, 0.1250000000, -0.1250000000, -0.1250000000, 0.1250000000, -0.1250000000, -0.1250000000, -0.1250000000, 0.1250000000, -0.1250000000, 0.1250000000, 0.1250000000, 0.1250000000, -0.1250000000, -0.1250000000, 0.1250000000, 0.1250000000, 0.1250000000, -0.1250000000, -0.1250000000, -0.1250000000, 0.1250000000, 0.1250000000, 0.1250000000, 0.1250000000, 0.1250000000, 0.1250000000, 0.1250000000, -0.1250000000, 0.1250000000, -0.1250000000, -0.1250000000, -0.1250000000, 0.1250000000, 0.1250000000, -0.1250000000, 0.1250000000, 0.1250000000, 0.1250000000, -0.1250000000, -0.1250000000, 0.1250000000, 0.1250000000, -0.1250000000, -0.1250000000, 0.1250000000, 0.1250000000, -0.1250000000, 0.1250000000, 0.1250000000, -0.1250000000, -0.1250000000, -0.1250000000, -0.1250000000, -0.1250000000, -0.1250000000, 0.1250000000, 0.1250000000, -0.1250000000, 0.1250000000, 0.1250000000, -0.1250000000, 0.1250000000, 0.1250000000, -0.1250000000, -0.1250000000, 0.1250000000, 0.1250000000, -0.1250000000, -0.1250000000, 0.1250000000, 0.1250000000, -0.1250000000, 0.1250000000, -0.1250000000, 0.1250000000, -0.1250000000, 0.1250000000, 0.1250000000, 0.1250000000, -0.1250000000, 0.1250000000, 0.1250000000, -0.1250000000, 0.1250000000, 0.1250000000, 0.1250000000, -0.1250000000, -0.1250000000, -0.1250000000, 0.1250000000, 0.1250000000, 0.1250000000, 0.1250000000, -0.1250000000, 0.1250000000, 0.1250000000, -0.1250000000, -0.1250000000, 0.1250000000, 0.1250000000, -0.1250000000, -0.1250000000, -0.1250000000, -0.1250000000, -0.1250000000, -0.1250000000, 0.1250000000, -0.1250000000, -0.1250000000, -0.1250000000, -0.1250000000, 0.1250000000, 0.1250000000, 0.1250000000, -0.1250000000, 0.1250000000, 0.1250000000, 0.1250000000, -0.1250000000, 0.1250000000, 0.1250000000, -0.1250000000, -0.1250000000, 0.1250000000, -0.1250000000, -0.1250000000, -0.1250000000, -0.1250000000, -0.1250000000, 0.1250000000, -0.1250000000, 0.1250000000, 0.1250000000, -0.1250000000, 0.1250000000, 0.1250000000, 0.1250000000, -0.1250000000, 0.1250000000, 0.1250000000, 0.1250000000, 0.1250000000, 0.1250000000, -0.1250000000, 0.1250000000, -0.1250000000, -0.1250000000, -0.1250000000, -0.1250000000, -0.1250000000, -0.1250000000, -0.1250000000, 0.1250000000, 0.1250000000, 0.1250000000, -0.1250000000, -0.1250000000, 0.1250000000, 0.1250000000, 0.1250000000, -0.1250000000, 0.1250000000, -0.1250000000, -0.1250000000, 0.1250000000, -0.1250000000, -0.1250000000, 0.1250000000, 0.1250000000, 0.1250000000, 0.1250000000, -0.1250000000, -0.1250000000, -0.1250000000, 0.1250000000, 0.1250000000, 0.1250000000, 0.1250000000, 0.1250000000, 0.1250000000, -0.1250000000, -0.1250000000, 0.1250000000, 0.1250000000, 0.1250000000, 0.1250000000, 0.1250000000, -0.1250000000, 0.1250000000, 0.1250000000, 0.1250000000, -0.1250000000, -0.1250000000, -0.1250000000, 0.1250000000, -0.1250000000, 0.1250000000, 0.1250000000, -0.1250000000, -0.1250000000, -0.1250000000, 0.1250000000, 0.1250000000, 0.1250000000, 0.1250000000, 0.1250000000, 0.1250000000, 0.1250000000, 0.1250000000, -0.1250000000, -0.1250000000, -0.1250000000, 0.1250000000, 0.1250000000, -0.1250000000, 0.1250000000, -0.1250000000, -0.1250000000, -0.1250000000, -0.1250000000, -0.1250000000, -0.1250000000, -0.1250000000, -0.1250000000, 0.1250000000, 0.1250000000, 0.1250000000, 0.1250000000, 0.1250000000, -0.1250000000, 0.1250000000, -0.1250000000, -0.1250000000, 0.1250000000, 0.1250000000, -0.1250000000, 0.1250000000, 0.1250000000, -0.1250000000, 0.1250000000, 0.1250000000, -0.1250000000, -0.1250000000, -0.1250000000, -0.1250000000, 0.1250000000, -0.1250000000, 0.1250000000, 0.1250000000, 0.1250000000, -0.1250000000, 0.1250000000, 0.1250000000, -0.1250000000, -0.1250000000, -0.1250000000, 0.1250000000, -0.1250000000, 0.1250000000, 0.1250000000, 0.1250000000, -0.1250000000, 0.1250000000, -0.1250000000, 0.1250000000, 0.1250000000, 0.1250000000, 0.1250000000, 0.1250000000, 0.1250000000, -0.1250000000, 0.1250000000, -0.1250000000, 0.1250000000, -0.1250000000, -0.1250000000, 0.1250000000, -0.1250000000, -0.1250000000, 0.1250000000, 0.1250000000, 0.1250000000, -0.1250000000, 0.1250000000, -0.1250000000, 0.1250000000, -0.1250000000, -0.1250000000, -0.1250000000, 0.1250000000, 0.1250000000, 0.1250000000, -0.1250000000, -0.1250000000, 0.1250000000, 0.1250000000, -0.1250000000, -0.1250000000, -0.1250000000, 0.1250000000, 0.1250000000, 0.1250000000, 0.1250000000, 0.1250000000, 0.1250000000, -0.1250000000, -0.1250000000, -0.1250000000, 0.1250000000, 0.1250000000, 0.1250000000, 0.1250000000, 0.1250000000, -0.1250000000, 0.1250000000, -0.1250000000, -0.1250000000, -0.1250000000, -0.1250000000, -0.1250000000, -0.1250000000, 0.1250000000, 0.1250000000, 0.1250000000, 0.1250000000, -0.1250000000, -0.1250000000, 0.1250000000, -0.1250000000, -0.1250000000, -0.1250000000, 0.1250000000, 0.1250000000, -0.1250000000, -0.1250000000, -0.1250000000, -0.1250000000, -0.1250000000, 0.1250000000, -0.1250000000, 0.1250000000, 0.1250000000, 0.1250000000, 0.1250000000, 0.1250000000, -0.1250000000, 0.1250000000, -0.1250000000, 0.1250000000, 0.1250000000, -0.1250000000, -0.1250000000, 0.1250000000, 0.1250000000, 0.1250000000, 0.1250000000, 0.1250000000, 0.1250000000, -0.1250000000, -0.1250000000, -0.1250000000, 0.1250000000, 0.1250000000, -0.1250000000, -0.1250000000, -0.1250000000, 0.1250000000, 0.1250000000, -0.1250000000, 0.1250000000, 0.1250000000, 0.1250000000, -0.1250000000, -0.1250000000, 0.1250000000, 0.1250000000, -0.1250000000, -0.1250000000, -0.1250000000, 0.1250000000, 0.1250000000, -0.1250000000, 0.1250000000, -0.1250000000, -0.1250000000, -0.1250000000, -0.1250000000, -0.1250000000, 0.1250000000, -0.1250000000, -0.1250000000, -0.1250000000, 0.1250000000, 0.1250000000, -0.1250000000, -0.1250000000, -0.1250000000, 0.1250000000, 0.1250000000, 0.1250000000, 0.1250000000, -0.1250000000, -0.1250000000, -0.1250000000, 0.1250000000, -0.1250000000, -0.1250000000, 0.1250000000, -0.1250000000, -0.1250000000, -0.1250000000, 0.1250000000, -0.1250000000, -0.1250000000, -0.1250000000, 0.1250000000, 0.1250000000, -0.1250000000, 0.1250000000, -0.1250000000, 0.1250000000, -0.1250000000, -0.1250000000, -0.1250000000, -0.1250000000, 0.1250000000, 0.1250000000, -0.1250000000, -0.1250000000, 0.1250000000, -0.1250000000, -0.1250000000, -0.1250000000, -0.1250000000, 0.1250000000, -0.1250000000, 0.1250000000, 0.1250000000, -0.1250000000, 0.1250000000, 0.1250000000, 0.1250000000, -0.1250000000, -0.1250000000, 0.1250000000, -0.1250000000, -0.1250000000, -0.1250000000, -0.1250000000, -0.1250000000, -0.1250000000, -0.1250000000, 0.1250000000, 0.1250000000, -0.1250000000, 0.1250000000, -0.1250000000, 0.1250000000, -0.1250000000, 0.1250000000, -0.1250000000, -0.1250000000, -0.1250000000, -0.1250000000, -0.1250000000, 0.1250000000, -0.1250000000, 0.1250000000, -0.1250000000, -0.1250000000, -0.1250000000, 0.1250000000, -0.1250000000, 0.1250000000, -0.1250000000, 0.1250000000, 0.1250000000, -0.1250000000, 0.1250000000, 0.1250000000, -0.1250000000, -0.1250000000, 0.1250000000, 0.1250000000, -0.1250000000, 0.1250000000, -0.1250000000, -0.1250000000, -0.1250000000, -0.1250000000, 0.1250000000, 0.1250000000, 0.1250000000, -0.1250000000, -0.1250000000, 0.1250000000, 0.1250000000, -0.1250000000, 0.1250000000, 0.1250000000, -0.1250000000, 0.1250000000, -0.1250000000, -0.1250000000, 0.1250000000, -0.1250000000, 0.1250000000, 0.1250000000, -0.1250000000, -0.1250000000, 0.1250000000, 0.1250000000, 0.1250000000, 0.1250000000, -0.1250000000, -0.1250000000, -0.1250000000, -0.1250000000, -0.1250000000, -0.1250000000, -0.1250000000, -0.1250000000, 0.1250000000, 0.1250000000, -0.1250000000, 0.1250000000, 0.1250000000, -0.1250000000, -0.1250000000, 0.1250000000, -0.1250000000, 0.1250000000, 0.1250000000, 0.1250000000, 0.1250000000, -0.1250000000, -0.1250000000, 0.1250000000, -0.1250000000, -0.1250000000, -0.1250000000, 0.1250000000, -0.1250000000, 0.1250000000, -0.1250000000, -0.1250000000, 0.1250000000, -0.1250000000, 0.1250000000, -0.1250000000, 0.1250000000, -0.1250000000, 0.1250000000, 0.1250000000, -0.1250000000, 0.1250000000, -0.1250000000, -0.1250000000, -0.1250000000, -0.1250000000, -0.1250000000, 0.1250000000, 0.1250000000, -0.1250000000, -0.1250000000, -0.1250000000, -0.1250000000, 0.1250000000, -0.1250000000, 0.1250000000, -0.1250000000, -0.1250000000, -0.1250000000, -0.1250000000, 0.1250000000, 0.1250000000, -0.1250000000, 0.1250000000, 0.1250000000, -0.1250000000, -0.1250000000, -0.1250000000, -0.1250000000, -0.1250000000, 0.1250000000, -0.1250000000, 0.1250000000, -0.1250000000, -0.1250000000, 0.1250000000, -0.1250000000, -0.1250000000, 0.1250000000, -0.1250000000, 0.1250000000, -0.1250000000, -0.1250000000, 0.1250000000, -0.1250000000, 0.1250000000, 0.1250000000, -0.1250000000, -0.1250000000, 0.1250000000, -0.1250000000, -0.1250000000, 0.1250000000, 0.1250000000, 0.1250000000, -0.1250000000, 0.1250000000, 0.1250000000, -0.1250000000, 0.1250000000, -0.1250000000, -0.1250000000, -0.1250000000, 0.1250000000, 0.1250000000, 0.1250000000, -0.1250000000, -0.1250000000, 0.1250000000, 0.1250000000, -0.1250000000, -0.1250000000, 0.1250000000, -0.1250000000, 0.1250000000, 0.1250000000, -0.1250000000, -0.1250000000, -0.1250000000, 0.1250000000, 0.1250000000, -0.1250000000, -0.1250000000, 0.1250000000, 0.1250000000, 0.1250000000, 0.1250000000, -0.1250000000, 0.1250000000, -0.1250000000, 0.1250000000, 0.1250000000, -0.1250000000, -0.1250000000, -0.1250000000, -0.1250000000, -0.1250000000, 0.1250000000, -0.1250000000, -0.1250000000, 0.1250000000, -0.1250000000, -0.1250000000, -0.1250000000, -0.1250000000, 0.1250000000, 0.1250000000, 0.1250000000, 0.1250000000, 0.1250000000, 0.1250000000, 0.1250000000, -0.1250000000, 0.1250000000, -0.1250000000, -0.1250000000, -0.1250000000, -0.1250000000, -0.1250000000, -0.1250000000, 0.1250000000, -0.1250000000, 0.1250000000, 0.1250000000, 0.1250000000, 0.1250000000, 0.1250000000, -0.1250000000, 0.1250000000, -0.1250000000, 0.1250000000, 0.1250000000, -0.1250000000, -0.1250000000, 0.1250000000, -0.1250000000, 0.1250000000, 0.1250000000, 0.1250000000, 0.1250000000, -0.1250000000, -0.1250000000, 0.1250000000, -0.1250000000, 0.1250000000, 0.1250000000, 0.1250000000, -0.1250000000, -0.1250000000, -0.1250000000, -0.1250000000, -0.1250000000, 0.1250000000, -0.1250000000, -0.1250000000, 0.1250000000, 0.1250000000, 0.1250000000, -0.1250000000, -0.1250000000, 0.1250000000, -0.1250000000, 0.1250000000, 0.1250000000, 0.1250000000, 0.1250000000, 0.1250000000, 0.1250000000, -0.1250000000, 0.1250000000, -0.1250000000, -0.1250000000, -0.1250000000, -0.1250000000, -0.1250000000, -0.1250000000, -0.1250000000, 0.1250000000, 0.1250000000, -0.1250000000, 0.1250000000, 0.1250000000, 0.1250000000, -0.1250000000, 0.1250000000, -0.1250000000, 0.1250000000, -0.1250000000, -0.1250000000, 0.1250000000, -0.1250000000, 0.1250000000, -0.1250000000, 0.1250000000, -0.1250000000, -0.1250000000, -0.1250000000, 0.1250000000, 0.1250000000, 0.1250000000, -0.1250000000, 0.1250000000, 0.1250000000, -0.1250000000, 0.1250000000, -0.1250000000, 0.1250000000, 0.1250000000, -0.1250000000, -0.1250000000, 0.1250000000, -0.1250000000, -0.1250000000, 0.1250000000, 0.1250000000, 0.1250000000, 0.1250000000, -0.1250000000, 0.1250000000, 0.1250000000, -0.1250000000, 0.1250000000, -0.1250000000, 0.1250000000, -0.1250000000, -0.1250000000, -0.1250000000, -0.1250000000, 0.1250000000, 0.1250000000, -0.1250000000, 0.1250000000, -0.1250000000, 0.1250000000, -0.1250000000, 0.1250000000, 0.1250000000, -0.1250000000, -0.1250000000, 0.1250000000, 0.1250000000, -0.1250000000, 0.1250000000, -0.1250000000, -0.1250000000, 0.1250000000, -0.1250000000, 0.1250000000, -0.1250000000, -0.1250000000, 0.1250000000, 0.1250000000, -0.1250000000, 0.1250000000, 0.1250000000, -0.1250000000, -0.1250000000, 0.1250000000, 0.1250000000, -0.1250000000, -0.1250000000, 0.1250000000, 0.1250000000, 0.1250000000, 0.1250000000, 0.1250000000, -0.1250000000, 0.1250000000, 0.1250000000, 0.1250000000, -0.1250000000, 0.1250000000, -0.1250000000, 0.1250000000, 0.1250000000, -0.1250000000, -0.1250000000, 0.1250000000, 0.1250000000, 0.1250000000, 0.1250000000, -0.1250000000, -0.1250000000, -0.1250000000, 0.1250000000, -0.1250000000, -0.1250000000, 0.1250000000, 0.1250000000, -0.1250000000, -0.1250000000, 0.1250000000, 0.1250000000, 0.1250000000, 0.1250000000, -0.1250000000, -0.1250000000, -0.1250000000, 0.1250000000, 0.1250000000, -0.1250000000, -0.1250000000, 0.1250000000, 0.1250000000, 0.1250000000, 0.1250000000, 0.1250000000, 0.1250000000, 0.1250000000, -0.1250000000, -0.1250000000, 0.1250000000, 0.1250000000, 0.1250000000, -0.1250000000, -0.1250000000, 0.1250000000, 0.1250000000, -0.1250000000, -0.1250000000, 0.1250000000, 0.1250000000, -0.1250000000, 0.1250000000, 0.1250000000, 0.1250000000, -0.1250000000, -0.1250000000, 0.1250000000, -0.1250000000, 0.1250000000, 0.1250000000, 0.1250000000, -0.1250000000, -0.1250000000, 0.1250000000, -0.1250000000, 0.1250000000, -0.1250000000, -0.1250000000, 0.1250000000, -0.1250000000, -0.1250000000, -0.1250000000, -0.1250000000, -0.1250000000, 0.1250000000, 0.1250000000, 0.1250000000, 0.1250000000, 0.1250000000, -0.1250000000, 0.1250000000, 0.1250000000, 0.1250000000, -0.1250000000, -0.1250000000, 0.1250000000, -0.1250000000, 0.1250000000, 0.1250000000, 0.1250000000, 0.1250000000, -0.1250000000, 0.1250000000, 0.1250000000, 0.1250000000, 0.1250000000, 0.1250000000, -0.1250000000, 0.1250000000, -0.1250000000, -0.1250000000, -0.1250000000, 0.1250000000, 0.1250000000, -0.1250000000, 0.1250000000, -0.1250000000, -0.1250000000, -0.1250000000, -0.1250000000, 0.1250000000, 0.1250000000, -0.1250000000, -0.1250000000, -0.1250000000, -0.1250000000, -0.1250000000, 0.1250000000, -0.1250000000, 0.1250000000, 0.1250000000, -0.1250000000, 0.1250000000, 0.1250000000, -0.1250000000, 0.1250000000, -0.1250000000, 0.1250000000, -0.1250000000, 0.1250000000, -0.1250000000, 0.1250000000, -0.1250000000, -0.1250000000, 0.1250000000, 0.1250000000, -0.1250000000, -0.1250000000, 0.1250000000, -0.1250000000, -0.1250000000, -0.1250000000, -0.1250000000, -0.1250000000, -0.1250000000, 0.1250000000, 0.1250000000, 0.1250000000, -0.1250000000, 0.1250000000, 0.1250000000, -0.1250000000, 0.1250000000, 0.1250000000, -0.1250000000, 0.1250000000, 0.1250000000, -0.1250000000, -0.1250000000, 0.1250000000, -0.1250000000, 0.1250000000, -0.1250000000, -0.1250000000, 0.1250000000, 0.1250000000, -0.1250000000, -0.1250000000, 0.1250000000, 0.1250000000, 0.1250000000, 0.1250000000, 0.1250000000, 0.1250000000, 0.1250000000, 0.1250000000, -0.1250000000, -0.1250000000, -0.1250000000, -0.1250000000, 0.1250000000, -0.1250000000, -0.1250000000, 0.1250000000, 0.1250000000, 0.1250000000, 0.1250000000, -0.1250000000, 0.1250000000, -0.1250000000, 0.1250000000, -0.1250000000, 0.1250000000, -0.1250000000, 0.1250000000, 0.1250000000, -0.1250000000, 0.1250000000, -0.1250000000, -0.1250000000, 0.1250000000, 0.1250000000, 0.1250000000, -0.1250000000, 0.1250000000, -0.1250000000, -0.1250000000, -0.1250000000, 0.1250000000, 0.1250000000, -0.1250000000, 0.1250000000, 0.1250000000, -0.1250000000, 0.1250000000, -0.1250000000, 0.1250000000, -0.1250000000, -0.1250000000, 0.1250000000, -0.1250000000, -0.1250000000, -0.1250000000, -0.1250000000, 0.1250000000, 0.1250000000, 0.1250000000, 0.1250000000, -0.1250000000, 0.1250000000, 0.1250000000, 0.1250000000, 0.1250000000, -0.1250000000, -0.1250000000, 0.1250000000, 0.1250000000, 0.1250000000, -0.1250000000, 0.1250000000, 0.1250000000, -0.1250000000, 0.1250000000, -0.1250000000, 0.1250000000, -0.1250000000, -0.1250000000, -0.1250000000, 0.1250000000, -0.1250000000, 0.1250000000, -0.1250000000, -0.1250000000, -0.1250000000, 0.1250000000, -0.1250000000, -0.1250000000, -0.1250000000, -0.1250000000, -0.1250000000, 0.1250000000, -0.1250000000, -0.1250000000, 0.1250000000, 0.1250000000, 0.1250000000, 0.1250000000, -0.1250000000, -0.1250000000, 0.1250000000, -0.1250000000, -0.1250000000, 0.1250000000, 0.1250000000, -0.1250000000, 0.1250000000, 0.1250000000, -0.1250000000, -0.1250000000, -0.1250000000, 0.1250000000, -0.1250000000, 0.1250000000, 0.1250000000, -0.1250000000, -0.1250000000, -0.1250000000, 0.1250000000, -0.1250000000, 0.1250000000, 0.1250000000, -0.1250000000, 0.1250000000, 0.1250000000, -0.1250000000, -0.1250000000, 0.1250000000, 0.1250000000, -0.1250000000, -0.1250000000, -0.1250000000, -0.1250000000, -0.1250000000, 0.1250000000, -0.1250000000, -0.1250000000, 0.1250000000, -0.1250000000, 0.1250000000, -0.1250000000, 0.1250000000, 0.1250000000, -0.1250000000, 0.1250000000, 0.1250000000, 0.1250000000, -0.1250000000, -0.1250000000, 0.1250000000, 0.1250000000, 0.1250000000, -0.1250000000, 0.1250000000, 0.1250000000, 0.1250000000, 0.1250000000, -0.1250000000, 0.1250000000, 0.1250000000, -0.1250000000, -0.1250000000, -0.1250000000, 0.1250000000, 0.1250000000, -0.1250000000, -0.1250000000, -0.1250000000, -0.1250000000, 0.1250000000, -0.1250000000, 0.1250000000, 0.1250000000, 0.1250000000, -0.1250000000, 0.1250000000, -0.1250000000, -0.1250000000, -0.1250000000, 0.1250000000, 0.1250000000, -0.1250000000, 0.1250000000, -0.1250000000, 0.1250000000, -0.1250000000, -0.1250000000, 0.1250000000, 0.1250000000, -0.1250000000, 0.1250000000, -0.1250000000, 0.1250000000, -0.1250000000, -0.1250000000, -0.1250000000, 0.1250000000, -0.1250000000, -0.1250000000, 0.1250000000, -0.1250000000, 0.1250000000, -0.1250000000, 0.1250000000, 0.1250000000, 0.1250000000, 0.1250000000, -0.1250000000, -0.1250000000, 0.1250000000, -0.1250000000, 0.1250000000, 0.1250000000, 0.1250000000, -0.1250000000, -0.1250000000, 0.1250000000, 0.1250000000, -0.1250000000, -0.1250000000, -0.1250000000, 0.1250000000, -0.1250000000, -0.1250000000, 0.1250000000, -0.1250000000, -0.1250000000, 0.1250000000, 0.1250000000, -0.1250000000, -0.1250000000, 0.1250000000, 0.1250000000, -0.1250000000, 0.1250000000, 0.1250000000, 0.1250000000, 0.1250000000, 0.1250000000, 0.1250000000, -0.1250000000, -0.1250000000, 0.1250000000, -0.1250000000, 0.1250000000, -0.1250000000, -0.1250000000, -0.1250000000, -0.1250000000, -0.1250000000, 0.1250000000, 0.1250000000, -0.1250000000, 0.1250000000, 0.1250000000, 0.1250000000, 0.1250000000, -0.1250000000, -0.1250000000, 0.1250000000, -0.1250000000, 0.1250000000, 0.1250000000, 0.1250000000, 0.1250000000, 0.1250000000, -0.1250000000, 0.1250000000, -0.1250000000, -0.1250000000, -0.1250000000, 0.1250000000, 0.1250000000, -0.1250000000, 0.1250000000, -0.1250000000, 0.1250000000, -0.1250000000, -0.1250000000, 0.1250000000, 0.1250000000, -0.1250000000, 0.1250000000, -0.1250000000, 0.1250000000, -0.1250000000, -0.1250000000, 0.1250000000, 0.1250000000, -0.1250000000, 0.1250000000, -0.1250000000, -0.1250000000, -0.1250000000, 0.1250000000, -0.1250000000, -0.1250000000, 0.1250000000, 0.1250000000, 0.1250000000, -0.1250000000, -0.1250000000, -0.1250000000, 0.1250000000, 0.1250000000, -0.1250000000, 0.1250000000, -0.1250000000, 0.1250000000, -0.1250000000, 0.1250000000, -0.1250000000, -0.1250000000, -0.1250000000, -0.1250000000, 0.1250000000, -0.1250000000, 0.1250000000, 0.1250000000, -0.1250000000, -0.1250000000, 0.1250000000, 0.1250000000, -0.1250000000, -0.1250000000, -0.1250000000, 0.1250000000, 0.1250000000, -0.1250000000, -0.1250000000, -0.1250000000, 0.1250000000, -0.1250000000, -0.1250000000, 0.1250000000, -0.1250000000, 0.1250000000, -0.1250000000, -0.1250000000, -0.1250000000, -0.1250000000, 0.1250000000, 0.1250000000, -0.1250000000, -0.1250000000, -0.1250000000, -0.1250000000, -0.1250000000, 0.1250000000, 0.1250000000, 0.1250000000, -0.1250000000, -0.1250000000, -0.1250000000, 0.1250000000, 0.1250000000, -0.1250000000, 0.1250000000, 0.1250000000, 0.1250000000, 0.1250000000, -0.1250000000, -0.1250000000, 0.1250000000, 0.1250000000, -0.1250000000, -0.1250000000, 0.1250000000, -0.1250000000, 0.1250000000, 0.1250000000, 0.1250000000, -0.1250000000, 0.1250000000, -0.1250000000, -0.1250000000, 0.1250000000, 0.1250000000, 0.1250000000, -0.1250000000, -0.1250000000, 0.1250000000, 0.1250000000, -0.1250000000, -0.1250000000, 0.1250000000, 0.1250000000, -0.1250000000, 0.1250000000, -0.1250000000, -0.1250000000, -0.1250000000, -0.1250000000, -0.1250000000, 0.1250000000, -0.1250000000, 0.1250000000, 0.1250000000, -0.1250000000, 0.1250000000, 0.1250000000, -0.1250000000, -0.1250000000, -0.1250000000, -0.1250000000, -0.1250000000, -0.1250000000, 0.1250000000, -0.1250000000, 0.1250000000, -0.1250000000, -0.1250000000, -0.1250000000, -0.1250000000, 0.1250000000, -0.1250000000, 0.1250000000, 0.1250000000, 0.1250000000, 0.1250000000, -0.1250000000, -0.1250000000, 0.1250000000, 0.1250000000, -0.1250000000, -0.1250000000, -0.1250000000, -0.1250000000, 0.1250000000, 0.1250000000, -0.1250000000, 0.1250000000, 0.1250000000, -0.1250000000, 0.1250000000, -0.1250000000, 0.1250000000, 0.1250000000, -0.1250000000, 0.1250000000, 0.1250000000, -0.1250000000, 0.1250000000, 0.1250000000, -0.1250000000, 0.1250000000, 0.1250000000, 0.1250000000, 0.1250000000, -0.1250000000, -0.1250000000, 0.1250000000, 0.1250000000, -0.1250000000, -0.1250000000, -0.1250000000, -0.1250000000, -0.1250000000, -0.1250000000, -0.1250000000, 0.1250000000, 0.1250000000, -0.1250000000, 0.1250000000, 0.1250000000, 0.1250000000, -0.1250000000, -0.1250000000, -0.1250000000, -0.1250000000, -0.1250000000, 0.1250000000, -0.1250000000, 0.1250000000, 0.1250000000, -0.1250000000, 0.1250000000, -0.1250000000, -0.1250000000, 0.1250000000, 0.1250000000, -0.1250000000, 0.1250000000, 0.1250000000, 0.1250000000, 0.1250000000, 0.1250000000, 0.1250000000, -0.1250000000, 0.1250000000, 0.1250000000, 0.1250000000, 0.1250000000, 0.1250000000, 0.1250000000, -0.1250000000, 0.1250000000, 0.1250000000, 0.1250000000, -0.1250000000, -0.1250000000, -0.1250000000, -0.1250000000, 0.1250000000, 0.1250000000, 0.1250000000, -0.1250000000, -0.1250000000, 0.1250000000, -0.1250000000, -0.1250000000, -0.1250000000, 0.1250000000, -0.1250000000, -0.1250000000, 0.1250000000, -0.1250000000, -0.1250000000, -0.1250000000, 0.1250000000, 0.1250000000, -0.1250000000, 0.1250000000, -0.1250000000, -0.1250000000, 0.1250000000, -0.1250000000, -0.1250000000, 0.1250000000, -0.1250000000, -0.1250000000, -0.1250000000, 0.1250000000, 0.1250000000, 0.1250000000, 0.1250000000, -0.1250000000, 0.1250000000, -0.1250000000, 0.1250000000, 0.1250000000, -0.1250000000, 0.1250000000, 0.1250000000, -0.1250000000, -0.1250000000, 0.1250000000, 0.1250000000, -0.1250000000, 0.1250000000, -0.1250000000, 0.1250000000, 0.1250000000, 0.1250000000, -0.1250000000, -0.1250000000, -0.1250000000, 0.1250000000, 0.1250000000, -0.1250000000, -0.1250000000, 0.1250000000, -0.1250000000, 0.1250000000, -0.1250000000, -0.1250000000, -0.1250000000, -0.1250000000, -0.1250000000, -0.1250000000, 0.1250000000, 0.1250000000, 0.1250000000, -0.1250000000, 0.1250000000, -0.1250000000, -0.1250000000, -0.1250000000, 0.1250000000, -0.1250000000, 0.1250000000, 0.1250000000, 0.1250000000, 0.1250000000, 0.1250000000, 0.1250000000, -0.1250000000, -0.1250000000, -0.1250000000, -0.1250000000, 0.1250000000, 0.1250000000, -0.1250000000, -0.1250000000, 0.1250000000, 0.1250000000, 0.1250000000, -0.1250000000, 0.1250000000, -0.1250000000, -0.1250000000, 0.1250000000, 0.1250000000, -0.1250000000, -0.1250000000, 0.1250000000, -0.1250000000, -0.1250000000, 0.1250000000, -0.1250000000, -0.1250000000, -0.1250000000, -0.1250000000, 0.1250000000, -0.1250000000, -0.1250000000, -0.1250000000, 0.1250000000, -0.1250000000, -0.1250000000, 0.1250000000, -0.1250000000, 0.1250000000, -0.1250000000, 0.1250000000, -0.1250000000, -0.1250000000, 0.1250000000, -0.1250000000, 0.1250000000, 0.1250000000, -0.1250000000, -0.1250000000, -0.1250000000, 0.1250000000, -0.1250000000, -0.1250000000, 0.1250000000, -0.1250000000, -0.1250000000, -0.1250000000, 0.1250000000, 0.1250000000, -0.1250000000, 0.1250000000, -0.1250000000, -0.1250000000, -0.1250000000, 0.1250000000, 0.1250000000, -0.1250000000, -0.1250000000, 0.1250000000, 0.1250000000, -0.1250000000, 0.1250000000, -0.1250000000, 0.1250000000, -0.1250000000, 0.1250000000, 0.1250000000, 0.1250000000, -0.1250000000, -0.1250000000, 0.1250000000, 0.1250000000, -0.1250000000, 0.1250000000, -0.1250000000, 0.1250000000, -0.1250000000, 0.1250000000, -0.1250000000, 0.1250000000, -0.1250000000, -0.1250000000, -0.1250000000, 0.1250000000, -0.1250000000, -0.1250000000, 0.1250000000, 0.1250000000, 0.1250000000, -0.1250000000, -0.1250000000, 0.1250000000, -0.1250000000, -0.1250000000, -0.1250000000, -0.1250000000, -0.1250000000, -0.1250000000, 0.1250000000, -0.1250000000, 0.1250000000, -0.1250000000, 0.1250000000, -0.1250000000, -0.1250000000, 0.1250000000, -0.1250000000, 0.1250000000, 0.1250000000, -0.1250000000, -0.1250000000, -0.1250000000, 0.1250000000, -0.1250000000, 0.1250000000, 0.1250000000, 0.1250000000, 0.1250000000, -0.1250000000, -0.1250000000, 0.1250000000, -0.1250000000, 0.1250000000, -0.1250000000, 0.1250000000, -0.1250000000, 0.1250000000, -0.1250000000, -0.1250000000, -0.1250000000, -0.1250000000, 0.1250000000, 0.1250000000, 0.1250000000, -0.1250000000, -0.1250000000, -0.1250000000, -0.1250000000, 0.1250000000, -0.1250000000, 0.1250000000, -0.1250000000, -0.1250000000, 0.1250000000, -0.1250000000, -0.1250000000, -0.1250000000, 0.1250000000, 0.1250000000, 0.1250000000, -0.1250000000, -0.1250000000, 0.1250000000, 0.1250000000, -0.1250000000, -0.1250000000, -0.1250000000, 0.1250000000, 0.1250000000, -0.1250000000, -0.1250000000, -0.1250000000, 0.1250000000, 0.1250000000, 0.1250000000, 0.1250000000, -0.1250000000, -0.1250000000, 0.1250000000, 0.1250000000, -0.1250000000, -0.1250000000, -0.1250000000, 0.1250000000, 0.1250000000, 0.1250000000, 0.1250000000, 0.1250000000, 0.1250000000, -0.1250000000, -0.1250000000, -0.1250000000, -0.1250000000, 0.1250000000, -0.1250000000, 0.1250000000, -0.1250000000, -0.1250000000, 0.1250000000, 0.1250000000, 0.1250000000, -0.1250000000, 0.1250000000, 0.1250000000, 0.1250000000, 0.1250000000, 0.1250000000, -0.1250000000, -0.1250000000, -0.1250000000, -0.1250000000, 0.1250000000, -0.1250000000, -0.1250000000, 0.1250000000, 0.1250000000, -0.1250000000, 0.1250000000, 0.1250000000, 0.1250000000, 0.1250000000, -0.1250000000, 0.1250000000, 0.1250000000, -0.1250000000, 0.1250000000, 0.1250000000, 0.1250000000, 0.1250000000, 0.1250000000, 0.1250000000, -0.1250000000, 0.1250000000, -0.1250000000, 0.1250000000, -0.1250000000, -0.1250000000, -0.1250000000, 0.1250000000, 0.1250000000, -0.1250000000, 0.1250000000, 0.1250000000, 0.1250000000, 0.1250000000, 0.1250000000, 0.1250000000, 0.1250000000, -0.1250000000, 0.1250000000, 0.1250000000, 0.1250000000, -0.1250000000, 0.1250000000, -0.1250000000, -0.1250000000, 0.1250000000, 0.1250000000, -0.1250000000, -0.1250000000, -0.1250000000, 0.1250000000, 0.1250000000, -0.1250000000, -0.1250000000, -0.1250000000, -0.1250000000, -0.1250000000, 0.1250000000, -0.1250000000, 0.1250000000, -0.1250000000, 0.1250000000, -0.1250000000, -0.1250000000, 0.1250000000, -0.1250000000, 0.1250000000, 0.1250000000, 0.1250000000, 0.1250000000, -0.1250000000, -0.1250000000, 0.1250000000, 0.1250000000, 0.1250000000, -0.1250000000, 0.1250000000, -0.1250000000, 0.1250000000, -0.1250000000, 0.1250000000, 0.1250000000, 0.1250000000, 0.1250000000, -0.1250000000, -0.1250000000, 0.1250000000, -0.1250000000, 0.1250000000, -0.1250000000, 0.1250000000, -0.1250000000, 0.1250000000, 0.1250000000, 0.1250000000, 0.1250000000, -0.1250000000, -0.1250000000, 0.1250000000, 0.1250000000, 0.1250000000, -0.1250000000, 0.1250000000, 0.1250000000, -0.1250000000, 0.1250000000, -0.1250000000, -0.1250000000, -0.1250000000, -0.1250000000, -0.1250000000, 0.1250000000, -0.1250000000, -0.1250000000, 0.1250000000, 0.1250000000, -0.1250000000, -0.1250000000, 0.1250000000, -0.1250000000, -0.1250000000, -0.1250000000, -0.1250000000, 0.1250000000, 0.1250000000, 0.1250000000, 0.1250000000, -0.1250000000, 0.1250000000, -0.1250000000, 0.1250000000, -0.1250000000, 0.1250000000, 0.1250000000, -0.1250000000, -0.1250000000, 0.1250000000, 0.1250000000, 0.1250000000, -0.1250000000, 0.1250000000, -0.1250000000, 0.1250000000, 0.1250000000, -0.1250000000, -0.1250000000, 0.1250000000, 0.1250000000, 0.1250000000, -0.1250000000, -0.1250000000, 0.1250000000, -0.1250000000, 0.1250000000, 0.1250000000, -0.1250000000, 0.1250000000, -0.1250000000, 0.1250000000, -0.1250000000, -0.1250000000, 0.1250000000, 0.1250000000, -0.1250000000, -0.1250000000, 0.1250000000, -0.1250000000, 0.1250000000, -0.1250000000, -0.1250000000, -0.1250000000, -0.1250000000, -0.1250000000, 0.1250000000, -0.1250000000, -0.1250000000, -0.1250000000, 0.1250000000, 0.1250000000, -0.1250000000, -0.1250000000, -0.1250000000, 0.1250000000, -0.1250000000, -0.1250000000, -0.1250000000, 0.1250000000, 0.1250000000, 0.1250000000, 0.1250000000, -0.1250000000, 0.1250000000, -0.1250000000, -0.1250000000, 0.1250000000, -0.1250000000, -0.1250000000, -0.1250000000, 0.1250000000, 0.1250000000, -0.1250000000, -0.1250000000, -0.1250000000, 0.1250000000, -0.1250000000, 0.1250000000, -0.1250000000, 0.1250000000, -0.1250000000, 0.1250000000, -0.1250000000, -0.1250000000, 0.1250000000, 0.1250000000, 0.1250000000, 0.1250000000, 0.1250000000, -0.1250000000, 0.1250000000, -0.1250000000, 0.1250000000, 0.1250000000, 0.1250000000, 0.1250000000, 0.1250000000, -0.1250000000, 0.1250000000, -0.1250000000, 0.1250000000, 0.1250000000, 0.1250000000, 0.1250000000, 0.1250000000, 0.1250000000, -0.1250000000, 0.1250000000, 0.1250000000, 0.1250000000, 0.1250000000, 0.1250000000, -0.1250000000, 0.1250000000, -0.1250000000, -0.1250000000, 0.1250000000, 0.1250000000, -0.1250000000, -0.1250000000, -0.1250000000, -0.1250000000, -0.1250000000, -0.1250000000, -0.1250000000, 0.1250000000, 0.1250000000, -0.1250000000, -0.1250000000, 0.1250000000, 0.1250000000, -0.1250000000, -0.1250000000, -0.1250000000, -0.1250000000, -0.1250000000, 0.1250000000, 0.1250000000, -0.1250000000, 0.1250000000, -0.1250000000, 0.1250000000, -0.1250000000, -0.1250000000, 0.1250000000, -0.1250000000, 0.1250000000, 0.1250000000, 0.1250000000, 0.1250000000, 0.1250000000, 0.1250000000, 0.1250000000, -0.1250000000, 0.1250000000, -0.1250000000, -0.1250000000, -0.1250000000, -0.1250000000, -0.1250000000, -0.1250000000, 0.1250000000, 0.1250000000, -0.1250000000, -0.1250000000, -0.1250000000, -0.1250000000, 0.1250000000, 0.1250000000, 0.1250000000, -0.1250000000, -0.1250000000, -0.1250000000, -0.1250000000, -0.1250000000, 0.1250000000, -0.1250000000, 0.1250000000, 0.1250000000, -0.1250000000, -0.1250000000, -0.1250000000, 0.1250000000, -0.1250000000, -0.1250000000, -0.1250000000, -0.1250000000, 0.1250000000, 0.1250000000, 0.1250000000, 0.1250000000, 0.1250000000, -0.1250000000, -0.1250000000, 0.1250000000, -0.1250000000, -0.1250000000, -0.1250000000, 0.1250000000, -0.1250000000, -0.1250000000, -0.1250000000, -0.1250000000, 0.1250000000, 0.1250000000, -0.1250000000, -0.1250000000, 0.1250000000, -0.1250000000, 0.1250000000, 0.1250000000, -0.1250000000, -0.1250000000, 0.1250000000, -0.1250000000, 0.1250000000, 0.1250000000, 0.1250000000, 0.1250000000, 0.1250000000, 0.1250000000, 0.1250000000, 0.1250000000, -0.1250000000, -0.1250000000, -0.1250000000, 0.1250000000, -0.1250000000, 0.1250000000, 0.1250000000, -0.1250000000, -0.1250000000, -0.1250000000, 0.1250000000, -0.1250000000, -0.1250000000, -0.1250000000, 0.1250000000, -0.1250000000, -0.1250000000, -0.1250000000, -0.1250000000, -0.1250000000, -0.1250000000, -0.1250000000, 0.1250000000, -0.1250000000, -0.1250000000, -0.1250000000, -0.1250000000, 0.1250000000, 0.1250000000, -0.1250000000, 0.1250000000, -0.1250000000, 0.1250000000, 0.1250000000, 0.1250000000, 0.1250000000, 0.1250000000, -0.1250000000, 0.1250000000, -0.1250000000, 0.1250000000, -0.1250000000, -0.1250000000, -0.1250000000, -0.1250000000, -0.1250000000, -0.1250000000, 0.1250000000, 0.1250000000, -0.1250000000, 0.1250000000, 0.1250000000, -0.1250000000, -0.1250000000, -0.1250000000, 0.1250000000, 0.1250000000, -0.1250000000, -0.1250000000, -0.1250000000, -0.1250000000, 0.1250000000, 0.1250000000, -0.1250000000, 0.1250000000, -0.1250000000, -0.1250000000, 0.1250000000, -0.1250000000, -0.1250000000, 0.1250000000, 0.1250000000, 0.1250000000, -0.1250000000, -0.1250000000, 0.1250000000, -0.1250000000, -0.1250000000, -0.1250000000, 0.1250000000, 0.1250000000, -0.1250000000, 0.1250000000, -0.1250000000, -0.1250000000, 0.1250000000, -0.1250000000, 0.1250000000, -0.1250000000, -0.1250000000, 0.1250000000, 0.1250000000, 0.1250000000, -0.1250000000, 0.1250000000, -0.1250000000, 0.1250000000, -0.1250000000, 0.1250000000, -0.1250000000, -0.1250000000, 0.1250000000, 0.1250000000, -0.1250000000, 0.1250000000, 0.1250000000, -0.1250000000, -0.1250000000, -0.1250000000, -0.1250000000, 0.1250000000, 0.1250000000, 0.1250000000, 0.1250000000, -0.1250000000, 0.1250000000, 0.1250000000, 0.1250000000, -0.1250000000, -0.1250000000, 0.1250000000, 0.1250000000, -0.1250000000, -0.1250000000, 0.1250000000, -0.1250000000, 0.1250000000, 0.1250000000, -0.1250000000, 0.1250000000, -0.1250000000, 0.1250000000, 0.1250000000, -0.1250000000, 0.1250000000, -0.1250000000, -0.1250000000, -0.1250000000, 0.1250000000, -0.1250000000, 0.1250000000, 0.1250000000, -0.1250000000, 0.1250000000, 0.1250000000, -0.1250000000, -0.1250000000, -0.1250000000, 0.1250000000, -0.1250000000, 0.1250000000, 0.1250000000, -0.1250000000, -0.1250000000, 0.1250000000, -0.1250000000, 0.1250000000, -0.1250000000, -0.1250000000, 0.1250000000, 0.1250000000, -0.1250000000, -0.1250000000, 0.1250000000, 0.1250000000, 0.1250000000, 0.1250000000, -0.1250000000, 0.1250000000, 0.1250000000, 0.1250000000, 0.1250000000, -0.1250000000, -0.1250000000, -0.1250000000, 0.1250000000, -0.1250000000, 0.1250000000, -0.1250000000, 0.1250000000, 0.1250000000, -0.1250000000, 0.1250000000, -0.1250000000, -0.1250000000, -0.1250000000, 0.1250000000, -0.1250000000, 0.1250000000, 0.1250000000, -0.1250000000, 0.1250000000, 0.1250000000, -0.1250000000, 0.1250000000, 0.1250000000, 0.1250000000, 0.1250000000, 0.1250000000, -0.1250000000, 0.1250000000, -0.1250000000, -0.1250000000, -0.1250000000, -0.1250000000, 0.1250000000, 0.1250000000, -0.1250000000, -0.1250000000, -0.1250000000, 0.1250000000, -0.1250000000, 0.1250000000, 0.1250000000, 0.1250000000, 0.1250000000, -0.1250000000, 0.1250000000, -0.1250000000, -0.1250000000, 0.1250000000, 0.1250000000, -0.1250000000, -0.1250000000, 0.1250000000, -0.1250000000, 0.1250000000, -0.1250000000, -0.1250000000, 0.1250000000, 0.1250000000, 0.1250000000, -0.1250000000, -0.1250000000, -0.1250000000, -0.1250000000, -0.1250000000, -0.1250000000, -0.1250000000, 0.1250000000, -0.1250000000, 0.1250000000, -0.1250000000, 0.1250000000, -0.1250000000, -0.1250000000, -0.1250000000, 0.1250000000, -0.1250000000, 0.1250000000, -0.1250000000, -0.1250000000, 0.1250000000, -0.1250000000, 0.1250000000, -0.1250000000, 0.1250000000, 0.1250000000, -0.1250000000, 0.1250000000, 0.1250000000, 0.1250000000, -0.1250000000, 0.1250000000, -0.1250000000, 0.1250000000, 0.1250000000, 0.1250000000, 0.1250000000, -0.1250000000, -0.1250000000, 0.1250000000, -0.1250000000, -0.1250000000, -0.1250000000, 0.1250000000, 0.1250000000, -0.1250000000, 0.1250000000, -0.1250000000, -0.1250000000, 0.1250000000, -0.1250000000, 0.1250000000, -0.1250000000, -0.1250000000, -0.1250000000, -0.1250000000, -0.1250000000, 0.1250000000, 0.1250000000, -0.1250000000, 0.1250000000, 0.1250000000, -0.1250000000, -0.1250000000, -0.1250000000, 0.1250000000, 0.1250000000, 0.1250000000, -0.1250000000, -0.1250000000, -0.1250000000, -0.1250000000, -0.1250000000, -0.1250000000, 0.1250000000, -0.1250000000, 0.1250000000, -0.1250000000, -0.1250000000, 0.1250000000, -0.1250000000, -0.1250000000, 0.1250000000, -0.1250000000, 0.1250000000, 0.1250000000, -0.1250000000, 0.1250000000, 0.1250000000, -0.1250000000, 0.1250000000, -0.1250000000, 0.1250000000, 0.1250000000, -0.1250000000, 0.1250000000, -0.1250000000, -0.1250000000, -0.1250000000, 0.1250000000, 0.1250000000, -0.1250000000, 0.1250000000, -0.1250000000, 0.1250000000, 0.1250000000, 0.1250000000, 0.1250000000, -0.1250000000, -0.1250000000, -0.1250000000, 0.1250000000, -0.1250000000, 0.1250000000, -0.1250000000, 0.1250000000, 0.1250000000, 0.1250000000, 0.1250000000, -0.1250000000, -0.1250000000, -0.1250000000, 0.1250000000, -0.1250000000, 0.1250000000, 0.1250000000, -0.1250000000, 0.1250000000, -0.1250000000, 0.1250000000, 0.1250000000, -0.1250000000, 0.1250000000, 0.1250000000, -0.1250000000, -0.1250000000, -0.1250000000, 0.1250000000, -0.1250000000, 0.1250000000, 0.1250000000, 0.1250000000, -0.1250000000, 0.1250000000, -0.1250000000, 0.1250000000, 0.1250000000, 0.1250000000, 0.1250000000, -0.1250000000, 0.1250000000, 0.1250000000, 0.1250000000, -0.1250000000, 0.1250000000, 0.1250000000, 0.1250000000, 0.1250000000, -0.1250000000, -0.1250000000, 0.1250000000, -0.1250000000, 0.1250000000, -0.1250000000, 0.1250000000, 0.1250000000, -0.1250000000, 0.1250000000, 0.1250000000, -0.1250000000, -0.1250000000, -0.1250000000, -0.1250000000, -0.1250000000, -0.1250000000, 0.1250000000, 0.1250000000, 0.1250000000, 0.1250000000, 0.1250000000, 0.1250000000, -0.1250000000, 0.1250000000, -0.1250000000, -0.1250000000, 0.1250000000, 0.1250000000, -0.1250000000, 0.1250000000, -0.1250000000, 0.1250000000, -0.1250000000, -0.1250000000, -0.1250000000, -0.1250000000, 0.1250000000, 0.1250000000, 0.1250000000, -0.1250000000, 0.1250000000, 0.1250000000, 0.1250000000, -0.1250000000, 0.1250000000, 0.1250000000, 0.1250000000, -0.1250000000, 0.1250000000, 0.1250000000, -0.1250000000, -0.1250000000, 0.1250000000, 0.1250000000, -0.1250000000, -0.1250000000, 0.1250000000, -0.1250000000, 0.1250000000, 0.1250000000, -0.1250000000, 0.1250000000, -0.1250000000, -0.1250000000, -0.1250000000, 0.1250000000, -0.1250000000, 0.1250000000, -0.1250000000, 0.1250000000, -0.1250000000, 0.1250000000, -0.1250000000, 0.1250000000, 0.1250000000, 0.1250000000, -0.1250000000, -0.1250000000, -0.1250000000, -0.1250000000, 0.1250000000, -0.1250000000, 0.1250000000, -0.1250000000, -0.1250000000, -0.1250000000, -0.1250000000, 0.1250000000, -0.1250000000, -0.1250000000, 0.1250000000, -0.1250000000, 0.1250000000, 0.1250000000, -0.1250000000, 0.1250000000, 0.1250000000, -0.1250000000, -0.1250000000, 0.1250000000, 0.1250000000, -0.1250000000, -0.1250000000, -0.1250000000, 0.1250000000, -0.1250000000, -0.1250000000, -0.1250000000, 0.1250000000, 0.1250000000, -0.1250000000, -0.1250000000, -0.1250000000, -0.1250000000, 0.1250000000, -0.1250000000, 0.1250000000, 0.1250000000, -0.1250000000, 0.1250000000, 0.1250000000, 0.1250000000, 0.1250000000, -0.1250000000, -0.1250000000, 0.1250000000, 0.1250000000, 0.1250000000, -0.1250000000, 0.1250000000, 0.1250000000, -0.1250000000, 0.1250000000, 0.1250000000, -0.1250000000, -0.1250000000, 0.1250000000, 0.1250000000, -0.1250000000, -0.1250000000, 0.1250000000, -0.1250000000, 0.1250000000, -0.1250000000, 0.1250000000, -0.1250000000, 0.1250000000, -0.1250000000, -0.1250000000, 0.1250000000, 0.1250000000, -0.1250000000, 0.1250000000, 0.1250000000, -0.1250000000, 0.1250000000, 0.1250000000, -0.1250000000, -0.1250000000, -0.1250000000, -0.1250000000, 0.1250000000, -0.1250000000, 0.1250000000, 0.1250000000, 0.1250000000, 0.1250000000, -0.1250000000, 0.1250000000, -0.1250000000, -0.1250000000, -0.1250000000, 0.1250000000, 0.1250000000, -0.1250000000, -0.1250000000, 0.1250000000, 0.1250000000, -0.1250000000, 0.1250000000, 0.1250000000, 0.1250000000, -0.1250000000, 0.1250000000, -0.1250000000, -0.1250000000, -0.1250000000, -0.1250000000, 0.1250000000, 0.1250000000, 0.1250000000, 0.1250000000, 0.1250000000, 0.1250000000, 0.1250000000, 0.1250000000, 0.1250000000, -0.1250000000, -0.1250000000, -0.1250000000, 0.1250000000, -0.1250000000, 0.1250000000, 0.1250000000, 0.1250000000, -0.1250000000, -0.1250000000, 0.1250000000, -0.1250000000, -0.1250000000, -0.1250000000, 0.1250000000, -0.1250000000, -0.1250000000, 0.1250000000, -0.1250000000, -0.1250000000, -0.1250000000, -0.1250000000, 0.1250000000, -0.1250000000, 0.1250000000, -0.1250000000, 0.1250000000, 0.1250000000, 0.1250000000, 0.1250000000, 0.1250000000, -0.1250000000, 0.1250000000, 0.1250000000, -0.1250000000, -0.1250000000, -0.1250000000, -0.1250000000, 0.1250000000, 0.1250000000, -0.1250000000, -0.1250000000, -0.1250000000, 0.1250000000, 0.1250000000, -0.1250000000, 0.1250000000, -0.1250000000, -0.1250000000, 0.1250000000, -0.1250000000, -0.1250000000, 0.1250000000, 0.1250000000, 0.1250000000, 0.1250000000, -0.1250000000, 0.1250000000, 0.1250000000, 0.1250000000, 0.1250000000, 0.1250000000, 0.1250000000, 0.1250000000, -0.1250000000, 0.1250000000, 0.1250000000, -0.1250000000, 0.1250000000, 0.1250000000, -0.1250000000, -0.1250000000, 0.1250000000, -0.1250000000, -0.1250000000, -0.1250000000, -0.1250000000, -0.1250000000, 0.1250000000, -0.1250000000, -0.1250000000, 0.1250000000, -0.1250000000, 0.1250000000, -0.1250000000, -0.1250000000, 0.1250000000, 0.1250000000, 0.1250000000, -0.1250000000, 0.1250000000, -0.1250000000, -0.1250000000, 0.1250000000, -0.1250000000, -0.1250000000, -0.1250000000, -0.1250000000, -0.1250000000, 0.1250000000, 0.1250000000, -0.1250000000, 0.1250000000, -0.1250000000, -0.1250000000, 0.1250000000, 0.1250000000, -0.1250000000, 0.1250000000, 0.1250000000, 0.1250000000, -0.1250000000, -0.1250000000, -0.1250000000, 0.1250000000, 0.1250000000, -0.1250000000, -0.1250000000, -0.1250000000, 0.1250000000, -0.1250000000, 0.1250000000, 0.1250000000, -0.1250000000, 0.1250000000, -0.1250000000, -0.1250000000, -0.1250000000, 0.1250000000, -0.1250000000, 0.1250000000, 0.1250000000, 0.1250000000, 0.1250000000, -0.1250000000, -0.1250000000, 0.1250000000, 0.1250000000, 0.1250000000, -0.1250000000, 0.1250000000, 0.1250000000, 0.1250000000, -0.1250000000, -0.1250000000, 0.1250000000, -0.1250000000, 0.1250000000, -0.1250000000, -0.1250000000, -0.1250000000, -0.1250000000, 0.1250000000, -0.1250000000, 0.1250000000, 0.1250000000, -0.1250000000, -0.1250000000, -0.1250000000, 0.1250000000, -0.1250000000, -0.1250000000, -0.1250000000, 0.1250000000, -0.1250000000, -0.1250000000, 0.1250000000, 0.1250000000, 0.1250000000, -0.1250000000, 0.1250000000, -0.1250000000, -0.1250000000, 0.1250000000, 0.1250000000, -0.1250000000, 0.1250000000, 0.1250000000, 0.1250000000, -0.1250000000, 0.1250000000, -0.1250000000, 0.1250000000, 0.1250000000, 0.1250000000, 0.1250000000, -0.1250000000, 0.1250000000, -0.1250000000, -0.1250000000, 0.1250000000, -0.1250000000, 0.1250000000, -0.1250000000, -0.1250000000, -0.1250000000, -0.1250000000, 0.1250000000, -0.1250000000, -0.1250000000, 0.1250000000, 0.1250000000, 0.1250000000, -0.1250000000, -0.1250000000, -0.1250000000, -0.1250000000, -0.1250000000, -0.1250000000, 0.1250000000, 0.1250000000, -0.1250000000, 0.1250000000, 0.1250000000, -0.1250000000, -0.1250000000, -0.1250000000, -0.1250000000, 0.1250000000, 0.1250000000, -0.1250000000, 0.1250000000, -0.1250000000, -0.1250000000, 0.1250000000, 0.1250000000, -0.1250000000, 0.1250000000, 0.1250000000, 0.1250000000, -0.1250000000, 0.1250000000, 0.1250000000, 0.1250000000, 0.1250000000, -0.1250000000, -0.1250000000, 0.1250000000, -0.1250000000, -0.1250000000, -0.1250000000, 0.1250000000, 0.1250000000, -0.1250000000, 0.1250000000, 0.1250000000, 0.1250000000, -0.1250000000, 0.1250000000, 0.1250000000, -0.1250000000, -0.1250000000, -0.1250000000, 0.1250000000, -0.1250000000, 0.1250000000, 0.1250000000, -0.1250000000, 0.1250000000, -0.1250000000, 0.1250000000, -0.1250000000, -0.1250000000, -0.1250000000, -0.1250000000, 0.1250000000, -0.1250000000, 0.1250000000, 0.1250000000, -0.1250000000, -0.1250000000, 0.1250000000, -0.1250000000, 0.1250000000, -0.1250000000, 0.1250000000, -0.1250000000, 0.1250000000, -0.1250000000, 0.1250000000, -0.1250000000, -0.1250000000, 0.1250000000, 0.1250000000, -0.1250000000, -0.1250000000, 0.1250000000, 0.1250000000, 0.1250000000, -0.1250000000, 0.1250000000, 0.1250000000, -0.1250000000, -0.1250000000, 0.1250000000, 0.1250000000, 0.1250000000, -0.1250000000, 0.1250000000, 0.1250000000, -0.1250000000, 0.1250000000, -0.1250000000, -0.1250000000, 0.1250000000, 0.1250000000, -0.1250000000, -0.1250000000, -0.1250000000, 0.1250000000, 0.1250000000, -0.1250000000, 0.1250000000, -0.1250000000, -0.1250000000, 0.1250000000, 0.1250000000, -0.1250000000, 0.1250000000, 0.1250000000, -0.1250000000, 0.1250000000, -0.1250000000, 0.1250000000, -0.1250000000, -0.1250000000, 0.1250000000, -0.1250000000, 0.1250000000, -0.1250000000, 0.1250000000, 0.1250000000, -0.1250000000, -0.1250000000, -0.1250000000, 0.1250000000, -0.1250000000, -0.1250000000, -0.1250000000, -0.1250000000, 0.1250000000, -0.1250000000, 0.1250000000, -0.1250000000, -0.1250000000, -0.1250000000, -0.1250000000, -0.1250000000, -0.1250000000, -0.1250000000, -0.1250000000, 0.1250000000, 0.1250000000, 0.1250000000, -0.1250000000, 0.1250000000, -0.1250000000, -0.1250000000, -0.1250000000, -0.1250000000, 0.1250000000, -0.1250000000, -0.1250000000, -0.1250000000, -0.1250000000, -0.1250000000, 0.1250000000, 0.1250000000, -0.1250000000, -0.1250000000, -0.1250000000, 0.1250000000, 0.1250000000, -0.1250000000, -0.1250000000, -0.1250000000, 0.1250000000, 0.1250000000, 0.1250000000, -0.1250000000, 0.1250000000, -0.1250000000, 0.1250000000, 0.1250000000, 0.1250000000, -0.1250000000, 0.1250000000, -0.1250000000, 0.1250000000, 0.1250000000, 0.1250000000, 0.1250000000, 0.1250000000, -0.1250000000, -0.1250000000, -0.1250000000, -0.1250000000, -0.1250000000, 0.1250000000, 0.1250000000, 0.1250000000, 0.1250000000, 0.1250000000, 0.1250000000, -0.1250000000, -0.1250000000, -0.1250000000, 0.1250000000, -0.1250000000, -0.1250000000, -0.1250000000, 0.1250000000, -0.1250000000, -0.1250000000, -0.1250000000, 0.1250000000, 0.1250000000, -0.1250000000, 0.1250000000, -0.1250000000, 0.1250000000, -0.1250000000, -0.1250000000, -0.1250000000, 0.1250000000, 0.1250000000, -0.1250000000, 0.1250000000, -0.1250000000, 0.1250000000, 0.1250000000, -0.1250000000, 0.1250000000, -0.1250000000, 0.1250000000, -0.1250000000, -0.1250000000, -0.1250000000, -0.1250000000, 0.1250000000, -0.1250000000, -0.1250000000, 0.1250000000, 0.1250000000, 0.1250000000, -0.1250000000, -0.1250000000, 0.1250000000, 0.1250000000, 0.1250000000, -0.1250000000, -0.1250000000, 0.1250000000, 0.1250000000, 0.1250000000, -0.1250000000, 0.1250000000, -0.1250000000, 0.1250000000, 0.1250000000, -0.1250000000, -0.1250000000, -0.1250000000, 0.1250000000, 0.1250000000, 0.1250000000, -0.1250000000, -0.1250000000, 0.1250000000, 0.1250000000, 0.1250000000, 0.1250000000, -0.1250000000, -0.1250000000, 0.1250000000, 0.1250000000, -0.1250000000, 0.1250000000, 0.1250000000, 0.1250000000, -0.1250000000, -0.1250000000, -0.1250000000, 0.1250000000, -0.1250000000, 0.1250000000, -0.1250000000, -0.1250000000, -0.1250000000, -0.1250000000, -0.1250000000, 0.1250000000, 0.1250000000, -0.1250000000, -0.1250000000, -0.1250000000, 0.1250000000, 0.1250000000, -0.1250000000, 0.1250000000, 0.1250000000, 0.1250000000, 0.1250000000, -0.1250000000, -0.1250000000, -0.1250000000, -0.1250000000, 0.1250000000, 0.1250000000, -0.1250000000, 0.1250000000, -0.1250000000, -0.1250000000, 0.1250000000, -0.1250000000, -0.1250000000, -0.1250000000, -0.1250000000, -0.1250000000, 0.1250000000, -0.1250000000, -0.1250000000, 0.1250000000, 0.1250000000, -0.1250000000, 0.1250000000, -0.1250000000, -0.1250000000, 0.1250000000, 0.1250000000, 0.1250000000, 0.1250000000, 0.1250000000, -0.1250000000, 0.1250000000, -0.1250000000, 0.1250000000, 0.1250000000, -0.1250000000, -0.1250000000, -0.1250000000, -0.1250000000, 0.1250000000, -0.1250000000, -0.1250000000, -0.1250000000, 0.1250000000, -0.1250000000, 0.1250000000, -0.1250000000, 0.1250000000, -0.1250000000, 0.1250000000, -0.1250000000, 0.1250000000, 0.1250000000, -0.1250000000, 0.1250000000, -0.1250000000, 0.1250000000, -0.1250000000, -0.1250000000, 0.1250000000, -0.1250000000, -0.1250000000, 0.1250000000, -0.1250000000, 0.1250000000, -0.1250000000, -0.1250000000, -0.1250000000, 0.1250000000, -0.1250000000, -0.1250000000, 0.1250000000, 0.1250000000, 0.1250000000, 0.1250000000, -0.1250000000, 0.1250000000, -0.1250000000, 0.1250000000, -0.1250000000, 0.1250000000, 0.1250000000, -0.1250000000, 0.1250000000, -0.1250000000, -0.1250000000, -0.1250000000, -0.1250000000, -0.1250000000, 0.1250000000, -0.1250000000, 0.1250000000, 0.1250000000, 0.1250000000, -0.1250000000, 0.1250000000, -0.1250000000, -0.1250000000, 0.1250000000, 0.1250000000, -0.1250000000, 0.1250000000, 0.1250000000, -0.1250000000, 0.1250000000, -0.1250000000, -0.1250000000, 0.1250000000, -0.1250000000, -0.1250000000, -0.1250000000, 0.1250000000, 0.1250000000, 0.1250000000, 0.1250000000, -0.1250000000, 0.1250000000, 0.1250000000, 0.1250000000, -0.1250000000, -0.1250000000, -0.1250000000, -0.1250000000, -0.1250000000, -0.1250000000, 0.1250000000, 0.1250000000, -0.1250000000, -0.1250000000, 0.1250000000, 0.1250000000, -0.1250000000, 0.1250000000, -0.1250000000, 0.1250000000, -0.1250000000, -0.1250000000, 0.1250000000, -0.1250000000, 0.1250000000, 0.1250000000, 0.1250000000, 0.1250000000, 0.1250000000, 0.1250000000, -0.1250000000, 0.1250000000, 0.1250000000, -0.1250000000, -0.1250000000, -0.1250000000, -0.1250000000, 0.1250000000, 0.1250000000, 0.1250000000, 0.1250000000, 0.1250000000, 0.1250000000, -0.1250000000, -0.1250000000, -0.1250000000, -0.1250000000, 0.1250000000, -0.1250000000, 0.1250000000, -0.1250000000, -0.1250000000, -0.1250000000, -0.1250000000, 0.1250000000, 0.1250000000, 0.1250000000, 0.1250000000, 0.1250000000, -0.1250000000, -0.1250000000, 0.1250000000, 0.1250000000, 0.1250000000, 0.1250000000, -0.1250000000, -0.1250000000, -0.1250000000, -0.1250000000, 0.1250000000, -0.1250000000, -0.1250000000, 0.1250000000, 0.1250000000, -0.1250000000, 0.1250000000, -0.1250000000, 0.1250000000, -0.1250000000, 0.1250000000, 0.1250000000, -0.1250000000, -0.1250000000, -0.1250000000, -0.1250000000, 0.1250000000, -0.1250000000, 0.1250000000, -0.1250000000, 0.1250000000, -0.1250000000, -0.1250000000, -0.1250000000, -0.1250000000, 0.1250000000, -0.1250000000, -0.1250000000, 0.1250000000, 0.1250000000, 0.1250000000, -0.1250000000, -0.1250000000, 0.1250000000, 0.1250000000, -0.1250000000, 0.1250000000, -0.1250000000, -0.1250000000, 0.1250000000, -0.1250000000, -0.1250000000, 0.1250000000, -0.1250000000, -0.1250000000, -0.1250000000, -0.1250000000, 0.1250000000, -0.1250000000, -0.1250000000, 0.1250000000, -0.1250000000, 0.1250000000, 0.1250000000, 0.1250000000, 0.1250000000, 0.1250000000, 0.1250000000, 0.1250000000, -0.1250000000, -0.1250000000, 0.1250000000, 0.1250000000, -0.1250000000, -0.1250000000, 0.1250000000, 0.1250000000, 0.1250000000, -0.1250000000, -0.1250000000, 0.1250000000, 0.1250000000, 0.1250000000, 0.1250000000, -0.1250000000, 0.1250000000, -0.1250000000, 0.1250000000, -0.1250000000, 0.1250000000, 0.1250000000, -0.1250000000, -0.1250000000, -0.1250000000, -0.1250000000, -0.1250000000, -0.1250000000, 0.1250000000, -0.1250000000, -0.1250000000, 0.1250000000, -0.1250000000, -0.1250000000, -0.1250000000, 0.1250000000, -0.1250000000, 0.1250000000, 0.1250000000, -0.1250000000, -0.1250000000, -0.1250000000, 0.1250000000, 0.1250000000, 0.1250000000, 0.1250000000, 0.1250000000, 0.1250000000, -0.1250000000, 0.1250000000, -0.1250000000, 0.1250000000, -0.1250000000, 0.1250000000, 0.1250000000, -0.1250000000, -0.1250000000, -0.1250000000, -0.1250000000, 0.1250000000, -0.1250000000, 0.1250000000, -0.1250000000, -0.1250000000, 0.1250000000, -0.1250000000, -0.1250000000, 0.1250000000, 0.1250000000, -0.1250000000, 0.1250000000, -0.1250000000, 0.1250000000, 0.1250000000, -0.1250000000, 0.1250000000, -0.1250000000, -0.1250000000, 0.1250000000, -0.1250000000, -0.1250000000, -0.1250000000, 0.1250000000, 0.1250000000, 0.1250000000, -0.1250000000, 0.1250000000, 0.1250000000, 0.1250000000, -0.1250000000, -0.1250000000, 0.1250000000, -0.1250000000, -0.1250000000, 0.1250000000, -0.1250000000, 0.1250000000, 0.1250000000, 0.1250000000, -0.1250000000, -0.1250000000, -0.1250000000, -0.1250000000, 0.1250000000, -0.1250000000, 0.1250000000, -0.1250000000, 0.1250000000, -0.1250000000, 0.1250000000, 0.1250000000, -0.1250000000, 0.1250000000, -0.1250000000, -0.1250000000, 0.1250000000, 0.1250000000, -0.1250000000, 0.1250000000, 0.1250000000, -0.1250000000, -0.1250000000, 0.1250000000, -0.1250000000, -0.1250000000, -0.1250000000, 0.1250000000, 0.1250000000, 0.1250000000, -0.1250000000, 0.1250000000, -0.1250000000, -0.1250000000, 0.1250000000, -0.1250000000, -0.1250000000, -0.1250000000, 0.1250000000, -0.1250000000, -0.1250000000, 0.1250000000, -0.1250000000, 0.1250000000, 0.1250000000, 0.1250000000, -0.1250000000, 0.1250000000, -0.1250000000, 0.1250000000, -0.1250000000, -0.1250000000, -0.1250000000, -0.1250000000, 0.1250000000, 0.1250000000, -0.1250000000, -0.1250000000, 0.1250000000, -0.1250000000, -0.1250000000, 0.1250000000, -0.1250000000, 0.1250000000, 0.1250000000, -0.1250000000, -0.1250000000, 0.1250000000, -0.1250000000, -0.1250000000, -0.1250000000, 0.1250000000, 0.1250000000, 0.1250000000, 0.1250000000, -0.1250000000, 0.1250000000, 0.1250000000, 0.1250000000, 0.1250000000, -0.1250000000, -0.1250000000, 0.1250000000, -0.1250000000, 0.1250000000, -0.1250000000, -0.1250000000, -0.1250000000, -0.1250000000, -0.1250000000, -0.1250000000, -0.1250000000, -0.1250000000, 0.1250000000, -0.1250000000, -0.1250000000, -0.1250000000, -0.1250000000, -0.1250000000, 0.1250000000, 0.1250000000, 0.1250000000, 0.1250000000, 0.1250000000, -0.1250000000, 0.1250000000, -0.1250000000, -0.1250000000, -0.1250000000, 0.1250000000, -0.1250000000, 0.1250000000, 0.1250000000, -0.1250000000, -0.1250000000, -0.1250000000, 0.1250000000, 0.1250000000, -0.1250000000, 0.1250000000, -0.1250000000, 0.1250000000, -0.1250000000, 0.1250000000, 0.1250000000, -0.1250000000, -0.1250000000, 0.1250000000, 0.1250000000, -0.1250000000, -0.1250000000, 0.1250000000, 0.1250000000, -0.1250000000, 0.1250000000, 0.1250000000, 0.1250000000, -0.1250000000, 0.1250000000, -0.1250000000, -0.1250000000, -0.1250000000, 0.1250000000, 0.1250000000, -0.1250000000, 0.1250000000, 0.1250000000, -0.1250000000, 0.1250000000, 0.1250000000, -0.1250000000, -0.1250000000, -0.1250000000, 0.1250000000, -0.1250000000, 0.1250000000, -0.1250000000, 0.1250000000, -0.1250000000, 0.1250000000, -0.1250000000, -0.1250000000, 0.1250000000, -0.1250000000, 0.1250000000, -0.1250000000, 0.1250000000, 0.1250000000, 0.1250000000, 0.1250000000, 0.1250000000, 0.1250000000, -0.1250000000, -0.1250000000, -0.1250000000, -0.1250000000, -0.1250000000, -0.1250000000, 0.1250000000, -0.1250000000, 0.1250000000, 0.1250000000, -0.1250000000, -0.1250000000, 0.1250000000, 0.1250000000, -0.1250000000, -0.1250000000, 0.1250000000, 0.1250000000, -0.1250000000, -0.1250000000, -0.1250000000, -0.1250000000, 0.1250000000, -0.1250000000, -0.1250000000, 0.1250000000, 0.1250000000, -0.1250000000, 0.1250000000, -0.1250000000, -0.1250000000, -0.1250000000, 0.1250000000, 0.1250000000, -0.1250000000, 0.1250000000, -0.1250000000, 0.1250000000, 0.1250000000, 0.1250000000, 0.1250000000, -0.1250000000, 0.1250000000, 0.1250000000, 0.1250000000, -0.1250000000, 0.1250000000, 0.1250000000, -0.1250000000, -0.1250000000, -0.1250000000, -0.1250000000, 0.1250000000, -0.1250000000, 0.1250000000, -0.1250000000, 0.1250000000, -0.1250000000, -0.1250000000, -0.1250000000, -0.1250000000, 0.1250000000, 0.1250000000, -0.1250000000, 0.1250000000, -0.1250000000, 0.1250000000, -0.1250000000, 0.1250000000, -0.1250000000, 0.1250000000, -0.1250000000, 0.1250000000, 0.1250000000, -0.1250000000, -0.1250000000, -0.1250000000, -0.1250000000, 0.1250000000, -0.1250000000, 0.1250000000, -0.1250000000, -0.1250000000, 0.1250000000, 0.1250000000, 0.1250000000, -0.1250000000, 0.1250000000, 0.1250000000, 0.1250000000, -0.1250000000, 0.1250000000, -0.1250000000, -0.1250000000, 0.1250000000, -0.1250000000, -0.1250000000, -0.1250000000, 0.1250000000, -0.1250000000, -0.1250000000, -0.1250000000, 0.1250000000, -0.1250000000, 0.1250000000, -0.1250000000, -0.1250000000, 0.1250000000, 0.1250000000, 0.1250000000, -0.1250000000, -0.1250000000, -0.1250000000, 0.1250000000, -0.1250000000, 0.1250000000, 0.1250000000, -0.1250000000, -0.1250000000, 0.1250000000, 0.1250000000, -0.1250000000, -0.1250000000, 0.1250000000, 0.1250000000, -0.1250000000, 0.1250000000, -0.1250000000, -0.1250000000, -0.1250000000, -0.1250000000, 0.1250000000, -0.1250000000, -0.1250000000, 0.1250000000, -0.1250000000, 0.1250000000, 0.1250000000, 0.1250000000, -0.1250000000, 0.1250000000, -0.1250000000, 0.1250000000, 0.1250000000, -0.1250000000, 0.1250000000, 0.1250000000, 0.1250000000, 0.1250000000, -0.1250000000, 0.1250000000, 0.1250000000, 0.1250000000, 0.1250000000, 0.1250000000, 0.1250000000, -0.1250000000, 0.1250000000, -0.1250000000, -0.1250000000, -0.1250000000, 0.1250000000, 0.1250000000, 0.1250000000, -0.1250000000, -0.1250000000, 0.1250000000, 0.1250000000, 0.1250000000, 0.1250000000, -0.1250000000, 0.1250000000, 0.1250000000, 0.1250000000, -0.1250000000, -0.1250000000, -0.1250000000, -0.1250000000, -0.1250000000, -0.1250000000, -0.1250000000, -0.1250000000, 0.1250000000, -0.1250000000, 0.1250000000, -0.1250000000, 0.1250000000, 0.1250000000, 0.1250000000, -0.1250000000, -0.1250000000, 0.1250000000, 0.1250000000, 0.1250000000, -0.1250000000, 0.1250000000, 0.1250000000, -0.1250000000, 0.1250000000, -0.1250000000, -0.1250000000, 0.1250000000, 0.1250000000, 0.1250000000, -0.1250000000, 0.1250000000, -0.1250000000, -0.1250000000, -0.1250000000, 0.1250000000, -0.1250000000, 0.1250000000, -0.1250000000, -0.1250000000, -0.1250000000, -0.1250000000, 0.1250000000, 0.1250000000, -0.1250000000, 0.1250000000, 0.1250000000, -0.1250000000, 0.1250000000, 0.1250000000, 0.1250000000, 0.1250000000, 0.1250000000, -0.1250000000, 0.1250000000, -0.1250000000, 0.1250000000, -0.1250000000, -0.1250000000, 0.1250000000, 0.1250000000, 0.1250000000, -0.1250000000, -0.1250000000, 0.1250000000, -0.1250000000, -0.1250000000, 0.1250000000, 0.1250000000, -0.1250000000, -0.1250000000, -0.1250000000, -0.1250000000, -0.1250000000, -0.1250000000, 0.1250000000, -0.1250000000, -0.1250000000, 0.1250000000, 0.1250000000, 0.1250000000, -0.1250000000, -0.1250000000, 0.1250000000, 0.1250000000, 0.1250000000, 0.1250000000, -0.1250000000, 0.1250000000, 0.1250000000, -0.1250000000, -0.1250000000, -0.1250000000, -0.1250000000, -0.1250000000, -0.1250000000, -0.1250000000, -0.1250000000, 0.1250000000, 0.1250000000, 0.1250000000, -0.1250000000, 0.1250000000, 0.1250000000, 0.1250000000, -0.1250000000, -0.1250000000, -0.1250000000, -0.1250000000, 0.1250000000, -0.1250000000, -0.1250000000, -0.1250000000, -0.1250000000, 0.1250000000, -0.1250000000, 0.1250000000, 0.1250000000, -0.1250000000, -0.1250000000, -0.1250000000, -0.1250000000, -0.1250000000, -0.1250000000, 0.1250000000, 0.1250000000, 0.1250000000, 0.1250000000, 0.1250000000, 0.1250000000, -0.1250000000, 0.1250000000, 0.1250000000, 0.1250000000, -0.1250000000, -0.1250000000, -0.1250000000, 0.1250000000, 0.1250000000, -0.1250000000, -0.1250000000, -0.1250000000, -0.1250000000, -0.1250000000, -0.1250000000, 0.1250000000, 0.1250000000, 0.1250000000, -0.1250000000, 0.1250000000, 0.1250000000, -0.1250000000, -0.1250000000, -0.1250000000, 0.1250000000, -0.1250000000, 0.1250000000, 0.1250000000, 0.1250000000, 0.1250000000, -0.1250000000, -0.1250000000, 0.1250000000, -0.1250000000, -0.1250000000, 0.1250000000, -0.1250000000, -0.1250000000, -0.1250000000, -0.1250000000, -0.1250000000, 0.1250000000, 0.1250000000, -0.1250000000, 0.1250000000, -0.1250000000, 0.1250000000, 0.1250000000, 0.1250000000, -0.1250000000, -0.1250000000, -0.1250000000, -0.1250000000, 0.1250000000, -0.1250000000, -0.1250000000, -0.1250000000, -0.1250000000, -0.1250000000, -0.1250000000, 0.1250000000, 0.1250000000, 0.1250000000, -0.1250000000, -0.1250000000, 0.1250000000, -0.1250000000, -0.1250000000, -0.1250000000, -0.1250000000, -0.1250000000, 0.1250000000, -0.1250000000, 0.1250000000, -0.1250000000, 0.1250000000, -0.1250000000, -0.1250000000, 0.1250000000, 0.1250000000, -0.1250000000, -0.1250000000, 0.1250000000, 0.1250000000, -0.1250000000, -0.1250000000, -0.1250000000, 0.1250000000, -0.1250000000, 0.1250000000, -0.1250000000, 0.1250000000, 0.1250000000, 0.1250000000, -0.1250000000, -0.1250000000, -0.1250000000, 0.1250000000, -0.1250000000, -0.1250000000, 0.1250000000, 0.1250000000, -0.1250000000, 0.1250000000, 0.1250000000, 0.1250000000, 0.1250000000, -0.1250000000, -0.1250000000, -0.1250000000, -0.1250000000, -0.1250000000, 0.1250000000, -0.1250000000, -0.1250000000, -0.1250000000, -0.1250000000, -0.1250000000, -0.1250000000, -0.1250000000, -0.1250000000, 0.1250000000, -0.1250000000, 0.1250000000, 0.1250000000, -0.1250000000, 0.1250000000, 0.1250000000, -0.1250000000, 0.1250000000, 0.1250000000, 0.1250000000, -0.1250000000, 0.1250000000, -0.1250000000, -0.1250000000, 0.1250000000, 0.1250000000, -0.1250000000, 0.1250000000, -0.1250000000, 0.1250000000, 0.1250000000, -0.1250000000, 0.1250000000, 0.1250000000, -0.1250000000, -0.1250000000, -0.1250000000, -0.1250000000, -0.1250000000, -0.1250000000, 0.1250000000, 0.1250000000, -0.1250000000, 0.1250000000, 0.1250000000, -0.1250000000, -0.1250000000, -0.1250000000, -0.1250000000, 0.1250000000, -0.1250000000, -0.1250000000, 0.1250000000, 0.1250000000, -0.1250000000, -0.1250000000, 0.1250000000, 0.1250000000, 0.1250000000, -0.1250000000, -0.1250000000, 0.1250000000, -0.1250000000, 0.1250000000, -0.1250000000, -0.1250000000, -0.1250000000, 0.1250000000, 0.1250000000, -0.1250000000, 0.1250000000, 0.1250000000, -0.1250000000, -0.1250000000, 0.1250000000, -0.1250000000, 0.1250000000, 0.1250000000, 0.1250000000, 0.1250000000, -0.1250000000, 0.1250000000, 0.1250000000, 0.1250000000, 0.1250000000, -0.1250000000, -0.1250000000, -0.1250000000, 0.1250000000, -0.1250000000, 0.1250000000, 0.1250000000, -0.1250000000, 0.1250000000, -0.1250000000, -0.1250000000, -0.1250000000, 0.1250000000, 0.1250000000, -0.1250000000, 0.1250000000, -0.1250000000, -0.1250000000, 0.1250000000, 0.1250000000, 0.1250000000, -0.1250000000, 0.1250000000, 0.1250000000, -0.1250000000, -0.1250000000, 0.1250000000, 0.1250000000, -0.1250000000, -0.1250000000, -0.1250000000, 0.1250000000, 0.1250000000, -0.1250000000, 0.1250000000, -0.1250000000, -0.1250000000, -0.1250000000, -0.1250000000, 0.1250000000, 0.1250000000, -0.1250000000, -0.1250000000, -0.1250000000, -0.1250000000, -0.1250000000, -0.1250000000, 0.1250000000, 0.1250000000, -0.1250000000, 0.1250000000, 0.1250000000, 0.1250000000, 0.1250000000, -0.1250000000, -0.1250000000, 0.1250000000, -0.1250000000, -0.1250000000, -0.1250000000, -0.1250000000, -0.1250000000, -0.1250000000, -0.1250000000, 0.1250000000, -0.1250000000, 0.1250000000, -0.1250000000, -0.1250000000, -0.1250000000, -0.1250000000, -0.1250000000, -0.1250000000, -0.1250000000, 0.1250000000, -0.1250000000, 0.1250000000, -0.1250000000, 0.1250000000, 0.1250000000, 0.1250000000, 0.1250000000, 0.1250000000, -0.1250000000, 0.1250000000, 0.1250000000, 0.1250000000, 0.1250000000, -0.1250000000, 0.1250000000, -0.1250000000, 0.1250000000, 0.1250000000, -0.1250000000, -0.1250000000, -0.1250000000, 0.1250000000, -0.1250000000, -0.1250000000, 0.1250000000, -0.1250000000, 0.1250000000, 0.1250000000, 0.1250000000, 0.1250000000, -0.1250000000, 0.1250000000, -0.1250000000, -0.1250000000, -0.1250000000, -0.1250000000, -0.1250000000, 0.1250000000, 0.1250000000, 0.1250000000, 0.1250000000, -0.1250000000, -0.1250000000, 0.1250000000, 0.1250000000, -0.1250000000, -0.1250000000, -0.1250000000, 0.1250000000, -0.1250000000, -0.1250000000, 0.1250000000, -0.1250000000, -0.1250000000, 0.1250000000, -0.1250000000, -0.1250000000, 0.1250000000, -0.1250000000, 0.1250000000, -0.1250000000, -0.1250000000, 0.1250000000, -0.1250000000, 0.1250000000, 0.1250000000, 0.1250000000, 0.1250000000, 0.1250000000, -0.1250000000, 0.1250000000, 0.1250000000, 0.1250000000, -0.1250000000, -0.1250000000, 0.1250000000, 0.1250000000, -0.1250000000, 0.1250000000, -0.1250000000, 0.1250000000, 0.1250000000, -0.1250000000, 0.1250000000, -0.1250000000, -0.1250000000, 0.1250000000, 0.1250000000, 0.1250000000, 0.1250000000, 0.1250000000, 0.1250000000, -0.1250000000, -0.1250000000, 0.1250000000, 0.1250000000, -0.1250000000, -0.1250000000, -0.1250000000, 0.1250000000, 0.1250000000, 0.1250000000, -0.1250000000, 0.1250000000, -0.1250000000, 0.1250000000, -0.1250000000, 0.1250000000, 0.1250000000, -0.1250000000, 0.1250000000, -0.1250000000, 0.1250000000, -0.1250000000, 0.1250000000, 0.1250000000, -0.1250000000, -0.1250000000, -0.1250000000, 0.1250000000, 0.1250000000, -0.1250000000, 0.1250000000, 0.1250000000, 0.1250000000, -0.1250000000, 0.1250000000, -0.1250000000, -0.1250000000, 0.1250000000, 0.1250000000, -0.1250000000, -0.1250000000, -0.1250000000, -0.1250000000, 0.1250000000, -0.1250000000, 0.1250000000, 0.1250000000, 0.1250000000, 0.1250000000, 0.1250000000, 0.1250000000, -0.1250000000, -0.1250000000, -0.1250000000, -0.1250000000, 0.1250000000, -0.1250000000, -0.1250000000, -0.1250000000, 0.1250000000, 0.1250000000, 0.1250000000, 0.1250000000, -0.1250000000, 0.1250000000, 0.1250000000, 0.1250000000, -0.1250000000, -0.1250000000, 0.1250000000, 0.1250000000, 0.1250000000, 0.1250000000, 0.1250000000, 0.1250000000, 0.1250000000, 0.1250000000, 0.1250000000, 0.1250000000, -0.1250000000, -0.1250000000, -0.1250000000, -0.1250000000, -0.1250000000, 0.1250000000, 0.1250000000, -0.1250000000, -0.1250000000, -0.1250000000, 0.1250000000, -0.1250000000, 0.1250000000, -0.1250000000, 0.1250000000, -0.1250000000, -0.1250000000, 0.1250000000, -0.1250000000, 0.1250000000, -0.1250000000, -0.1250000000, 0.1250000000, 0.1250000000, 0.1250000000, -0.1250000000, -0.1250000000, 0.1250000000, -0.1250000000, 0.1250000000, 0.1250000000, 0.1250000000, 0.1250000000, 0.1250000000, 0.1250000000, -0.1250000000, 0.1250000000, 0.1250000000, 0.1250000000, 0.1250000000, 0.1250000000, -0.1250000000, -0.1250000000, -0.1250000000, -0.1250000000, -0.1250000000, -0.1250000000, -0.1250000000, -0.1250000000, 0.1250000000, -0.1250000000, -0.1250000000, 0.1250000000, 0.1250000000, -0.1250000000, 0.1250000000, 0.1250000000, 0.1250000000, -0.1250000000, -0.1250000000, -0.1250000000, -0.1250000000, 0.1250000000, -0.1250000000, 0.1250000000, -0.1250000000, -0.1250000000, 0.1250000000, -0.1250000000, 0.1250000000, 0.1250000000, 0.1250000000, 0.1250000000, -0.1250000000, 0.1250000000, -0.1250000000, -0.1250000000, -0.1250000000, -0.1250000000, -0.1250000000, 0.1250000000, 0.1250000000, 0.1250000000, -0.1250000000, -0.1250000000, 0.1250000000, -0.1250000000, -0.1250000000, 0.1250000000, 0.1250000000, 0.1250000000, 0.1250000000, 0.1250000000, -0.1250000000, 0.1250000000, -0.1250000000, -0.1250000000, -0.1250000000, -0.1250000000, -0.1250000000, -0.1250000000, 0.1250000000, 0.1250000000, -0.1250000000, -0.1250000000, 0.1250000000, 0.1250000000, -0.1250000000, -0.1250000000, 0.1250000000, 0.1250000000, -0.1250000000, -0.1250000000, 0.1250000000, -0.1250000000, 0.1250000000, 0.1250000000, 0.1250000000, 0.1250000000, 0.1250000000, -0.1250000000, 0.1250000000, -0.1250000000, 0.1250000000, -0.1250000000, 0.1250000000, -0.1250000000, -0.1250000000, 0.1250000000, 0.1250000000, -0.1250000000, -0.1250000000, 0.1250000000, 0.1250000000, -0.1250000000, 0.1250000000, 0.1250000000, 0.1250000000, 0.1250000000, 0.1250000000, 0.1250000000, -0.1250000000, -0.1250000000, 0.1250000000, 0.1250000000, 0.1250000000, 0.1250000000, 0.1250000000, -0.1250000000, 0.1250000000, -0.1250000000, -0.1250000000, 0.1250000000, 0.1250000000, -0.1250000000, -0.1250000000, -0.1250000000, 0.1250000000, 0.1250000000, -0.1250000000, -0.1250000000, 0.1250000000, 0.1250000000, -0.1250000000, -0.1250000000, 0.1250000000, 0.1250000000, 0.1250000000, -0.1250000000, -0.1250000000, -0.1250000000, 0.1250000000, 0.1250000000, 0.1250000000, -0.1250000000, -0.1250000000, 0.1250000000, -0.1250000000, 0.1250000000, -0.1250000000, -0.1250000000, 0.1250000000, -0.1250000000, -0.1250000000, -0.1250000000, -0.1250000000, -0.1250000000, 0.1250000000, -0.1250000000, 0.1250000000, 0.1250000000, 0.1250000000, 0.1250000000, 0.1250000000, 0.1250000000, 0.1250000000, 