//Numpy array shape [84, 10]
//Min -0.062500000000
//Max 0.062500000000
//Number of zeros 0

#ifndef W13_H_
#define W13_H_

#ifndef __SYNTHESIS__
weight_default_t w13[840];
#else
weight_default_t w13[840] = {0.0625, -0.0625, -0.0625, -0.0625, -0.0625, -0.0625, -0.0625, -0.0625, 0.0625, 0.0625, 0.0625, 0.0625, -0.0625, 0.0625, -0.0625, -0.0625, 0.0625, 0.0625, -0.0625, -0.0625, -0.0625, -0.0625, 0.0625, 0.0625, -0.0625, -0.0625, -0.0625, -0.0625, -0.0625, -0.0625, 0.0625, 0.0625, -0.0625, -0.0625, -0.0625, 0.0625, -0.0625, -0.0625, -0.0625, -0.0625, -0.0625, -0.0625, 0.0625, 0.0625, -0.0625, -0.0625, -0.0625, -0.0625, -0.0625, -0.0625, 0.0625, 0.0625, -0.0625, 0.0625, 0.0625, 0.0625, 0.0625, -0.0625, -0.0625, -0.0625, -0.0625, -0.0625, -0.0625, 0.0625, -0.0625, -0.0625, -0.0625, 0.0625, 0.0625, -0.0625, -0.0625, 0.0625, -0.0625, -0.0625, 0.0625, 0.0625, -0.0625, 0.0625, -0.0625, 0.0625, -0.0625, -0.0625, -0.0625, 0.0625, -0.0625, -0.0625, 0.0625, -0.0625, -0.0625, 0.0625, -0.0625, -0.0625, -0.0625, -0.0625, 0.0625, -0.0625, 0.0625, -0.0625, -0.0625, -0.0625, -0.0625, -0.0625, -0.0625, 0.0625, -0.0625, -0.0625, 0.0625, 0.0625, 0.0625, -0.0625, 0.0625, -0.0625, -0.0625, 0.0625, 0.0625, -0.0625, -0.0625, 0.0625, 0.0625, 0.0625, -0.0625, -0.0625, 0.0625, 0.0625, -0.0625, -0.0625, -0.0625, -0.0625, -0.0625, -0.0625, 0.0625, -0.0625, 0.0625, 0.0625, -0.0625, -0.0625, -0.0625, 0.0625, -0.0625, 0.0625, -0.0625, -0.0625, 0.0625, -0.0625, -0.0625, 0.0625, -0.0625, -0.0625, -0.0625, -0.0625, -0.0625, 0.0625, -0.0625, -0.0625, 0.0625, -0.0625, 0.0625, -0.0625, -0.0625, -0.0625, -0.0625, 0.0625, 0.0625, 0.0625, 0.0625, 0.0625, -0.0625, -0.0625, -0.0625, 0.0625, 0.0625, -0.0625, -0.0625, -0.0625, 0.0625, 0.0625, 0.0625, -0.0625, -0.0625, -0.0625, -0.0625, -0.0625, 0.0625, -0.0625, -0.0625, 0.0625, -0.0625, -0.0625, -0.0625, -0.0625, 0.0625, 0.0625, -0.0625, 0.0625, -0.0625, -0.0625, -0.0625, -0.0625, -0.0625, 0.0625, -0.0625, -0.0625, 0.0625, -0.0625, 0.0625, -0.0625, -0.0625, -0.0625, -0.0625, -0.0625, -0.0625, -0.0625, -0.0625, 0.0625, -0.0625, 0.0625, -0.0625, -0.0625, -0.0625, -0.0625, 0.0625, 0.0625, 0.0625, -0.0625, 0.0625, 0.0625, 0.0625, 0.0625, -0.0625, 0.0625, -0.0625, -0.0625, -0.0625, 0.0625, -0.0625, -0.0625, 0.0625, -0.0625, -0.0625, -0.0625, -0.0625, -0.0625, 0.0625, -0.0625, -0.0625, -0.0625, -0.0625, -0.0625, -0.0625, 0.0625, -0.0625, -0.0625, -0.0625, 0.0625, -0.0625, -0.0625, -0.0625, -0.0625, 0.0625, -0.0625, -0.0625, -0.0625, -0.0625, -0.0625, -0.0625, -0.0625, -0.0625, -0.0625, 0.0625, 0.0625, 0.0625, -0.0625, 0.0625, -0.0625, -0.0625, 0.0625, -0.0625, 0.0625, -0.0625, -0.0625, 0.0625, -0.0625, 0.0625, 0.0625, -0.0625, -0.0625, -0.0625, -0.0625, -0.0625, -0.0625, -0.0625, -0.0625, -0.0625, 0.0625, -0.0625, -0.0625, -0.0625, -0.0625, 0.0625, -0.0625, 0.0625, 0.0625, -0.0625, 0.0625, 0.0625, 0.0625, -0.0625, -0.0625, -0.0625, -0.0625, -0.0625, -0.0625, -0.0625, -0.0625, -0.0625, 0.0625, -0.0625, 0.0625, 0.0625, -0.0625, -0.0625, -0.0625, 0.0625, 0.0625, 0.0625, -0.0625, 0.0625, -0.0625, 0.0625, -0.0625, -0.0625, -0.0625, 0.0625, -0.0625, 0.0625, -0.0625, -0.0625, -0.0625, -0.0625, 0.0625, -0.0625, 0.0625, -0.0625, 0.0625, 0.0625, -0.0625, 0.0625, 0.0625, -0.0625, 0.0625, 0.0625, -0.0625, -0.0625, -0.0625, 0.0625, 0.0625, -0.0625, -0.0625, 0.0625, -0.0625, 0.0625, -0.0625, -0.0625, -0.0625, -0.0625, -0.0625, -0.0625, -0.0625, 0.0625, -0.0625, -0.0625, -0.0625, 0.0625, -0.0625, -0.0625, -0.0625, 0.0625, -0.0625, -0.0625, -0.0625, -0.0625, -0.0625, -0.0625, -0.0625, -0.0625, 0.0625, -0.0625, 0.0625, -0.0625, 0.0625, 0.0625, -0.0625, -0.0625, -0.0625, -0.0625, -0.0625, 0.0625, 0.0625, 0.0625, -0.0625, 0.0625, -0.0625, -0.0625, 0.0625, -0.0625, 0.0625, -0.0625, -0.0625, -0.0625, 0.0625, 0.0625, -0.0625, 0.0625, -0.0625, -0.0625, -0.0625, -0.0625, -0.0625, -0.0625, -0.0625, -0.0625, -0.0625, -0.0625, 0.0625, -0.0625, -0.0625, 0.0625, -0.0625, -0.0625, 0.0625, -0.0625, 0.0625, 0.0625, -0.0625, 0.0625, -0.0625, -0.0625, 0.0625, -0.0625, -0.0625, 0.0625, 0.0625, 0.0625, -0.0625, 0.0625, 0.0625, -0.0625, -0.0625, -0.0625, -0.0625, 0.0625, -0.0625, -0.0625, -0.0625, -0.0625, -0.0625, 0.0625, 0.0625, 0.0625, 0.0625, -0.0625, 0.0625, 0.0625, 0.0625, -0.0625, -0.0625, -0.0625, -0.0625, 0.0625, -0.0625, -0.0625, -0.0625, -0.0625, -0.0625, -0.0625, -0.0625, -0.0625, 0.0625, -0.0625, -0.0625, -0.0625, -0.0625, -0.0625, -0.0625, 0.0625, -0.0625, 0.0625, -0.0625, 0.0625, 0.0625, -0.0625, -0.0625, 0.0625, -0.0625, -0.0625, 0.0625, -0.0625, -0.0625, -0.0625, -0.0625, -0.0625, -0.0625, -0.0625, 0.0625, -0.0625, -0.0625, -0.0625, -0.0625, -0.0625, -0.0625, -0.0625, 0.0625, -0.0625, 0.0625, -0.0625, 0.0625, -0.0625, 0.0625, -0.0625, 0.0625, -0.0625, -0.0625, -0.0625, -0.0625, 0.0625, -0.0625, -0.0625, -0.0625, 0.0625, -0.0625, -0.0625, 0.0625, -0.0625, 0.0625, -0.0625, -0.0625, -0.0625, -0.0625, -0.0625, -0.0625, 0.0625, -0.0625, -0.0625, 0.0625, 0.0625, -0.0625, -0.0625, -0.0625, 0.0625, 0.0625, 0.0625, -0.0625, 0.0625, -0.0625, 0.0625, -0.0625, -0.0625, -0.0625, -0.0625, -0.0625, -0.0625, 0.0625, -0.0625, 0.0625, -0.0625, -0.0625, -0.0625, -0.0625, -0.0625, 0.0625, -0.0625, 0.0625, -0.0625, 0.0625, -0.0625, 0.0625, -0.0625, -0.0625, 0.0625, -0.0625, -0.0625, 0.0625, 0.0625, -0.0625, -0.0625, -0.0625, 0.0625, 0.0625, 0.0625, 0.0625, -0.0625, -0.0625, 0.0625, -0.0625, 0.0625, -0.0625, -0.0625, -0.0625, 0.0625, -0.0625, -0.0625, -0.0625, -0.0625, 0.0625, -0.0625, -0.0625, 0.0625, 0.0625, -0.0625, -0.0625, -0.0625, 0.0625, -0.0625, -0.0625, -0.0625, -0.0625, -0.0625, 0.0625, -0.0625, -0.0625, -0.0625, 0.0625, -0.0625, -0.0625, -0.0625, 0.0625, -0.0625, -0.0625, -0.0625, -0.0625, 0.0625, 0.0625, -0.0625, 0.0625, -0.0625, 0.0625, -0.0625, 0.0625, -0.0625, -0.0625, 0.0625, -0.0625, 0.0625, -0.0625, 0.0625, -0.0625, -0.0625, -0.0625, 0.0625, -0.0625, -0.0625, 0.0625, -0.0625, -0.0625, 0.0625, -0.0625, -0.0625, 0.0625, 0.0625, -0.0625, -0.0625, 0.0625, -0.0625, -0.0625, -0.0625, -0.0625, -0.0625, -0.0625, -0.0625, 0.0625, -0.0625, 0.0625, -0.0625, 0.0625, -0.0625, 0.0625, 0.0625, -0.0625, -0.0625, -0.0625, -0.0625, 0.0625, -0.0625, 0.0625, 0.0625, -0.0625, -0.0625, -0.0625, -0.0625, -0.0625, -0.0625, -0.0625, -0.0625, -0.0625, -0.0625, -0.0625, -0.0625, 0.0625, 0.0625, -0.0625, 0.0625, -0.0625, -0.0625, 0.0625, 0.0625, 0.0625, -0.0625, -0.0625, 0.0625, 0.0625, -0.0625, -0.0625, 0.0625, 0.0625, -0.0625, 0.0625, -0.0625, -0.0625, -0.0625, -0.0625, -0.0625, -0.0625, -0.0625, 0.0625, 0.0625, -0.0625, -0.0625, 0.0625, -0.0625, -0.0625, -0.0625, 0.0625, -0.0625, -0.0625, 0.0625, -0.0625, -0.0625, -0.0625, -0.0625, -0.0625, -0.0625, -0.0625, -0.0625, 0.0625, 0.0625, 0.0625, 0.0625, -0.0625, -0.0625, 0.0625, 0.0625, 0.0625, -0.0625, 0.0625, -0.0625, -0.0625, 0.0625, -0.0625, -0.0625, 0.0625, 0.0625, -0.0625, -0.0625, -0.0625, 0.0625, -0.0625, -0.0625, 0.0625, -0.0625, 0.0625, -0.0625, -0.0625, -0.0625, -0.0625, 0.0625, -0.0625, -0.0625, 0.0625, -0.0625, -0.0625, -0.0625, 0.0625, 0.0625, 0.0625, -0.0625, -0.0625, 0.0625, -0.0625, -0.0625, -0.0625, -0.0625, 0.0625, -0.0625, 0.0625, -0.0625, 0.0625, -0.0625, -0.0625, -0.0625, -0.0625, 0.0625, 0.0625, 0.0625, -0.0625, -0.0625, -0.0625, -0.0625, 0.0625, -0.0625, -0.0625, -0.0625, -0.0625, 0.0625, -0.0625, -0.0625, -0.0625, 0.0625, 0.0625, 0.0625, -0.0625, -0.0625, 0.0625, -0.0625, 0.0625, -0.0625, -0.0625, -0.0625, -0.0625, -0.0625, -0.0625, -0.0625, 0.0625, 0.0625, -0.0625, -0.0625, -0.0625, 0.0625, 0.0625, -0.0625, -0.0625};
#endif

#endif
