//Numpy array shape [84, 10]
//Min -0.125000000000
//Max 0.125000000000
//Number of zeros 0

#ifndef W13_H_
#define W13_H_

#ifndef __SYNTHESIS__
weight_default_t w13[840];
#else
weight_default_t w13[840] = {0.125, -0.125, -0.125, -0.125, -0.125, -0.125, -0.125, 0.125, -0.125, 0.125, -0.125, -0.125, 0.125, 0.125, -0.125, -0.125, -0.125, 0.125, 0.125, -0.125, -0.125, 0.125, 0.125, -0.125, -0.125, -0.125, -0.125, -0.125, -0.125, -0.125, -0.125, -0.125, -0.125, -0.125, 0.125, 0.125, -0.125, -0.125, 0.125, 0.125, -0.125, -0.125, -0.125, -0.125, -0.125, -0.125, -0.125, 0.125, 0.125, 0.125, -0.125, 0.125, -0.125, -0.125, 0.125, -0.125, -0.125, -0.125, -0.125, -0.125, -0.125, -0.125, 0.125, 0.125, -0.125, 0.125, -0.125, 0.125, -0.125, -0.125, -0.125, -0.125, 0.125, -0.125, 0.125, -0.125, 0.125, -0.125, -0.125, -0.125, 0.125, -0.125, 0.125, -0.125, 0.125, -0.125, -0.125, -0.125, -0.125, 0.125, 0.125, -0.125, -0.125, -0.125, -0.125, 0.125, 0.125, -0.125, 0.125, -0.125, 0.125, 0.125, -0.125, -0.125, 0.125, -0.125, -0.125, 0.125, -0.125, -0.125, 0.125, -0.125, -0.125, -0.125, 0.125, 0.125, 0.125, -0.125, 0.125, 0.125, -0.125, 0.125, -0.125, -0.125, -0.125, 0.125, -0.125, -0.125, 0.125, -0.125, 0.125, -0.125, -0.125, -0.125, 0.125, -0.125, 0.125, -0.125, -0.125, 0.125, -0.125, -0.125, 0.125, -0.125, 0.125, 0.125, -0.125, -0.125, -0.125, -0.125, -0.125, -0.125, -0.125, -0.125, -0.125, -0.125, 0.125, 0.125, -0.125, -0.125, 0.125, -0.125, -0.125, 0.125, -0.125, -0.125, -0.125, -0.125, -0.125, -0.125, 0.125, -0.125, 0.125, 0.125, -0.125, 0.125, -0.125, -0.125, -0.125, -0.125, -0.125, -0.125, -0.125, 0.125, 0.125, -0.125, -0.125, 0.125, -0.125, 0.125, -0.125, 0.125, -0.125, -0.125, 0.125, -0.125, -0.125, 0.125, -0.125, -0.125, -0.125, -0.125, -0.125, 0.125, -0.125, 0.125, 0.125, -0.125, -0.125, -0.125, -0.125, -0.125, -0.125, -0.125, -0.125, 0.125, -0.125, -0.125, -0.125, 0.125, 0.125, 0.125, 0.125, -0.125, 0.125, 0.125, -0.125, -0.125, -0.125, -0.125, 0.125, 0.125, 0.125, 0.125, -0.125, -0.125, -0.125, 0.125, -0.125, -0.125, -0.125, 0.125, -0.125, -0.125, 0.125, 0.125, 0.125, -0.125, -0.125, -0.125, -0.125, -0.125, 0.125, 0.125, -0.125, 0.125, -0.125, -0.125, 0.125, 0.125, -0.125, 0.125, -0.125, -0.125, -0.125, -0.125, -0.125, -0.125, 0.125, 0.125, -0.125, -0.125, -0.125, -0.125, -0.125, -0.125, 0.125, -0.125, -0.125, 0.125, -0.125, -0.125, -0.125, 0.125, -0.125, -0.125, -0.125, -0.125, 0.125, -0.125, -0.125, 0.125, -0.125, -0.125, -0.125, -0.125, 0.125, 0.125, -0.125, -0.125, 0.125, 0.125, -0.125, 0.125, -0.125, 0.125, -0.125, -0.125, -0.125, 0.125, 0.125, -0.125, 0.125, 0.125, -0.125, -0.125, -0.125, -0.125, 0.125, -0.125, -0.125, -0.125, -0.125, -0.125, 0.125, -0.125, -0.125, -0.125, 0.125, -0.125, -0.125, 0.125, -0.125, -0.125, -0.125, -0.125, -0.125, 0.125, 0.125, -0.125, -0.125, 0.125, 0.125, -0.125, -0.125, -0.125, -0.125, -0.125, -0.125, -0.125, 0.125, 0.125, -0.125, -0.125, -0.125, -0.125, -0.125, -0.125, -0.125, 0.125, -0.125, -0.125, 0.125, -0.125, 0.125, 0.125, 0.125, -0.125, 0.125, -0.125, -0.125, -0.125, -0.125, -0.125, -0.125, 0.125, -0.125, 0.125, 0.125, 0.125, -0.125, 0.125, -0.125, -0.125, -0.125, 0.125, -0.125, -0.125, -0.125, -0.125, -0.125, 0.125, -0.125, -0.125, -0.125, 0.125, 0.125, -0.125, -0.125, 0.125, -0.125, -0.125, -0.125, -0.125, 0.125, -0.125, 0.125, -0.125, 0.125, -0.125, -0.125, -0.125, -0.125, 0.125, -0.125, 0.125, -0.125, -0.125, 0.125, -0.125, 0.125, -0.125, -0.125, -0.125, -0.125, 0.125, -0.125, 0.125, -0.125, -0.125, 0.125, -0.125, -0.125, -0.125, -0.125, 0.125, -0.125, 0.125, 0.125, -0.125, -0.125, -0.125, -0.125, -0.125, -0.125, -0.125, 0.125, -0.125, -0.125, 0.125, -0.125, -0.125, 0.125, -0.125, -0.125, -0.125, 0.125, 0.125, -0.125, 0.125, -0.125, 0.125, -0.125, 0.125, -0.125, -0.125, 0.125, -0.125, -0.125, 0.125, -0.125, -0.125, 0.125, -0.125, -0.125, -0.125, -0.125, 0.125, -0.125, -0.125, -0.125, 0.125, -0.125, 0.125, -0.125, 0.125, 0.125, -0.125, -0.125, -0.125, -0.125, 0.125, -0.125, 0.125, 0.125, -0.125, -0.125, 0.125, -0.125, -0.125, 0.125, -0.125, -0.125, -0.125, -0.125, -0.125, 0.125, -0.125, -0.125, -0.125, 0.125, -0.125, -0.125, 0.125, 0.125, -0.125, -0.125, -0.125, 0.125, 0.125, -0.125, -0.125, 0.125, 0.125, -0.125, -0.125, -0.125, 0.125, 0.125, -0.125, 0.125, 0.125, 0.125, 0.125, 0.125, -0.125, -0.125, -0.125, -0.125, -0.125, 0.125, -0.125, 0.125, -0.125, 0.125, -0.125, -0.125, 0.125, -0.125, -0.125, 0.125, 0.125, -0.125, -0.125, -0.125, -0.125, -0.125, -0.125, 0.125, -0.125, 0.125, -0.125, 0.125, -0.125, -0.125, -0.125, -0.125, 0.125, -0.125, 0.125, -0.125, -0.125, 0.125, -0.125, -0.125, 0.125, 0.125, -0.125, -0.125, -0.125, -0.125, 0.125, 0.125, -0.125, -0.125, -0.125, -0.125, -0.125, -0.125, -0.125, -0.125, -0.125, 0.125, -0.125, -0.125, -0.125, 0.125, -0.125, 0.125, -0.125, -0.125, -0.125, -0.125, -0.125, 0.125, -0.125, -0.125, 0.125, -0.125, 0.125, -0.125, 0.125, 0.125, -0.125, 0.125, -0.125, -0.125, -0.125, -0.125, 0.125, -0.125, -0.125, -0.125, -0.125, 0.125, -0.125, -0.125, -0.125, 0.125, 0.125, 0.125, -0.125, -0.125, 0.125, -0.125, -0.125, -0.125, 0.125, -0.125, -0.125, -0.125, -0.125, -0.125, -0.125, 0.125, 0.125, -0.125, -0.125, -0.125, -0.125, -0.125, -0.125, 0.125, 0.125, -0.125, -0.125, 0.125, -0.125, -0.125, 0.125, -0.125, -0.125, -0.125, 0.125, -0.125, 0.125, -0.125, 0.125, -0.125, -0.125, 0.125, 0.125, -0.125, -0.125, 0.125, -0.125, 0.125, -0.125, -0.125, 0.125, 0.125, -0.125, 0.125, -0.125, -0.125, 0.125, -0.125, -0.125, -0.125, -0.125, -0.125, -0.125, -0.125, -0.125, 0.125, 0.125, 0.125, 0.125, -0.125, -0.125, -0.125, 0.125, -0.125, 0.125, -0.125, -0.125, -0.125, 0.125, -0.125, -0.125, 0.125, -0.125, -0.125, 0.125, -0.125, -0.125, 0.125, -0.125, 0.125, -0.125, -0.125, 0.125, -0.125, 0.125, -0.125, 0.125, -0.125, -0.125, 0.125, -0.125, -0.125, -0.125, -0.125, -0.125, 0.125, -0.125, -0.125, 0.125, 0.125, -0.125, 0.125, -0.125, 0.125, 0.125, 0.125, -0.125, 0.125, -0.125, 0.125, -0.125, 0.125, -0.125, -0.125, -0.125, -0.125, 0.125, -0.125, -0.125, -0.125, 0.125, -0.125, -0.125, -0.125, 0.125, 0.125, -0.125, -0.125, -0.125, -0.125, 0.125, 0.125, 0.125, -0.125, -0.125, -0.125, -0.125, 0.125, -0.125, 0.125, -0.125, -0.125, 0.125, -0.125, -0.125, -0.125, -0.125, 0.125, -0.125, 0.125, -0.125, 0.125, 0.125, -0.125, -0.125, -0.125, -0.125, -0.125, -0.125, 0.125, -0.125, -0.125, 0.125, -0.125, 0.125, -0.125, -0.125, -0.125, -0.125, -0.125, 0.125, -0.125, 0.125, 0.125, -0.125, -0.125, -0.125, -0.125, 0.125, 0.125, 0.125, -0.125, -0.125, -0.125, 0.125, -0.125, -0.125, 0.125, -0.125, -0.125, -0.125, 0.125, -0.125, -0.125, -0.125, -0.125, 0.125, 0.125, 0.125, -0.125, -0.125};
#endif

#endif
