//Numpy array shape [84, 10]
//Min -0.125000000000
//Max 0.125000000000
//Number of zeros 0

#ifndef W13_H_
#define W13_H_

#ifndef __SYNTHESIS__
model_default_t w13[840];
#else
model_default_t w13[840] = {0.1250000000, -0.1250000000, -0.1250000000, -0.1250000000, -0.1250000000, -0.1250000000, -0.1250000000, 0.1250000000, -0.1250000000, 0.1250000000, -0.1250000000, -0.1250000000, 0.1250000000, 0.1250000000, -0.1250000000, -0.1250000000, -0.1250000000, 0.1250000000, 0.1250000000, -0.1250000000, -0.1250000000, 0.1250000000, 0.1250000000, -0.1250000000, -0.1250000000, -0.1250000000, -0.1250000000, -0.1250000000, -0.1250000000, -0.1250000000, -0.1250000000, -0.1250000000, -0.1250000000, -0.1250000000, 0.1250000000, 0.1250000000, -0.1250000000, -0.1250000000, 0.1250000000, 0.1250000000, -0.1250000000, -0.1250000000, -0.1250000000, -0.1250000000, -0.1250000000, -0.1250000000, -0.1250000000, 0.1250000000, 0.1250000000, 0.1250000000, -0.1250000000, 0.1250000000, -0.1250000000, -0.1250000000, 0.1250000000, -0.1250000000, -0.1250000000, -0.1250000000, -0.1250000000, -0.1250000000, -0.1250000000, -0.1250000000, 0.1250000000, 0.1250000000, -0.1250000000, 0.1250000000, -0.1250000000, 0.1250000000, -0.1250000000, -0.1250000000, -0.1250000000, -0.1250000000, 0.1250000000, -0.1250000000, 0.1250000000, -0.1250000000, 0.1250000000, -0.1250000000, -0.1250000000, -0.1250000000, 0.1250000000, -0.1250000000, 0.1250000000, -0.1250000000, 0.1250000000, -0.1250000000, -0.1250000000, -0.1250000000, -0.1250000000, 0.1250000000, 0.1250000000, -0.1250000000, -0.1250000000, -0.1250000000, -0.1250000000, 0.1250000000, 0.1250000000, -0.1250000000, 0.1250000000, -0.1250000000, 0.1250000000, 0.1250000000, -0.1250000000, -0.1250000000, 0.1250000000, -0.1250000000, -0.1250000000, 0.1250000000, -0.1250000000, -0.1250000000, 0.1250000000, -0.1250000000, -0.1250000000, -0.1250000000, 0.1250000000, 0.1250000000, 0.1250000000, -0.1250000000, 0.1250000000, 0.1250000000, -0.1250000000, 0.1250000000, -0.1250000000, -0.1250000000, -0.1250000000, 0.1250000000, -0.1250000000, -0.1250000000, 0.1250000000, -0.1250000000, 0.1250000000, -0.1250000000, -0.1250000000, -0.1250000000, 0.1250000000, -0.1250000000, 0.1250000000, -0.1250000000, -0.1250000000, 0.1250000000, -0.1250000000, -0.1250000000, 0.1250000000, -0.1250000000, 0.1250000000, 0.1250000000, -0.1250000000, -0.1250000000, -0.1250000000, -0.1250000000, -0.1250000000, -0.1250000000, -0.1250000000, -0.1250000000, -0.1250000000, -0.1250000000, 0.1250000000, 0.1250000000, -0.1250000000, -0.1250000000, 0.1250000000, -0.1250000000, -0.1250000000, 0.1250000000, -0.1250000000, -0.1250000000, -0.1250000000, -0.1250000000, -0.1250000000, -0.1250000000, 0.1250000000, -0.1250000000, 0.1250000000, 0.1250000000, -0.1250000000, 0.1250000000, -0.1250000000, -0.1250000000, -0.1250000000, -0.1250000000, -0.1250000000, -0.1250000000, -0.1250000000, 0.1250000000, 0.1250000000, -0.1250000000, -0.1250000000, 0.1250000000, -0.1250000000, 0.1250000000, -0.1250000000, 0.1250000000, -0.1250000000, -0.1250000000, 0.1250000000, -0.1250000000, -0.1250000000, 0.1250000000, -0.1250000000, -0.1250000000, -0.1250000000, -0.1250000000, -0.1250000000, 0.1250000000, -0.1250000000, 0.1250000000, 0.1250000000, -0.1250000000, -0.1250000000, -0.1250000000, -0.1250000000, -0.1250000000, -0.1250000000, -0.1250000000, -0.1250000000, 0.1250000000, -0.1250000000, -0.1250000000, -0.1250000000, 0.1250000000, 0.1250000000, 0.1250000000, 0.1250000000, -0.1250000000, 0.1250000000, 0.1250000000, -0.1250000000, -0.1250000000, -0.1250000000, -0.1250000000, 0.1250000000, 0.1250000000, 0.1250000000, 0.1250000000, -0.1250000000, -0.1250000000, -0.1250000000, 0.1250000000, -0.1250000000, -0.1250000000, -0.1250000000, 0.1250000000, -0.1250000000, -0.1250000000, 0.1250000000, 0.1250000000, 0.1250000000, -0.1250000000, -0.1250000000, -0.1250000000, -0.1250000000, -0.1250000000, 0.1250000000, 0.1250000000, -0.1250000000, 0.1250000000, -0.1250000000, -0.1250000000, 0.1250000000, 0.1250000000, -0.1250000000, 0.1250000000, -0.1250000000, -0.1250000000, -0.1250000000, -0.1250000000, -0.1250000000, -0.1250000000, 0.1250000000, 0.1250000000, -0.1250000000, -0.1250000000, -0.1250000000, -0.1250000000, -0.1250000000, -0.1250000000, 0.1250000000, -0.1250000000, -0.1250000000, 0.1250000000, -0.1250000000, -0.1250000000, -0.1250000000, 0.1250000000, -0.1250000000, -0.1250000000, -0.1250000000, -0.1250000000, 0.1250000000, -0.1250000000, -0.1250000000, 0.1250000000, -0.1250000000, -0.1250000000, -0.1250000000, -0.1250000000, 0.1250000000, 0.1250000000, -0.1250000000, -0.1250000000, 0.1250000000, 0.1250000000, -0.1250000000, 0.1250000000, -0.1250000000, 0.1250000000, -0.1250000000, -0.1250000000, -0.1250000000, 0.1250000000, 0.1250000000, -0.1250000000, 0.1250000000, 0.1250000000, -0.1250000000, -0.1250000000, -0.1250000000, -0.1250000000, 0.1250000000, -0.1250000000, -0.1250000000, -0.1250000000, -0.1250000000, -0.1250000000, 0.1250000000, -0.1250000000, -0.1250000000, -0.1250000000, 0.1250000000, -0.1250000000, -0.1250000000, 0.1250000000, -0.1250000000, -0.1250000000, -0.1250000000, -0.1250000000, -0.1250000000, 0.1250000000, 0.1250000000, -0.1250000000, -0.1250000000, 0.1250000000, 0.1250000000, -0.1250000000, -0.1250000000, -0.1250000000, -0.1250000000, -0.1250000000, -0.1250000000, -0.1250000000, 0.1250000000, 0.1250000000, -0.1250000000, -0.1250000000, -0.1250000000, -0.1250000000, -0.1250000000, -0.1250000000, -0.1250000000, 0.1250000000, -0.1250000000, -0.1250000000, 0.1250000000, -0.1250000000, 0.1250000000, 0.1250000000, 0.1250000000, -0.1250000000, 0.1250000000, -0.1250000000, -0.1250000000, -0.1250000000, -0.1250000000, -0.1250000000, -0.1250000000, 0.1250000000, -0.1250000000, 0.1250000000, 0.1250000000, 0.1250000000, -0.1250000000, 0.1250000000, -0.1250000000, -0.1250000000, -0.1250000000, 0.1250000000, -0.1250000000, -0.1250000000, -0.1250000000, -0.1250000000, -0.1250000000, 0.1250000000, -0.1250000000, -0.1250000000, -0.1250000000, 0.1250000000, 0.1250000000, -0.1250000000, -0.1250000000, 0.1250000000, -0.1250000000, -0.1250000000, -0.1250000000, -0.1250000000, 0.1250000000, -0.1250000000, 0.1250000000, -0.1250000000, 0.1250000000, -0.1250000000, -0.1250000000, -0.1250000000, -0.1250000000, 0.1250000000, -0.1250000000, 0.1250000000, -0.1250000000, -0.1250000000, 0.1250000000, -0.1250000000, 0.1250000000, -0.1250000000, -0.1250000000, -0.1250000000, -0.1250000000, 0.1250000000, -0.1250000000, 0.1250000000, -0.1250000000, -0.1250000000, 0.1250000000, -0.1250000000, -0.1250000000, -0.1250000000, -0.1250000000, 0.1250000000, -0.1250000000, 0.1250000000, 0.1250000000, -0.1250000000, -0.1250000000, -0.1250000000, -0.1250000000, -0.1250000000, -0.1250000000, -0.1250000000, 0.1250000000, -0.1250000000, -0.1250000000, 0.1250000000, -0.1250000000, -0.1250000000, 0.1250000000, -0.1250000000, -0.1250000000, -0.1250000000, 0.1250000000, 0.1250000000, -0.1250000000, 0.1250000000, -0.1250000000, 0.1250000000, -0.1250000000, 0.1250000000, -0.1250000000, -0.1250000000, 0.1250000000, -0.1250000000, -0.1250000000, 0.1250000000, -0.1250000000, -0.1250000000, 0.1250000000, -0.1250000000, -0.1250000000, -0.1250000000, -0.1250000000, 0.1250000000, -0.1250000000, -0.1250000000, -0.1250000000, 0.1250000000, -0.1250000000, 0.1250000000, -0.1250000000, 0.1250000000, 0.1250000000, -0.1250000000, -0.1250000000, -0.1250000000, -0.1250000000, 0.1250000000, -0.1250000000, 0.1250000000, 0.1250000000, -0.1250000000, -0.1250000000, 0.1250000000, -0.1250000000, -0.1250000000, 0.1250000000, -0.1250000000, -0.1250000000, -0.1250000000, -0.1250000000, -0.1250000000, 0.1250000000, -0.1250000000, -0.1250000000, -0.1250000000, 0.1250000000, -0.1250000000, -0.1250000000, 0.1250000000, 0.1250000000, -0.1250000000, -0.1250000000, -0.1250000000, 0.1250000000, 0.1250000000, -0.1250000000, -0.1250000000, 0.1250000000, 0.1250000000, -0.1250000000, -0.1250000000, -0.1250000000, 0.1250000000, 0.1250000000, -0.1250000000, 0.1250000000, 0.1250000000, 0.1250000000, 0.1250000000, 0.1250000000, -0.1250000000, -0.1250000000, -0.1250000000, -0.1250000000, -0.1250000000, 0.1250000000, -0.1250000000, 0.1250000000, -0.1250000000, 0.1250000000, -0.1250000000, -0.1250000000, 0.1250000000, -0.1250000000, -0.1250000000, 0.1250000000, 0.1250000000, -0.1250000000, -0.1250000000, -0.1250000000, -0.1250000000, -0.1250000000, -0.1250000000, 0.1250000000, -0.1250000000, 0.1250000000, -0.1250000000, 0.1250000000, -0.1250000000, -0.1250000000, -0.1250000000, -0.1250000000, 0.1250000000, -0.1250000000, 0.1250000000, -0.1250000000, -0.1250000000, 0.1250000000, -0.1250000000, -0.1250000000, 0.1250000000, 0.1250000000, -0.1250000000, -0.1250000000, -0.1250000000, -0.1250000000, 0.1250000000, 0.1250000000, -0.1250000000, -0.1250000000, -0.1250000000, -0.1250000000, -0.1250000000, -0.1250000000, -0.1250000000, -0.1250000000, -0.1250000000, 0.1250000000, -0.1250000000, -0.1250000000, -0.1250000000, 0.1250000000, -0.1250000000, 0.1250000000, -0.1250000000, -0.1250000000, -0.1250000000, -0.1250000000, -0.1250000000, 0.1250000000, -0.1250000000, -0.1250000000, 0.1250000000, -0.1250000000, 0.1250000000, -0.1250000000, 0.1250000000, 0.1250000000, -0.1250000000, 0.1250000000, -0.1250000000, -0.1250000000, -0.1250000000, -0.1250000000, 0.1250000000, -0.1250000000, -0.1250000000, -0.1250000000, -0.1250000000, 0.1250000000, -0.1250000000, -0.1250000000, -0.1250000000, 0.1250000000, 0.1250000000, 0.1250000000, -0.1250000000, -0.1250000000, 0.1250000000, -0.1250000000, -0.1250000000, -0.1250000000, 0.1250000000, -0.1250000000, -0.1250000000, -0.1250000000, -0.1250000000, -0.1250000000, -0.1250000000, 0.1250000000, 0.1250000000, -0.1250000000, -0.1250000000, -0.1250000000, -0.1250000000, -0.1250000000, -0.1250000000, 0.1250000000, 0.1250000000, -0.1250000000, -0.1250000000, 0.1250000000, -0.1250000000, -0.1250000000, 0.1250000000, -0.1250000000, -0.1250000000, -0.1250000000, 0.1250000000, -0.1250000000, 0.1250000000, -0.1250000000, 0.1250000000, -0.1250000000, -0.1250000000, 0.1250000000, 0.1250000000, -0.1250000000, -0.1250000000, 0.1250000000, -0.1250000000, 0.1250000000, -0.1250000000, -0.1250000000, 0.1250000000, 0.1250000000, -0.1250000000, 0.1250000000, -0.1250000000, -0.1250000000, 0.1250000000, -0.1250000000, -0.1250000000, -0.1250000000, -0.1250000000, -0.1250000000, -0.1250000000, -0.1250000000, -0.1250000000, 0.1250000000, 0.1250000000, 0.1250000000, 0.1250000000, -0.1250000000, -0.1250000000, -0.1250000000, 0.1250000000, -0.1250000000, 0.1250000000, -0.1250000000, -0.1250000000, -0.1250000000, 0.1250000000, -0.1250000000, -0.1250000000, 0.1250000000, -0.1250000000, -0.1250000000, 0.1250000000, -0.1250000000, -0.1250000000, 0.1250000000, -0.1250000000, 0.1250000000, -0.1250000000, -0.1250000000, 0.1250000000, -0.1250000000, 0.1250000000, -0.1250000000, 0.1250000000, -0.1250000000, -0.1250000000, 0.1250000000, -0.1250000000, -0.1250000000, -0.1250000000, -0.1250000000, -0.1250000000, 0.1250000000, -0.1250000000, -0.1250000000, 0.1250000000, 0.1250000000, -0.1250000000, 0.1250000000, -0.1250000000, 0.1250000000, 0.1250000000, 0.1250000000, -0.1250000000, 0.1250000000, -0.1250000000, 0.1250000000, -0.1250000000, 0.1250000000, -0.1250000000, -0.1250000000, -0.1250000000, -0.1250000000, 0.1250000000, -0.1250000000, -0.1250000000, -0.1250000000, 0.1250000000, -0.1250000000, -0.1250000000, -0.1250000000, 0.1250000000, 0.1250000000, -0.1250000000, -0.1250000000, -0.1250000000, -0.1250000000, 0.1250000000, 0.1250000000, 0.1250000000, -0.1250000000, -0.1250000000, -0.1250000000, -0.1250000000, 0.1250000000, -0.1250000000, 0.1250000000, -0.1250000000, -0.1250000000, 0.1250000000, -0.1250000000, -0.1250000000, -0.1250000000, -0.1250000000, 0.1250000000, -0.1250000000, 0.1250000000, -0.1250000000, 0.1250000000, 0.1250000000, -0.1250000000, -0.1250000000, -0.1250000000, -0.1250000000, -0.1250000000, -0.1250000000, 0.1250000000, -0.1250000000, -0.1250000000, 0.1250000000, -0.1250000000, 0.1250000000, -0.1250000000, -0.1250000000, -0.1250000000, -0.1250000000, -0.1250000000, 0.1250000000, -0.1250000000, 0.1250000000, 0.1250000000, -0.1250000000, -0.1250000000, -0.1250000000, -0.1250000000, 0.1250000000, 0.1250000000, 0.1250000000, -0.1250000000, -0.1250000000, -0.1250000000, 0.1250000000, -0.1250000000, -0.1250000000, 0.1250000000, -0.1250000000, -0.1250000000, -0.1250000000, 0.1250000000, -0.1250000000, -0.1250000000, -0.1250000000, -0.1250000000, 0.1250000000, 0.1250000000, 0.1250000000, -0.1250000000, -0.1250000000};
#endif

#endif
