//Numpy array shape [5, 5, 1, 6]
//Min -0.250000000000
//Max 0.250000000000
//Number of zeros 0

#ifndef W2_H_
#define W2_H_

#ifndef __SYNTHESIS__
model_default_t w2[150];
#else
model_default_t w2[150] = {-0.2500000000, -0.2500000000, 0.2500000000, -0.2500000000, -0.2500000000, 0.2500000000, 0.2500000000, -0.2500000000, 0.2500000000, 0.2500000000, -0.2500000000, -0.2500000000, 0.2500000000, -0.2500000000, 0.2500000000, 0.2500000000, -0.2500000000, -0.2500000000, 0.2500000000, 0.2500000000, 0.2500000000, 0.2500000000, -0.2500000000, -0.2500000000, 0.2500000000, 0.2500000000, -0.2500000000, 0.2500000000, -0.2500000000, 0.2500000000, 0.2500000000, -0.2500000000, -0.2500000000, 0.2500000000, -0.2500000000, -0.2500000000, 0.2500000000, -0.2500000000, -0.2500000000, 0.2500000000, 0.2500000000, -0.2500000000, 0.2500000000, -0.2500000000, -0.2500000000, 0.2500000000, 0.2500000000, -0.2500000000, -0.2500000000, -0.2500000000, -0.2500000000, 0.2500000000, -0.2500000000, -0.2500000000, -0.2500000000, -0.2500000000, -0.2500000000, 0.2500000000, -0.2500000000, 0.2500000000, 0.2500000000, 0.2500000000, -0.2500000000, -0.2500000000, 0.2500000000, -0.2500000000, 0.2500000000, -0.2500000000, -0.2500000000, -0.2500000000, 0.2500000000, -0.2500000000, 0.2500000000, -0.2500000000, -0.2500000000, -0.2500000000, 0.2500000000, -0.2500000000, -0.2500000000, -0.2500000000, -0.2500000000, 0.2500000000, 0.2500000000, 0.2500000000, -0.2500000000, -0.2500000000, 0.2500000000, 0.2500000000, -0.2500000000, 0.2500000000, 0.2500000000, 0.2500000000, -0.2500000000, -0.2500000000, 0.2500000000, -0.2500000000, 0.2500000000, 0.2500000000, -0.2500000000, -0.2500000000, 0.2500000000, -0.2500000000, -0.2500000000, -0.2500000000, -0.2500000000, -0.2500000000, 0.2500000000, 0.2500000000, -0.2500000000, -0.2500000000, 0.2500000000, -0.2500000000, 0.2500000000, 0.2500000000, -0.2500000000, -0.2500000000, 0.2500000000, -0.2500000000, 0.2500000000, 0.2500000000, -0.2500000000, 0.2500000000, 0.2500000000, -0.2500000000, 0.2500000000, -0.2500000000, -0.2500000000, 0.2500000000, 0.2500000000, -0.2500000000, 0.2500000000, -0.2500000000, -0.2500000000, 0.2500000000, 0.2500000000, -0.2500000000, 0.2500000000, -0.2500000000, -0.2500000000, 0.2500000000, 0.2500000000, -0.2500000000, 0.2500000000, 0.2500000000, -0.2500000000, 0.2500000000, -0.2500000000, -0.2500000000, -0.2500000000, 0.2500000000};
#endif

#endif
