//Numpy array shape [5, 5, 6, 8]
//Min -0.125000000000
//Max 0.125000000000
//Number of zeros 0

#ifndef W5_H_
#define W5_H_

#ifndef __SYNTHESIS__
weight_default_t w5[1200];
#else
weight_default_t w5[1200] = {-0.125, -0.125, -0.125, 0.125, 0.125, 0.125, -0.125, -0.125, -0.125, -0.125, -0.125, 0.125, -0.125, -0.125, 0.125, 0.125, -0.125, 0.125, 0.125, -0.125, -0.125, -0.125, 0.125, 0.125, -0.125, -0.125, 0.125, 0.125, -0.125, -0.125, 0.125, -0.125, -0.125, -0.125, -0.125, -0.125, -0.125, -0.125, -0.125, 0.125, 0.125, -0.125, -0.125, -0.125, 0.125, 0.125, 0.125, 0.125, -0.125, -0.125, -0.125, -0.125, 0.125, 0.125, -0.125, 0.125, -0.125, 0.125, 0.125, 0.125, -0.125, -0.125, -0.125, -0.125, 0.125, 0.125, 0.125, -0.125, 0.125, 0.125, -0.125, 0.125, -0.125, -0.125, 0.125, 0.125, -0.125, -0.125, 0.125, -0.125, 0.125, 0.125, -0.125, -0.125, 0.125, 0.125, -0.125, -0.125, 0.125, -0.125, -0.125, -0.125, -0.125, 0.125, 0.125, -0.125, 0.125, -0.125, -0.125, -0.125, 0.125, 0.125, -0.125, 0.125, -0.125, 0.125, -0.125, -0.125, -0.125, -0.125, -0.125, 0.125, -0.125, 0.125, 0.125, -0.125, 0.125, -0.125, -0.125, -0.125, 0.125, -0.125, -0.125, 0.125, -0.125, -0.125, -0.125, 0.125, 0.125, 0.125, -0.125, -0.125, -0.125, -0.125, 0.125, -0.125, -0.125, -0.125, 0.125, 0.125, 0.125, 0.125, -0.125, -0.125, 0.125, -0.125, 0.125, 0.125, -0.125, -0.125, 0.125, 0.125, -0.125, 0.125, -0.125, -0.125, -0.125, -0.125, 0.125, 0.125, 0.125, 0.125, 0.125, -0.125, 0.125, -0.125, 0.125, -0.125, -0.125, -0.125, -0.125, 0.125, -0.125, -0.125, -0.125, 0.125, 0.125, 0.125, 0.125, -0.125, 0.125, 0.125, 0.125, 0.125, 0.125, -0.125, -0.125, 0.125, 0.125, 0.125, -0.125, -0.125, -0.125, -0.125, 0.125, 0.125, -0.125, -0.125, -0.125, 0.125, 0.125, -0.125, -0.125, -0.125, 0.125, -0.125, 0.125, 0.125, 0.125, 0.125, -0.125, -0.125, 0.125, 0.125, -0.125, -0.125, 0.125, 0.125, -0.125, 0.125, 0.125, -0.125, -0.125, 0.125, 0.125, 0.125, 0.125, -0.125, 0.125, -0.125, 0.125, -0.125, -0.125, -0.125, -0.125, 0.125, 0.125, 0.125, -0.125, -0.125, -0.125, -0.125, -0.125, -0.125, -0.125, 0.125, 0.125, -0.125, 0.125, -0.125, 0.125, 0.125, -0.125, -0.125, 0.125, 0.125, 0.125, 0.125, 0.125, 0.125, -0.125, 0.125, -0.125, 0.125, -0.125, 0.125, -0.125, -0.125, -0.125, -0.125, 0.125, -0.125, 0.125, -0.125, -0.125, -0.125, -0.125, -0.125, -0.125, -0.125, -0.125, 0.125, 0.125, -0.125, -0.125, 0.125, -0.125, -0.125, -0.125, -0.125, 0.125, -0.125, -0.125, 0.125, -0.125, 0.125, 0.125, 0.125, -0.125, 0.125, 0.125, -0.125, -0.125, 0.125, -0.125, 0.125, 0.125, -0.125, -0.125, -0.125, -0.125, 0.125, -0.125, 0.125, -0.125, 0.125, -0.125, -0.125, 0.125, -0.125, 0.125, 0.125, 0.125, -0.125, 0.125, -0.125, -0.125, 0.125, -0.125, 0.125, 0.125, -0.125, 0.125, 0.125, 0.125, -0.125, 0.125, -0.125, 0.125, -0.125, -0.125, 0.125, -0.125, -0.125, -0.125, 0.125, -0.125, 0.125, 0.125, -0.125, -0.125, 0.125, 0.125, 0.125, 0.125, 0.125, 0.125, -0.125, 0.125, 0.125, -0.125, 0.125, -0.125, 0.125, -0.125, -0.125, -0.125, -0.125, 0.125, 0.125, 0.125, -0.125, 0.125, 0.125, 0.125, -0.125, 0.125, -0.125, 0.125, -0.125, 0.125, 0.125, -0.125, -0.125, 0.125, -0.125, 0.125, -0.125, -0.125, 0.125, 0.125, -0.125, -0.125, 0.125, -0.125, 0.125, 0.125, -0.125, -0.125, 0.125, 0.125, -0.125, 0.125, 0.125, 0.125, -0.125, 0.125, 0.125, 0.125, -0.125, 0.125, 0.125, -0.125, -0.125, -0.125, 0.125, 0.125, 0.125, -0.125, -0.125, 0.125, -0.125, 0.125, -0.125, -0.125, -0.125, -0.125, -0.125, -0.125, 0.125, 0.125, -0.125, 0.125, 0.125, 0.125, -0.125, -0.125, -0.125, 0.125, -0.125, -0.125, 0.125, -0.125, 0.125, 0.125, -0.125, 0.125, 0.125, -0.125, 0.125, -0.125, 0.125, 0.125, 0.125, -0.125, 0.125, 0.125, -0.125, 0.125, 0.125, 0.125, -0.125, -0.125, -0.125, -0.125, 0.125, 0.125, -0.125, 0.125, -0.125, -0.125, 0.125, -0.125, -0.125, -0.125, -0.125, -0.125, 0.125, -0.125, -0.125, 0.125, 0.125, -0.125, 0.125, -0.125, 0.125, -0.125, -0.125, -0.125, -0.125, -0.125, 0.125, -0.125, -0.125, 0.125, -0.125, -0.125, -0.125, 0.125, 0.125, 0.125, -0.125, 0.125, -0.125, 0.125, 0.125, -0.125, -0.125, -0.125, -0.125, -0.125, 0.125, -0.125, -0.125, 0.125, 0.125, 0.125, 0.125, -0.125, 0.125, -0.125, -0.125, 0.125, -0.125, -0.125, 0.125, -0.125, -0.125, 0.125, -0.125, 0.125, -0.125, -0.125, 0.125, -0.125, -0.125, -0.125, -0.125, -0.125, 0.125, -0.125, -0.125, -0.125, -0.125, -0.125, -0.125, -0.125, 0.125, 0.125, -0.125, 0.125, 0.125, 0.125, 0.125, -0.125, -0.125, 0.125, 0.125, -0.125, -0.125, 0.125, -0.125, 0.125, 0.125, -0.125, 0.125, -0.125, 0.125, 0.125, 0.125, 0.125, -0.125, -0.125, 0.125, 0.125, -0.125, 0.125, -0.125, 0.125, -0.125, 0.125, -0.125, 0.125, -0.125, -0.125, -0.125, -0.125, 0.125, 0.125, 0.125, -0.125, 0.125, -0.125, -0.125, -0.125, -0.125, 0.125, -0.125, -0.125, 0.125, 0.125, 0.125, 0.125, -0.125, 0.125, -0.125, -0.125, -0.125, -0.125, -0.125, -0.125, -0.125, 0.125, 0.125, 0.125, 0.125, -0.125, -0.125, -0.125, -0.125, -0.125, -0.125, 0.125, -0.125, 0.125, -0.125, 0.125, -0.125, 0.125, -0.125, 0.125, -0.125, -0.125, 0.125, -0.125, 0.125, 0.125, 0.125, -0.125, 0.125, -0.125, -0.125, -0.125, -0.125, -0.125, 0.125, -0.125, 0.125, 0.125, 0.125, 0.125, -0.125, 0.125, -0.125, -0.125, -0.125, -0.125, 0.125, 0.125, -0.125, -0.125, 0.125, 0.125, 0.125, -0.125, -0.125, 0.125, -0.125, -0.125, -0.125, 0.125, -0.125, -0.125, 0.125, -0.125, -0.125, -0.125, -0.125, 0.125, 0.125, -0.125, 0.125, -0.125, 0.125, 0.125, -0.125, -0.125, 0.125, -0.125, -0.125, -0.125, 0.125, -0.125, 0.125, -0.125, 0.125, 0.125, -0.125, 0.125, -0.125, 0.125, -0.125, -0.125, -0.125, -0.125, 0.125, -0.125, 0.125, 0.125, -0.125, -0.125, 0.125, -0.125, -0.125, -0.125, 0.125, -0.125, -0.125, -0.125, -0.125, -0.125, 0.125, 0.125, 0.125, 0.125, -0.125, -0.125, -0.125, -0.125, 0.125, -0.125, 0.125, -0.125, 0.125, 0.125, 0.125, 0.125, -0.125, -0.125, 0.125, -0.125, -0.125, 0.125, -0.125, 0.125, -0.125, -0.125, 0.125, 0.125, -0.125, 0.125, 0.125, -0.125, -0.125, -0.125, -0.125, 0.125, -0.125, -0.125, -0.125, -0.125, -0.125, -0.125, 0.125, -0.125, -0.125, 0.125, -0.125, 0.125, -0.125, 0.125, -0.125, 0.125, -0.125, -0.125, -0.125, 0.125, -0.125, -0.125, 0.125, 0.125, 0.125, -0.125, 0.125, 0.125, -0.125, -0.125, -0.125, -0.125, -0.125, 0.125, 0.125, -0.125, 0.125, -0.125, 0.125, 0.125, 0.125, -0.125, 0.125, -0.125, -0.125, 0.125, 0.125, -0.125, 0.125, -0.125, 0.125, -0.125, -0.125, 0.125, 0.125, -0.125, -0.125, -0.125, -0.125, 0.125, -0.125, -0.125, -0.125, 0.125, -0.125, 0.125, 0.125, -0.125, -0.125, -0.125, 0.125, 0.125, 0.125, -0.125, -0.125, 0.125, -0.125, -0.125, 0.125, 0.125, -0.125, -0.125, 0.125, -0.125, 0.125, 0.125, 0.125, 0.125, 0.125, 0.125, 0.125, -0.125, -0.125, 0.125, -0.125, -0.125, 0.125, 0.125, 0.125, -0.125, 0.125, -0.125, 0.125, -0.125, -0.125, 0.125, -0.125, -0.125, -0.125, -0.125, 0.125, 0.125, -0.125, 0.125, 0.125, -0.125, -0.125, 0.125, 0.125, 0.125, 0.125, -0.125, -0.125, 0.125, -0.125, -0.125, -0.125, 0.125, 0.125, -0.125, -0.125, -0.125, 0.125, 0.125, -0.125, 0.125, 0.125, -0.125, 0.125, -0.125, -0.125, 0.125, 0.125, -0.125, 0.125, 0.125, -0.125, 0.125, 0.125, -0.125, 0.125, -0.125, -0.125, 0.125, -0.125, -0.125, 0.125, -0.125, -0.125, -0.125, 0.125, 0.125, 0.125, -0.125, -0.125, 0.125, 0.125, 0.125, 0.125, -0.125, -0.125, 0.125, -0.125, -0.125, -0.125, -0.125, 0.125, -0.125, 0.125, -0.125, 0.125, -0.125, -0.125, 0.125, 0.125, -0.125, 0.125, -0.125, 0.125, -0.125, 0.125, -0.125, 0.125, -0.125, 0.125, 0.125, -0.125, -0.125, -0.125, -0.125, -0.125, -0.125, -0.125, 0.125, 0.125, -0.125, 0.125, -0.125, -0.125, -0.125, 0.125, 0.125, 0.125, 0.125, -0.125, -0.125, 0.125, 0.125, 0.125, -0.125, 0.125, -0.125, 0.125, -0.125, -0.125, 0.125, -0.125, -0.125, -0.125, -0.125, -0.125, -0.125, 0.125, 0.125, 0.125, 0.125, -0.125, 0.125, -0.125, -0.125, -0.125, -0.125, -0.125, 0.125, 0.125, -0.125, 0.125, -0.125, -0.125, 0.125, -0.125, 0.125, -0.125, -0.125, 0.125, -0.125, -0.125, -0.125, 0.125, -0.125, 0.125, 0.125, -0.125, 0.125, 0.125, -0.125, 0.125, 0.125, 0.125, -0.125, 0.125, 0.125, 0.125, -0.125, -0.125, -0.125, -0.125, 0.125, -0.125, -0.125, 0.125, 0.125, 0.125, -0.125, 0.125, 0.125, 0.125, 0.125, 0.125, -0.125, -0.125, 0.125, 0.125, -0.125, 0.125, -0.125, -0.125, 0.125, 0.125, -0.125, -0.125, -0.125, -0.125, -0.125, 0.125, 0.125, 0.125, 0.125, 0.125, 0.125, 0.125, 0.125, 0.125, -0.125, -0.125, 0.125, 0.125, -0.125, -0.125, 0.125, 0.125, -0.125, 0.125, -0.125, 0.125, 0.125, -0.125, -0.125, 0.125, 0.125, 0.125, -0.125, -0.125, 0.125, 0.125, -0.125, 0.125, 0.125, -0.125, 0.125, 0.125, -0.125, -0.125, -0.125, -0.125, 0.125, -0.125, -0.125, -0.125, -0.125, 0.125, -0.125, -0.125, 0.125, 0.125, -0.125, -0.125, 0.125, 0.125, -0.125, 0.125, -0.125, -0.125, -0.125, -0.125, -0.125, 0.125, 0.125, 0.125, -0.125, 0.125, -0.125, 0.125, 0.125, 0.125, -0.125, 0.125, 0.125, 0.125, -0.125, -0.125, -0.125, -0.125, 0.125, -0.125, 0.125, -0.125, 0.125, 0.125, -0.125, -0.125, 0.125, -0.125, -0.125, -0.125, -0.125, -0.125, 0.125, 0.125, 0.125, 0.125, -0.125, 0.125, 0.125, -0.125, -0.125, -0.125, -0.125, 0.125, 0.125, -0.125, -0.125, 0.125, -0.125, -0.125, -0.125, -0.125, -0.125, -0.125, 0.125, 0.125, 0.125, -0.125, -0.125, 0.125, 0.125, 0.125, -0.125, -0.125, -0.125, -0.125, -0.125, -0.125, 0.125, -0.125, -0.125, -0.125, -0.125, -0.125, 0.125, -0.125, -0.125, -0.125};
#endif

#endif
