//Numpy array shape [128, 120]
//Min -0.125000000000
//Max 0.125000000000
//Number of zeros 0

#ifndef W9_H_
#define W9_H_

#ifndef __SYNTHESIS__
weight_default_t w9[15360];
#else
weight_default_t w9[15360] = {0.125, 0.125, 0.125, -0.125, 0.125, -0.125, 0.125, 0.125, 0.125, 0.125, -0.125, 0.125, 0.125, 0.125, -0.125, -0.125, 0.125, 0.125, 0.125, -0.125, -0.125, -0.125, 0.125, 0.125, 0.125, -0.125, 0.125, -0.125, -0.125, -0.125, -0.125, 0.125, 0.125, -0.125, -0.125, 0.125, -0.125, -0.125, 0.125, 0.125, -0.125, -0.125, -0.125, 0.125, -0.125, -0.125, -0.125, 0.125, 0.125, -0.125, 0.125, -0.125, 0.125, 0.125, -0.125, 0.125, -0.125, 0.125, -0.125, 0.125, -0.125, 0.125, 0.125, -0.125, -0.125, -0.125, 0.125, 0.125, 0.125, -0.125, 0.125, -0.125, 0.125, -0.125, 0.125, -0.125, 0.125, 0.125, 0.125, -0.125, 0.125, -0.125, -0.125, -0.125, -0.125, 0.125, 0.125, 0.125, -0.125, -0.125, 0.125, -0.125, -0.125, -0.125, -0.125, 0.125, -0.125, -0.125, 0.125, 0.125, 0.125, -0.125, 0.125, 0.125, -0.125, 0.125, -0.125, -0.125, 0.125, -0.125, -0.125, -0.125, 0.125, -0.125, 0.125, -0.125, 0.125, -0.125, -0.125, 0.125, 0.125, 0.125, 0.125, -0.125, 0.125, -0.125, 0.125, 0.125, -0.125, 0.125, -0.125, -0.125, 0.125, -0.125, -0.125, -0.125, 0.125, -0.125, -0.125, -0.125, -0.125, 0.125, -0.125, 0.125, 0.125, 0.125, 0.125, -0.125, 0.125, -0.125, -0.125, -0.125, 0.125, -0.125, -0.125, 0.125, -0.125, 0.125, -0.125, 0.125, -0.125, 0.125, -0.125, 0.125, 0.125, 0.125, 0.125, 0.125, -0.125, -0.125, 0.125, -0.125, 0.125, 0.125, -0.125, 0.125, 0.125, 0.125, 0.125, -0.125, -0.125, -0.125, -0.125, -0.125, 0.125, -0.125, -0.125, 0.125, -0.125, 0.125, -0.125, -0.125, -0.125, 0.125, 0.125, 0.125, 0.125, 0.125, 0.125, 0.125, 0.125, 0.125, -0.125, -0.125, -0.125, 0.125, 0.125, 0.125, -0.125, 0.125, 0.125, -0.125, -0.125, -0.125, 0.125, 0.125, -0.125, -0.125, 0.125, 0.125, -0.125, -0.125, 0.125, 0.125, -0.125, -0.125, -0.125, 0.125, 0.125, -0.125, -0.125, -0.125, 0.125, -0.125, -0.125, -0.125, 0.125, -0.125, -0.125, 0.125, -0.125, -0.125, 0.125, 0.125, -0.125, -0.125, -0.125, -0.125, -0.125, 0.125, -0.125, 0.125, -0.125, -0.125, 0.125, 0.125, -0.125, -0.125, -0.125, 0.125, 0.125, 0.125, -0.125, 0.125, 0.125, 0.125, 0.125, -0.125, -0.125, -0.125, 0.125, 0.125, 0.125, 0.125, 0.125, -0.125, -0.125, -0.125, -0.125, -0.125, -0.125, -0.125, -0.125, -0.125, 0.125, 0.125, -0.125, -0.125, -0.125, 0.125, -0.125, 0.125, -0.125, 0.125, -0.125, 0.125, 0.125, -0.125, 0.125, -0.125, -0.125, 0.125, -0.125, -0.125, 0.125, -0.125, -0.125, 0.125, -0.125, 0.125, -0.125, -0.125, 0.125, -0.125, 0.125, 0.125, 0.125, -0.125, 0.125, 0.125, -0.125, 0.125, 0.125, -0.125, -0.125, 0.125, 0.125, -0.125, -0.125, 0.125, 0.125, -0.125, -0.125, 0.125, 0.125, -0.125, -0.125, 0.125, -0.125, -0.125, -0.125, -0.125, -0.125, 0.125, 0.125, -0.125, -0.125, 0.125, 0.125, 0.125, -0.125, 0.125, -0.125, -0.125, -0.125, -0.125, -0.125, 0.125, -0.125, -0.125, -0.125, -0.125, 0.125, 0.125, 0.125, -0.125, -0.125, -0.125, 0.125, 0.125, -0.125, -0.125, -0.125, 0.125, 0.125, 0.125, -0.125, -0.125, 0.125, 0.125, 0.125, 0.125, -0.125, -0.125, -0.125, -0.125, 0.125, -0.125, 0.125, 0.125, 0.125, 0.125, 0.125, -0.125, 0.125, -0.125, 0.125, -0.125, 0.125, -0.125, -0.125, 0.125, 0.125, -0.125, 0.125, 0.125, -0.125, 0.125, 0.125, 0.125, -0.125, 0.125, 0.125, -0.125, -0.125, 0.125, 0.125, 0.125, 0.125, 0.125, -0.125, 0.125, 0.125, 0.125, 0.125, 0.125, -0.125, -0.125, 0.125, 0.125, -0.125, -0.125, 0.125, -0.125, 0.125, 0.125, -0.125, -0.125, 0.125, 0.125, -0.125, 0.125, 0.125, -0.125, -0.125, 0.125, 0.125, 0.125, 0.125, 0.125, -0.125, -0.125, -0.125, 0.125, 0.125, -0.125, 0.125, 0.125, -0.125, -0.125, -0.125, -0.125, -0.125, 0.125, -0.125, -0.125, -0.125, 0.125, 0.125, 0.125, -0.125, 0.125, -0.125, 0.125, -0.125, -0.125, -0.125, -0.125, -0.125, -0.125, -0.125, 0.125, 0.125, -0.125, 0.125, 0.125, 0.125, 0.125, -0.125, 0.125, -0.125, 0.125, 0.125, 0.125, -0.125, -0.125, 0.125, -0.125, 0.125, -0.125, -0.125, -0.125, 0.125, -0.125, 0.125, -0.125, -0.125, -0.125, 0.125, -0.125, -0.125, 0.125, 0.125, -0.125, 0.125, 0.125, -0.125, -0.125, -0.125, 0.125, -0.125, 0.125, -0.125, 0.125, 0.125, 0.125, -0.125, 0.125, -0.125, -0.125, 0.125, -0.125, 0.125, 0.125, -0.125, 0.125, -0.125, -0.125, -0.125, 0.125, -0.125, -0.125, 0.125, -0.125, 0.125, -0.125, 0.125, 0.125, 0.125, 0.125, 0.125, -0.125, 0.125, -0.125, 0.125, -0.125, 0.125, 0.125, 0.125, -0.125, -0.125, -0.125, -0.125, 0.125, 0.125, 0.125, -0.125, 0.125, -0.125, -0.125, 0.125, -0.125, -0.125, -0.125, -0.125, 0.125, -0.125, 0.125, 0.125, 0.125, -0.125, -0.125, 0.125, 0.125, -0.125, 0.125, -0.125, 0.125, 0.125, -0.125, -0.125, 0.125, 0.125, -0.125, 0.125, -0.125, 0.125, 0.125, -0.125, -0.125, -0.125, 0.125, 0.125, -0.125, 0.125, 0.125, 0.125, 0.125, 0.125, 0.125, -0.125, -0.125, 0.125, -0.125, -0.125, 0.125, -0.125, -0.125, 0.125, -0.125, -0.125, 0.125, 0.125, 0.125, -0.125, -0.125, -0.125, -0.125, 0.125, 0.125, -0.125, -0.125, 0.125, -0.125, -0.125, 0.125, -0.125, -0.125, -0.125, -0.125, -0.125, 0.125, 0.125, 0.125, 0.125, 0.125, -0.125, 0.125, -0.125, 0.125, 0.125, -0.125, -0.125, 0.125, -0.125, -0.125, 0.125, -0.125, -0.125, 0.125, -0.125, 0.125, 0.125, -0.125, -0.125, -0.125, 0.125, -0.125, 0.125, -0.125, -0.125, 0.125, 0.125, -0.125, 0.125, -0.125, 0.125, -0.125, -0.125, -0.125, -0.125, 0.125, 0.125, 0.125, -0.125, 0.125, 0.125, 0.125, -0.125, -0.125, 0.125, -0.125, -0.125, -0.125, -0.125, 0.125, -0.125, 0.125, 0.125, 0.125, 0.125, -0.125, 0.125, 0.125, -0.125, -0.125, -0.125, 0.125, 0.125, -0.125, -0.125, 0.125, 0.125, -0.125, -0.125, 0.125, 0.125, 0.125, -0.125, 0.125, -0.125, 0.125, 0.125, 0.125, 0.125, 0.125, -0.125, -0.125, 0.125, 0.125, 0.125, 0.125, -0.125, -0.125, 0.125, 0.125, 0.125, -0.125, 0.125, 0.125, -0.125, 0.125, -0.125, -0.125, -0.125, 0.125, 0.125, -0.125, -0.125, -0.125, 0.125, 0.125, 0.125, -0.125, 0.125, 0.125, 0.125, -0.125, 0.125, 0.125, 0.125, -0.125, -0.125, 0.125, 0.125, -0.125, 0.125, 0.125, 0.125, -0.125, -0.125, 0.125, -0.125, 0.125, -0.125, 0.125, -0.125, -0.125, -0.125, -0.125, 0.125, 0.125, -0.125, -0.125, 0.125, -0.125, -0.125, 0.125, 0.125, 0.125, -0.125, -0.125, 0.125, -0.125, 0.125, -0.125, 0.125, 0.125, 0.125, -0.125, 0.125, -0.125, 0.125, 0.125, 0.125, -0.125, -0.125, -0.125, -0.125, 0.125, -0.125, 0.125, -0.125, -0.125, -0.125, -0.125, -0.125, 0.125, 0.125, 0.125, 0.125, -0.125, -0.125, 0.125, 0.125, 0.125, 0.125, 0.125, -0.125, 0.125, 0.125, 0.125, 0.125, 0.125, -0.125, 0.125, -0.125, -0.125, -0.125, -0.125, 0.125, 0.125, -0.125, 0.125, -0.125, -0.125, 0.125, 0.125, 0.125, -0.125, -0.125, -0.125, 0.125, 0.125, 0.125, -0.125, -0.125, 0.125, -0.125, 0.125, 0.125, -0.125, -0.125, -0.125, -0.125, -0.125, 0.125, 0.125, 0.125, 0.125, -0.125, 0.125, -0.125, -0.125, 0.125, -0.125, 0.125, 0.125, 0.125, 0.125, 0.125, 0.125, 0.125, -0.125, -0.125, -0.125, -0.125, 0.125, 0.125, -0.125, -0.125, -0.125, 0.125, 0.125, 0.125, -0.125, 0.125, 0.125, -0.125, 0.125, -0.125, -0.125, 0.125, 0.125, -0.125, 0.125, 0.125, 0.125, 0.125, -0.125, -0.125, 0.125, 0.125, -0.125, 0.125, -0.125, -0.125, 0.125, 0.125, -0.125, -0.125, -0.125, 0.125, -0.125, 0.125, -0.125, -0.125, -0.125, 0.125, -0.125, -0.125, -0.125, 0.125, 0.125, -0.125, -0.125, 0.125, -0.125, -0.125, -0.125, 0.125, -0.125, 0.125, 0.125, -0.125, 0.125, -0.125, 0.125, -0.125, 0.125, -0.125, -0.125, -0.125, 0.125, -0.125, -0.125, -0.125, -0.125, 0.125, -0.125, -0.125, 0.125, -0.125, 0.125, -0.125, 0.125, 0.125, -0.125, 0.125, -0.125, 0.125, -0.125, -0.125, 0.125, 0.125, 0.125, -0.125, 0.125, 0.125, 0.125, -0.125, -0.125, -0.125, -0.125, 0.125, -0.125, -0.125, -0.125, -0.125, 0.125, -0.125, 0.125, 0.125, 0.125, -0.125, 0.125, 0.125, -0.125, -0.125, -0.125, 0.125, 0.125, 0.125, 0.125, -0.125, -0.125, -0.125, 0.125, 0.125, -0.125, 0.125, -0.125, -0.125, -0.125, 0.125, -0.125, 0.125, 0.125, -0.125, 0.125, -0.125, -0.125, -0.125, 0.125, 0.125, -0.125, -0.125, 0.125, 0.125, -0.125, 0.125, 0.125, -0.125, 0.125, -0.125, -0.125, 0.125, -0.125, -0.125, -0.125, -0.125, -0.125, -0.125, 0.125, 0.125, 0.125, -0.125, 0.125, 0.125, -0.125, -0.125, 0.125, -0.125, -0.125, -0.125, -0.125, 0.125, -0.125, 0.125, 0.125, 0.125, 0.125, -0.125, -0.125, -0.125, 0.125, 0.125, 0.125, -0.125, 0.125, -0.125, 0.125, 0.125, 0.125, 0.125, 0.125, -0.125, -0.125, -0.125, 0.125, -0.125, -0.125, -0.125, -0.125, -0.125, 0.125, 0.125, -0.125, 0.125, 0.125, 0.125, -0.125, 0.125, -0.125, 0.125, 0.125, 0.125, -0.125, -0.125, -0.125, 0.125, 0.125, -0.125, 0.125, -0.125, -0.125, 0.125, -0.125, -0.125, 0.125, 0.125, 0.125, 0.125, 0.125, 0.125, 0.125, 0.125, 0.125, 0.125, 0.125, 0.125, 0.125, -0.125, -0.125, 0.125, -0.125, 0.125, -0.125, -0.125, -0.125, -0.125, -0.125, -0.125, -0.125, -0.125, -0.125, -0.125, 0.125, -0.125, 0.125, 0.125, 0.125, -0.125, -0.125, -0.125, -0.125, -0.125, 0.125, -0.125, -0.125, 0.125, 0.125, -0.125, -0.125, -0.125, 0.125, -0.125, 0.125, -0.125, -0.125, 0.125, 0.125, 0.125, 0.125, -0.125, 0.125, -0.125, 0.125, 0.125, -0.125, -0.125, -0.125, 0.125, 0.125, -0.125, -0.125, 0.125, -0.125, 0.125, 0.125, 0.125, 0.125, 0.125, 0.125, -0.125, -0.125, -0.125, 0.125, -0.125, 0.125, 0.125, -0.125, -0.125, 0.125, -0.125, 0.125, -0.125, -0.125, 0.125, -0.125, -0.125, 0.125, -0.125, -0.125, -0.125, 0.125, 0.125, -0.125, -0.125, -0.125, 0.125, -0.125, 0.125, -0.125, 0.125, -0.125, 0.125, 0.125, 0.125, -0.125, -0.125, -0.125, 0.125, 0.125, 0.125, 0.125, 0.125, 0.125, 0.125, -0.125, -0.125, -0.125, 0.125, -0.125, -0.125, 0.125, 0.125, 0.125, 0.125, 0.125, -0.125, 0.125, -0.125, -0.125, 0.125, -0.125, 0.125, 0.125, 0.125, -0.125, -0.125, -0.125, -0.125, -0.125, -0.125, -0.125, -0.125, 0.125, -0.125, 0.125, -0.125, -0.125, 0.125, -0.125, -0.125, -0.125, 0.125, 0.125, 0.125, -0.125, 0.125, 0.125, 0.125, 0.125, -0.125, 0.125, -0.125, -0.125, 0.125, -0.125, -0.125, -0.125, -0.125, 0.125, -0.125, -0.125, -0.125, 0.125, -0.125, 0.125, -0.125, 0.125, 0.125, 0.125, -0.125, 0.125, 0.125, 0.125, 0.125, -0.125, -0.125, 0.125, -0.125, 0.125, -0.125, 0.125, -0.125, -0.125, -0.125, 0.125, -0.125, -0.125, -0.125, 0.125, -0.125, 0.125, -0.125, 0.125, 0.125, 0.125, -0.125, 0.125, 0.125, -0.125, 0.125, 0.125, 0.125, 0.125, 0.125, -0.125, 0.125, -0.125, -0.125, -0.125, 0.125, -0.125, 0.125, 0.125, -0.125, -0.125, -0.125, -0.125, 0.125, 0.125, 0.125, -0.125, -0.125, 0.125, 0.125, 0.125, -0.125, -0.125, -0.125, 0.125, -0.125, -0.125, 0.125, 0.125, -0.125, 0.125, 0.125, 0.125, 0.125, 0.125, -0.125, 0.125, 0.125, -0.125, 0.125, -0.125, 0.125, -0.125, -0.125, -0.125, 0.125, -0.125, 0.125, 0.125, -0.125, 0.125, 0.125, -0.125, -0.125, 0.125, -0.125, 0.125, -0.125, 0.125, 0.125, -0.125, -0.125, 0.125, -0.125, 0.125, -0.125, -0.125, -0.125, -0.125, -0.125, -0.125, -0.125, -0.125, -0.125, 0.125, 0.125, -0.125, 0.125, 0.125, -0.125, 0.125, 0.125, 0.125, 0.125, 0.125, 0.125, 0.125, -0.125, 0.125, 0.125, -0.125, 0.125, 0.125, -0.125, -0.125, 0.125, -0.125, 0.125, 0.125, -0.125, -0.125, 0.125, 0.125, 0.125, 0.125, 0.125, 0.125, 0.125, -0.125, 0.125, 0.125, -0.125, 0.125, -0.125, 0.125, 0.125, -0.125, -0.125, -0.125, -0.125, -0.125, -0.125, -0.125, 0.125, -0.125, 0.125, -0.125, -0.125, -0.125, -0.125, -0.125, 0.125, -0.125, 0.125, 0.125, 0.125, -0.125, 0.125, -0.125, 0.125, 0.125, 0.125, -0.125, 0.125, 0.125, -0.125, -0.125, 0.125, 0.125, 0.125, 0.125, -0.125, 0.125, 0.125, 0.125, 0.125, -0.125, 0.125, 0.125, 0.125, 0.125, -0.125, -0.125, -0.125, -0.125, 0.125, -0.125, 0.125, 0.125, -0.125, -0.125, -0.125, 0.125, 0.125, -0.125, 0.125, -0.125, 0.125, -0.125, -0.125, -0.125, -0.125, -0.125, -0.125, -0.125, 0.125, -0.125, -0.125, -0.125, -0.125, -0.125, -0.125, 0.125, 0.125, 0.125, -0.125, 0.125, 0.125, 0.125, -0.125, -0.125, -0.125, -0.125, -0.125, -0.125, 0.125, -0.125, 0.125, -0.125, 0.125, -0.125, 0.125, 0.125, 0.125, 0.125, -0.125, 0.125, 0.125, -0.125, -0.125, 0.125, -0.125, 0.125, -0.125, 0.125, 0.125, -0.125, 0.125, 0.125, 0.125, -0.125, -0.125, 0.125, -0.125, -0.125, -0.125, 0.125, 0.125, -0.125, -0.125, 0.125, 0.125, 0.125, 0.125, -0.125, 0.125, -0.125, 0.125, -0.125, -0.125, 0.125, 0.125, -0.125, 0.125, 0.125, -0.125, -0.125, 0.125, -0.125, 0.125, -0.125, 0.125, -0.125, -0.125, -0.125, 0.125, 0.125, 0.125, -0.125, 0.125, 0.125, -0.125, 0.125, -0.125, 0.125, 0.125, -0.125, 0.125, 0.125, -0.125, 0.125, 0.125, -0.125, -0.125, -0.125, 0.125, -0.125, -0.125, -0.125, -0.125, 0.125, -0.125, 0.125, 0.125, -0.125, -0.125, -0.125, 0.125, -0.125, 0.125, 0.125, -0.125, 0.125, -0.125, 0.125, 0.125, 0.125, -0.125, 0.125, 0.125, 0.125, -0.125, -0.125, 0.125, 0.125, 0.125, 0.125, 0.125, -0.125, -0.125, -0.125, -0.125, 0.125, -0.125, 0.125, 0.125, 0.125, -0.125, 0.125, -0.125, 0.125, -0.125, 0.125, 0.125, 0.125, -0.125, 0.125, -0.125, 0.125, -0.125, 0.125, -0.125, -0.125, -0.125, 0.125, 0.125, 0.125, 0.125, -0.125, -0.125, 0.125, -0.125, 0.125, -0.125, -0.125, -0.125, -0.125, 0.125, 0.125, 0.125, 0.125, 0.125, 0.125, 0.125, -0.125, 0.125, -0.125, 0.125, -0.125, -0.125, 0.125, 0.125, -0.125, 0.125, -0.125, 0.125, -0.125, 0.125, -0.125, -0.125, -0.125, -0.125, -0.125, 0.125, 0.125, 0.125, 0.125, 0.125, -0.125, -0.125, 0.125, -0.125, 0.125, -0.125, -0.125, 0.125, 0.125, 0.125, -0.125, 0.125, -0.125, 0.125, -0.125, -0.125, 0.125, 0.125, -0.125, 0.125, -0.125, -0.125, 0.125, -0.125, 0.125, -0.125, -0.125, -0.125, -0.125, -0.125, -0.125, 0.125, 0.125, -0.125, 0.125, -0.125, 0.125, -0.125, 0.125, 0.125, 0.125, -0.125, -0.125, -0.125, -0.125, -0.125, 0.125, 0.125, 0.125, -0.125, 0.125, 0.125, 0.125, -0.125, 0.125, -0.125, 0.125, 0.125, 0.125, 0.125, 0.125, 0.125, -0.125, -0.125, 0.125, 0.125, 0.125, 0.125, -0.125, 0.125, 0.125, 0.125, -0.125, -0.125, -0.125, 0.125, 0.125, 0.125, 0.125, 0.125, 0.125, -0.125, -0.125, -0.125, -0.125, 0.125, 0.125, -0.125, 0.125, 0.125, 0.125, 0.125, 0.125, -0.125, 0.125, -0.125, 0.125, -0.125, -0.125, -0.125, 0.125, 0.125, -0.125, 0.125, 0.125, -0.125, -0.125, 0.125, -0.125, 0.125, -0.125, -0.125, -0.125, -0.125, 0.125, -0.125, 0.125, 0.125, 0.125, 0.125, -0.125, 0.125, 0.125, -0.125, 0.125, 0.125, 0.125, 0.125, -0.125, -0.125, -0.125, 0.125, 0.125, 0.125, -0.125, -0.125, 0.125, 0.125, 0.125, 0.125, -0.125, -0.125, 0.125, 0.125, 0.125, -0.125, 0.125, -0.125, -0.125, 0.125, -0.125, 0.125, -0.125, 0.125, -0.125, -0.125, -0.125, 0.125, 0.125, 0.125, 0.125, -0.125, 0.125, 0.125, 0.125, -0.125, -0.125, -0.125, -0.125, 0.125, 0.125, 0.125, -0.125, 0.125, -0.125, -0.125, 0.125, 0.125, 0.125, -0.125, -0.125, 0.125, -0.125, 0.125, -0.125, -0.125, 0.125, 0.125, -0.125, 0.125, 0.125, 0.125, -0.125, 0.125, 0.125, 0.125, -0.125, 0.125, 0.125, 0.125, -0.125, -0.125, 0.125, -0.125, 0.125, -0.125, 0.125, 0.125, -0.125, 0.125, 0.125, 0.125, -0.125, 0.125, -0.125, -0.125, 0.125, 0.125, 0.125, -0.125, -0.125, 0.125, 0.125, -0.125, -0.125, -0.125, -0.125, 0.125, -0.125, 0.125, -0.125, -0.125, 0.125, 0.125, 0.125, -0.125, -0.125, -0.125, -0.125, -0.125, -0.125, 0.125, -0.125, -0.125, -0.125, 0.125, -0.125, -0.125, 0.125, -0.125, 0.125, 0.125, -0.125, 0.125, -0.125, -0.125, 0.125, 0.125, 0.125, 0.125, 0.125, -0.125, 0.125, 0.125, 0.125, -0.125, 0.125, 0.125, 0.125, 0.125, 0.125, -0.125, -0.125, 0.125, -0.125, 0.125, -0.125, 0.125, -0.125, 0.125, 0.125, -0.125, -0.125, 0.125, 0.125, 0.125, 0.125, -0.125, 0.125, 0.125, 0.125, -0.125, -0.125, -0.125, 0.125, -0.125, 0.125, 0.125, 0.125, 0.125, -0.125, -0.125, 0.125, 0.125, 0.125, -0.125, 0.125, 0.125, 0.125, -0.125, 0.125, -0.125, 0.125, 0.125, 0.125, 0.125, 0.125, 0.125, -0.125, -0.125, -0.125, 0.125, -0.125, 0.125, 0.125, -0.125, 0.125, -0.125, 0.125, 0.125, 0.125, -0.125, -0.125, 0.125, 0.125, -0.125, 0.125, -0.125, 0.125, -0.125, -0.125, 0.125, 0.125, -0.125, -0.125, -0.125, 0.125, 0.125, 0.125, -0.125, 0.125, 0.125, 0.125, 0.125, 0.125, -0.125, 0.125, 0.125, 0.125, -0.125, -0.125, -0.125, 0.125, -0.125, 0.125, -0.125, 0.125, -0.125, -0.125, 0.125, 0.125, -0.125, -0.125, 0.125, 0.125, -0.125, 0.125, -0.125, 0.125, -0.125, 0.125, -0.125, -0.125, -0.125, 0.125, 0.125, -0.125, -0.125, -0.125, 0.125, 0.125, 0.125, -0.125, -0.125, -0.125, 0.125, -0.125, 0.125, -0.125, -0.125, 0.125, 0.125, -0.125, 0.125, 0.125, -0.125, 0.125, -0.125, 0.125, -0.125, 0.125, 0.125, -0.125, -0.125, 0.125, -0.125, -0.125, 0.125, 0.125, 0.125, 0.125, 0.125, 0.125, 0.125, -0.125, -0.125, -0.125, -0.125, 0.125, 0.125, -0.125, -0.125, -0.125, -0.125, 0.125, 0.125, -0.125, -0.125, -0.125, 0.125, 0.125, 0.125, 0.125, -0.125, 0.125, -0.125, -0.125, 0.125, 0.125, 0.125, 0.125, -0.125, -0.125, -0.125, -0.125, 0.125, -0.125, -0.125, 0.125, 0.125, 0.125, -0.125, 0.125, -0.125, -0.125, 0.125, 0.125, 0.125, 0.125, -0.125, -0.125, -0.125, 0.125, -0.125, -0.125, -0.125, -0.125, 0.125, 0.125, -0.125, 0.125, 0.125, 0.125, -0.125, -0.125, -0.125, 0.125, -0.125, -0.125, 0.125, 0.125, -0.125, -0.125, 0.125, 0.125, 0.125, 0.125, -0.125, 0.125, 0.125, -0.125, -0.125, 0.125, -0.125, -0.125, 0.125, -0.125, -0.125, -0.125, -0.125, 0.125, 0.125, -0.125, 0.125, -0.125, 0.125, 0.125, 0.125, 0.125, -0.125, 0.125, 0.125, 0.125, 0.125, -0.125, -0.125, -0.125, -0.125, -0.125, -0.125, 0.125, -0.125, -0.125, 0.125, 0.125, -0.125, -0.125, -0.125, 0.125, 0.125, -0.125, -0.125, 0.125, 0.125, -0.125, 0.125, 0.125, -0.125, 0.125, 0.125, -0.125, -0.125, -0.125, 0.125, 0.125, 0.125, -0.125, 0.125, 0.125, 0.125, -0.125, -0.125, 0.125, -0.125, 0.125, -0.125, 0.125, -0.125, 0.125, 0.125, 0.125, -0.125, -0.125, -0.125, -0.125, 0.125, 0.125, -0.125, 0.125, 0.125, 0.125, -0.125, 0.125, -0.125, 0.125, -0.125, 0.125, 0.125, -0.125, -0.125, -0.125, 0.125, 0.125, 0.125, 0.125, -0.125, -0.125, 0.125, 0.125, 0.125, 0.125, 0.125, -0.125, -0.125, -0.125, -0.125, 0.125, -0.125, 0.125, 0.125, -0.125, -0.125, -0.125, 0.125, 0.125, -0.125, 0.125, -0.125, -0.125, 0.125, -0.125, 0.125, -0.125, 0.125, -0.125, -0.125, -0.125, -0.125, -0.125, -0.125, -0.125, -0.125, 0.125, -0.125, -0.125, 0.125, -0.125, -0.125, 0.125, -0.125, -0.125, 0.125, -0.125, -0.125, 0.125, 0.125, -0.125, -0.125, 0.125, -0.125, -0.125, 0.125, -0.125, -0.125, 0.125, -0.125, 0.125, -0.125, -0.125, -0.125, -0.125, -0.125, -0.125, 0.125, -0.125, 0.125, -0.125, 0.125, -0.125, 0.125, 0.125, -0.125, 0.125, 0.125, -0.125, -0.125, -0.125, -0.125, 0.125, -0.125, -0.125, 0.125, -0.125, -0.125, -0.125, 0.125, 0.125, 0.125, -0.125, 0.125, -0.125, 0.125, -0.125, 0.125, -0.125, -0.125, 0.125, 0.125, 0.125, -0.125, 0.125, 0.125, -0.125, -0.125, -0.125, -0.125, -0.125, 0.125, 0.125, 0.125, 0.125, -0.125, 0.125, 0.125, -0.125, -0.125, -0.125, -0.125, 0.125, -0.125, 0.125, 0.125, -0.125, 0.125, 0.125, 0.125, -0.125, -0.125, -0.125, 0.125, 0.125, -0.125, -0.125, -0.125, 0.125, 0.125, 0.125, -0.125, 0.125, 0.125, 0.125, 0.125, 0.125, -0.125, 0.125, -0.125, -0.125, 0.125, 0.125, -0.125, 0.125, -0.125, -0.125, -0.125, -0.125, 0.125, 0.125, 0.125, 0.125, 0.125, -0.125, -0.125, 0.125, -0.125, -0.125, -0.125, -0.125, -0.125, -0.125, -0.125, 0.125, 0.125, 0.125, -0.125, -0.125, 0.125, -0.125, -0.125, -0.125, 0.125, -0.125, 0.125, 0.125, 0.125, 0.125, 0.125, -0.125, 0.125, 0.125, -0.125, -0.125, -0.125, 0.125, 0.125, 0.125, 0.125, -0.125, -0.125, -0.125, -0.125, -0.125, -0.125, -0.125, -0.125, -0.125, -0.125, 0.125, 0.125, -0.125, 0.125, -0.125, -0.125, -0.125, 0.125, -0.125, -0.125, 0.125, 0.125, -0.125, -0.125, 0.125, -0.125, -0.125, 0.125, -0.125, 0.125, -0.125, 0.125, 0.125, 0.125, 0.125, 0.125, 0.125, 0.125, 0.125, -0.125, 0.125, 0.125, 0.125, -0.125, 0.125, -0.125, -0.125, -0.125, 0.125, -0.125, -0.125, -0.125, -0.125, 0.125, -0.125, -0.125, -0.125, -0.125, 0.125, 0.125, 0.125, 0.125, 0.125, -0.125, -0.125, 0.125, -0.125, -0.125, 0.125, -0.125, 0.125, 0.125, 0.125, 0.125, 0.125, -0.125, -0.125, -0.125, -0.125, 0.125, 0.125, -0.125, -0.125, -0.125, -0.125, 0.125, -0.125, 0.125, 0.125, 0.125, -0.125, 0.125, 0.125, -0.125, -0.125, 0.125, -0.125, -0.125, 0.125, 0.125, 0.125, -0.125, -0.125, 0.125, 0.125, 0.125, -0.125, 0.125, 0.125, -0.125, -0.125, 0.125, 0.125, -0.125, -0.125, -0.125, -0.125, 0.125, 0.125, 0.125, -0.125, -0.125, -0.125, -0.125, 0.125, 0.125, -0.125, 0.125, -0.125, 0.125, 0.125, 0.125, 0.125, -0.125, -0.125, 0.125, -0.125, -0.125, 0.125, -0.125, -0.125, 0.125, 0.125, 0.125, 0.125, -0.125, -0.125, -0.125, -0.125, 0.125, 0.125, -0.125, 0.125, 0.125, 0.125, 0.125, 0.125, 0.125, 0.125, -0.125, -0.125, 0.125, 0.125, 0.125, -0.125, -0.125, -0.125, -0.125, 0.125, -0.125, -0.125, -0.125, 0.125, -0.125, 0.125, -0.125, -0.125, 0.125, 0.125, -0.125, 0.125, -0.125, -0.125, 0.125, -0.125, -0.125, -0.125, -0.125, -0.125, 0.125, -0.125, -0.125, -0.125, 0.125, 0.125, 0.125, -0.125, -0.125, 0.125, -0.125, -0.125, 0.125, -0.125, 0.125, 0.125, -0.125, -0.125, 0.125, 0.125, 0.125, 0.125, 0.125, -0.125, -0.125, 0.125, -0.125, -0.125, -0.125, -0.125, -0.125, 0.125, -0.125, -0.125, 0.125, -0.125, -0.125, 0.125, 0.125, -0.125, 0.125, -0.125, -0.125, -0.125, 0.125, 0.125, -0.125, 0.125, 0.125, 0.125, 0.125, -0.125, 0.125, -0.125, -0.125, -0.125, -0.125, -0.125, -0.125, -0.125, -0.125, 0.125, -0.125, 0.125, -0.125, 0.125, -0.125, -0.125, -0.125, 0.125, -0.125, -0.125, 0.125, 0.125, 0.125, -0.125, -0.125, 0.125, -0.125, 0.125, 0.125, 0.125, -0.125, -0.125, -0.125, -0.125, 0.125, 0.125, 0.125, 0.125, 0.125, 0.125, -0.125, 0.125, 0.125, -0.125, 0.125, -0.125, -0.125, -0.125, -0.125, -0.125, 0.125, -0.125, -0.125, -0.125, -0.125, -0.125, -0.125, 0.125, -0.125, 0.125, -0.125, -0.125, 0.125, -0.125, 0.125, -0.125, 0.125, -0.125, -0.125, 0.125, -0.125, 0.125, -0.125, -0.125, -0.125, 0.125, 0.125, 0.125, 0.125, -0.125, 0.125, 0.125, 0.125, -0.125, -0.125, 0.125, 0.125, 0.125, 0.125, -0.125, -0.125, -0.125, -0.125, 0.125, -0.125, 0.125, 0.125, -0.125, -0.125, -0.125, 0.125, -0.125, -0.125, 0.125, 0.125, -0.125, -0.125, -0.125, -0.125, -0.125, 0.125, -0.125, 0.125, 0.125, -0.125, 0.125, -0.125, -0.125, 0.125, -0.125, 0.125, 0.125, -0.125, 0.125, -0.125, -0.125, 0.125, -0.125, 0.125, 0.125, 0.125, 0.125, -0.125, -0.125, 0.125, 0.125, -0.125, 0.125, 0.125, 0.125, -0.125, -0.125, -0.125, 0.125, -0.125, -0.125, 0.125, 0.125, 0.125, -0.125, -0.125, 0.125, 0.125, -0.125, 0.125, 0.125, -0.125, -0.125, 0.125, 0.125, -0.125, 0.125, -0.125, -0.125, -0.125, 0.125, 0.125, 0.125, 0.125, -0.125, 0.125, -0.125, -0.125, 0.125, 0.125, 0.125, -0.125, 0.125, 0.125, 0.125, 0.125, -0.125, 0.125, -0.125, 0.125, -0.125, 0.125, -0.125, 0.125, -0.125, 0.125, 0.125, 0.125, -0.125, -0.125, 0.125, 0.125, -0.125, -0.125, 0.125, 0.125, 0.125, -0.125, -0.125, -0.125, 0.125, -0.125, 0.125, 0.125, -0.125, -0.125, -0.125, 0.125, -0.125, 0.125, 0.125, 0.125, -0.125, -0.125, -0.125, 0.125, -0.125, 0.125, -0.125, -0.125, -0.125, -0.125, 0.125, 0.125, -0.125, -0.125, -0.125, 0.125, -0.125, 0.125, -0.125, -0.125, 0.125, -0.125, -0.125, 0.125, -0.125, -0.125, -0.125, -0.125, 0.125, 0.125, -0.125, -0.125, -0.125, -0.125, -0.125, 0.125, -0.125, -0.125, -0.125, 0.125, -0.125, -0.125, 0.125, 0.125, -0.125, -0.125, 0.125, -0.125, 0.125, 0.125, -0.125, -0.125, 0.125, -0.125, 0.125, 0.125, 0.125, -0.125, -0.125, 0.125, -0.125, -0.125, -0.125, -0.125, -0.125, -0.125, 0.125, 0.125, 0.125, -0.125, -0.125, 0.125, -0.125, -0.125, -0.125, 0.125, 0.125, 0.125, -0.125, -0.125, 0.125, 0.125, -0.125, 0.125, 0.125, -0.125, 0.125, 0.125, 0.125, 0.125, 0.125, -0.125, -0.125, 0.125, 0.125, 0.125, -0.125, -0.125, 0.125, 0.125, 0.125, 0.125, 0.125, -0.125, 0.125, -0.125, 0.125, 0.125, 0.125, -0.125, 0.125, -0.125, -0.125, 0.125, 0.125, -0.125, -0.125, 0.125, 0.125, -0.125, -0.125, -0.125, -0.125, 0.125, -0.125, 0.125, 0.125, -0.125, 0.125, -0.125, 0.125, 0.125, -0.125, -0.125, 0.125, -0.125, -0.125, -0.125, 0.125, -0.125, -0.125, -0.125, 0.125, 0.125, -0.125, 0.125, 0.125, -0.125, 0.125, 0.125, -0.125, -0.125, 0.125, -0.125, -0.125, 0.125, -0.125, 0.125, 0.125, 0.125, -0.125, 0.125, 0.125, 0.125, -0.125, 0.125, -0.125, -0.125, -0.125, 0.125, -0.125, -0.125, -0.125, -0.125, -0.125, 0.125, 0.125, -0.125, 0.125, -0.125, 0.125, -0.125, -0.125, 0.125, 0.125, -0.125, -0.125, 0.125, 0.125, -0.125, -0.125, -0.125, -0.125, -0.125, -0.125, -0.125, 0.125, 0.125, -0.125, -0.125, 0.125, -0.125, -0.125, 0.125, 0.125, -0.125, 0.125, -0.125, 0.125, 0.125, 0.125, -0.125, -0.125, -0.125, 0.125, 0.125, -0.125, -0.125, 0.125, -0.125, -0.125, -0.125, 0.125, 0.125, -0.125, -0.125, 0.125, 0.125, -0.125, -0.125, -0.125, -0.125, -0.125, -0.125, 0.125, 0.125, -0.125, 0.125, 0.125, -0.125, -0.125, -0.125, -0.125, 0.125, 0.125, 0.125, 0.125, -0.125, 0.125, -0.125, 0.125, -0.125, -0.125, -0.125, 0.125, -0.125, -0.125, 0.125, -0.125, -0.125, -0.125, -0.125, 0.125, 0.125, -0.125, -0.125, -0.125, 0.125, -0.125, 0.125, 0.125, 0.125, -0.125, 0.125, -0.125, -0.125, -0.125, 0.125, 0.125, -0.125, 0.125, -0.125, -0.125, 0.125, -0.125, 0.125, -0.125, 0.125, -0.125, 0.125, 0.125, -0.125, -0.125, 0.125, 0.125, 0.125, 0.125, -0.125, -0.125, 0.125, 0.125, -0.125, -0.125, 0.125, -0.125, -0.125, -0.125, -0.125, 0.125, 0.125, -0.125, 0.125, -0.125, 0.125, -0.125, -0.125, 0.125, -0.125, 0.125, -0.125, 0.125, -0.125, 0.125, 0.125, 0.125, -0.125, 0.125, 0.125, -0.125, 0.125, 0.125, -0.125, 0.125, 0.125, -0.125, 0.125, 0.125, 0.125, -0.125, 0.125, 0.125, -0.125, -0.125, 0.125, -0.125, 0.125, 0.125, -0.125, 0.125, 0.125, 0.125, -0.125, 0.125, 0.125, -0.125, -0.125, 0.125, -0.125, -0.125, -0.125, -0.125, 0.125, -0.125, -0.125, -0.125, -0.125, -0.125, -0.125, -0.125, -0.125, -0.125, -0.125, -0.125, -0.125, -0.125, 0.125, -0.125, 0.125, 0.125, -0.125, 0.125, 0.125, -0.125, 0.125, -0.125, 0.125, -0.125, 0.125, -0.125, 0.125, 0.125, 0.125, 0.125, -0.125, -0.125, -0.125, 0.125, 0.125, 0.125, -0.125, 0.125, -0.125, -0.125, -0.125, -0.125, 0.125, -0.125, -0.125, -0.125, -0.125, 0.125, -0.125, 0.125, -0.125, 0.125, 0.125, -0.125, -0.125, 0.125, 0.125, -0.125, -0.125, -0.125, 0.125, -0.125, 0.125, 0.125, 0.125, -0.125, 0.125, -0.125, 0.125, 0.125, 0.125, -0.125, -0.125, -0.125, -0.125, 0.125, -0.125, 0.125, -0.125, 0.125, -0.125, 0.125, 0.125, 0.125, 0.125, -0.125, 0.125, -0.125, 0.125, 0.125, 0.125, -0.125, -0.125, -0.125, -0.125, 0.125, -0.125, 0.125, -0.125, 0.125, -0.125, 0.125, -0.125, -0.125, -0.125, 0.125, -0.125, -0.125, 0.125, 0.125, 0.125, -0.125, 0.125, -0.125, -0.125, 0.125, 0.125, -0.125, 0.125, 0.125, -0.125, -0.125, -0.125, -0.125, -0.125, -0.125, 0.125, -0.125, -0.125, 0.125, 0.125, -0.125, 0.125, -0.125, -0.125, 0.125, -0.125, -0.125, -0.125, 0.125, -0.125, 0.125, 0.125, 0.125, 0.125, 0.125, 0.125, -0.125, -0.125, -0.125, -0.125, -0.125, -0.125, 0.125, 0.125, 0.125, -0.125, 0.125, -0.125, -0.125, -0.125, -0.125, 0.125, -0.125, -0.125, -0.125, -0.125, -0.125, 0.125, -0.125, 0.125, 0.125, 0.125, -0.125, 0.125, -0.125, 0.125, -0.125, -0.125, 0.125, 0.125, 0.125, -0.125, -0.125, 0.125, 0.125, 0.125, -0.125, 0.125, 0.125, 0.125, -0.125, -0.125, 0.125, 0.125, 0.125, -0.125, 0.125, 0.125, -0.125, 0.125, 0.125, -0.125, 0.125, 0.125, -0.125, 0.125, -0.125, 0.125, 0.125, 0.125, 0.125, 0.125, 0.125, 0.125, 0.125, -0.125, -0.125, 0.125, 0.125, 0.125, 0.125, -0.125, 0.125, 0.125, 0.125, 0.125, 0.125, 0.125, 0.125, 0.125, -0.125, 0.125, -0.125, -0.125, 0.125, 0.125, -0.125, -0.125, 0.125, 0.125, -0.125, -0.125, 0.125, 0.125, -0.125, -0.125, -0.125, -0.125, 0.125, -0.125, -0.125, 0.125, -0.125, 0.125, 0.125, -0.125, 0.125, 0.125, -0.125, 0.125, -0.125, 0.125, 0.125, -0.125, 0.125, 0.125, 0.125, -0.125, -0.125, -0.125, -0.125, -0.125, -0.125, 0.125, 0.125, 0.125, 0.125, -0.125, 0.125, -0.125, 0.125, 0.125, -0.125, -0.125, -0.125, 0.125, -0.125, -0.125, -0.125, -0.125, -0.125, 0.125, -0.125, -0.125, -0.125, -0.125, -0.125, 0.125, 0.125, 0.125, 0.125, 0.125, -0.125, 0.125, 0.125, 0.125, 0.125, 0.125, 0.125, 0.125, -0.125, -0.125, 0.125, 0.125, -0.125, -0.125, -0.125, 0.125, -0.125, 0.125, 0.125, -0.125, 0.125, -0.125, -0.125, 0.125, -0.125, 0.125, -0.125, 0.125, 0.125, 0.125, -0.125, -0.125, 0.125, -0.125, 0.125, 0.125, -0.125, -0.125, 0.125, 0.125, -0.125, -0.125, 0.125, 0.125, 0.125, -0.125, 0.125, -0.125, 0.125, 0.125, -0.125, -0.125, 0.125, 0.125, 0.125, 0.125, -0.125, -0.125, 0.125, -0.125, 0.125, 0.125, 0.125, 0.125, -0.125, -0.125, -0.125, 0.125, -0.125, -0.125, -0.125, 0.125, -0.125, -0.125, 0.125, -0.125, 0.125, 0.125, -0.125, 0.125, 0.125, 0.125, 0.125, 0.125, 0.125, 0.125, -0.125, -0.125, -0.125, -0.125, 0.125, -0.125, 0.125, 0.125, 0.125, -0.125, 0.125, 0.125, 0.125, 0.125, -0.125, -0.125, -0.125, 0.125, -0.125, -0.125, 0.125, 0.125, -0.125, -0.125, -0.125, -0.125, -0.125, -0.125, -0.125, -0.125, 0.125, -0.125, -0.125, -0.125, -0.125, 0.125, -0.125, 0.125, -0.125, 0.125, 0.125, -0.125, -0.125, -0.125, 0.125, -0.125, -0.125, 0.125, -0.125, -0.125, -0.125, 0.125, -0.125, 0.125, 0.125, -0.125, 0.125, 0.125, 0.125, 0.125, 0.125, -0.125, -0.125, -0.125, -0.125, -0.125, -0.125, -0.125, 0.125, 0.125, 0.125, -0.125, -0.125, 0.125, -0.125, 0.125, 0.125, -0.125, 0.125, -0.125, 0.125, 0.125, 0.125, 0.125, 0.125, -0.125, 0.125, 0.125, 0.125, -0.125, -0.125, 0.125, 0.125, -0.125, -0.125, 0.125, 0.125, -0.125, 0.125, -0.125, 0.125, -0.125, 0.125, 0.125, -0.125, 0.125, 0.125, -0.125, 0.125, -0.125, 0.125, 0.125, -0.125, 0.125, 0.125, 0.125, 0.125, 0.125, -0.125, 0.125, -0.125, -0.125, -0.125, -0.125, -0.125, -0.125, -0.125, -0.125, 0.125, -0.125, 0.125, 0.125, 0.125, 0.125, 0.125, -0.125, -0.125, -0.125, 0.125, 0.125, 0.125, 0.125, 0.125, -0.125, 0.125, 0.125, -0.125, 0.125, -0.125, 0.125, 0.125, -0.125, -0.125, -0.125, 0.125, -0.125, -0.125, 0.125, -0.125, 0.125, -0.125, -0.125, -0.125, 0.125, -0.125, -0.125, -0.125, 0.125, 0.125, 0.125, 0.125, -0.125, 0.125, 0.125, -0.125, 0.125, -0.125, -0.125, 0.125, 0.125, 0.125, 0.125, 0.125, -0.125, -0.125, 0.125, 0.125, -0.125, -0.125, 0.125, 0.125, -0.125, -0.125, 0.125, -0.125, -0.125, 0.125, -0.125, -0.125, 0.125, -0.125, -0.125, -0.125, 0.125, 0.125, 0.125, 0.125, 0.125, 0.125, 0.125, -0.125, -0.125, -0.125, -0.125, -0.125, 0.125, -0.125, 0.125, 0.125, 0.125, 0.125, -0.125, 0.125, -0.125, 0.125, -0.125, -0.125, -0.125, 0.125, 0.125, 0.125, -0.125, -0.125, 0.125, -0.125, -0.125, 0.125, 0.125, -0.125, -0.125, -0.125, -0.125, -0.125, -0.125, -0.125, -0.125, 0.125, -0.125, 0.125, -0.125, -0.125, 0.125, 0.125, -0.125, -0.125, 0.125, -0.125, 0.125, 0.125, 0.125, 0.125, 0.125, 0.125, -0.125, 0.125, -0.125, 0.125, 0.125, 0.125, -0.125, 0.125, -0.125, -0.125, 0.125, 0.125, -0.125, -0.125, 0.125, -0.125, -0.125, 0.125, -0.125, -0.125, 0.125, -0.125, -0.125, -0.125, 0.125, 0.125, 0.125, 0.125, -0.125, 0.125, 0.125, -0.125, 0.125, -0.125, -0.125, -0.125, -0.125, 0.125, -0.125, 0.125, -0.125, 0.125, -0.125, -0.125, -0.125, -0.125, -0.125, 0.125, -0.125, 0.125, -0.125, -0.125, 0.125, 0.125, -0.125, -0.125, 0.125, -0.125, -0.125, -0.125, -0.125, -0.125, 0.125, 0.125, -0.125, 0.125, 0.125, -0.125, 0.125, -0.125, -0.125, -0.125, -0.125, 0.125, 0.125, 0.125, 0.125, -0.125, -0.125, 0.125, 0.125, -0.125, -0.125, 0.125, 0.125, 0.125, -0.125, -0.125, -0.125, -0.125, -0.125, -0.125, -0.125, 0.125, -0.125, -0.125, -0.125, -0.125, -0.125, -0.125, -0.125, -0.125, 0.125, -0.125, -0.125, -0.125, 0.125, 0.125, 0.125, 0.125, -0.125, 0.125, 0.125, -0.125, 0.125, 0.125, 0.125, 0.125, -0.125, 0.125, -0.125, -0.125, -0.125, 0.125, -0.125, 0.125, -0.125, 0.125, 0.125, -0.125, -0.125, 0.125, 0.125, -0.125, 0.125, -0.125, -0.125, -0.125, -0.125, -0.125, 0.125, -0.125, -0.125, 0.125, -0.125, 0.125, -0.125, -0.125, -0.125, 0.125, 0.125, -0.125, 0.125, -0.125, 0.125, 0.125, 0.125, -0.125, 0.125, -0.125, -0.125, -0.125, 0.125, 0.125, -0.125, -0.125, -0.125, -0.125, -0.125, 0.125, -0.125, -0.125, 0.125, -0.125, -0.125, 0.125, 0.125, -0.125, -0.125, -0.125, 0.125, -0.125, 0.125, 0.125, 0.125, 0.125, 0.125, -0.125, 0.125, -0.125, -0.125, 0.125, -0.125, -0.125, 0.125, 0.125, 0.125, 0.125, 0.125, 0.125, 0.125, -0.125, 0.125, 0.125, 0.125, 0.125, -0.125, -0.125, 0.125, 0.125, -0.125, 0.125, -0.125, 0.125, 0.125, -0.125, 0.125, 0.125, 0.125, 0.125, 0.125, -0.125, 0.125, -0.125, 0.125, 0.125, -0.125, 0.125, 0.125, -0.125, -0.125, -0.125, -0.125, -0.125, 0.125, 0.125, 0.125, -0.125, -0.125, -0.125, -0.125, 0.125, 0.125, 0.125, -0.125, -0.125, 0.125, -0.125, 0.125, -0.125, 0.125, -0.125, 0.125, -0.125, -0.125, -0.125, 0.125, -0.125, 0.125, -0.125, -0.125, 0.125, 0.125, 0.125, -0.125, -0.125, -0.125, -0.125, 0.125, -0.125, -0.125, 0.125, 0.125, 0.125, 0.125, 0.125, 0.125, 0.125, 0.125, 0.125, 0.125, -0.125, 0.125, 0.125, -0.125, -0.125, -0.125, 0.125, 0.125, 0.125, -0.125, -0.125, -0.125, -0.125, -0.125, 0.125, 0.125, 0.125, -0.125, -0.125, 0.125, -0.125, -0.125, 0.125, -0.125, -0.125, 0.125, 0.125, -0.125, -0.125, 0.125, 0.125, -0.125, -0.125, -0.125, -0.125, -0.125, 0.125, 0.125, -0.125, -0.125, -0.125, 0.125, 0.125, -0.125, -0.125, 0.125, 0.125, -0.125, 0.125, -0.125, -0.125, -0.125, -0.125, 0.125, -0.125, 0.125, -0.125, -0.125, 0.125, -0.125, -0.125, -0.125, -0.125, 0.125, -0.125, 0.125, -0.125, 0.125, -0.125, 0.125, 0.125, -0.125, -0.125, 0.125, 0.125, 0.125, -0.125, -0.125, 0.125, -0.125, -0.125, -0.125, -0.125, 0.125, 0.125, 0.125, 0.125, -0.125, -0.125, 0.125, -0.125, -0.125, -0.125, 0.125, -0.125, 0.125, -0.125, -0.125, 0.125, 0.125, 0.125, 0.125, -0.125, 0.125, -0.125, 0.125, -0.125, -0.125, -0.125, 0.125, -0.125, 0.125, -0.125, -0.125, 0.125, 0.125, 0.125, -0.125, 0.125, -0.125, 0.125, -0.125, 0.125, 0.125, 0.125, -0.125, 0.125, -0.125, 0.125, 0.125, -0.125, -0.125, 0.125, 0.125, 0.125, 0.125, -0.125, -0.125, -0.125, -0.125, -0.125, 0.125, 0.125, -0.125, -0.125, -0.125, 0.125, -0.125, -0.125, 0.125, -0.125, 0.125, -0.125, -0.125, 0.125, -0.125, -0.125, -0.125, -0.125, 0.125, -0.125, -0.125, -0.125, -0.125, 0.125, -0.125, 0.125, -0.125, 0.125, 0.125, -0.125, -0.125, 0.125, 0.125, 0.125, 0.125, -0.125, -0.125, 0.125, -0.125, 0.125, 0.125, -0.125, 0.125, -0.125, 0.125, 0.125, -0.125, -0.125, -0.125, 0.125, -0.125, -0.125, 0.125, 0.125, 0.125, 0.125, -0.125, 0.125, 0.125, -0.125, 0.125, 0.125, 0.125, 0.125, 0.125, 0.125, -0.125, 0.125, 0.125, 0.125, -0.125, 0.125, 0.125, -0.125, -0.125, 0.125, -0.125, -0.125, 0.125, 0.125, -0.125, 0.125, 0.125, 0.125, -0.125, 0.125, -0.125, -0.125, -0.125, -0.125, 0.125, -0.125, -0.125, 0.125, 0.125, -0.125, -0.125, -0.125, -0.125, -0.125, -0.125, 0.125, -0.125, 0.125, -0.125, 0.125, 0.125, 0.125, -0.125, -0.125, 0.125, 0.125, 0.125, 0.125, -0.125, -0.125, 0.125, 0.125, -0.125, -0.125, 0.125, 0.125, 0.125, -0.125, -0.125, -0.125, -0.125, -0.125, 0.125, 0.125, -0.125, 0.125, -0.125, 0.125, 0.125, -0.125, 0.125, -0.125, 0.125, -0.125, 0.125, -0.125, -0.125, -0.125, 0.125, -0.125, -0.125, -0.125, 0.125, 0.125, -0.125, 0.125, 0.125, 0.125, -0.125, 0.125, -0.125, 0.125, 0.125, 0.125, -0.125, -0.125, 0.125, 0.125, -0.125, 0.125, -0.125, -0.125, -0.125, 0.125, -0.125, -0.125, -0.125, -0.125, -0.125, 0.125, -0.125, 0.125, -0.125, 0.125, 0.125, -0.125, -0.125, -0.125, -0.125, -0.125, 0.125, 0.125, 0.125, 0.125, 0.125, -0.125, 0.125, -0.125, -0.125, -0.125, 0.125, 0.125, 0.125, 0.125, -0.125, 0.125, -0.125, -0.125, 0.125, 0.125, -0.125, -0.125, -0.125, -0.125, -0.125, -0.125, 0.125, -0.125, -0.125, -0.125, 0.125, -0.125, 0.125, 0.125, 0.125, -0.125, 0.125, -0.125, 0.125, 0.125, 0.125, 0.125, -0.125, 0.125, -0.125, -0.125, 0.125, -0.125, -0.125, -0.125, -0.125, -0.125, -0.125, -0.125, 0.125, 0.125, 0.125, -0.125, 0.125, -0.125, -0.125, 0.125, 0.125, 0.125, -0.125, 0.125, 0.125, -0.125, 0.125, -0.125, 0.125, -0.125, -0.125, 0.125, 0.125, -0.125, -0.125, -0.125, 0.125, -0.125, -0.125, 0.125, 0.125, -0.125, -0.125, -0.125, -0.125, 0.125, 0.125, 0.125, 0.125, -0.125, 0.125, -0.125, -0.125, -0.125, -0.125, -0.125, 0.125, 0.125, -0.125, -0.125, -0.125, 0.125, -0.125, 0.125, -0.125, -0.125, -0.125, -0.125, -0.125, -0.125, 0.125, 0.125, 0.125, 0.125, -0.125, 0.125, 0.125, -0.125, 0.125, 0.125, -0.125, 0.125, -0.125, 0.125, 0.125, 0.125, 0.125, -0.125, 0.125, -0.125, -0.125, 0.125, 0.125, -0.125, -0.125, 0.125, 0.125, 0.125, 0.125, 0.125, -0.125, 0.125, 0.125, 0.125, -0.125, -0.125, -0.125, 0.125, -0.125, 0.125, 0.125, 0.125, -0.125, -0.125, 0.125, 0.125, 0.125, -0.125, -0.125, -0.125, 0.125, 0.125, 0.125, 0.125, -0.125, -0.125, -0.125, -0.125, 0.125, -0.125, -0.125, -0.125, 0.125, 0.125, -0.125, -0.125, 0.125, 0.125, -0.125, -0.125, 0.125, -0.125, -0.125, 0.125, 0.125, -0.125, -0.125, -0.125, 0.125, 0.125, -0.125, 0.125, 0.125, -0.125, -0.125, -0.125, -0.125, 0.125, -0.125, -0.125, 0.125, -0.125, 0.125, -0.125, 0.125, 0.125, 0.125, -0.125, -0.125, 0.125, -0.125, -0.125, 0.125, 0.125, 0.125, 0.125, -0.125, 0.125, -0.125, -0.125, 0.125, -0.125, 0.125, 0.125, 0.125, 0.125, -0.125, -0.125, 0.125, -0.125, 0.125, -0.125, 0.125, 0.125, -0.125, 0.125, -0.125, 0.125, 0.125, 0.125, -0.125, -0.125, -0.125, 0.125, 0.125, 0.125, -0.125, 0.125, 0.125, -0.125, -0.125, 0.125, 0.125, 0.125, 0.125, -0.125, -0.125, 0.125, 0.125, -0.125, 0.125, -0.125, -0.125, -0.125, 0.125, -0.125, 0.125, -0.125, -0.125, -0.125, 0.125, -0.125, -0.125, -0.125, 0.125, 0.125, -0.125, -0.125, -0.125, -0.125, 0.125, -0.125, -0.125, -0.125, 0.125, -0.125, -0.125, 0.125, -0.125, -0.125, 0.125, -0.125, -0.125, -0.125, 0.125, 0.125, 0.125, -0.125, -0.125, -0.125, -0.125, -0.125, 0.125, -0.125, -0.125, -0.125, -0.125, -0.125, 0.125, -0.125, 0.125, 0.125, -0.125, 0.125, 0.125, -0.125, -0.125, -0.125, 0.125, -0.125, 0.125, 0.125, 0.125, 0.125, 0.125, 0.125, -0.125, 0.125, -0.125, 0.125, -0.125, 0.125, -0.125, 0.125, 0.125, 0.125, 0.125, -0.125, -0.125, -0.125, 0.125, -0.125, 0.125, 0.125, 0.125, -0.125, -0.125, -0.125, 0.125, -0.125, -0.125, 0.125, -0.125, -0.125, -0.125, -0.125, 0.125, -0.125, 0.125, 0.125, 0.125, 0.125, -0.125, -0.125, 0.125, -0.125, -0.125, 0.125, 0.125, -0.125, -0.125, -0.125, -0.125, 0.125, 0.125, -0.125, -0.125, -0.125, 0.125, 0.125, 0.125, 0.125, -0.125, 0.125, 0.125, -0.125, 0.125, 0.125, -0.125, -0.125, 0.125, -0.125, 0.125, -0.125, 0.125, 0.125, 0.125, -0.125, -0.125, -0.125, -0.125, 0.125, 0.125, -0.125, -0.125, -0.125, -0.125, 0.125, -0.125, 0.125, 0.125, 0.125, 0.125, -0.125, -0.125, 0.125, 0.125, 0.125, 0.125, 0.125, 0.125, 0.125, -0.125, 0.125, -0.125, -0.125, 0.125, -0.125, 0.125, 0.125, -0.125, -0.125, 0.125, -0.125, 0.125, -0.125, -0.125, -0.125, -0.125, 0.125, 0.125, -0.125, 0.125, -0.125, -0.125, 0.125, 0.125, -0.125, 0.125, 0.125, 0.125, -0.125, -0.125, 0.125, -0.125, -0.125, 0.125, 0.125, -0.125, -0.125, 0.125, 0.125, 0.125, -0.125, -0.125, -0.125, 0.125, -0.125, -0.125, -0.125, 0.125, 0.125, -0.125, -0.125, -0.125, -0.125, 0.125, -0.125, -0.125, -0.125, -0.125, 0.125, -0.125, 0.125, 0.125, -0.125, -0.125, -0.125, 0.125, -0.125, -0.125, -0.125, 0.125, -0.125, -0.125, 0.125, 0.125, 0.125, -0.125, 0.125, -0.125, 0.125, -0.125, 0.125, -0.125, -0.125, 0.125, 0.125, -0.125, 0.125, -0.125, 0.125, 0.125, -0.125, 0.125, -0.125, 0.125, -0.125, -0.125, -0.125, 0.125, -0.125, 0.125, 0.125, -0.125, -0.125, -0.125, 0.125, -0.125, -0.125, -0.125, 0.125, -0.125, 0.125, -0.125, 0.125, 0.125, -0.125, -0.125, 0.125, 0.125, -0.125, 0.125, 0.125, -0.125, 0.125, 0.125, -0.125, -0.125, 0.125, -0.125, 0.125, 0.125, -0.125, 0.125, 0.125, -0.125, -0.125, -0.125, -0.125, 0.125, -0.125, 0.125, 0.125, -0.125, 0.125, 0.125, -0.125, -0.125, 0.125, 0.125, 0.125, -0.125, -0.125, -0.125, -0.125, 0.125, -0.125, -0.125, -0.125, 0.125, 0.125, 0.125, -0.125, -0.125, -0.125, 0.125, 0.125, 0.125, -0.125, 0.125, 0.125, 0.125, 0.125, -0.125, -0.125, 0.125, 0.125, -0.125, -0.125, -0.125, 0.125, 0.125, 0.125, 0.125, 0.125, 0.125, -0.125, -0.125, -0.125, 0.125, -0.125, 0.125, 0.125, -0.125, -0.125, 0.125, 0.125, 0.125, 0.125, 0.125, -0.125, 0.125, 0.125, 0.125, -0.125, -0.125, 0.125, -0.125, 0.125, -0.125, -0.125, -0.125, -0.125, -0.125, 0.125, 0.125, -0.125, -0.125, -0.125, 0.125, -0.125, -0.125, -0.125, -0.125, -0.125, -0.125, -0.125, -0.125, 0.125, -0.125, 0.125, -0.125, 0.125, 0.125, 0.125, 0.125, -0.125, -0.125, 0.125, -0.125, -0.125, 0.125, 0.125, 0.125, -0.125, -0.125, -0.125, -0.125, -0.125, 0.125, 0.125, 0.125, -0.125, 0.125, 0.125, 0.125, -0.125, -0.125, 0.125, 0.125, -0.125, 0.125, 0.125, -0.125, 0.125, -0.125, 0.125, -0.125, 0.125, -0.125, -0.125, -0.125, 0.125, -0.125, -0.125, -0.125, -0.125, -0.125, 0.125, 0.125, 0.125, 0.125, 0.125, -0.125, -0.125, -0.125, -0.125, 0.125, -0.125, 0.125, 0.125, -0.125, 0.125, -0.125, -0.125, -0.125, -0.125, 0.125, -0.125, -0.125, 0.125, 0.125, -0.125, 0.125, -0.125, -0.125, 0.125, -0.125, 0.125, -0.125, -0.125, -0.125, 0.125, 0.125, 0.125, 0.125, 0.125, 0.125, 0.125, 0.125, 0.125, 0.125, -0.125, 0.125, -0.125, -0.125, 0.125, -0.125, 0.125, -0.125, -0.125, -0.125, -0.125, -0.125, 0.125, 0.125, -0.125, -0.125, -0.125, -0.125, 0.125, 0.125, -0.125, 0.125, -0.125, 0.125, -0.125, 0.125, -0.125, 0.125, 0.125, -0.125, -0.125, 0.125, 0.125, 0.125, -0.125, -0.125, -0.125, -0.125, -0.125, -0.125, 0.125, 0.125, -0.125, -0.125, 0.125, 0.125, 0.125, 0.125, -0.125, 0.125, -0.125, 0.125, -0.125, 0.125, 0.125, 0.125, 0.125, -0.125, -0.125, 0.125, -0.125, -0.125, 0.125, 0.125, -0.125, -0.125, 0.125, -0.125, -0.125, 0.125, 0.125, 0.125, 0.125, -0.125, 0.125, -0.125, -0.125, 0.125, 0.125, 0.125, 0.125, -0.125, -0.125, -0.125, 0.125, 0.125, -0.125, 0.125, 0.125, -0.125, -0.125, -0.125, -0.125, 0.125, -0.125, -0.125, -0.125, 0.125, 0.125, -0.125, -0.125, 0.125, -0.125, -0.125, -0.125, -0.125, -0.125, -0.125, 0.125, -0.125, 0.125, 0.125, 0.125, -0.125, -0.125, -0.125, 0.125, 0.125, 0.125, 0.125, -0.125, -0.125, 0.125, -0.125, 0.125, -0.125, 0.125, 0.125, -0.125, 0.125, 0.125, -0.125, 0.125, 0.125, -0.125, -0.125, -0.125, 0.125, -0.125, 0.125, -0.125, -0.125, -0.125, -0.125, 0.125, 0.125, -0.125, -0.125, 0.125, -0.125, -0.125, -0.125, 0.125, 0.125, -0.125, -0.125, -0.125, -0.125, 0.125, -0.125, -0.125, 0.125, -0.125, -0.125, 0.125, 0.125, 0.125, 0.125, -0.125, -0.125, 0.125, -0.125, 0.125, -0.125, 0.125, -0.125, 0.125, -0.125, 0.125, 0.125, 0.125, -0.125, 0.125, 0.125, 0.125, -0.125, 0.125, 0.125, 0.125, 0.125, -0.125, -0.125, 0.125, -0.125, -0.125, -0.125, -0.125, -0.125, 0.125, -0.125, -0.125, 0.125, -0.125, 0.125, 0.125, 0.125, -0.125, -0.125, -0.125, 0.125, -0.125, -0.125, -0.125, -0.125, -0.125, -0.125, 0.125, 0.125, -0.125, -0.125, -0.125, 0.125, 0.125, 0.125, 0.125, 0.125, -0.125, 0.125, 0.125, 0.125, -0.125, 0.125, -0.125, -0.125, 0.125, 0.125, -0.125, 0.125, -0.125, -0.125, 0.125, 0.125, -0.125, 0.125, -0.125, -0.125, -0.125, 0.125, -0.125, -0.125, -0.125, 0.125, -0.125, -0.125, 0.125, -0.125, 0.125, 0.125, 0.125, 0.125, -0.125, 0.125, -0.125, -0.125, 0.125, -0.125, -0.125, 0.125, -0.125, -0.125, 0.125, 0.125, -0.125, -0.125, 0.125, -0.125, 0.125, -0.125, 0.125, -0.125, -0.125, -0.125, 0.125, -0.125, 0.125, 0.125, -0.125, -0.125, 0.125, -0.125, -0.125, -0.125, 0.125, -0.125, 0.125, 0.125, 0.125, 0.125, -0.125, -0.125, 0.125, -0.125, -0.125, 0.125, -0.125, 0.125, -0.125, -0.125, 0.125, 0.125, -0.125, -0.125, 0.125, 0.125, 0.125, -0.125, 0.125, 0.125, -0.125, 0.125, 0.125, -0.125, -0.125, -0.125, -0.125, 0.125, -0.125, -0.125, -0.125, -0.125, -0.125, 0.125, 0.125, -0.125, 0.125, 0.125, 0.125, -0.125, -0.125, -0.125, 0.125, -0.125, -0.125, -0.125, 0.125, 0.125, 0.125, 0.125, 0.125, 0.125, 0.125, 0.125, -0.125, -0.125, 0.125, -0.125, -0.125, 0.125, 0.125, -0.125, -0.125, 0.125, 0.125, -0.125, 0.125, 0.125, -0.125, 0.125, 0.125, -0.125, 0.125, -0.125, -0.125, -0.125, -0.125, -0.125, -0.125, -0.125, 0.125, -0.125, -0.125, 0.125, -0.125, 0.125, -0.125, 0.125, 0.125, -0.125, -0.125, -0.125, -0.125, 0.125, -0.125, -0.125, 0.125, -0.125, 0.125, -0.125, -0.125, 0.125, 0.125, 0.125, -0.125, -0.125, -0.125, 0.125, -0.125, 0.125, 0.125, -0.125, -0.125, -0.125, -0.125, 0.125, 0.125, -0.125, 0.125, 0.125, -0.125, -0.125, 0.125, -0.125, -0.125, 0.125, -0.125, 0.125, -0.125, -0.125, 0.125, -0.125, 0.125, -0.125, 0.125, -0.125, 0.125, 0.125, -0.125, 0.125, 0.125, 0.125, 0.125, -0.125, -0.125, 0.125, -0.125, -0.125, 0.125, -0.125, -0.125, 0.125, 0.125, 0.125, -0.125, -0.125, 0.125, 0.125, 0.125, 0.125, -0.125, -0.125, -0.125, -0.125, 0.125, 0.125, 0.125, -0.125, 0.125, -0.125, -0.125, -0.125, -0.125, 0.125, -0.125, 0.125, 0.125, -0.125, -0.125, -0.125, -0.125, -0.125, -0.125, -0.125, -0.125, 0.125, -0.125, 0.125, -0.125, 0.125, -0.125, 0.125, -0.125, 0.125, -0.125, 0.125, 0.125, -0.125, -0.125, 0.125, -0.125, -0.125, -0.125, 0.125, -0.125, -0.125, 0.125, -0.125, -0.125, 0.125, 0.125, -0.125, 0.125, 0.125, 0.125, -0.125, -0.125, -0.125, 0.125, 0.125, 0.125, -0.125, -0.125, 0.125, 0.125, -0.125, -0.125, -0.125, -0.125, 0.125, 0.125, -0.125, -0.125, -0.125, 0.125, 0.125, 0.125, 0.125, 0.125, 0.125, 0.125, 0.125, 0.125, -0.125, -0.125, 0.125, -0.125, 0.125, 0.125, 0.125, 0.125, 0.125, 0.125, 0.125, -0.125, 0.125, -0.125, -0.125, 0.125, 0.125, 0.125, -0.125, 0.125, 0.125, 0.125, 0.125, -0.125, -0.125, -0.125, 0.125, -0.125, 0.125, 0.125, 0.125, -0.125, -0.125, -0.125, 0.125, 0.125, 0.125, -0.125, -0.125, 0.125, 0.125, 0.125, -0.125, -0.125, -0.125, -0.125, -0.125, 0.125, -0.125, 0.125, 0.125, -0.125, -0.125, -0.125, 0.125, -0.125, 0.125, -0.125, 0.125, -0.125, -0.125, -0.125, 0.125, -0.125, -0.125, 0.125, -0.125, -0.125, 0.125, -0.125, -0.125, 0.125, -0.125, 0.125, -0.125, 0.125, 0.125, 0.125, -0.125, 0.125, 0.125, -0.125, 0.125, 0.125, -0.125, -0.125, 0.125, 0.125, -0.125, 0.125, -0.125, -0.125, -0.125, -0.125, -0.125, 0.125, 0.125, 0.125, -0.125, -0.125, 0.125, -0.125, 0.125, 0.125, 0.125, -0.125, 0.125, 0.125, -0.125, -0.125, -0.125, -0.125, 0.125, -0.125, -0.125, -0.125, -0.125, -0.125, -0.125, 0.125, 0.125, -0.125, 0.125, -0.125, 0.125, -0.125, 0.125, -0.125, -0.125, -0.125, 0.125, 0.125, 0.125, 0.125, 0.125, -0.125, -0.125, 0.125, 0.125, 0.125, 0.125, 0.125, 0.125, 0.125, -0.125, 0.125, 0.125, -0.125, 0.125, -0.125, 0.125, -0.125, -0.125, 0.125, -0.125, 0.125, -0.125, -0.125, -0.125, 0.125, -0.125, 0.125, -0.125, -0.125, 0.125, -0.125, 0.125, 0.125, -0.125, -0.125, 0.125, -0.125, -0.125, -0.125, 0.125, -0.125, 0.125, -0.125, 0.125, 0.125, -0.125, -0.125, -0.125, 0.125, -0.125, 0.125, 0.125, 0.125, 0.125, 0.125, 0.125, -0.125, -0.125, 0.125, 0.125, 0.125, 0.125, 0.125, -0.125, 0.125, -0.125, -0.125, 0.125, 0.125, -0.125, 0.125, -0.125, 0.125, -0.125, 0.125, 0.125, 0.125, -0.125, 0.125, -0.125, -0.125, 0.125, -0.125, 0.125, -0.125, 0.125, 0.125, 0.125, -0.125, 0.125, -0.125, -0.125, 0.125, -0.125, 0.125, -0.125, 0.125, 0.125, 0.125, -0.125, 0.125, -0.125, -0.125, 0.125, 0.125, 0.125, -0.125, 0.125, -0.125, 0.125, 0.125, 0.125, -0.125, -0.125, -0.125, 0.125, -0.125, 0.125, -0.125, 0.125, -0.125, 0.125, 0.125, 0.125, -0.125, -0.125, 0.125, 0.125, 0.125, -0.125, 0.125, 0.125, 0.125, 0.125, -0.125, -0.125, -0.125, -0.125, 0.125, -0.125, 0.125, 0.125, -0.125, -0.125, -0.125, -0.125, 0.125, -0.125, -0.125, 0.125, -0.125, 0.125, -0.125, 0.125, 0.125, 0.125, -0.125, -0.125, -0.125, -0.125, -0.125, 0.125, -0.125, -0.125, 0.125, 0.125, -0.125, -0.125, 0.125, -0.125, -0.125, -0.125, -0.125, -0.125, -0.125, 0.125, -0.125, -0.125, 0.125, -0.125, 0.125, 0.125, -0.125, -0.125, 0.125, -0.125, -0.125, -0.125, -0.125, 0.125, -0.125, 0.125, 0.125, 0.125, 0.125, -0.125, -0.125, -0.125, 0.125, -0.125, -0.125, 0.125, -0.125, 0.125, -0.125, 0.125, 0.125, 0.125, 0.125, 0.125, -0.125, -0.125, 0.125, 0.125, -0.125, 0.125, -0.125, 0.125, -0.125, 0.125, 0.125, 0.125, -0.125, 0.125, 0.125, -0.125, 0.125, -0.125, 0.125, 0.125, -0.125, 0.125, 0.125, -0.125, 0.125, -0.125, -0.125, -0.125, 0.125, -0.125, -0.125, -0.125, -0.125, -0.125, 0.125, -0.125, -0.125, -0.125, -0.125, 0.125, -0.125, 0.125, -0.125, -0.125, 0.125, -0.125, -0.125, -0.125, -0.125, 0.125, -0.125, 0.125, -0.125, 0.125, 0.125, -0.125, 0.125, -0.125, 0.125, -0.125, 0.125, -0.125, -0.125, -0.125, -0.125, 0.125, -0.125, -0.125, 0.125, 0.125, 0.125, -0.125, 0.125, -0.125, 0.125, 0.125, -0.125, -0.125, 0.125, -0.125, -0.125, 0.125, -0.125, 0.125, -0.125, 0.125, 0.125, 0.125, -0.125, 0.125, -0.125, -0.125, 0.125, 0.125, -0.125, -0.125, -0.125, -0.125, 0.125, -0.125, 0.125, 0.125, 0.125, -0.125, -0.125, 0.125, 0.125, -0.125, -0.125, -0.125, 0.125, -0.125, 0.125, -0.125, 0.125, 0.125, -0.125, -0.125, 0.125, 0.125, 0.125, 0.125, 0.125, -0.125, 0.125, 0.125, 0.125, -0.125, -0.125, 0.125, -0.125, 0.125, 0.125, 0.125, -0.125, -0.125, 0.125, -0.125, -0.125, 0.125, 0.125, -0.125, 0.125, -0.125, 0.125, 0.125, -0.125, 0.125, 0.125, -0.125, 0.125, 0.125, -0.125, -0.125, 0.125, -0.125, 0.125, 0.125, 0.125, 0.125, -0.125, 0.125, 0.125, 0.125, 0.125, -0.125, 0.125, -0.125, -0.125, -0.125, -0.125, -0.125, 0.125, 0.125, -0.125, -0.125, 0.125, -0.125, 0.125, 0.125, 0.125, -0.125, 0.125, -0.125, -0.125, -0.125, -0.125, -0.125, -0.125, 0.125, 0.125, 0.125, 0.125, -0.125, -0.125, 0.125, -0.125, -0.125, 0.125, -0.125, 0.125, 0.125, 0.125, 0.125, -0.125, 0.125, 0.125, 0.125, -0.125, 0.125, -0.125, -0.125, 0.125, 0.125, -0.125, -0.125, -0.125, -0.125, -0.125, 0.125, -0.125, 0.125, 0.125, 0.125, -0.125, 0.125, 0.125, 0.125, 0.125, -0.125, -0.125, 0.125, -0.125, -0.125, -0.125, 0.125, -0.125, -0.125, 0.125, -0.125, 0.125, -0.125, 0.125, -0.125, -0.125, -0.125, -0.125, -0.125, -0.125, 0.125, 0.125, -0.125, -0.125, 0.125, -0.125, -0.125, 0.125, -0.125, 0.125, 0.125, -0.125, -0.125, -0.125, -0.125, 0.125, 0.125, 0.125, -0.125, 0.125, 0.125, 0.125, -0.125, -0.125, 0.125, 0.125, 0.125, 0.125, 0.125, 0.125, 0.125, -0.125, 0.125, -0.125, -0.125, -0.125, 0.125, 0.125, 0.125, -0.125, -0.125, -0.125, -0.125, -0.125, 0.125, -0.125, -0.125, -0.125, 0.125, -0.125, 0.125, 0.125, -0.125, 0.125, 0.125, 0.125, -0.125, 0.125, -0.125, -0.125, 0.125, 0.125, 0.125, 0.125, 0.125, 0.125, -0.125, 0.125, -0.125, -0.125, -0.125, 0.125, -0.125, -0.125, 0.125, 0.125, -0.125, -0.125, 0.125, -0.125, 0.125, -0.125, 0.125, -0.125, 0.125, 0.125, -0.125, 0.125, 0.125, -0.125, 0.125, -0.125, 0.125, 0.125, -0.125, 0.125, -0.125, 0.125, -0.125, 0.125, -0.125, -0.125, -0.125, 0.125, -0.125, -0.125, -0.125, -0.125, -0.125, -0.125, -0.125, -0.125, -0.125, -0.125, 0.125, 0.125, -0.125, 0.125, -0.125, -0.125, 0.125, -0.125, -0.125, 0.125, 0.125, -0.125, -0.125, -0.125, 0.125, -0.125, -0.125, -0.125, -0.125, -0.125, -0.125, 0.125, -0.125, 0.125, -0.125, -0.125, 0.125, 0.125, 0.125, -0.125, 0.125, -0.125, 0.125, 0.125, 0.125, -0.125, 0.125, 0.125, 0.125, -0.125, -0.125, -0.125, 0.125, -0.125, -0.125, -0.125, 0.125, 0.125, -0.125, -0.125, -0.125, -0.125, -0.125, 0.125, -0.125, -0.125, 0.125, 0.125, -0.125, 0.125, 0.125, 0.125, -0.125, 0.125, -0.125, 0.125, -0.125, 0.125, 0.125, 0.125, 0.125, -0.125, -0.125, 0.125, -0.125, -0.125, -0.125, -0.125, -0.125, -0.125, -0.125, 0.125, -0.125, -0.125, -0.125, -0.125, 0.125, 0.125, 0.125, 0.125, 0.125, -0.125, -0.125, 0.125, 0.125, -0.125, 0.125, 0.125, 0.125, 0.125, -0.125, 0.125, 0.125, -0.125, -0.125, 0.125, 0.125, -0.125, -0.125, 0.125, 0.125, -0.125, -0.125, -0.125, 0.125, 0.125, -0.125, -0.125, -0.125, 0.125, 0.125, 0.125, -0.125, -0.125, 0.125, -0.125, 0.125, -0.125, -0.125, 0.125, -0.125, -0.125, -0.125, 0.125, 0.125, 0.125, 0.125, -0.125, 0.125, -0.125, -0.125, -0.125, -0.125, -0.125, -0.125, -0.125, 0.125, 0.125, -0.125, 0.125, 0.125, 0.125, -0.125, -0.125, -0.125, 0.125, 0.125, -0.125, 0.125, -0.125, -0.125, 0.125, -0.125, -0.125, -0.125, -0.125, -0.125, 0.125, 0.125, -0.125, 0.125, 0.125, -0.125, 0.125, -0.125, -0.125, -0.125, -0.125, -0.125, 0.125, -0.125, -0.125, -0.125, -0.125, -0.125, 0.125, -0.125, 0.125, -0.125, 0.125, -0.125, -0.125, -0.125, 0.125, -0.125, -0.125, 0.125, -0.125, 0.125, 0.125, 0.125, -0.125, 0.125, 0.125, 0.125, -0.125, 0.125, -0.125, -0.125, 0.125, 0.125, -0.125, -0.125, 0.125, -0.125, 0.125, -0.125, 0.125, -0.125, -0.125, 0.125, -0.125, -0.125, 0.125, -0.125, 0.125, -0.125, 0.125, 0.125, 0.125, -0.125, 0.125, 0.125, -0.125, 0.125, 0.125, 0.125, 0.125, -0.125, -0.125, -0.125, 0.125, -0.125, 0.125, 0.125, -0.125, -0.125, -0.125, 0.125, -0.125, 0.125, -0.125, -0.125, -0.125, -0.125, 0.125, -0.125, -0.125, -0.125, 0.125, 0.125, -0.125, -0.125, -0.125, -0.125, -0.125, 0.125, -0.125, -0.125, 0.125, 0.125, 0.125, -0.125, 0.125, 0.125, 0.125, 0.125, 0.125, 0.125, 0.125, -0.125, 0.125, 0.125, -0.125, 0.125, -0.125, -0.125, -0.125, 0.125, -0.125, 0.125, 0.125, -0.125, -0.125, -0.125, -0.125, -0.125, -0.125, 0.125, 0.125, -0.125, -0.125, -0.125, -0.125, -0.125, 0.125, -0.125, 0.125, 0.125, -0.125, -0.125, -0.125, -0.125, 0.125, -0.125, -0.125, 0.125, -0.125, 0.125, 0.125, -0.125, -0.125, -0.125, 0.125, -0.125, 0.125, 0.125, -0.125, -0.125, 0.125, -0.125, 0.125, 0.125, 0.125, 0.125, 0.125, -0.125, 0.125, -0.125, -0.125, 0.125, -0.125, 0.125, 0.125, -0.125, 0.125, 0.125, 0.125, -0.125, 0.125, -0.125, -0.125, 0.125, 0.125, -0.125, 0.125, -0.125, 0.125, -0.125, 0.125, -0.125, -0.125, -0.125, 0.125, -0.125, -0.125, -0.125, 0.125, 0.125, -0.125, -0.125, 0.125, 0.125, 0.125, -0.125, -0.125, 0.125, -0.125, -0.125, 0.125, 0.125, 0.125, -0.125, 0.125, -0.125, -0.125, -0.125, 0.125, -0.125, -0.125, 0.125, 0.125, -0.125, 0.125, -0.125, 0.125, 0.125, -0.125, -0.125, -0.125, 0.125, 0.125, 0.125, -0.125, -0.125, -0.125, 0.125, 0.125, 0.125, -0.125, 0.125, 0.125, -0.125, 0.125, 0.125, 0.125, -0.125, 0.125, -0.125, -0.125, -0.125, 0.125, 0.125, -0.125, -0.125, 0.125, -0.125, 0.125, 0.125, -0.125, 0.125, -0.125, 0.125, -0.125, 0.125, 0.125, 0.125, 0.125, -0.125, -0.125, 0.125, 0.125, -0.125, -0.125, 0.125, -0.125, 0.125, 0.125, -0.125, -0.125, -0.125, -0.125, -0.125, 0.125, 0.125, -0.125, -0.125, 0.125, 0.125, 0.125, -0.125, -0.125, 0.125, 0.125, -0.125, -0.125, -0.125, -0.125, 0.125, -0.125, -0.125, -0.125, -0.125, -0.125, -0.125, 0.125, -0.125, -0.125, 0.125, -0.125, -0.125, 0.125, -0.125, 0.125, -0.125, 0.125, 0.125, 0.125, 0.125, 0.125, 0.125, -0.125, 0.125, -0.125, 0.125, 0.125, -0.125, -0.125, -0.125, 0.125, -0.125, 0.125, -0.125, 0.125, -0.125, 0.125, -0.125, 0.125, -0.125, -0.125, -0.125, 0.125, 0.125, 0.125, -0.125, -0.125, 0.125, 0.125, 0.125, -0.125, 0.125, -0.125, 0.125, -0.125, 0.125, -0.125, 0.125, 0.125, 0.125, -0.125, -0.125, -0.125, -0.125, -0.125, -0.125, -0.125, 0.125, -0.125, -0.125, -0.125, -0.125, -0.125, 0.125, 0.125, 0.125, 0.125, -0.125, 0.125, 0.125, 0.125, 0.125, -0.125, -0.125, -0.125, -0.125, 0.125, -0.125, -0.125, -0.125, 0.125, -0.125, 0.125, 0.125, 0.125, 0.125, -0.125, 0.125, -0.125, -0.125, 0.125, 0.125, 0.125, 0.125, 0.125, 0.125, -0.125, 0.125, 0.125, -0.125, -0.125, 0.125, 0.125, -0.125, 0.125, 0.125, -0.125, -0.125, 0.125, -0.125, 0.125, -0.125, 0.125, 0.125, -0.125, 0.125, 0.125, -0.125, 0.125, -0.125, -0.125, 0.125, 0.125, -0.125, 0.125, 0.125, -0.125, -0.125, -0.125, -0.125, -0.125, -0.125, -0.125, -0.125, -0.125, -0.125, 0.125, -0.125, -0.125, 0.125, 0.125, -0.125, -0.125, -0.125, -0.125, 0.125, -0.125, 0.125, -0.125, -0.125, -0.125, -0.125, 0.125, 0.125, -0.125, -0.125, -0.125, -0.125, -0.125, 0.125, -0.125, 0.125, 0.125, 0.125, -0.125, -0.125, -0.125, -0.125, 0.125, 0.125, -0.125, 0.125, 0.125, -0.125, -0.125, -0.125, -0.125, -0.125, -0.125, 0.125, 0.125, -0.125, -0.125, -0.125, -0.125, -0.125, 0.125, -0.125, -0.125, -0.125, 0.125, -0.125, 0.125, -0.125, 0.125, 0.125, -0.125, 0.125, -0.125, 0.125, 0.125, -0.125, 0.125, 0.125, -0.125, -0.125, 0.125, 0.125, -0.125, 0.125, 0.125, 0.125, -0.125, -0.125, 0.125, 0.125, 0.125, -0.125, 0.125, -0.125, -0.125, 0.125, -0.125, -0.125, -0.125, -0.125, 0.125, 0.125, 0.125, 0.125, 0.125, -0.125, 0.125, -0.125, 0.125, 0.125, -0.125, -0.125, 0.125, -0.125, -0.125, -0.125, 0.125, -0.125, 0.125, -0.125, -0.125, -0.125, -0.125, 0.125, 0.125, -0.125, -0.125, 0.125, -0.125, -0.125, 0.125, -0.125, -0.125, 0.125, 0.125, -0.125, -0.125, -0.125, -0.125, 0.125, -0.125, 0.125, 0.125, -0.125, -0.125, -0.125, -0.125, 0.125, 0.125, -0.125, -0.125, -0.125, -0.125, -0.125, -0.125, -0.125, 0.125, -0.125, -0.125, -0.125, 0.125, 0.125, 0.125, 0.125, -0.125, 0.125, 0.125, -0.125, -0.125, -0.125, -0.125, -0.125, 0.125, 0.125, 0.125, -0.125, -0.125, -0.125, -0.125, -0.125, 0.125, -0.125, 0.125, -0.125, 0.125, -0.125, 0.125, -0.125, 0.125, -0.125, -0.125, 0.125, -0.125, 0.125, 0.125, -0.125, -0.125, 0.125, 0.125, 0.125, -0.125, 0.125, 0.125, -0.125, 0.125, -0.125, 0.125, 0.125, 0.125, 0.125, -0.125, -0.125, 0.125, -0.125, -0.125, 0.125, 0.125, -0.125, -0.125, -0.125, -0.125, 0.125, 0.125, 0.125, 0.125, -0.125, 0.125, -0.125, 0.125, 0.125, -0.125, -0.125, 0.125, 0.125, -0.125, -0.125, 0.125, -0.125, -0.125, 0.125, -0.125, -0.125, 0.125, 0.125, 0.125, -0.125, -0.125, 0.125, -0.125, 0.125, -0.125, -0.125, -0.125, 0.125, 0.125, -0.125, -0.125, 0.125, 0.125, -0.125, -0.125, 0.125, 0.125, -0.125, -0.125, -0.125, 0.125, -0.125, 0.125, -0.125, -0.125, -0.125, 0.125, -0.125, -0.125, -0.125, 0.125, 0.125, -0.125, 0.125, -0.125, 0.125, -0.125, -0.125, 0.125, -0.125, 0.125, -0.125, -0.125, -0.125, -0.125, -0.125, 0.125, -0.125, -0.125, 0.125, -0.125, 0.125, -0.125, -0.125, 0.125, -0.125, 0.125, -0.125, -0.125, -0.125, 0.125, 0.125, 0.125, -0.125, -0.125, 0.125, -0.125, -0.125, 0.125, -0.125, -0.125, -0.125, -0.125, 0.125, -0.125, 0.125, 0.125, -0.125, -0.125, -0.125, -0.125, 0.125, 0.125, 0.125, 0.125, -0.125, 0.125, -0.125, 0.125, 0.125, -0.125, -0.125, -0.125, -0.125, -0.125, -0.125, -0.125, 0.125, -0.125, -0.125, 0.125, 0.125, 0.125, 0.125, -0.125, -0.125, 0.125, 0.125, -0.125, 0.125, -0.125, 0.125, -0.125, 0.125, -0.125, -0.125, 0.125, -0.125, -0.125, -0.125, -0.125, 0.125, 0.125, -0.125, -0.125, -0.125, -0.125, -0.125, -0.125, -0.125, -0.125, 0.125, 0.125, -0.125, -0.125, 0.125, 0.125, 0.125, -0.125, 0.125, -0.125, -0.125, 0.125, -0.125, 0.125, 0.125, -0.125, -0.125, -0.125, -0.125, -0.125, 0.125, 0.125, -0.125, -0.125, 0.125, -0.125, 0.125, 0.125, -0.125, -0.125, 0.125, -0.125, 0.125, 0.125, -0.125, 0.125, -0.125, 0.125, -0.125, -0.125, 0.125, -0.125, 0.125, 0.125, -0.125, 0.125, 0.125, 0.125, -0.125, -0.125, -0.125, 0.125, -0.125, 0.125, 0.125, 0.125, 0.125, 0.125, -0.125, -0.125, -0.125, -0.125, 0.125, -0.125, -0.125, -0.125, -0.125, 0.125, 0.125, 0.125, -0.125, 0.125, -0.125, 0.125, 0.125, 0.125, -0.125, -0.125, -0.125, -0.125, 0.125, 0.125, 0.125, -0.125, 0.125, 0.125, -0.125, -0.125, 0.125, 0.125, 0.125, -0.125, -0.125, 0.125, -0.125, 0.125, -0.125, -0.125, -0.125, 0.125, -0.125, -0.125, -0.125, -0.125, -0.125, -0.125, 0.125, -0.125, 0.125, -0.125, 0.125, -0.125, 0.125, 0.125, 0.125, -0.125, 0.125, 0.125, -0.125, 0.125, -0.125, 0.125, 0.125, 0.125, -0.125, -0.125, -0.125, 0.125, -0.125, 0.125, -0.125, -0.125, 0.125, -0.125, 0.125, -0.125, 0.125, -0.125, -0.125, 0.125, -0.125, 0.125, -0.125, -0.125, 0.125, 0.125, -0.125, -0.125, 0.125, 0.125, -0.125, -0.125, 0.125, 0.125, -0.125, 0.125, 0.125, 0.125, -0.125, -0.125, 0.125, -0.125, -0.125, 0.125, -0.125, 0.125, -0.125, 0.125, -0.125, -0.125, -0.125, 0.125, 0.125, -0.125, 0.125, 0.125, 0.125, 0.125, 0.125, -0.125, 0.125, -0.125, 0.125, -0.125, 0.125, -0.125, -0.125, 0.125, 0.125, 0.125, 0.125, 0.125, -0.125, 0.125, -0.125, -0.125, 0.125, -0.125, 0.125, -0.125, 0.125, 0.125, -0.125, 0.125, -0.125, 0.125, 0.125, -0.125, 0.125, 0.125, 0.125, -0.125, 0.125, 0.125, -0.125, 0.125, -0.125, -0.125, -0.125, -0.125, -0.125, -0.125, 0.125, -0.125, 0.125, -0.125, 0.125, -0.125, -0.125, -0.125, 0.125, 0.125, -0.125, 0.125, -0.125, -0.125, 0.125, 0.125, -0.125, 0.125, -0.125, -0.125, 0.125, 0.125, -0.125, 0.125, 0.125, 0.125, -0.125, -0.125, -0.125, -0.125, 0.125, 0.125, 0.125, 0.125, -0.125, 0.125, -0.125, 0.125, -0.125, -0.125, -0.125, 0.125, 0.125, 0.125, -0.125, 0.125, -0.125, 0.125, 0.125, 0.125, -0.125, -0.125, -0.125, -0.125, 0.125, 0.125, -0.125, -0.125, -0.125, 0.125, 0.125, 0.125, -0.125, 0.125, -0.125, 0.125, 0.125, -0.125, -0.125, 0.125, -0.125, -0.125, 0.125, -0.125, -0.125, 0.125, 0.125, -0.125, 0.125, -0.125, 0.125, 0.125, -0.125, 0.125, -0.125, 0.125, 0.125, 0.125, -0.125, -0.125, -0.125, -0.125, 0.125, 0.125, 0.125, 0.125, 0.125, -0.125, -0.125, 0.125, 0.125, -0.125, -0.125, 0.125, 0.125, -0.125, 0.125, 0.125, 0.125, -0.125, 0.125, -0.125, -0.125, 0.125, 0.125, -0.125, -0.125, -0.125, -0.125, -0.125, -0.125, -0.125, -0.125, -0.125, 0.125, 0.125, 0.125, -0.125, -0.125, -0.125, -0.125, 0.125, 0.125, -0.125, -0.125, -0.125, -0.125, 0.125, -0.125, -0.125, 0.125, 0.125, 0.125, 0.125, -0.125, 0.125, 0.125, -0.125, 0.125, 0.125, 0.125, 0.125, 0.125, 0.125, 0.125, -0.125, -0.125, 0.125, 0.125, -0.125, -0.125, -0.125, 0.125, 0.125, -0.125, 0.125, -0.125, -0.125, -0.125, 0.125, -0.125, 0.125, -0.125, -0.125, 0.125, -0.125, -0.125, -0.125, 0.125, 0.125, -0.125, 0.125, -0.125, 0.125, 0.125, -0.125, 0.125, 0.125, -0.125, -0.125, -0.125, -0.125, 0.125, -0.125, -0.125, 0.125, -0.125, 0.125, 0.125, -0.125, 0.125, 0.125, 0.125, 0.125, -0.125, -0.125, -0.125, 0.125, -0.125, 0.125, 0.125, -0.125, 0.125, 0.125, -0.125, 0.125, 0.125, 0.125, 0.125, 0.125, -0.125, -0.125, 0.125, 0.125, 0.125, -0.125, 0.125, -0.125, 0.125, -0.125, 0.125, 0.125, 0.125, -0.125, 0.125, -0.125, -0.125, -0.125, 0.125, -0.125, -0.125, -0.125, -0.125, -0.125, -0.125, -0.125, 0.125, -0.125, -0.125, 0.125, -0.125, 0.125, 0.125, -0.125, -0.125, -0.125, -0.125, -0.125, -0.125, -0.125, 0.125, -0.125, 0.125, 0.125, -0.125, -0.125, 0.125, 0.125, 0.125, 0.125, 0.125, -0.125, -0.125, 0.125, 0.125, 0.125, 0.125, 0.125, 0.125, -0.125, 0.125, -0.125, 0.125, 0.125, 0.125, -0.125, -0.125, -0.125, -0.125, 0.125, -0.125, -0.125, 0.125, 0.125, 0.125, -0.125, -0.125, -0.125, -0.125, 0.125, 0.125, 0.125, -0.125, -0.125, 0.125, -0.125, 0.125, 0.125, -0.125, 0.125, -0.125, 0.125, 0.125, 0.125, -0.125, -0.125, 0.125, 0.125, -0.125, -0.125, -0.125, -0.125, 0.125, 0.125, 0.125, -0.125, 0.125, -0.125, -0.125, 0.125, 0.125, -0.125, 0.125, 0.125, -0.125, -0.125, 0.125, 0.125, -0.125, 0.125, 0.125, 0.125, 0.125, -0.125, -0.125, 0.125, -0.125, -0.125, 0.125, -0.125, 0.125, 0.125, 0.125, -0.125, 0.125, 0.125, 0.125, 0.125, 0.125, -0.125, -0.125, -0.125, -0.125, 0.125, -0.125, -0.125, -0.125, -0.125, 0.125, 0.125, 0.125, -0.125, 0.125, -0.125, 0.125, -0.125, -0.125, -0.125, -0.125, -0.125, -0.125, 0.125, 0.125, 0.125, -0.125, 0.125, -0.125, 0.125, -0.125, -0.125, 0.125, 0.125, 0.125, -0.125, 0.125, 0.125, -0.125, 0.125, 0.125, -0.125, -0.125, -0.125, -0.125, -0.125, -0.125, 0.125, 0.125, 0.125, -0.125, -0.125, 0.125, -0.125, -0.125, 0.125, 0.125, 0.125, -0.125, -0.125, 0.125, -0.125, 0.125, 0.125, 0.125, 0.125, 0.125, 0.125, 0.125, 0.125, -0.125, 0.125, -0.125, 0.125, -0.125, 0.125, 0.125, 0.125, -0.125, -0.125, 0.125, 0.125, 0.125, 0.125, -0.125, -0.125, -0.125, -0.125, 0.125, 0.125, -0.125, -0.125, -0.125, 0.125, -0.125, 0.125, -0.125, 0.125, 0.125, -0.125, -0.125, 0.125, 0.125, -0.125, -0.125, -0.125, -0.125, -0.125, 0.125, 0.125, 0.125, -0.125, -0.125, 0.125, -0.125, 0.125, -0.125, -0.125, -0.125, 0.125, 0.125, -0.125, 0.125, -0.125, 0.125, -0.125, -0.125, 0.125, 0.125, 0.125, -0.125, 0.125, -0.125, 0.125, -0.125, 0.125, 0.125, 0.125, 0.125, 0.125, 0.125, -0.125, -0.125, 0.125, 0.125, -0.125, -0.125, 0.125, -0.125, -0.125, 0.125, 0.125, 0.125, 0.125, 0.125, 0.125, 0.125, -0.125, -0.125, 0.125, 0.125, -0.125, 0.125, 0.125, 0.125, -0.125, -0.125, 0.125, 0.125, 0.125, 0.125, 0.125, 0.125, 0.125, -0.125, -0.125, -0.125, 0.125, 0.125, -0.125, -0.125, -0.125, -0.125, 0.125, 0.125, 0.125, -0.125, -0.125, 0.125, 0.125, 0.125, 0.125, -0.125, -0.125, 0.125, -0.125, -0.125, 0.125, -0.125, -0.125, -0.125, -0.125, -0.125, 0.125, -0.125, -0.125, 0.125, 0.125, 0.125, 0.125, 0.125, -0.125, 0.125, -0.125, -0.125, 0.125, -0.125, -0.125, 0.125, -0.125, 0.125, 0.125, -0.125, 0.125, 0.125, 0.125, -0.125, 0.125, -0.125, 0.125, -0.125, 0.125, -0.125, -0.125, -0.125, 0.125, -0.125, 0.125, -0.125, 0.125, 0.125, -0.125, -0.125, 0.125, 0.125, 0.125, -0.125, -0.125, -0.125, -0.125, -0.125, -0.125, 0.125, 0.125, -0.125, -0.125, -0.125, 0.125, 0.125, 0.125, -0.125, -0.125, -0.125, -0.125, 0.125, 0.125, -0.125, -0.125, -0.125, 0.125, 0.125, 0.125, -0.125, -0.125, -0.125, -0.125, 0.125, 0.125, -0.125, 0.125, -0.125, 0.125, 0.125, -0.125, 0.125, -0.125, -0.125, -0.125, -0.125, 0.125, -0.125, 0.125, -0.125, -0.125, -0.125, 0.125, 0.125, -0.125, 0.125, -0.125, -0.125, -0.125, -0.125, 0.125, -0.125, 0.125, -0.125, -0.125, 0.125, 0.125, -0.125, -0.125, -0.125, 0.125, 0.125, -0.125, 0.125, 0.125, -0.125, 0.125, -0.125, -0.125, -0.125, -0.125, 0.125, -0.125, 0.125, -0.125, -0.125, -0.125, -0.125, 0.125, -0.125, -0.125, -0.125, -0.125, -0.125, 0.125, -0.125, -0.125, 0.125, -0.125, 0.125, 0.125, 0.125, 0.125, -0.125, -0.125, 0.125, -0.125, 0.125, -0.125, 0.125, -0.125, 0.125, 0.125, -0.125, -0.125, 0.125, 0.125, 0.125, 0.125, -0.125, 0.125, -0.125, -0.125, -0.125, -0.125, 0.125, -0.125, -0.125, -0.125, 0.125, 0.125, 0.125, -0.125, 0.125, -0.125, 0.125, -0.125, -0.125, -0.125, -0.125, 0.125, -0.125, -0.125, -0.125, 0.125, 0.125, 0.125, -0.125, 0.125, -0.125, -0.125, -0.125, -0.125, 0.125, 0.125, 0.125, -0.125, 0.125, 0.125, -0.125, -0.125, 0.125, -0.125, 0.125, 0.125, -0.125, -0.125, -0.125, -0.125, 0.125, -0.125, 0.125, -0.125, -0.125, -0.125, 0.125, -0.125, -0.125, -0.125, 0.125, 0.125, 0.125, 0.125, 0.125, 0.125, 0.125, 0.125, 0.125, -0.125, -0.125, 0.125, -0.125, 0.125, 0.125, 0.125, -0.125, 0.125, 0.125, 0.125, 0.125, -0.125, -0.125, 0.125, 0.125, -0.125, 0.125, -0.125, -0.125, 0.125, 0.125, -0.125, 0.125, -0.125, -0.125, 0.125, 0.125, 0.125, -0.125, 0.125, 0.125, 0.125, -0.125, -0.125, 0.125, -0.125, -0.125, -0.125, -0.125, -0.125, -0.125, -0.125, -0.125, 0.125, -0.125, 0.125, 0.125, -0.125, -0.125, 0.125, -0.125, 0.125, -0.125, -0.125, -0.125, -0.125, 0.125, -0.125, -0.125, -0.125, -0.125, -0.125, -0.125, -0.125, 0.125, 0.125, -0.125, -0.125, -0.125, -0.125, -0.125, 0.125, 0.125, 0.125, -0.125, 0.125, 0.125, -0.125, 0.125, -0.125, 0.125, 0.125, -0.125, -0.125, 0.125, -0.125, 0.125, 0.125, 0.125, 0.125, -0.125, -0.125, -0.125, -0.125, -0.125, -0.125, -0.125, -0.125, -0.125, 0.125, 0.125, -0.125, -0.125, 0.125, -0.125, 0.125, -0.125, -0.125, -0.125, -0.125, 0.125, -0.125, 0.125, -0.125, 0.125, 0.125, -0.125, 0.125, 0.125, 0.125, -0.125, 0.125, -0.125, -0.125, -0.125, 0.125, 0.125, -0.125, 0.125, 0.125, -0.125, 0.125, -0.125, -0.125, 0.125, 0.125, -0.125, 0.125, 0.125, -0.125, 0.125, 0.125, -0.125, 0.125, -0.125, -0.125, -0.125, 0.125, -0.125, -0.125, -0.125, -0.125, -0.125, -0.125, 0.125, -0.125, 0.125, 0.125, -0.125, 0.125, 0.125, -0.125, -0.125, -0.125, -0.125, -0.125, -0.125, -0.125, -0.125, 0.125, 0.125, 0.125, -0.125, -0.125, -0.125, 0.125, -0.125, -0.125, -0.125, 0.125, 0.125, -0.125, -0.125, -0.125, 0.125, 0.125, -0.125, 0.125, 0.125, -0.125, 0.125, -0.125, 0.125, 0.125, 0.125, -0.125, -0.125, 0.125, 0.125, -0.125, -0.125, 0.125, -0.125, 0.125, 0.125, -0.125, -0.125, 0.125, 0.125, -0.125, -0.125, -0.125, -0.125, 0.125, -0.125, 0.125, 0.125, 0.125, 0.125, -0.125, -0.125, 0.125, -0.125, -0.125, 0.125, 0.125, 0.125, 0.125, -0.125, -0.125, 0.125, -0.125, -0.125, 0.125, 0.125, 0.125, -0.125, 0.125, 0.125, 0.125, 0.125, -0.125, 0.125, -0.125, 0.125, -0.125, 0.125, -0.125, 0.125, 0.125, 0.125, 0.125, 0.125, 0.125, -0.125, 0.125, 0.125, 0.125, -0.125, -0.125, 0.125, -0.125, -0.125, 0.125, 0.125, -0.125, 0.125, 0.125, -0.125, -0.125, -0.125, -0.125, -0.125, -0.125, 0.125, -0.125, -0.125, 0.125, -0.125, 0.125, 0.125, 0.125, -0.125, -0.125, -0.125, -0.125, -0.125, -0.125, 0.125, -0.125, -0.125, 0.125, 0.125, -0.125, 0.125, -0.125, 0.125, -0.125, -0.125, 0.125, 0.125, -0.125, -0.125, -0.125, 0.125, -0.125, 0.125, 0.125, -0.125, -0.125, -0.125, -0.125, 0.125, -0.125, 0.125, 0.125, -0.125, -0.125, -0.125, 0.125, 0.125, 0.125, -0.125, -0.125, 0.125, 0.125, 0.125, 0.125, -0.125, 0.125, -0.125, -0.125, 0.125, 0.125, -0.125, -0.125, -0.125, -0.125, -0.125, -0.125, 0.125, -0.125, -0.125, 0.125, -0.125, -0.125, 0.125, 0.125, -0.125, 0.125, 0.125, 0.125, 0.125, -0.125, -0.125, 0.125, 0.125, 0.125, -0.125, 0.125, 0.125, 0.125, -0.125, 0.125, 0.125, 0.125, -0.125, 0.125, 0.125, 0.125, 0.125, 0.125, -0.125, -0.125, -0.125, -0.125, 0.125, 0.125, -0.125, 0.125, 0.125, -0.125, -0.125, -0.125, 0.125, 0.125, 0.125, 0.125, -0.125, -0.125, 0.125, -0.125, -0.125, 0.125, 0.125, -0.125, -0.125, 0.125, -0.125, 0.125, -0.125, 0.125, -0.125, -0.125, -0.125, -0.125, -0.125, 0.125, -0.125, -0.125, 0.125, 0.125, 0.125, -0.125, 0.125, -0.125, 0.125, 0.125, -0.125, -0.125, 0.125, -0.125, 0.125, -0.125, -0.125, 0.125, 0.125, -0.125, -0.125, 0.125, -0.125, -0.125, -0.125, -0.125, -0.125, 0.125, -0.125, -0.125, -0.125, -0.125, 0.125, -0.125, 0.125, -0.125, 0.125, 0.125, -0.125, 0.125, -0.125, -0.125, -0.125, -0.125, -0.125, -0.125, -0.125, -0.125, -0.125, -0.125, 0.125, 0.125, 0.125, 0.125, -0.125, 0.125, -0.125, -0.125, 0.125, -0.125, -0.125, -0.125, -0.125, -0.125, 0.125, 0.125, 0.125, 0.125, -0.125, 0.125, 0.125, -0.125, -0.125, 0.125, 0.125, 0.125, 0.125, -0.125, 0.125, -0.125, -0.125, 0.125, 0.125, -0.125, -0.125, -0.125, -0.125, 0.125, -0.125, -0.125, 0.125, 0.125, -0.125, 0.125, -0.125, -0.125, 0.125, 0.125, -0.125, -0.125, -0.125, 0.125, -0.125, -0.125, 0.125, 0.125, 0.125, -0.125, -0.125, -0.125, -0.125, -0.125, -0.125, 0.125, -0.125, -0.125, -0.125, -0.125, -0.125, -0.125, 0.125, 0.125, 0.125, 0.125, 0.125, 0.125, -0.125, -0.125, 0.125, 0.125, -0.125, -0.125, -0.125, 0.125, -0.125, -0.125, -0.125, -0.125, -0.125, -0.125, -0.125, -0.125, 0.125, 0.125, -0.125, -0.125, 0.125, -0.125, -0.125, -0.125, 0.125, 0.125, -0.125, 0.125, -0.125, 0.125, 0.125, -0.125, 0.125, -0.125, 0.125, 0.125, -0.125, -0.125, -0.125, 0.125, 0.125, 0.125, 0.125, -0.125, -0.125, -0.125, -0.125, 0.125, -0.125, 0.125, 0.125, 0.125, 0.125, 0.125, -0.125, -0.125, -0.125, 0.125, 0.125, 0.125, 0.125, 0.125, -0.125, -0.125, -0.125, -0.125, 0.125, -0.125, 0.125, -0.125, 0.125, -0.125, -0.125, 0.125, 0.125, -0.125, -0.125, -0.125, 0.125, 0.125, -0.125, 0.125, 0.125, -0.125, -0.125, 0.125, 0.125, 0.125, -0.125, 0.125, 0.125, 0.125, 0.125, 0.125, 0.125, -0.125, 0.125, 0.125, -0.125, 0.125, -0.125, 0.125, -0.125, -0.125, 0.125, -0.125, 0.125, -0.125, 0.125, 0.125, -0.125, -0.125, -0.125, 0.125, 0.125, -0.125, -0.125, 0.125, 0.125, -0.125, 0.125, -0.125, 0.125, -0.125, -0.125, 0.125, -0.125, 0.125, -0.125, -0.125, -0.125, 0.125, -0.125, 0.125, -0.125, 0.125, 0.125, 0.125, -0.125, 0.125, 0.125, -0.125, -0.125, -0.125, -0.125, -0.125, -0.125, 0.125, 0.125, -0.125, 0.125, 0.125, -0.125, -0.125, -0.125, 0.125, -0.125, 0.125, -0.125, 0.125, 0.125, 0.125, 0.125, -0.125, -0.125, -0.125, -0.125, 0.125, 0.125, 0.125, 0.125, 0.125, -0.125, 0.125, 0.125, 0.125, -0.125, 0.125, 0.125, 0.125, 0.125, 0.125, 0.125, -0.125, 0.125, -0.125, 0.125, 0.125, -0.125, -0.125, 0.125, -0.125, -0.125, 0.125, -0.125, 0.125, -0.125, -0.125, 0.125, 0.125, -0.125, 0.125, 0.125, 0.125, 0.125, -0.125, 0.125, -0.125, 0.125, 0.125, 0.125, -0.125, -0.125, 0.125, 0.125, 0.125, 0.125, 0.125, 0.125, 0.125, -0.125, -0.125, 0.125, 0.125, 0.125, -0.125, 0.125, -0.125, -0.125, -0.125, 0.125, -0.125, 0.125, -0.125, 0.125, -0.125, -0.125, -0.125, -0.125, -0.125, 0.125, 0.125, 0.125, 0.125, -0.125, 0.125, 0.125, 0.125, -0.125, 0.125, -0.125, 0.125, 0.125, 0.125, -0.125, 0.125, 0.125, -0.125, -0.125, 0.125, 0.125, 0.125, -0.125, -0.125, -0.125, 0.125, -0.125, -0.125, 0.125, -0.125, -0.125, -0.125, -0.125, -0.125, -0.125, 0.125, 0.125, 0.125, 0.125, 0.125, 0.125, -0.125, -0.125, -0.125, 0.125, -0.125, -0.125, -0.125, 0.125, -0.125, -0.125, -0.125, 0.125, 0.125, 0.125, -0.125, -0.125, 0.125, 0.125, 0.125, -0.125, 0.125, -0.125, -0.125, 0.125, -0.125, -0.125, -0.125, -0.125, -0.125, -0.125, -0.125, -0.125, 0.125, -0.125, -0.125, -0.125, -0.125, -0.125, 0.125, -0.125, 0.125, 0.125, -0.125, 0.125, -0.125, -0.125, 0.125, 0.125, 0.125, -0.125, -0.125, -0.125, -0.125, 0.125, -0.125, -0.125, 0.125, 0.125, 0.125, -0.125, 0.125, 0.125, 0.125, -0.125, -0.125, -0.125, 0.125, 0.125, 0.125, 0.125, 0.125, 0.125, -0.125, -0.125, -0.125, -0.125, -0.125, -0.125, 0.125, 0.125, 0.125, 0.125, -0.125, -0.125, 0.125, 0.125, -0.125, 0.125, -0.125, -0.125, 0.125, 0.125, 0.125, 0.125, 0.125, -0.125, -0.125, -0.125, 0.125, 0.125, -0.125, 0.125, 0.125, -0.125, 0.125, -0.125, -0.125, 0.125, -0.125, -0.125, -0.125, -0.125, -0.125, -0.125, 0.125, -0.125, 0.125, -0.125, -0.125, 0.125, -0.125, 0.125, -0.125, 0.125, 0.125, -0.125, 0.125, 0.125, -0.125, -0.125, -0.125, -0.125, 0.125, 0.125, -0.125, -0.125, 0.125, 0.125, 0.125, 0.125, -0.125, -0.125, 0.125, 0.125, 0.125, -0.125, 0.125, 0.125, -0.125, -0.125, -0.125, -0.125, -0.125, -0.125, 0.125, 0.125, -0.125, -0.125, -0.125, 0.125, -0.125, -0.125, 0.125, 0.125, 0.125, -0.125, 0.125, -0.125, 0.125, 0.125, 0.125, -0.125, -0.125, 0.125, 0.125, 0.125, 0.125, -0.125, 0.125, -0.125, 0.125, 0.125, 0.125, -0.125, -0.125, -0.125, 0.125, -0.125, 0.125, -0.125, 0.125, 0.125, -0.125, -0.125, 0.125, 0.125, -0.125, -0.125, 0.125, 0.125, 0.125, 0.125, 0.125, -0.125, 0.125, -0.125, -0.125, 0.125, -0.125, -0.125, -0.125, 0.125, -0.125, -0.125, -0.125, 0.125, 0.125, 0.125, -0.125, 0.125, -0.125, 0.125, -0.125, -0.125, 0.125, -0.125, -0.125, 0.125, -0.125, 0.125, -0.125, -0.125, -0.125, 0.125, 0.125, 0.125, 0.125, -0.125, -0.125, -0.125, -0.125, -0.125, -0.125, 0.125, 0.125, 0.125, -0.125, -0.125, 0.125, 0.125, -0.125, -0.125, 0.125, -0.125, -0.125, 0.125, 0.125, 0.125, 0.125, -0.125, -0.125, 0.125, -0.125, 0.125, -0.125, -0.125, -0.125, 0.125, -0.125, -0.125, -0.125, 0.125, -0.125, -0.125, 0.125, 0.125, -0.125, -0.125, 0.125, 0.125, -0.125, -0.125, 0.125, -0.125, 0.125, 0.125, 0.125, 0.125, 0.125, -0.125, -0.125, -0.125, -0.125, -0.125, 0.125, 0.125, 0.125, -0.125, 0.125, -0.125, -0.125, -0.125, -0.125, -0.125, 0.125, -0.125, 0.125, 0.125, 0.125, -0.125, 0.125, 0.125, 0.125, -0.125, 0.125, -0.125, -0.125, 0.125, -0.125, -0.125, 0.125, 0.125, 0.125, -0.125, 0.125, -0.125, -0.125, 0.125, 0.125, 0.125, -0.125, -0.125, -0.125, 0.125, -0.125, 0.125, 0.125, 0.125, 0.125, 0.125, -0.125, 0.125, 0.125, 0.125, 0.125, -0.125, -0.125, 0.125, -0.125, 0.125, 0.125, -0.125, 0.125, 0.125, -0.125, -0.125, 0.125, -0.125, -0.125, 0.125, -0.125, 0.125, -0.125, -0.125, -0.125, -0.125, -0.125, 0.125, -0.125, -0.125, -0.125, 0.125, 0.125, -0.125, -0.125, 0.125, -0.125, 0.125, 0.125, 0.125, 0.125, 0.125, 0.125, 0.125, -0.125, -0.125, 0.125, 0.125, -0.125, -0.125, 0.125, -0.125, 0.125, -0.125, -0.125, -0.125, -0.125, -0.125, -0.125, 0.125, -0.125, 0.125, -0.125, -0.125, -0.125, 0.125, 0.125, -0.125, -0.125, -0.125, 0.125, -0.125, -0.125, -0.125, -0.125, 0.125, -0.125, 0.125, 0.125, 0.125, 0.125, 0.125, -0.125, 0.125, 0.125, -0.125, -0.125, -0.125, 0.125, 0.125, 0.125, 0.125, 0.125, -0.125, 0.125, -0.125, 0.125, 0.125, 0.125, -0.125, -0.125, 0.125, -0.125, -0.125, -0.125, 0.125, 0.125, 0.125, 0.125, -0.125, -0.125, 0.125, -0.125, 0.125, -0.125, -0.125, 0.125, 0.125, -0.125, -0.125, -0.125, -0.125, 0.125, -0.125, 0.125, -0.125, -0.125, -0.125, -0.125, 0.125, -0.125, 0.125, -0.125, 0.125, -0.125, -0.125, 0.125, 0.125, 0.125, -0.125, -0.125, 0.125, -0.125, 0.125, 0.125, 0.125, -0.125, 0.125, -0.125, -0.125, 0.125, 0.125, 0.125, -0.125, -0.125, -0.125, -0.125, 0.125, -0.125, 0.125, -0.125, -0.125, -0.125, 0.125, -0.125, 0.125, -0.125, -0.125, -0.125, -0.125, 0.125, -0.125, 0.125, -0.125, 0.125, 0.125, -0.125, 0.125, -0.125, 0.125, -0.125, 0.125, -0.125, -0.125, 0.125, 0.125, 0.125, 0.125, 0.125, -0.125, 0.125, 0.125, -0.125, -0.125, 0.125, 0.125, 0.125, 0.125, -0.125, -0.125, 0.125, 0.125, -0.125, -0.125, -0.125, -0.125, -0.125, 0.125, -0.125, -0.125, 0.125, 0.125, 0.125, -0.125, 0.125, 0.125, -0.125, 0.125, -0.125, -0.125, 0.125, 0.125, 0.125, 0.125, -0.125, 0.125, 0.125, -0.125, 0.125, -0.125, -0.125, 0.125, -0.125, -0.125, 0.125, -0.125, 0.125, 0.125, -0.125, -0.125, -0.125, 0.125, 0.125, -0.125, 0.125, -0.125, -0.125, -0.125, -0.125, 0.125, -0.125, 0.125, -0.125, 0.125, -0.125, 0.125, -0.125, 0.125, 0.125, 0.125, -0.125, 0.125, 0.125, -0.125, 0.125, -0.125, -0.125, 0.125, -0.125, -0.125, -0.125, 0.125, -0.125, -0.125, -0.125, -0.125, 0.125, -0.125, -0.125, -0.125, 0.125, 0.125, 0.125, -0.125, -0.125, -0.125, 0.125, -0.125, 0.125, -0.125, -0.125, 0.125, 0.125, -0.125, 0.125, -0.125, 0.125, 0.125, 0.125, 0.125, -0.125, -0.125, 0.125, -0.125, 0.125, 0.125, -0.125, 0.125, -0.125, 0.125, 0.125, -0.125, 0.125, -0.125, 0.125, -0.125, -0.125, 0.125, -0.125, 0.125, 0.125, 0.125, 0.125, 0.125, -0.125, -0.125, -0.125, -0.125, -0.125, -0.125, 0.125, 0.125, 0.125, -0.125, -0.125, 0.125, 0.125, 0.125, 0.125, 0.125, 0.125, -0.125, -0.125, 0.125, 0.125, -0.125, -0.125, -0.125, 0.125, -0.125, -0.125, -0.125, -0.125, 0.125, -0.125, -0.125, -0.125, 0.125, -0.125, 0.125, 0.125, 0.125, -0.125, 0.125, 0.125, 0.125, 0.125, -0.125, 0.125, 0.125, 0.125, -0.125, 0.125, 0.125, -0.125, -0.125, -0.125, 0.125, -0.125, 0.125, 0.125, 0.125, -0.125, 0.125, -0.125, -0.125, -0.125, 0.125, -0.125, 0.125, 0.125, -0.125, -0.125, -0.125, 0.125, -0.125, -0.125, 0.125, -0.125, 0.125, 0.125, 0.125, 0.125, 0.125, 0.125, 0.125, 0.125, -0.125, 0.125, -0.125, 0.125, 0.125, 0.125, -0.125, 0.125, -0.125, 0.125, -0.125, 0.125, 0.125, -0.125, -0.125, 0.125, -0.125, 0.125, -0.125, -0.125, -0.125, 0.125, -0.125, -0.125, 0.125, 0.125, 0.125, 0.125, -0.125, 0.125, 0.125, -0.125, 0.125, -0.125, 0.125, -0.125, 0.125, 0.125, 0.125, -0.125, -0.125, -0.125, -0.125, -0.125, -0.125, 0.125, -0.125, 0.125, -0.125, -0.125, -0.125, 0.125, -0.125, -0.125, -0.125, 0.125, -0.125, -0.125, 0.125, -0.125, -0.125, -0.125, -0.125, -0.125, 0.125, -0.125, 0.125, -0.125, -0.125, -0.125, 0.125, -0.125, 0.125, 0.125, 0.125, 0.125, 0.125, 0.125, -0.125, 0.125, -0.125, 0.125, 0.125, 0.125, -0.125, 0.125, 0.125, 0.125, 0.125, -0.125, -0.125, -0.125, 0.125, 0.125, 0.125, 0.125, 0.125, -0.125, 0.125, 0.125, 0.125, -0.125, 0.125, 0.125, 0.125, -0.125, -0.125, 0.125, 0.125, -0.125, 0.125, -0.125, 0.125, 0.125, 0.125, -0.125, 0.125, -0.125, -0.125, 0.125, -0.125, 0.125, 0.125, -0.125, -0.125, 0.125, -0.125, -0.125, -0.125, 0.125, 0.125, 0.125, -0.125, -0.125, -0.125, 0.125, -0.125, -0.125, 0.125, -0.125, -0.125, 0.125, 0.125, -0.125, 0.125, 0.125, 0.125, 0.125, 0.125, 0.125, -0.125, -0.125, 0.125, -0.125, -0.125, 0.125, -0.125, 0.125, -0.125, 0.125, -0.125, 0.125, -0.125, -0.125, 0.125, 0.125, 0.125, -0.125, -0.125, 0.125, -0.125, -0.125, 0.125, -0.125, -0.125, 0.125, 0.125, 0.125, 0.125, -0.125, 0.125, -0.125, 0.125, 0.125, 0.125, -0.125, 0.125, 0.125, -0.125, -0.125, 0.125, -0.125, -0.125, 0.125, -0.125, -0.125, 0.125, -0.125, 0.125, -0.125, 0.125, -0.125, 0.125, 0.125, -0.125, -0.125, -0.125, 0.125, -0.125, 0.125, 0.125, -0.125, -0.125, -0.125, -0.125, 0.125, 0.125, -0.125, 0.125, -0.125, 0.125, -0.125, -0.125, -0.125, 0.125, -0.125, -0.125, 0.125, -0.125, -0.125, 0.125, 0.125, -0.125, 0.125, -0.125, -0.125, 0.125, 0.125, -0.125, 0.125, 0.125, 0.125, 0.125, -0.125, 0.125, -0.125, 0.125, 0.125, 0.125, 0.125, 0.125, -0.125, -0.125, 0.125, 0.125, -0.125, 0.125, 0.125, -0.125, -0.125, -0.125, 0.125, 0.125, 0.125, 0.125, 0.125, 0.125, 0.125, 0.125, -0.125, -0.125, -0.125, -0.125, 0.125, -0.125, -0.125, -0.125, 0.125, -0.125, 0.125, 0.125, -0.125, -0.125, -0.125, 0.125, -0.125, -0.125, 0.125, 0.125, 0.125, 0.125, -0.125, -0.125, 0.125, -0.125, -0.125, 0.125, 0.125, 0.125, 0.125, 0.125, -0.125, 0.125, 0.125, 0.125, 0.125, -0.125, -0.125, -0.125, 0.125, -0.125, -0.125, -0.125, 0.125, 0.125, 0.125, 0.125, -0.125, 0.125, -0.125, -0.125, -0.125, 0.125, 0.125, -0.125, 0.125, -0.125, 0.125, 0.125, -0.125, 0.125, -0.125, -0.125, -0.125, -0.125, 0.125, 0.125, -0.125, 0.125, -0.125, -0.125, -0.125, -0.125, 0.125, 0.125, -0.125, -0.125, -0.125, 0.125, 0.125, 0.125, 0.125, -0.125, 0.125, 0.125, 0.125, 0.125, -0.125, 0.125, 0.125, 0.125, -0.125, 0.125, -0.125, 0.125, -0.125, -0.125, 0.125, -0.125, -0.125, 0.125, -0.125, -0.125, 0.125, 0.125, 0.125, 0.125, -0.125, -0.125, 0.125, -0.125, -0.125, 0.125, 0.125, 0.125, -0.125, -0.125, -0.125, 0.125, -0.125, -0.125, 0.125, 0.125, -0.125, -0.125, 0.125, -0.125, 0.125, -0.125, 0.125, -0.125, -0.125, -0.125, -0.125, -0.125, -0.125, -0.125, -0.125, 0.125, 0.125, 0.125, -0.125, 0.125, -0.125, -0.125, -0.125, -0.125, -0.125, -0.125, -0.125, -0.125, -0.125, -0.125, 0.125, -0.125, -0.125, -0.125, 0.125, 0.125, -0.125, -0.125, -0.125, 0.125, -0.125, -0.125, 0.125, 0.125, 0.125, 0.125, -0.125, -0.125, 0.125, -0.125, -0.125, 0.125, -0.125, -0.125, 0.125, -0.125, 0.125, -0.125, 0.125, -0.125, 0.125, -0.125, 0.125, -0.125, -0.125, 0.125, 0.125, 0.125, 0.125, 0.125, -0.125, 0.125, -0.125, -0.125, 0.125, -0.125, 0.125, -0.125, -0.125, -0.125, -0.125, -0.125, 0.125, -0.125, -0.125, 0.125, 0.125, -0.125, 0.125, 0.125, -0.125, -0.125, 0.125, 0.125, 0.125, -0.125, 0.125, -0.125, 0.125, -0.125, -0.125, -0.125, 0.125, 0.125, 0.125, 0.125, -0.125, 0.125, -0.125, 0.125, -0.125, -0.125, 0.125, -0.125, -0.125, -0.125, 0.125, 0.125, -0.125, 0.125, 0.125, 0.125, -0.125, -0.125, -0.125, 0.125, -0.125, 0.125, -0.125, 0.125, 0.125, -0.125, -0.125, -0.125, 0.125, -0.125, -0.125, -0.125, 0.125, 0.125, 0.125, -0.125, 0.125, -0.125, -0.125, -0.125, -0.125, -0.125, -0.125, 0.125, -0.125, 0.125, -0.125, -0.125, 0.125, 0.125, -0.125, -0.125, 0.125, -0.125, -0.125, -0.125, 0.125, 0.125, 0.125, 0.125, -0.125, -0.125, -0.125, -0.125, -0.125, 0.125, 0.125, 0.125, -0.125, -0.125, 0.125, 0.125, 0.125, -0.125, -0.125, 0.125, 0.125, 0.125, -0.125, -0.125, -0.125, -0.125, 0.125, 0.125, -0.125, 0.125, 0.125, 0.125, 0.125, -0.125, -0.125, -0.125, -0.125, 0.125, -0.125, -0.125, 0.125, 0.125, -0.125, 0.125, 0.125, -0.125, -0.125, -0.125, -0.125, -0.125, 0.125, -0.125, -0.125, -0.125, 0.125, -0.125, 0.125, 0.125, 0.125, -0.125, -0.125, -0.125, -0.125, 0.125, 0.125, 0.125, -0.125, 0.125, -0.125, -0.125, 0.125, -0.125, -0.125, -0.125, 0.125, -0.125, 0.125, 0.125, -0.125, -0.125, -0.125, 0.125, -0.125, 0.125, -0.125, 0.125, -0.125, 0.125, 0.125, 0.125, -0.125, 0.125, -0.125, 0.125, 0.125, -0.125, -0.125, 0.125, -0.125, -0.125, 0.125, -0.125, 0.125, 0.125, -0.125, 0.125, 0.125, 0.125, -0.125, -0.125, -0.125, -0.125, 0.125, 0.125, 0.125, -0.125, -0.125, 0.125, -0.125, 0.125, -0.125, -0.125, -0.125, -0.125, -0.125, -0.125, 0.125, -0.125, -0.125, 0.125, -0.125, -0.125, -0.125, -0.125, 0.125, -0.125, -0.125, -0.125, -0.125, -0.125, -0.125, 0.125, -0.125, 0.125, 0.125, 0.125, -0.125, -0.125, 0.125, 0.125, -0.125, -0.125, -0.125, 0.125, 0.125, -0.125, -0.125, 0.125, 0.125, -0.125, -0.125, 0.125, 0.125, -0.125, -0.125, 0.125, 0.125, -0.125, 0.125, -0.125, 0.125, 0.125, -0.125, 0.125, -0.125, 0.125, -0.125, 0.125, -0.125, -0.125, 0.125, -0.125, 0.125, -0.125, 0.125, -0.125, 0.125, -0.125, 0.125, -0.125, -0.125, -0.125, -0.125, 0.125, 0.125, -0.125, 0.125, 0.125, 0.125, 0.125, 0.125, -0.125, -0.125, 0.125, -0.125, -0.125, 0.125, 0.125, 0.125, -0.125, 0.125, -0.125, 0.125, 0.125, -0.125, -0.125, 0.125, 0.125, 0.125, -0.125, 0.125, 0.125, 0.125, -0.125, -0.125, 0.125, -0.125, -0.125, -0.125, -0.125, 0.125, -0.125, -0.125, 0.125, 0.125, -0.125, 0.125, -0.125, -0.125, -0.125, 0.125, -0.125, -0.125, -0.125, 0.125, 0.125, -0.125, 0.125, -0.125, 0.125, 0.125, -0.125, 0.125, -0.125, 0.125, -0.125, -0.125, -0.125, 0.125, -0.125, -0.125, 0.125, -0.125, 0.125, 0.125, -0.125, -0.125, 0.125, 0.125, -0.125, -0.125, 0.125, 0.125, 0.125, 0.125, 0.125, 0.125, 0.125, 0.125, -0.125, -0.125, -0.125, 0.125, 0.125, 0.125, 0.125, 0.125, -0.125, 0.125, -0.125, -0.125, 0.125, 0.125, 0.125, -0.125, -0.125, -0.125, 0.125, -0.125, 0.125, 0.125, -0.125, -0.125, -0.125, 0.125, -0.125, -0.125, 0.125, 0.125, 0.125, 0.125, -0.125, 0.125, -0.125, -0.125, -0.125, 0.125, -0.125, -0.125, -0.125, 0.125, 0.125, -0.125, -0.125, 0.125, -0.125, 0.125, -0.125, 0.125, -0.125, -0.125, -0.125, 0.125, 0.125, -0.125, 0.125, -0.125, 0.125, -0.125, -0.125, 0.125, 0.125, -0.125, -0.125, -0.125, -0.125, 0.125, -0.125, 0.125, -0.125, 0.125, -0.125, 0.125, -0.125, -0.125, -0.125, -0.125, 0.125, -0.125, 0.125, 0.125, -0.125, 0.125, -0.125, -0.125, -0.125, -0.125, 0.125, 0.125, -0.125, -0.125, -0.125, 0.125, 0.125, -0.125, 0.125, -0.125, 0.125, 0.125, -0.125, -0.125, 0.125, -0.125, -0.125, -0.125, -0.125, 0.125, -0.125, -0.125, -0.125, -0.125, 0.125, 0.125, -0.125, 0.125, -0.125, -0.125, -0.125, -0.125, 0.125, 0.125, 0.125, 0.125, -0.125, 0.125, -0.125, -0.125, -0.125, 0.125, -0.125, -0.125, -0.125, 0.125, 0.125, -0.125, -0.125, 0.125, 0.125, -0.125, 0.125, -0.125, 0.125, -0.125, -0.125, 0.125, -0.125, 0.125, 0.125, -0.125, 0.125, -0.125, 0.125, 0.125, -0.125, 0.125, -0.125, 0.125, -0.125, 0.125, -0.125, 0.125, 0.125, -0.125, 0.125, 0.125, 0.125, 0.125, -0.125, 0.125, -0.125, 0.125, 0.125, -0.125, -0.125, -0.125, 0.125, -0.125, 0.125, 0.125, 0.125, 0.125, 0.125, 0.125, 0.125, 0.125, -0.125, 0.125, -0.125, -0.125, -0.125, 0.125, -0.125, 0.125, -0.125, 0.125, -0.125, 0.125, 0.125, -0.125, -0.125, -0.125, -0.125, 0.125, -0.125, -0.125, -0.125, 0.125, -0.125, 0.125, -0.125, -0.125, -0.125, -0.125, -0.125, -0.125, 0.125, -0.125, -0.125, 0.125, -0.125, -0.125, 0.125, -0.125, -0.125, 0.125, 0.125, -0.125, -0.125, -0.125, -0.125, 0.125, 0.125, 0.125, 0.125, 0.125, -0.125, 0.125, 0.125, 0.125, 0.125, -0.125, 0.125, -0.125, -0.125, 0.125, 0.125, 0.125, -0.125, 0.125, -0.125, 0.125, -0.125, -0.125, 0.125, -0.125, -0.125, 0.125, -0.125, -0.125, 0.125, 0.125, 0.125, 0.125, -0.125, -0.125, -0.125, -0.125, -0.125, -0.125, 0.125, -0.125, 0.125, 0.125, 0.125, -0.125, -0.125, -0.125, -0.125, -0.125, -0.125, -0.125, 0.125, -0.125, -0.125, 0.125, 0.125, 0.125, 0.125, 0.125, 0.125, 0.125, 0.125, -0.125, 0.125, -0.125, -0.125, 0.125, 0.125, -0.125, 0.125, -0.125, 0.125, 0.125, -0.125, -0.125, -0.125, 0.125, -0.125, -0.125, -0.125, -0.125, 0.125, 0.125, -0.125, -0.125, 0.125, 0.125, 0.125, 0.125, -0.125, -0.125, -0.125, -0.125, -0.125, 0.125, 0.125, -0.125, -0.125, -0.125, -0.125, -0.125, -0.125, -0.125, -0.125, 0.125, -0.125, -0.125, -0.125, 0.125, 0.125, 0.125, 0.125, 0.125, 0.125, 0.125, 0.125, 0.125, -0.125, 0.125, 0.125, -0.125, 0.125, 0.125, -0.125, 0.125, -0.125, -0.125, 0.125, -0.125, 0.125, 0.125, 0.125, 0.125, -0.125, 0.125, -0.125, -0.125, 0.125, 0.125, 0.125, -0.125, -0.125, -0.125, 0.125, -0.125, -0.125, 0.125, 0.125, -0.125, -0.125, 0.125, 0.125, 0.125, 0.125, 0.125, 0.125, 0.125, -0.125, -0.125, 0.125, -0.125, -0.125, 0.125, -0.125, -0.125, -0.125, -0.125, -0.125, -0.125, 0.125, 0.125, -0.125, -0.125, -0.125, 0.125, -0.125, 0.125, -0.125, 0.125, 0.125, 0.125, -0.125, 0.125, 0.125, -0.125, -0.125, 0.125, -0.125, 0.125, 0.125, 0.125, -0.125, 0.125, -0.125, 0.125, -0.125, 0.125, -0.125, -0.125, 0.125, -0.125, 0.125, 0.125, -0.125, -0.125, 0.125, 0.125, 0.125, -0.125, -0.125, -0.125, -0.125, -0.125, 0.125, 0.125, 0.125, -0.125, -0.125, -0.125, 0.125, -0.125, -0.125, 0.125, -0.125, 0.125, -0.125, -0.125, -0.125, 0.125, 0.125, -0.125, 0.125, -0.125, -0.125, 0.125, -0.125, 0.125, 0.125, -0.125, -0.125, -0.125, 0.125, -0.125, -0.125, -0.125, 0.125, -0.125, 0.125, 0.125, -0.125, -0.125, -0.125, 0.125, 0.125, -0.125, -0.125, -0.125, -0.125, 0.125, -0.125, -0.125, -0.125, -0.125, -0.125, 0.125, -0.125, 0.125, 0.125, -0.125, -0.125, -0.125, -0.125, -0.125, -0.125, 0.125, -0.125, 0.125, 0.125, 0.125, -0.125, 0.125, 0.125, 0.125, -0.125, 0.125, 0.125, 0.125, -0.125, -0.125, 0.125, 0.125, 0.125, 0.125, 0.125, 0.125, 0.125, -0.125, 0.125, -0.125, -0.125, 0.125, -0.125, 0.125, 0.125, 0.125, -0.125, -0.125, 0.125, -0.125, -0.125, 0.125, 0.125, -0.125, 0.125, -0.125, -0.125, -0.125, -0.125, -0.125, 0.125, -0.125, -0.125, 0.125, -0.125, -0.125, 0.125, 0.125, 0.125, -0.125, 0.125, 0.125, 0.125, 0.125, -0.125, -0.125, -0.125, 0.125, 0.125, 0.125, -0.125, 0.125, 0.125, -0.125, -0.125, 0.125, -0.125, -0.125, -0.125, -0.125, -0.125, -0.125, 0.125, 0.125, 0.125, 0.125, -0.125, -0.125, -0.125, 0.125, 0.125, -0.125, 0.125, 0.125, 0.125, -0.125, 0.125, -0.125, 0.125, 0.125, 0.125, -0.125, 0.125, 0.125, -0.125, 0.125, -0.125, 0.125, -0.125, 0.125, -0.125, 0.125, -0.125, -0.125, -0.125, 0.125, -0.125, 0.125, 0.125, -0.125, -0.125, 0.125, -0.125, -0.125, 0.125, 0.125, -0.125, -0.125, -0.125, -0.125, 0.125, 0.125, -0.125, -0.125, -0.125, -0.125, -0.125, -0.125, 0.125, -0.125, 0.125, -0.125, -0.125, -0.125, -0.125, -0.125, -0.125, 0.125, -0.125, 0.125, 0.125, 0.125, -0.125, -0.125, -0.125, 0.125, -0.125, -0.125, -0.125, -0.125, -0.125, 0.125, 0.125, -0.125, 0.125, 0.125, -0.125, 0.125, -0.125, -0.125, 0.125, -0.125, 0.125, 0.125, -0.125, -0.125, -0.125, 0.125, -0.125, -0.125, -0.125, 0.125, 0.125, -0.125, -0.125, -0.125, -0.125, -0.125, -0.125, 0.125, 0.125, 0.125, 0.125, -0.125, 0.125, 0.125, 0.125, -0.125, -0.125, 0.125, -0.125, 0.125, 0.125, -0.125, -0.125, -0.125, -0.125, 0.125, -0.125, 0.125, -0.125, 0.125, 0.125, 0.125, -0.125, -0.125, 0.125, -0.125, 0.125, -0.125, -0.125, -0.125, -0.125, 0.125, 0.125, -0.125, -0.125, 0.125, -0.125, 0.125, -0.125, -0.125, -0.125, 0.125, -0.125, -0.125, -0.125, 0.125, -0.125, -0.125, 0.125, -0.125, 0.125, 0.125, -0.125, 0.125, -0.125, 0.125, 0.125, -0.125, 0.125, 0.125, -0.125, -0.125, 0.125, 0.125, -0.125, -0.125, -0.125, 0.125, 0.125, 0.125, 0.125, 0.125, 0.125, -0.125, 0.125, 0.125, -0.125, -0.125, -0.125, -0.125, 0.125, 0.125, 0.125, -0.125, -0.125, -0.125, -0.125, 0.125, 0.125, 0.125, 0.125, 0.125, -0.125, -0.125, 0.125, 0.125, 0.125, 0.125, 0.125, -0.125, 0.125, 0.125, -0.125, -0.125, -0.125, -0.125, -0.125, 0.125, -0.125, 0.125, -0.125, -0.125, 0.125, -0.125, -0.125, -0.125, -0.125, -0.125, -0.125, 0.125, -0.125, 0.125, 0.125, -0.125, 0.125, -0.125, 0.125, 0.125, 0.125, 0.125, 0.125, -0.125, 0.125, -0.125, 0.125, -0.125, -0.125, 0.125, 0.125, 0.125, -0.125, -0.125, -0.125, -0.125, 0.125, 0.125, -0.125, 0.125, -0.125, 0.125, 0.125, 0.125, -0.125, -0.125, 0.125, 0.125, 0.125, 0.125, 0.125, -0.125, -0.125, -0.125, 0.125, 0.125, 0.125, -0.125, -0.125, 0.125, 0.125, -0.125, 0.125, -0.125, -0.125, 0.125, -0.125, -0.125, -0.125, -0.125, 0.125, 0.125, 0.125, -0.125, 0.125, 0.125, -0.125, 0.125, 0.125, 0.125, -0.125, 0.125, -0.125, 0.125, 0.125, 0.125, 0.125, 0.125, 0.125, -0.125, 0.125, -0.125, 0.125, -0.125, 0.125, 0.125, 0.125, 0.125, 0.125, 0.125, -0.125, 0.125, -0.125, -0.125, 0.125, -0.125, 0.125, 0.125, 0.125, 0.125, 0.125, -0.125, 0.125, -0.125, -0.125, 0.125, -0.125, -0.125, -0.125, 0.125, -0.125, -0.125, -0.125, -0.125, -0.125, -0.125, -0.125, -0.125, 0.125, 0.125, 0.125, 0.125, -0.125, 0.125, -0.125, -0.125, -0.125, -0.125, -0.125, -0.125, 0.125, 0.125, 0.125, -0.125, 0.125, 0.125, -0.125, 0.125, -0.125, 0.125, 0.125, 0.125, 0.125, -0.125, 0.125, -0.125, 0.125, -0.125, -0.125, 0.125, -0.125, 0.125, 0.125, -0.125, 0.125, 0.125, 0.125, 0.125, 0.125, -0.125, 0.125, -0.125, -0.125, 0.125, 0.125, -0.125, -0.125, -0.125, 0.125, 0.125, -0.125, -0.125, 0.125, -0.125, -0.125, 0.125, 0.125, 0.125, -0.125, 0.125, -0.125, -0.125, 0.125, -0.125, 0.125, -0.125, 0.125, 0.125, 0.125, 0.125, -0.125, 0.125, -0.125, -0.125, -0.125, 0.125, -0.125, 0.125, 0.125, 0.125, -0.125, -0.125, -0.125, 0.125, 0.125, 0.125, 0.125, 0.125, 0.125, -0.125, -0.125, 0.125, -0.125, -0.125, 0.125, -0.125, 0.125, -0.125, -0.125, -0.125, 0.125, -0.125, -0.125, 0.125, -0.125, -0.125, 0.125, 0.125, 0.125, 0.125, -0.125, 0.125, 0.125, 0.125, 0.125, -0.125, -0.125, 0.125, 0.125, 0.125, 0.125, 0.125, 0.125, -0.125, 0.125, 0.125, 0.125, -0.125, -0.125, -0.125, -0.125, -0.125, 0.125, -0.125, 0.125, 0.125, -0.125, -0.125, -0.125, -0.125, 0.125, 0.125, 0.125, 0.125, -0.125, -0.125, 0.125, -0.125, 0.125, -0.125, 0.125, -0.125, 0.125, -0.125, 0.125, 0.125, 0.125, 0.125, -0.125, -0.125, -0.125, -0.125, -0.125, 0.125, -0.125, -0.125, -0.125, 0.125, 0.125, -0.125, -0.125, 0.125, 0.125, 0.125, 0.125, -0.125, 0.125, -0.125, 0.125, 0.125, -0.125, 0.125, -0.125, -0.125, -0.125, -0.125, -0.125, -0.125, 0.125, -0.125, 0.125, -0.125, -0.125, -0.125, -0.125, -0.125, -0.125, -0.125, 0.125, 0.125, 0.125, 0.125, 0.125, -0.125, 0.125, 0.125, -0.125, 0.125, -0.125, -0.125, -0.125, 0.125, 0.125, -0.125, 0.125, 0.125, -0.125, 0.125, -0.125, -0.125, -0.125, 0.125, 0.125, 0.125, 0.125, 0.125, -0.125, -0.125, -0.125, -0.125, 0.125, 0.125, 0.125, 0.125, -0.125, -0.125, -0.125, -0.125, -0.125, 0.125, 0.125, 0.125, 0.125, -0.125, -0.125, 0.125, 0.125, -0.125, 0.125, -0.125, -0.125, -0.125, 0.125, -0.125, -0.125, -0.125, 0.125, -0.125, 0.125, 0.125, 0.125, 0.125, -0.125, 0.125, -0.125, -0.125, -0.125, 0.125, 0.125, -0.125, -0.125, -0.125, -0.125, -0.125, 0.125, 0.125, -0.125, -0.125, -0.125, 0.125, -0.125, -0.125, 0.125, 0.125, 0.125, -0.125, 0.125, -0.125, -0.125, -0.125, 0.125, -0.125, 0.125, 0.125, -0.125, 0.125, -0.125, 0.125, -0.125, -0.125, 0.125, -0.125, -0.125, -0.125, 0.125, -0.125, -0.125, -0.125, 0.125, 0.125, -0.125, -0.125, -0.125, 0.125, -0.125, -0.125, 0.125, 0.125, -0.125, 0.125, -0.125, 0.125, 0.125, -0.125, 0.125, 0.125, -0.125, -0.125, -0.125, 0.125, 0.125, -0.125, 0.125, 0.125, -0.125, -0.125, 0.125, 0.125, 0.125, 0.125, -0.125, -0.125, 0.125, -0.125, 0.125, -0.125, -0.125, -0.125, -0.125, -0.125, -0.125, 0.125, -0.125, -0.125, -0.125, 0.125, 0.125, 0.125, -0.125, 0.125, 0.125, -0.125, -0.125, -0.125, -0.125, 0.125, -0.125, 0.125, 0.125, 0.125, 0.125, 0.125, 0.125, 0.125, 0.125, -0.125, -0.125, -0.125, 0.125, 0.125, 0.125, -0.125, -0.125, -0.125, -0.125, 0.125, 0.125, -0.125, -0.125, -0.125, -0.125, 0.125, -0.125, 0.125, -0.125, -0.125, 0.125, -0.125, 0.125, 0.125, 0.125, -0.125, -0.125, -0.125, 0.125, 0.125, -0.125, -0.125, 0.125, 0.125, 0.125, -0.125, -0.125, -0.125, -0.125, 0.125, -0.125, -0.125, 0.125, 0.125, -0.125, -0.125, -0.125, 0.125, -0.125, -0.125, -0.125, 0.125, -0.125, 0.125, 0.125, 0.125, 0.125, 0.125, -0.125, 0.125, 0.125, 0.125, -0.125, 0.125, -0.125, -0.125, -0.125, 0.125, -0.125, 0.125, 0.125, 0.125, 0.125, 0.125, -0.125, 0.125, 0.125, -0.125, -0.125, -0.125, -0.125, 0.125, 0.125, 0.125, 0.125, -0.125, -0.125, 0.125, 0.125, -0.125, -0.125, -0.125, 0.125, 0.125, -0.125, -0.125, -0.125, -0.125, 0.125, 0.125, -0.125, -0.125, -0.125, 0.125, 0.125, 0.125, -0.125, -0.125, -0.125, 0.125, -0.125, 0.125, -0.125, 0.125, 0.125, 0.125, 0.125, -0.125, 0.125, 0.125, -0.125, -0.125, 0.125, -0.125, 0.125, 0.125, 0.125, -0.125, 0.125, 0.125, 0.125, -0.125, 0.125, -0.125, -0.125, -0.125, 0.125, -0.125, 0.125, 0.125, -0.125, 0.125, 0.125, -0.125, -0.125, -0.125, 0.125, 0.125, -0.125, 0.125, -0.125, -0.125, 0.125, -0.125, -0.125, -0.125, 0.125, -0.125, -0.125, -0.125, -0.125, -0.125, -0.125, 0.125, -0.125, -0.125, 0.125, 0.125, -0.125, -0.125, 0.125, 0.125, 0.125, -0.125, 0.125, 0.125, 0.125, 0.125, -0.125, -0.125, -0.125, -0.125, 0.125, 0.125, -0.125, -0.125, 0.125, -0.125, 0.125, 0.125, 0.125, 0.125, 0.125, -0.125, 0.125, 0.125, -0.125, -0.125, 0.125, -0.125, -0.125, 0.125, -0.125, -0.125, 0.125, 0.125, -0.125, 0.125, -0.125, 0.125, -0.125, 0.125, 0.125, -0.125, -0.125, -0.125, 0.125, 0.125, -0.125, -0.125, -0.125, 0.125, -0.125, 0.125, -0.125, 0.125, -0.125, -0.125, -0.125, 0.125, 0.125, -0.125, -0.125, 0.125, -0.125, -0.125, 0.125, -0.125, -0.125, 0.125, -0.125, -0.125, -0.125, -0.125, -0.125, 0.125, 0.125, 0.125, 0.125, 0.125, -0.125, -0.125, 0.125, -0.125, 0.125, -0.125, 0.125, -0.125, 0.125, 0.125, -0.125, 0.125, -0.125, -0.125, -0.125, -0.125, -0.125, 0.125, 0.125, -0.125, -0.125, -0.125, 0.125, -0.125, -0.125, -0.125, -0.125, -0.125, 0.125, 0.125, 0.125, -0.125, 0.125, -0.125, -0.125, 0.125, 0.125, 0.125, 0.125, -0.125, -0.125, -0.125, -0.125, -0.125, -0.125, -0.125, 0.125, -0.125, -0.125, -0.125, -0.125, -0.125, 0.125, 0.125, 0.125, -0.125, 0.125, -0.125, -0.125, -0.125, 0.125, 0.125, -0.125, -0.125, 0.125, 0.125, 0.125, 0.125, 0.125, -0.125, -0.125, 0.125, -0.125, -0.125, -0.125, 0.125, 0.125, 0.125, -0.125, 0.125, -0.125, 0.125, -0.125, 0.125, -0.125, -0.125, -0.125, 0.125, -0.125, -0.125, 0.125, 0.125, -0.125, 0.125, -0.125, -0.125, -0.125, 0.125, -0.125, -0.125, 0.125, -0.125, -0.125, 0.125, -0.125, -0.125, 0.125, -0.125, 0.125, -0.125, 0.125, -0.125, -0.125, 0.125, -0.125, 0.125, 0.125, 0.125, 0.125, -0.125, 0.125, -0.125, 0.125, -0.125, 0.125, 0.125, -0.125, -0.125, -0.125, 0.125, -0.125, 0.125, -0.125, 0.125, 0.125, -0.125, 0.125, -0.125, 0.125, -0.125, -0.125, 0.125, -0.125, -0.125, 0.125, -0.125, -0.125, 0.125, 0.125, 0.125, -0.125, -0.125, -0.125, -0.125, 0.125, -0.125, 0.125, 0.125, 0.125, -0.125, -0.125, -0.125, 0.125, 0.125, 0.125, -0.125, -0.125, -0.125, -0.125, -0.125, 0.125, 0.125, -0.125, -0.125, -0.125, 0.125, 0.125, 0.125, 0.125, 0.125, -0.125, -0.125, -0.125, 0.125, -0.125, 0.125, 0.125, -0.125, -0.125, 0.125, 0.125, 0.125, -0.125, -0.125, 0.125, -0.125, 0.125, 0.125, 0.125, 0.125, 0.125, -0.125, -0.125, -0.125, -0.125, -0.125, 0.125, -0.125, 0.125, 0.125, -0.125, -0.125, -0.125, -0.125, 0.125, -0.125, -0.125, -0.125, -0.125, 0.125, -0.125, -0.125, 0.125, 0.125, 0.125, -0.125, 0.125, 0.125, -0.125, -0.125, -0.125, -0.125, 0.125, 0.125, 0.125, 0.125, -0.125, 0.125, -0.125, -0.125, -0.125, -0.125, 0.125, 0.125, -0.125, -0.125, 0.125, 0.125, 0.125, -0.125, 0.125, -0.125, -0.125, 0.125, 0.125, 0.125, -0.125, -0.125, -0.125, -0.125, -0.125, -0.125, 0.125, -0.125, -0.125, -0.125, -0.125, -0.125, 0.125, 0.125, 0.125, -0.125, 0.125, 0.125, -0.125, -0.125, -0.125, -0.125, -0.125, 0.125, -0.125, -0.125, 0.125, 0.125, 0.125, 0.125, 0.125, 0.125, 0.125, -0.125, 0.125, 0.125, -0.125, -0.125, -0.125, -0.125, 0.125, 0.125, -0.125, -0.125, 0.125, -0.125, 0.125, 0.125, -0.125, 0.125, 0.125, -0.125, -0.125, -0.125, 0.125, 0.125, 0.125, 0.125, 0.125, -0.125, -0.125, 0.125, -0.125, 0.125, 0.125, 0.125, 0.125, -0.125, -0.125, 0.125, -0.125, 0.125, -0.125, 0.125, -0.125, 0.125, -0.125, -0.125, -0.125, 0.125, -0.125, -0.125, -0.125, 0.125, -0.125, 0.125, -0.125, -0.125, -0.125, -0.125, -0.125, 0.125, 0.125, 0.125, -0.125, -0.125, 0.125, -0.125, 0.125, 0.125, 0.125, -0.125, -0.125, -0.125, 0.125, -0.125, -0.125, -0.125, -0.125, -0.125, 0.125, 0.125, 0.125, -0.125, -0.125, -0.125, 0.125, -0.125, -0.125, -0.125, -0.125, -0.125, -0.125, 0.125, 0.125, 0.125, 0.125, -0.125, -0.125, 0.125, 0.125, 0.125, 0.125, -0.125, 0.125, 0.125, -0.125, -0.125, -0.125, -0.125, 0.125, -0.125, -0.125, 0.125, 0.125, -0.125, -0.125, -0.125, 0.125, 0.125, 0.125, -0.125, -0.125, -0.125, 0.125, -0.125, 0.125, 0.125, -0.125, -0.125, -0.125, -0.125, 0.125, 0.125, 0.125, 0.125, 0.125, -0.125, -0.125, 0.125, -0.125, 0.125, 0.125, 0.125, 0.125, 0.125, -0.125, 0.125, -0.125, 0.125, 0.125, 0.125, -0.125, -0.125, 0.125, 0.125, -0.125, 0.125, -0.125, -0.125, 0.125, -0.125, 0.125, 0.125, 0.125, 0.125, 0.125, 0.125, -0.125, 0.125, 0.125, -0.125, -0.125, -0.125, -0.125, -0.125, 0.125, 0.125, 0.125, 0.125, 0.125, -0.125, -0.125, 0.125, 0.125, -0.125, -0.125, -0.125, -0.125, -0.125, 0.125, 0.125, 0.125, -0.125, -0.125, -0.125, 0.125, 0.125, -0.125, 0.125, -0.125, -0.125, -0.125, 0.125, -0.125, 0.125, -0.125, 0.125, 0.125, -0.125, -0.125, -0.125, 0.125, 0.125, -0.125, -0.125, 0.125, -0.125, 0.125, -0.125, 0.125, -0.125, -0.125, -0.125, 0.125, -0.125, -0.125, -0.125, -0.125, 0.125, 0.125, 0.125, 0.125, -0.125, 0.125, -0.125, -0.125, -0.125, -0.125, -0.125, 0.125, -0.125, -0.125, 0.125, 0.125, -0.125, 0.125, 0.125, -0.125, -0.125, 0.125, -0.125, 0.125, 0.125, -0.125, 0.125, -0.125, -0.125, -0.125, 0.125, 0.125, -0.125, 0.125, -0.125, 0.125, 0.125, 0.125, 0.125, 0.125, -0.125, 0.125, -0.125, -0.125, 0.125, -0.125, 0.125, -0.125, 0.125, -0.125, 0.125, 0.125, -0.125, 0.125, 0.125, 0.125, 0.125, -0.125, -0.125, 0.125, -0.125, -0.125, -0.125, -0.125, -0.125, -0.125, 0.125, -0.125, 0.125, -0.125, 0.125, 0.125, 0.125, 0.125, -0.125, -0.125, 0.125, -0.125, 0.125, -0.125, 0.125, -0.125, 0.125, 0.125, -0.125, -0.125, 0.125, 0.125, -0.125, 0.125, 0.125, -0.125, -0.125, -0.125, 0.125, 0.125, 0.125, 0.125, 0.125, 0.125, -0.125, 0.125, -0.125, 0.125, 0.125, 0.125, -0.125, -0.125, 0.125, 0.125, 0.125, -0.125, -0.125, -0.125, 0.125, 0.125, -0.125, 0.125, -0.125, -0.125, 0.125, 0.125, -0.125, -0.125, -0.125, 0.125, -0.125, 0.125, 0.125, -0.125, -0.125, -0.125, -0.125, 0.125, 0.125, 0.125, -0.125, -0.125, -0.125, -0.125, 0.125, -0.125, 0.125, 0.125, 0.125, -0.125, -0.125, -0.125, 0.125, -0.125, 0.125, 0.125, -0.125, -0.125, 0.125, 0.125, -0.125, 0.125, -0.125, 0.125, -0.125, -0.125, -0.125, 0.125, 0.125, -0.125, -0.125, -0.125, 0.125, 0.125, 0.125, 0.125, -0.125, 0.125, -0.125, -0.125, -0.125, 0.125, -0.125, 0.125, 0.125, -0.125, -0.125, -0.125, 0.125, 0.125, 0.125, -0.125, 0.125, 0.125, 0.125, -0.125, 0.125, 0.125, -0.125, -0.125, -0.125, -0.125, 0.125, -0.125, 0.125, -0.125, 0.125, 0.125, 0.125, -0.125, 0.125, -0.125, 0.125, -0.125, -0.125, 0.125, 0.125, 0.125, -0.125, 0.125, 0.125, 0.125, 0.125, -0.125, -0.125, 0.125, -0.125, 0.125, -0.125, 0.125, -0.125, 0.125, -0.125, -0.125, -0.125, -0.125, 