//Numpy array shape [128, 120]
//Min -0.125000000000
//Max 0.125000000000
//Number of zeros 0

#ifndef W9_H_
#define W9_H_

#ifndef __SYNTHESIS__
model_default_t w9[15360];
#else
model_default_t w9[15360] = {0.1250000000, 0.1250000000, 0.1250000000, -0.1250000000, 0.1250000000, -0.1250000000, 0.1250000000, 0.1250000000, 0.1250000000, 0.1250000000, -0.1250000000, 0.1250000000, 0.1250000000, 0.1250000000, -0.1250000000, -0.1250000000, 0.1250000000, 0.1250000000, 0.1250000000, -0.1250000000, -0.1250000000, -0.1250000000, 0.1250000000, 0.1250000000, 0.1250000000, -0.1250000000, 0.1250000000, -0.1250000000, -0.1250000000, -0.1250000000, -0.1250000000, 0.1250000000, 0.1250000000, -0.1250000000, -0.1250000000, 0.1250000000, -0.1250000000, -0.1250000000, 0.1250000000, 0.1250000000, -0.1250000000, -0.1250000000, -0.1250000000, 0.1250000000, -0.1250000000, -0.1250000000, -0.1250000000, 0.1250000000, 0.1250000000, -0.1250000000, 0.1250000000, -0.1250000000, 0.1250000000, 0.1250000000, -0.1250000000, 0.1250000000, -0.1250000000, 0.1250000000, -0.1250000000, 0.1250000000, -0.1250000000, 0.1250000000, 0.1250000000, -0.1250000000, -0.1250000000, -0.1250000000, 0.1250000000, 0.1250000000, 0.1250000000, -0.1250000000, 0.1250000000, -0.1250000000, 0.1250000000, -0.1250000000, 0.1250000000, -0.1250000000, 0.1250000000, 0.1250000000, 0.1250000000, -0.1250000000, 0.1250000000, -0.1250000000, -0.1250000000, -0.1250000000, -0.1250000000, 0.1250000000, 0.1250000000, 0.1250000000, -0.1250000000, -0.1250000000, 0.1250000000, -0.1250000000, -0.1250000000, -0.1250000000, -0.1250000000, 0.1250000000, -0.1250000000, -0.1250000000, 0.1250000000, 0.1250000000, 0.1250000000, -0.1250000000, 0.1250000000, 0.1250000000, -0.1250000000, 0.1250000000, -0.1250000000, -0.1250000000, 0.1250000000, -0.1250000000, -0.1250000000, -0.1250000000, 0.1250000000, -0.1250000000, 0.1250000000, -0.1250000000, 0.1250000000, -0.1250000000, -0.1250000000, 0.1250000000, 0.1250000000, 0.1250000000, 0.1250000000, -0.1250000000, 0.1250000000, -0.1250000000, 0.1250000000, 0.1250000000, -0.1250000000, 0.1250000000, -0.1250000000, -0.1250000000, 0.1250000000, -0.1250000000, -0.1250000000, -0.1250000000, 0.1250000000, -0.1250000000, -0.1250000000, -0.1250000000, -0.1250000000, 0.1250000000, -0.1250000000, 0.1250000000, 0.1250000000, 0.1250000000, 0.1250000000, -0.1250000000, 0.1250000000, -0.1250000000, -0.1250000000, -0.1250000000, 0.1250000000, -0.1250000000, -0.1250000000, 0.1250000000, -0.1250000000, 0.1250000000, -0.1250000000, 0.1250000000, -0.1250000000, 0.1250000000, -0.1250000000, 0.1250000000, 0.1250000000, 0.1250000000, 0.1250000000, 0.1250000000, -0.1250000000, -0.1250000000, 0.1250000000, -0.1250000000, 0.1250000000, 0.1250000000, -0.1250000000, 0.1250000000, 0.1250000000, 0.1250000000, 0.1250000000, -0.1250000000, -0.1250000000, -0.1250000000, -0.1250000000, -0.1250000000, 0.1250000000, -0.1250000000, -0.1250000000, 0.1250000000, -0.1250000000, 0.1250000000, -0.1250000000, -0.1250000000, -0.1250000000, 0.1250000000, 0.1250000000, 0.1250000000, 0.1250000000, 0.1250000000, 0.1250000000, 0.1250000000, 0.1250000000, 0.1250000000, -0.1250000000, -0.1250000000, -0.1250000000, 0.1250000000, 0.1250000000, 0.1250000000, -0.1250000000, 0.1250000000, 0.1250000000, -0.1250000000, -0.1250000000, -0.1250000000, 0.1250000000, 0.1250000000, -0.1250000000, -0.1250000000, 0.1250000000, 0.1250000000, -0.1250000000, -0.1250000000, 0.1250000000, 0.1250000000, -0.1250000000, -0.1250000000, -0.1250000000, 0.1250000000, 0.1250000000, -0.1250000000, -0.1250000000, -0.1250000000, 0.1250000000, -0.1250000000, -0.1250000000, -0.1250000000, 0.1250000000, -0.1250000000, -0.1250000000, 0.1250000000, -0.1250000000, -0.1250000000, 0.1250000000, 0.1250000000, -0.1250000000, -0.1250000000, -0.1250000000, -0.1250000000, -0.1250000000, 0.1250000000, -0.1250000000, 0.1250000000, -0.1250000000, -0.1250000000, 0.1250000000, 0.1250000000, -0.1250000000, -0.1250000000, -0.1250000000, 0.1250000000, 0.1250000000, 0.1250000000, -0.1250000000, 0.1250000000, 0.1250000000, 0.1250000000, 0.1250000000, -0.1250000000, -0.1250000000, -0.1250000000, 0.1250000000, 0.1250000000, 0.1250000000, 0.1250000000, 0.1250000000, -0.1250000000, -0.1250000000, -0.1250000000, -0.1250000000, -0.1250000000, -0.1250000000, -0.1250000000, -0.1250000000, -0.1250000000, 0.1250000000, 0.1250000000, -0.1250000000, -0.1250000000, -0.1250000000, 0.1250000000, -0.1250000000, 0.1250000000, -0.1250000000, 0.1250000000, -0.1250000000, 0.1250000000, 0.1250000000, -0.1250000000, 0.1250000000, -0.1250000000, -0.1250000000, 0.1250000000, -0.1250000000, -0.1250000000, 0.1250000000, -0.1250000000, -0.1250000000, 0.1250000000, -0.1250000000, 0.1250000000, -0.1250000000, -0.1250000000, 0.1250000000, -0.1250000000, 0.1250000000, 0.1250000000, 0.1250000000, -0.1250000000, 0.1250000000, 0.1250000000, -0.1250000000, 0.1250000000, 0.1250000000, -0.1250000000, -0.1250000000, 0.1250000000, 0.1250000000, -0.1250000000, -0.1250000000, 0.1250000000, 0.1250000000, -0.1250000000, -0.1250000000, 0.1250000000, 0.1250000000, -0.1250000000, -0.1250000000, 0.1250000000, -0.1250000000, -0.1250000000, -0.1250000000, -0.1250000000, -0.1250000000, 0.1250000000, 0.1250000000, -0.1250000000, -0.1250000000, 0.1250000000, 0.1250000000, 0.1250000000, -0.1250000000, 0.1250000000, -0.1250000000, -0.1250000000, -0.1250000000, -0.1250000000, -0.1250000000, 0.1250000000, -0.1250000000, -0.1250000000, -0.1250000000, -0.1250000000, 0.1250000000, 0.1250000000, 0.1250000000, -0.1250000000, -0.1250000000, -0.1250000000, 0.1250000000, 0.1250000000, -0.1250000000, -0.1250000000, -0.1250000000, 0.1250000000, 0.1250000000, 0.1250000000, -0.1250000000, -0.1250000000, 0.1250000000, 0.1250000000, 0.1250000000, 0.1250000000, -0.1250000000, -0.1250000000, -0.1250000000, -0.1250000000, 0.1250000000, -0.1250000000, 0.1250000000, 0.1250000000, 0.1250000000, 0.1250000000, 0.1250000000, -0.1250000000, 0.1250000000, -0.1250000000, 0.1250000000, -0.1250000000, 0.1250000000, -0.1250000000, -0.1250000000, 0.1250000000, 0.1250000000, -0.1250000000, 0.1250000000, 0.1250000000, -0.1250000000, 0.1250000000, 0.1250000000, 0.1250000000, -0.1250000000, 0.1250000000, 0.1250000000, -0.1250000000, -0.1250000000, 0.1250000000, 0.1250000000, 0.1250000000, 0.1250000000, 0.1250000000, -0.1250000000, 0.1250000000, 0.1250000000, 0.1250000000, 0.1250000000, 0.1250000000, -0.1250000000, -0.1250000000, 0.1250000000, 0.1250000000, -0.1250000000, -0.1250000000, 0.1250000000, -0.1250000000, 0.1250000000, 0.1250000000, -0.1250000000, -0.1250000000, 0.1250000000, 0.1250000000, -0.1250000000, 0.1250000000, 0.1250000000, -0.1250000000, -0.1250000000, 0.1250000000, 0.1250000000, 0.1250000000, 0.1250000000, 0.1250000000, -0.1250000000, -0.1250000000, -0.1250000000, 0.1250000000, 0.1250000000, -0.1250000000, 0.1250000000, 0.1250000000, -0.1250000000, -0.1250000000, -0.1250000000, -0.1250000000, -0.1250000000, 0.1250000000, -0.1250000000, -0.1250000000, -0.1250000000, 0.1250000000, 0.1250000000, 0.1250000000, -0.1250000000, 0.1250000000, -0.1250000000, 0.1250000000, -0.1250000000, -0.1250000000, -0.1250000000, -0.1250000000, -0.1250000000, -0.1250000000, -0.1250000000, 0.1250000000, 0.1250000000, -0.1250000000, 0.1250000000, 0.1250000000, 0.1250000000, 0.1250000000, -0.1250000000, 0.1250000000, -0.1250000000, 0.1250000000, 0.1250000000, 0.1250000000, -0.1250000000, -0.1250000000, 0.1250000000, -0.1250000000, 0.1250000000, -0.1250000000, -0.1250000000, -0.1250000000, 0.1250000000, -0.1250000000, 0.1250000000, -0.1250000000, -0.1250000000, -0.1250000000, 0.1250000000, -0.1250000000, -0.1250000000, 0.1250000000, 0.1250000000, -0.1250000000, 0.1250000000, 0.1250000000, -0.1250000000, -0.1250000000, -0.1250000000, 0.1250000000, -0.1250000000, 0.1250000000, -0.1250000000, 0.1250000000, 0.1250000000, 0.1250000000, -0.1250000000, 0.1250000000, -0.1250000000, -0.1250000000, 0.1250000000, -0.1250000000, 0.1250000000, 0.1250000000, -0.1250000000, 0.1250000000, -0.1250000000, -0.1250000000, -0.1250000000, 0.1250000000, -0.1250000000, -0.1250000000, 0.1250000000, -0.1250000000, 0.1250000000, -0.1250000000, 0.1250000000, 0.1250000000, 0.1250000000, 0.1250000000, 0.1250000000, -0.1250000000, 0.1250000000, -0.1250000000, 0.1250000000, -0.1250000000, 0.1250000000, 0.1250000000, 0.1250000000, -0.1250000000, -0.1250000000, -0.1250000000, -0.1250000000, 0.1250000000, 0.1250000000, 0.1250000000, -0.1250000000, 0.1250000000, -0.1250000000, -0.1250000000, 0.1250000000, -0.1250000000, -0.1250000000, -0.1250000000, -0.1250000000, 0.1250000000, -0.1250000000, 0.1250000000, 0.1250000000, 0.1250000000, -0.1250000000, -0.1250000000, 0.1250000000, 0.1250000000, -0.1250000000, 0.1250000000, -0.1250000000, 0.1250000000, 0.1250000000, -0.1250000000, -0.1250000000, 0.1250000000, 0.1250000000, -0.1250000000, 0.1250000000, -0.1250000000, 0.1250000000, 0.1250000000, -0.1250000000, -0.1250000000, -0.1250000000, 0.1250000000, 0.1250000000, -0.1250000000, 0.1250000000, 0.1250000000, 0.1250000000, 0.1250000000, 0.1250000000, 0.1250000000, -0.1250000000, -0.1250000000, 0.1250000000, -0.1250000000, -0.1250000000, 0.1250000000, -0.1250000000, -0.1250000000, 0.1250000000, -0.1250000000, -0.1250000000, 0.1250000000, 0.1250000000, 0.1250000000, -0.1250000000, -0.1250000000, -0.1250000000, -0.1250000000, 0.1250000000, 0.1250000000, -0.1250000000, -0.1250000000, 0.1250000000, -0.1250000000, -0.1250000000, 0.1250000000, -0.1250000000, -0.1250000000, -0.1250000000, -0.1250000000, -0.1250000000, 0.1250000000, 0.1250000000, 0.1250000000, 0.1250000000, 0.1250000000, -0.1250000000, 0.1250000000, -0.1250000000, 0.1250000000, 0.1250000000, -0.1250000000, -0.1250000000, 0.1250000000, -0.1250000000, -0.1250000000, 0.1250000000, -0.1250000000, -0.1250000000, 0.1250000000, -0.1250000000, 0.1250000000, 0.1250000000, -0.1250000000, -0.1250000000, -0.1250000000, 0.1250000000, -0.1250000000, 0.1250000000, -0.1250000000, -0.1250000000, 0.1250000000, 0.1250000000, -0.1250000000, 0.1250000000, -0.1250000000, 0.1250000000, -0.1250000000, -0.1250000000, -0.1250000000, -0.1250000000, 0.1250000000, 0.1250000000, 0.1250000000, -0.1250000000, 0.1250000000, 0.1250000000, 0.1250000000, -0.1250000000, -0.1250000000, 0.1250000000, -0.1250000000, -0.1250000000, -0.1250000000, -0.1250000000, 0.1250000000, -0.1250000000, 0.1250000000, 0.1250000000, 0.1250000000, 0.1250000000, -0.1250000000, 0.1250000000, 0.1250000000, -0.1250000000, -0.1250000000, -0.1250000000, 0.1250000000, 0.1250000000, -0.1250000000, -0.1250000000, 0.1250000000, 0.1250000000, -0.1250000000, -0.1250000000, 0.1250000000, 0.1250000000, 0.1250000000, -0.1250000000, 0.1250000000, -0.1250000000, 0.1250000000, 0.1250000000, 0.1250000000, 0.1250000000, 0.1250000000, -0.1250000000, -0.1250000000, 0.1250000000, 0.1250000000, 0.1250000000, 0.1250000000, -0.1250000000, -0.1250000000, 0.1250000000, 0.1250000000, 0.1250000000, -0.1250000000, 0.1250000000, 0.1250000000, -0.1250000000, 0.1250000000, -0.1250000000, -0.1250000000, -0.1250000000, 0.1250000000, 0.1250000000, -0.1250000000, -0.1250000000, -0.1250000000, 0.1250000000, 0.1250000000, 0.1250000000, -0.1250000000, 0.1250000000, 0.1250000000, 0.1250000000, -0.1250000000, 0.1250000000, 0.1250000000, 0.1250000000, -0.1250000000, -0.1250000000, 0.1250000000, 0.1250000000, -0.1250000000, 0.1250000000, 0.1250000000, 0.1250000000, -0.1250000000, -0.1250000000, 0.1250000000, -0.1250000000, 0.1250000000, -0.1250000000, 0.1250000000, -0.1250000000, -0.1250000000, -0.1250000000, -0.1250000000, 0.1250000000, 0.1250000000, -0.1250000000, -0.1250000000, 0.1250000000, -0.1250000000, -0.1250000000, 0.1250000000, 0.1250000000, 0.1250000000, -0.1250000000, -0.1250000000, 0.1250000000, -0.1250000000, 0.1250000000, -0.1250000000, 0.1250000000, 0.1250000000, 0.1250000000, -0.1250000000, 0.1250000000, -0.1250000000, 0.1250000000, 0.1250000000, 0.1250000000, -0.1250000000, -0.1250000000, -0.1250000000, -0.1250000000, 0.1250000000, -0.1250000000, 0.1250000000, -0.1250000000, -0.1250000000, -0.1250000000, -0.1250000000, -0.1250000000, 0.1250000000, 0.1250000000, 0.1250000000, 0.1250000000, -0.1250000000, -0.1250000000, 0.1250000000, 0.1250000000, 0.1250000000, 0.1250000000, 0.1250000000, -0.1250000000, 0.1250000000, 0.1250000000, 0.1250000000, 0.1250000000, 0.1250000000, -0.1250000000, 0.1250000000, -0.1250000000, -0.1250000000, -0.1250000000, -0.1250000000, 0.1250000000, 0.1250000000, -0.1250000000, 0.1250000000, -0.1250000000, -0.1250000000, 0.1250000000, 0.1250000000, 0.1250000000, -0.1250000000, -0.1250000000, -0.1250000000, 0.1250000000, 0.1250000000, 0.1250000000, -0.1250000000, -0.1250000000, 0.1250000000, -0.1250000000, 0.1250000000, 0.1250000000, -0.1250000000, -0.1250000000, -0.1250000000, -0.1250000000, -0.1250000000, 0.1250000000, 0.1250000000, 0.1250000000, 0.1250000000, -0.1250000000, 0.1250000000, -0.1250000000, -0.1250000000, 0.1250000000, -0.1250000000, 0.1250000000, 0.1250000000, 0.1250000000, 0.1250000000, 0.1250000000, 0.1250000000, 0.1250000000, -0.1250000000, -0.1250000000, -0.1250000000, -0.1250000000, 0.1250000000, 0.1250000000, -0.1250000000, -0.1250000000, -0.1250000000, 0.1250000000, 0.1250000000, 0.1250000000, -0.1250000000, 0.1250000000, 0.1250000000, -0.1250000000, 0.1250000000, -0.1250000000, -0.1250000000, 0.1250000000, 0.1250000000, -0.1250000000, 0.1250000000, 0.1250000000, 0.1250000000, 0.1250000000, -0.1250000000, -0.1250000000, 0.1250000000, 0.1250000000, -0.1250000000, 0.1250000000, -0.1250000000, -0.1250000000, 0.1250000000, 0.1250000000, -0.1250000000, -0.1250000000, -0.1250000000, 0.1250000000, -0.1250000000, 0.1250000000, -0.1250000000, -0.1250000000, -0.1250000000, 0.1250000000, -0.1250000000, -0.1250000000, -0.1250000000, 0.1250000000, 0.1250000000, -0.1250000000, -0.1250000000, 0.1250000000, -0.1250000000, -0.1250000000, -0.1250000000, 0.1250000000, -0.1250000000, 0.1250000000, 0.1250000000, -0.1250000000, 0.1250000000, -0.1250000000, 0.1250000000, -0.1250000000, 0.1250000000, -0.1250000000, -0.1250000000, -0.1250000000, 0.1250000000, -0.1250000000, -0.1250000000, -0.1250000000, -0.1250000000, 0.1250000000, -0.1250000000, -0.1250000000, 0.1250000000, -0.1250000000, 0.1250000000, -0.1250000000, 0.1250000000, 0.1250000000, -0.1250000000, 0.1250000000, -0.1250000000, 0.1250000000, -0.1250000000, -0.1250000000, 0.1250000000, 0.1250000000, 0.1250000000, -0.1250000000, 0.1250000000, 0.1250000000, 0.1250000000, -0.1250000000, -0.1250000000, -0.1250000000, -0.1250000000, 0.1250000000, -0.1250000000, -0.1250000000, -0.1250000000, -0.1250000000, 0.1250000000, -0.1250000000, 0.1250000000, 0.1250000000, 0.1250000000, -0.1250000000, 0.1250000000, 0.1250000000, -0.1250000000, -0.1250000000, -0.1250000000, 0.1250000000, 0.1250000000, 0.1250000000, 0.1250000000, -0.1250000000, -0.1250000000, -0.1250000000, 0.1250000000, 0.1250000000, -0.1250000000, 0.1250000000, -0.1250000000, -0.1250000000, -0.1250000000, 0.1250000000, -0.1250000000, 0.1250000000, 0.1250000000, -0.1250000000, 0.1250000000, -0.1250000000, -0.1250000000, -0.1250000000, 0.1250000000, 0.1250000000, -0.1250000000, -0.1250000000, 0.1250000000, 0.1250000000, -0.1250000000, 0.1250000000, 0.1250000000, -0.1250000000, 0.1250000000, -0.1250000000, -0.1250000000, 0.1250000000, -0.1250000000, -0.1250000000, -0.1250000000, -0.1250000000, -0.1250000000, -0.1250000000, 0.1250000000, 0.1250000000, 0.1250000000, -0.1250000000, 0.1250000000, 0.1250000000, -0.1250000000, -0.1250000000, 0.1250000000, -0.1250000000, -0.1250000000, -0.1250000000, -0.1250000000, 0.1250000000, -0.1250000000, 0.1250000000, 0.1250000000, 0.1250000000, 0.1250000000, -0.1250000000, -0.1250000000, -0.1250000000, 0.1250000000, 0.1250000000, 0.1250000000, -0.1250000000, 0.1250000000, -0.1250000000, 0.1250000000, 0.1250000000, 0.1250000000, 0.1250000000, 0.1250000000, -0.1250000000, -0.1250000000, -0.1250000000, 0.1250000000, -0.1250000000, -0.1250000000, -0.1250000000, -0.1250000000, -0.1250000000, 0.1250000000, 0.1250000000, -0.1250000000, 0.1250000000, 0.1250000000, 0.1250000000, -0.1250000000, 0.1250000000, -0.1250000000, 0.1250000000, 0.1250000000, 0.1250000000, -0.1250000000, -0.1250000000, -0.1250000000, 0.1250000000, 0.1250000000, -0.1250000000, 0.1250000000, -0.1250000000, -0.1250000000, 0.1250000000, -0.1250000000, -0.1250000000, 0.1250000000, 0.1250000000, 0.1250000000, 0.1250000000, 0.1250000000, 0.1250000000, 0.1250000000, 0.1250000000, 0.1250000000, 0.1250000000, 0.1250000000, 0.1250000000, 0.1250000000, -0.1250000000, -0.1250000000, 0.1250000000, -0.1250000000, 0.1250000000, -0.1250000000, -0.1250000000, -0.1250000000, -0.1250000000, -0.1250000000, -0.1250000000, -0.1250000000, -0.1250000000, -0.1250000000, -0.1250000000, 0.1250000000, -0.1250000000, 0.1250000000, 0.1250000000, 0.1250000000, -0.1250000000, -0.1250000000, -0.1250000000, -0.1250000000, -0.1250000000, 0.1250000000, -0.1250000000, -0.1250000000, 0.1250000000, 0.1250000000, -0.1250000000, -0.1250000000, -0.1250000000, 0.1250000000, -0.1250000000, 0.1250000000, -0.1250000000, -0.1250000000, 0.1250000000, 0.1250000000, 0.1250000000, 0.1250000000, -0.1250000000, 0.1250000000, -0.1250000000, 0.1250000000, 0.1250000000, -0.1250000000, -0.1250000000, -0.1250000000, 0.1250000000, 0.1250000000, -0.1250000000, -0.1250000000, 0.1250000000, -0.1250000000, 0.1250000000, 0.1250000000, 0.1250000000, 0.1250000000, 0.1250000000, 0.1250000000, -0.1250000000, -0.1250000000, -0.1250000000, 0.1250000000, -0.1250000000, 0.1250000000, 0.1250000000, -0.1250000000, -0.1250000000, 0.1250000000, -0.1250000000, 0.1250000000, -0.1250000000, -0.1250000000, 0.1250000000, -0.1250000000, -0.1250000000, 0.1250000000, -0.1250000000, -0.1250000000, -0.1250000000, 0.1250000000, 0.1250000000, -0.1250000000, -0.1250000000, -0.1250000000, 0.1250000000, -0.1250000000, 0.1250000000, -0.1250000000, 0.1250000000, -0.1250000000, 0.1250000000, 0.1250000000, 0.1250000000, -0.1250000000, -0.1250000000, -0.1250000000, 0.1250000000, 0.1250000000, 0.1250000000, 0.1250000000, 0.1250000000, 0.1250000000, 0.1250000000, -0.1250000000, -0.1250000000, -0.1250000000, 0.1250000000, -0.1250000000, -0.1250000000, 0.1250000000, 0.1250000000, 0.1250000000, 0.1250000000, 0.1250000000, -0.1250000000, 0.1250000000, -0.1250000000, -0.1250000000, 0.1250000000, -0.1250000000, 0.1250000000, 0.1250000000, 0.1250000000, -0.1250000000, -0.1250000000, -0.1250000000, -0.1250000000, -0.1250000000, -0.1250000000, -0.1250000000, -0.1250000000, 0.1250000000, -0.1250000000, 0.1250000000, -0.1250000000, -0.1250000000, 0.1250000000, -0.1250000000, -0.1250000000, -0.1250000000, 0.1250000000, 0.1250000000, 0.1250000000, -0.1250000000, 0.1250000000, 0.1250000000, 0.1250000000, 0.1250000000, -0.1250000000, 0.1250000000, -0.1250000000, -0.1250000000, 0.1250000000, -0.1250000000, -0.1250000000, -0.1250000000, -0.1250000000, 0.1250000000, -0.1250000000, -0.1250000000, -0.1250000000, 0.1250000000, -0.1250000000, 0.1250000000, -0.1250000000, 0.1250000000, 0.1250000000, 0.1250000000, -0.1250000000, 0.1250000000, 0.1250000000, 0.1250000000, 0.1250000000, -0.1250000000, -0.1250000000, 0.1250000000, -0.1250000000, 0.1250000000, -0.1250000000, 0.1250000000, -0.1250000000, -0.1250000000, -0.1250000000, 0.1250000000, -0.1250000000, -0.1250000000, -0.1250000000, 0.1250000000, -0.1250000000, 0.1250000000, -0.1250000000, 0.1250000000, 0.1250000000, 0.1250000000, -0.1250000000, 0.1250000000, 0.1250000000, -0.1250000000, 0.1250000000, 0.1250000000, 0.1250000000, 0.1250000000, 0.1250000000, -0.1250000000, 0.1250000000, -0.1250000000, -0.1250000000, -0.1250000000, 0.1250000000, -0.1250000000, 0.1250000000, 0.1250000000, -0.1250000000, -0.1250000000, -0.1250000000, -0.1250000000, 0.1250000000, 0.1250000000, 0.1250000000, -0.1250000000, -0.1250000000, 0.1250000000, 0.1250000000, 0.1250000000, -0.1250000000, -0.1250000000, -0.1250000000, 0.1250000000, -0.1250000000, -0.1250000000, 0.1250000000, 0.1250000000, -0.1250000000, 0.1250000000, 0.1250000000, 0.1250000000, 0.1250000000, 0.1250000000, -0.1250000000, 0.1250000000, 0.1250000000, -0.1250000000, 0.1250000000, -0.1250000000, 0.1250000000, -0.1250000000, -0.1250000000, -0.1250000000, 0.1250000000, -0.1250000000, 0.1250000000, 0.1250000000, -0.1250000000, 0.1250000000, 0.1250000000, -0.1250000000, -0.1250000000, 0.1250000000, -0.1250000000, 0.1250000000, -0.1250000000, 0.1250000000, 0.1250000000, -0.1250000000, -0.1250000000, 0.1250000000, -0.1250000000, 0.1250000000, -0.1250000000, -0.1250000000, -0.1250000000, -0.1250000000, -0.1250000000, -0.1250000000, -0.1250000000, -0.1250000000, -0.1250000000, 0.1250000000, 0.1250000000, -0.1250000000, 0.1250000000, 0.1250000000, -0.1250000000, 0.1250000000, 0.1250000000, 0.1250000000, 0.1250000000, 0.1250000000, 0.1250000000, 0.1250000000, -0.1250000000, 0.1250000000, 0.1250000000, -0.1250000000, 0.1250000000, 0.1250000000, -0.1250000000, -0.1250000000, 0.1250000000, -0.1250000000, 0.1250000000, 0.1250000000, -0.1250000000, -0.1250000000, 0.1250000000, 0.1250000000, 0.1250000000, 0.1250000000, 0.1250000000, 0.1250000000, 0.1250000000, -0.1250000000, 0.1250000000, 0.1250000000, -0.1250000000, 0.1250000000, -0.1250000000, 0.1250000000, 0.1250000000, -0.1250000000, -0.1250000000, -0.1250000000, -0.1250000000, -0.1250000000, -0.1250000000, -0.1250000000, 0.1250000000, -0.1250000000, 0.1250000000, -0.1250000000, -0.1250000000, -0.1250000000, -0.1250000000, -0.1250000000, 0.1250000000, -0.1250000000, 0.1250000000, 0.1250000000, 0.1250000000, -0.1250000000, 0.1250000000, -0.1250000000, 0.1250000000, 0.1250000000, 0.1250000000, -0.1250000000, 0.1250000000, 0.1250000000, -0.1250000000, -0.1250000000, 0.1250000000, 0.1250000000, 0.1250000000, 0.1250000000, -0.1250000000, 0.1250000000, 0.1250000000, 0.1250000000, 0.1250000000, -0.1250000000, 0.1250000000, 0.1250000000, 0.1250000000, 0.1250000000, -0.1250000000, -0.1250000000, -0.1250000000, -0.1250000000, 0.1250000000, -0.1250000000, 0.1250000000, 0.1250000000, -0.1250000000, -0.1250000000, -0.1250000000, 0.1250000000, 0.1250000000, -0.1250000000, 0.1250000000, -0.1250000000, 0.1250000000, -0.1250000000, -0.1250000000, -0.1250000000, -0.1250000000, -0.1250000000, -0.1250000000, -0.1250000000, 0.1250000000, -0.1250000000, -0.1250000000, -0.1250000000, -0.1250000000, -0.1250000000, -0.1250000000, 0.1250000000, 0.1250000000, 0.1250000000, -0.1250000000, 0.1250000000, 0.1250000000, 0.1250000000, -0.1250000000, -0.1250000000, -0.1250000000, -0.1250000000, -0.1250000000, -0.1250000000, 0.1250000000, -0.1250000000, 0.1250000000, -0.1250000000, 0.1250000000, -0.1250000000, 0.1250000000, 0.1250000000, 0.1250000000, 0.1250000000, -0.1250000000, 0.1250000000, 0.1250000000, -0.1250000000, -0.1250000000, 0.1250000000, -0.1250000000, 0.1250000000, -0.1250000000, 0.1250000000, 0.1250000000, -0.1250000000, 0.1250000000, 0.1250000000, 0.1250000000, -0.1250000000, -0.1250000000, 0.1250000000, -0.1250000000, -0.1250000000, -0.1250000000, 0.1250000000, 0.1250000000, -0.1250000000, -0.1250000000, 0.1250000000, 0.1250000000, 0.1250000000, 0.1250000000, -0.1250000000, 0.1250000000, -0.1250000000, 0.1250000000, -0.1250000000, -0.1250000000, 0.1250000000, 0.1250000000, -0.1250000000, 0.1250000000, 0.1250000000, -0.1250000000, -0.1250000000, 0.1250000000, -0.1250000000, 0.1250000000, -0.1250000000, 0.1250000000, -0.1250000000, -0.1250000000, -0.1250000000, 0.1250000000, 0.1250000000, 0.1250000000, -0.1250000000, 0.1250000000, 0.1250000000, -0.1250000000, 0.1250000000, -0.1250000000, 0.1250000000, 0.1250000000, -0.1250000000, 0.1250000000, 0.1250000000, -0.1250000000, 0.1250000000, 0.1250000000, -0.1250000000, -0.1250000000, -0.1250000000, 0.1250000000, -0.1250000000, -0.1250000000, -0.1250000000, -0.1250000000, 0.1250000000, -0.1250000000, 0.1250000000, 0.1250000000, -0.1250000000, -0.1250000000, -0.1250000000, 0.1250000000, -0.1250000000, 0.1250000000, 0.1250000000, -0.1250000000, 0.1250000000, -0.1250000000, 0.1250000000, 0.1250000000, 0.1250000000, -0.1250000000, 0.1250000000, 0.1250000000, 0.1250000000, -0.1250000000, -0.1250000000, 0.1250000000, 0.1250000000, 0.1250000000, 0.1250000000, 0.1250000000, -0.1250000000, -0.1250000000, -0.1250000000, -0.1250000000, 0.1250000000, -0.1250000000, 0.1250000000, 0.1250000000, 0.1250000000, -0.1250000000, 0.1250000000, -0.1250000000, 0.1250000000, -0.1250000000, 0.1250000000, 0.1250000000, 0.1250000000, -0.1250000000, 0.1250000000, -0.1250000000, 0.1250000000, -0.1250000000, 0.1250000000, -0.1250000000, -0.1250000000, -0.1250000000, 0.1250000000, 0.1250000000, 0.1250000000, 0.1250000000, -0.1250000000, -0.1250000000, 0.1250000000, -0.1250000000, 0.1250000000, -0.1250000000, -0.1250000000, -0.1250000000, -0.1250000000, 0.1250000000, 0.1250000000, 0.1250000000, 0.1250000000, 0.1250000000, 0.1250000000, 0.1250000000, -0.1250000000, 0.1250000000, -0.1250000000, 0.1250000000, -0.1250000000, -0.1250000000, 0.1250000000, 0.1250000000, -0.1250000000, 0.1250000000, -0.1250000000, 0.1250000000, -0.1250000000, 0.1250000000, -0.1250000000, -0.1250000000, -0.1250000000, -0.1250000000, -0.1250000000, 0.1250000000, 0.1250000000, 0.1250000000, 0.1250000000, 0.1250000000, -0.1250000000, -0.1250000000, 0.1250000000, -0.1250000000, 0.1250000000, -0.1250000000, -0.1250000000, 0.1250000000, 0.1250000000, 0.1250000000, -0.1250000000, 0.1250000000, -0.1250000000, 0.1250000000, -0.1250000000, -0.1250000000, 0.1250000000, 0.1250000000, -0.1250000000, 0.1250000000, -0.1250000000, -0.1250000000, 0.1250000000, -0.1250000000, 0.1250000000, -0.1250000000, -0.1250000000, -0.1250000000, -0.1250000000, -0.1250000000, -0.1250000000, 0.1250000000, 0.1250000000, -0.1250000000, 0.1250000000, -0.1250000000, 0.1250000000, -0.1250000000, 0.1250000000, 0.1250000000, 0.1250000000, -0.1250000000, -0.1250000000, -0.1250000000, -0.1250000000, -0.1250000000, 0.1250000000, 0.1250000000, 0.1250000000, -0.1250000000, 0.1250000000, 0.1250000000, 0.1250000000, -0.1250000000, 0.1250000000, -0.1250000000, 0.1250000000, 0.1250000000, 0.1250000000, 0.1250000000, 0.1250000000, 0.1250000000, -0.1250000000, -0.1250000000, 0.1250000000, 0.1250000000, 0.1250000000, 0.1250000000, -0.1250000000, 0.1250000000, 0.1250000000, 0.1250000000, -0.1250000000, -0.1250000000, -0.1250000000, 0.1250000000, 0.1250000000, 0.1250000000, 0.1250000000, 0.1250000000, 0.1250000000, -0.1250000000, -0.1250000000, -0.1250000000, -0.1250000000, 0.1250000000, 0.1250000000, -0.1250000000, 0.1250000000, 0.1250000000, 0.1250000000, 0.1250000000, 0.1250000000, -0.1250000000, 0.1250000000, -0.1250000000, 0.1250000000, -0.1250000000, -0.1250000000, -0.1250000000, 0.1250000000, 0.1250000000, -0.1250000000, 0.1250000000, 0.1250000000, -0.1250000000, -0.1250000000, 0.1250000000, -0.1250000000, 0.1250000000, -0.1250000000, -0.1250000000, -0.1250000000, -0.1250000000, 0.1250000000, -0.1250000000, 0.1250000000, 0.1250000000, 0.1250000000, 0.1250000000, -0.1250000000, 0.1250000000, 0.1250000000, -0.1250000000, 0.1250000000, 0.1250000000, 0.1250000000, 0.1250000000, -0.1250000000, -0.1250000000, -0.1250000000, 0.1250000000, 0.1250000000, 0.1250000000, -0.1250000000, -0.1250000000, 0.1250000000, 0.1250000000, 0.1250000000, 0.1250000000, -0.1250000000, -0.1250000000, 0.1250000000, 0.1250000000, 0.1250000000, -0.1250000000, 0.1250000000, -0.1250000000, -0.1250000000, 0.1250000000, -0.1250000000, 0.1250000000, -0.1250000000, 0.1250000000, -0.1250000000, -0.1250000000, -0.1250000000, 0.1250000000, 0.1250000000, 0.1250000000, 0.1250000000, -0.1250000000, 0.1250000000, 0.1250000000, 0.1250000000, -0.1250000000, -0.1250000000, -0.1250000000, -0.1250000000, 0.1250000000, 0.1250000000, 0.1250000000, -0.1250000000, 0.1250000000, -0.1250000000, -0.1250000000, 0.1250000000, 0.1250000000, 0.1250000000, -0.1250000000, -0.1250000000, 0.1250000000, -0.1250000000, 0.1250000000, -0.1250000000, -0.1250000000, 0.1250000000, 0.1250000000, -0.1250000000, 0.1250000000, 0.1250000000, 0.1250000000, -0.1250000000, 0.1250000000, 0.1250000000, 0.1250000000, -0.1250000000, 0.1250000000, 0.1250000000, 0.1250000000, -0.1250000000, -0.1250000000, 0.1250000000, -0.1250000000, 0.1250000000, -0.1250000000, 0.1250000000, 0.1250000000, -0.1250000000, 0.1250000000, 0.1250000000, 0.1250000000, -0.1250000000, 0.1250000000, -0.1250000000, -0.1250000000, 0.1250000000, 0.1250000000, 0.1250000000, -0.1250000000, -0.1250000000, 0.1250000000, 0.1250000000, -0.1250000000, -0.1250000000, -0.1250000000, -0.1250000000, 0.1250000000, -0.1250000000, 0.1250000000, -0.1250000000, -0.1250000000, 0.1250000000, 0.1250000000, 0.1250000000, -0.1250000000, -0.1250000000, -0.1250000000, -0.1250000000, -0.1250000000, -0.1250000000, 0.1250000000, -0.1250000000, -0.1250000000, -0.1250000000, 0.1250000000, -0.1250000000, -0.1250000000, 0.1250000000, -0.1250000000, 0.1250000000, 0.1250000000, -0.1250000000, 0.1250000000, -0.1250000000, -0.1250000000, 0.1250000000, 0.1250000000, 0.1250000000, 0.1250000000, 0.1250000000, -0.1250000000, 0.1250000000, 0.1250000000, 0.1250000000, -0.1250000000, 0.1250000000, 0.1250000000, 0.1250000000, 0.1250000000, 0.1250000000, -0.1250000000, -0.1250000000, 0.1250000000, -0.1250000000, 0.1250000000, -0.1250000000, 0.1250000000, -0.1250000000, 0.1250000000, 0.1250000000, -0.1250000000, -0.1250000000, 0.1250000000, 0.1250000000, 0.1250000000, 0.1250000000, -0.1250000000, 0.1250000000, 0.1250000000, 0.1250000000, -0.1250000000, -0.1250000000, -0.1250000000, 0.1250000000, -0.1250000000, 0.1250000000, 0.1250000000, 0.1250000000, 0.1250000000, -0.1250000000, -0.1250000000, 0.1250000000, 0.1250000000, 0.1250000000, -0.1250000000, 0.1250000000, 0.1250000000, 0.1250000000, -0.1250000000, 0.1250000000, -0.1250000000, 0.1250000000, 0.1250000000, 0.1250000000, 0.1250000000, 0.1250000000, 0.1250000000, -0.1250000000, -0.1250000000, -0.1250000000, 0.1250000000, -0.1250000000, 0.1250000000, 0.1250000000, -0.1250000000, 0.1250000000, -0.1250000000, 0.1250000000, 0.1250000000, 0.1250000000, -0.1250000000, -0.1250000000, 0.1250000000, 0.1250000000, -0.1250000000, 0.1250000000, -0.1250000000, 0.1250000000, -0.1250000000, -0.1250000000, 0.1250000000, 0.1250000000, -0.1250000000, -0.1250000000, -0.1250000000, 0.1250000000, 0.1250000000, 0.1250000000, -0.1250000000, 0.1250000000, 0.1250000000, 0.1250000000, 0.1250000000, 0.1250000000, -0.1250000000, 0.1250000000, 0.1250000000, 0.1250000000, -0.1250000000, -0.1250000000, -0.1250000000, 0.1250000000, -0.1250000000, 0.1250000000, -0.1250000000, 0.1250000000, -0.1250000000, -0.1250000000, 0.1250000000, 0.1250000000, -0.1250000000, -0.1250000000, 0.1250000000, 0.1250000000, -0.1250000000, 0.1250000000, -0.1250000000, 0.1250000000, -0.1250000000, 0.1250000000, -0.1250000000, -0.1250000000, -0.1250000000, 0.1250000000, 0.1250000000, -0.1250000000, -0.1250000000, -0.1250000000, 0.1250000000, 0.1250000000, 0.1250000000, -0.1250000000, -0.1250000000, -0.1250000000, 0.1250000000, -0.1250000000, 0.1250000000, -0.1250000000, -0.1250000000, 0.1250000000, 0.1250000000, -0.1250000000, 0.1250000000, 0.1250000000, -0.1250000000, 0.1250000000, -0.1250000000, 0.1250000000, -0.1250000000, 0.1250000000, 0.1250000000, -0.1250000000, -0.1250000000, 0.1250000000, -0.1250000000, -0.1250000000, 0.1250000000, 0.1250000000, 0.1250000000, 0.1250000000, 0.1250000000, 0.1250000000, 0.1250000000, -0.1250000000, -0.1250000000, -0.1250000000, -0.1250000000, 0.1250000000, 0.1250000000, -0.1250000000, -0.1250000000, -0.1250000000, -0.1250000000, 0.1250000000, 0.1250000000, -0.1250000000, -0.1250000000, -0.1250000000, 0.1250000000, 0.1250000000, 0.1250000000, 0.1250000000, -0.1250000000, 0.1250000000, -0.1250000000, -0.1250000000, 0.1250000000, 0.1250000000, 0.1250000000, 0.1250000000, -0.1250000000, -0.1250000000, -0.1250000000, -0.1250000000, 0.1250000000, -0.1250000000, -0.1250000000, 0.1250000000, 0.1250000000, 0.1250000000, -0.1250000000, 0.1250000000, -0.1250000000, -0.1250000000, 0.1250000000, 0.1250000000, 0.1250000000, 0.1250000000, -0.1250000000, -0.1250000000, -0.1250000000, 0.1250000000, -0.1250000000, -0.1250000000, -0.1250000000, -0.1250000000, 0.1250000000, 0.1250000000, -0.1250000000, 0.1250000000, 0.1250000000, 0.1250000000, -0.1250000000, -0.1250000000, -0.1250000000, 0.1250000000, -0.1250000000, -0.1250000000, 0.1250000000, 0.1250000000, -0.1250000000, -0.1250000000, 0.1250000000, 0.1250000000, 0.1250000000, 0.1250000000, -0.1250000000, 0.1250000000, 0.1250000000, -0.1250000000, -0.1250000000, 0.1250000000, -0.1250000000, -0.1250000000, 0.1250000000, -0.1250000000, -0.1250000000, -0.1250000000, -0.1250000000, 0.1250000000, 0.1250000000, -0.1250000000, 0.1250000000, -0.1250000000, 0.1250000000, 0.1250000000, 0.1250000000, 0.1250000000, -0.1250000000, 0.1250000000, 0.1250000000, 0.1250000000, 0.1250000000, -0.1250000000, -0.1250000000, -0.1250000000, -0.1250000000, -0.1250000000, -0.1250000000, 0.1250000000, -0.1250000000, -0.1250000000, 0.1250000000, 0.1250000000, -0.1250000000, -0.1250000000, -0.1250000000, 0.1250000000, 0.1250000000, -0.1250000000, -0.1250000000, 0.1250000000, 0.1250000000, -0.1250000000, 0.1250000000, 0.1250000000, -0.1250000000, 0.1250000000, 0.1250000000, -0.1250000000, -0.1250000000, -0.1250000000, 0.1250000000, 0.1250000000, 0.1250000000, -0.1250000000, 0.1250000000, 0.1250000000, 0.1250000000, -0.1250000000, -0.1250000000, 0.1250000000, -0.1250000000, 0.1250000000, -0.1250000000, 0.1250000000, -0.1250000000, 0.1250000000, 0.1250000000, 0.1250000000, -0.1250000000, -0.1250000000, -0.1250000000, -0.1250000000, 0.1250000000, 0.1250000000, -0.1250000000, 0.1250000000, 0.1250000000, 0.1250000000, -0.1250000000, 0.1250000000, -0.1250000000, 0.1250000000, -0.1250000000, 0.1250000000, 0.1250000000, -0.1250000000, -0.1250000000, -0.1250000000, 0.1250000000, 0.1250000000, 0.1250000000, 0.1250000000, -0.1250000000, -0.1250000000, 0.1250000000, 0.1250000000, 0.1250000000, 0.1250000000, 0.1250000000, -0.1250000000, -0.1250000000, -0.1250000000, -0.1250000000, 0.1250000000, -0.1250000000, 0.1250000000, 0.1250000000, -0.1250000000, -0.1250000000, -0.1250000000, 0.1250000000, 0.1250000000, -0.1250000000, 0.1250000000, -0.1250000000, -0.1250000000, 0.1250000000, -0.1250000000, 0.1250000000, -0.1250000000, 0.1250000000, -0.1250000000, -0.1250000000, -0.1250000000, -0.1250000000, -0.1250000000, -0.1250000000, -0.1250000000, -0.1250000000, 0.1250000000, -0.1250000000, -0.1250000000, 0.1250000000, -0.1250000000, -0.1250000000, 0.1250000000, -0.1250000000, -0.1250000000, 0.1250000000, -0.1250000000, -0.1250000000, 0.1250000000, 0.1250000000, -0.1250000000, -0.1250000000, 0.1250000000, -0.1250000000, -0.1250000000, 0.1250000000, -0.1250000000, -0.1250000000, 0.1250000000, -0.1250000000, 0.1250000000, -0.1250000000, -0.1250000000, -0.1250000000, -0.1250000000, -0.1250000000, -0.1250000000, 0.1250000000, -0.1250000000, 0.1250000000, -0.1250000000, 0.1250000000, -0.1250000000, 0.1250000000, 0.1250000000, -0.1250000000, 0.1250000000, 0.1250000000, -0.1250000000, -0.1250000000, -0.1250000000, -0.1250000000, 0.1250000000, -0.1250000000, -0.1250000000, 0.1250000000, -0.1250000000, -0.1250000000, -0.1250000000, 0.1250000000, 0.1250000000, 0.1250000000, -0.1250000000, 0.1250000000, -0.1250000000, 0.1250000000, -0.1250000000, 0.1250000000, -0.1250000000, -0.1250000000, 0.1250000000, 0.1250000000, 0.1250000000, -0.1250000000, 0.1250000000, 0.1250000000, -0.1250000000, -0.1250000000, -0.1250000000, -0.1250000000, -0.1250000000, 0.1250000000, 0.1250000000, 0.1250000000, 0.1250000000, -0.1250000000, 0.1250000000, 0.1250000000, -0.1250000000, -0.1250000000, -0.1250000000, -0.1250000000, 0.1250000000, -0.1250000000, 0.1250000000, 0.1250000000, -0.1250000000, 0.1250000000, 0.1250000000, 0.1250000000, -0.1250000000, -0.1250000000, -0.1250000000, 0.1250000000, 0.1250000000, -0.1250000000, -0.1250000000, -0.1250000000, 0.1250000000, 0.1250000000, 0.1250000000, -0.1250000000, 0.1250000000, 0.1250000000, 0.1250000000, 0.1250000000, 0.1250000000, -0.1250000000, 0.1250000000, -0.1250000000, -0.1250000000, 0.1250000000, 0.1250000000, -0.1250000000, 0.1250000000, -0.1250000000, -0.1250000000, -0.1250000000, -0.1250000000, 0.1250000000, 0.1250000000, 0.1250000000, 0.1250000000, 0.1250000000, -0.1250000000, -0.1250000000, 0.1250000000, -0.1250000000, -0.1250000000, -0.1250000000, -0.1250000000, -0.1250000000, -0.1250000000, -0.1250000000, 0.1250000000, 0.1250000000, 0.1250000000, -0.1250000000, -0.1250000000, 0.1250000000, -0.1250000000, -0.1250000000, -0.1250000000, 0.1250000000, -0.1250000000, 0.1250000000, 0.1250000000, 0.1250000000, 0.1250000000, 0.1250000000, -0.1250000000, 0.1250000000, 0.1250000000, -0.1250000000, -0.1250000000, -0.1250000000, 0.1250000000, 0.1250000000, 0.1250000000, 0.1250000000, -0.1250000000, -0.1250000000, -0.1250000000, -0.1250000000, -0.1250000000, -0.1250000000, -0.1250000000, -0.1250000000, -0.1250000000, -0.1250000000, 0.1250000000, 0.1250000000, -0.1250000000, 0.1250000000, -0.1250000000, -0.1250000000, -0.1250000000, 0.1250000000, -0.1250000000, -0.1250000000, 0.1250000000, 0.1250000000, -0.1250000000, -0.1250000000, 0.1250000000, -0.1250000000, -0.1250000000, 0.1250000000, -0.1250000000, 0.1250000000, -0.1250000000, 0.1250000000, 0.1250000000, 0.1250000000, 0.1250000000, 0.1250000000, 0.1250000000, 0.1250000000, 0.1250000000, -0.1250000000, 0.1250000000, 0.1250000000, 0.1250000000, -0.1250000000, 0.1250000000, -0.1250000000, -0.1250000000, -0.1250000000, 0.1250000000, -0.1250000000, -0.1250000000, -0.1250000000, -0.1250000000, 0.1250000000, -0.1250000000, -0.1250000000, -0.1250000000, -0.1250000000, 0.1250000000, 0.1250000000, 0.1250000000, 0.1250000000, 0.1250000000, -0.1250000000, -0.1250000000, 0.1250000000, -0.1250000000, -0.1250000000, 0.1250000000, -0.1250000000, 0.1250000000, 0.1250000000, 0.1250000000, 0.1250000000, 0.1250000000, -0.1250000000, -0.1250000000, -0.1250000000, -0.1250000000, 0.1250000000, 0.1250000000, -0.1250000000, -0.1250000000, -0.1250000000, -0.1250000000, 0.1250000000, -0.1250000000, 0.1250000000, 0.1250000000, 0.1250000000, -0.1250000000, 0.1250000000, 0.1250000000, -0.1250000000, -0.1250000000, 0.1250000000, -0.1250000000, -0.1250000000, 0.1250000000, 0.1250000000, 0.1250000000, -0.1250000000, -0.1250000000, 0.1250000000, 0.1250000000, 0.1250000000, -0.1250000000, 0.1250000000, 0.1250000000, -0.1250000000, -0.1250000000, 0.1250000000, 0.1250000000, -0.1250000000, -0.1250000000, -0.1250000000, -0.1250000000, 0.1250000000, 0.1250000000, 0.1250000000, -0.1250000000, -0.1250000000, -0.1250000000, -0.1250000000, 0.1250000000, 0.1250000000, -0.1250000000, 0.1250000000, -0.1250000000, 0.1250000000, 0.1250000000, 0.1250000000, 0.1250000000, -0.1250000000, -0.1250000000, 0.1250000000, -0.1250000000, -0.1250000000, 0.1250000000, -0.1250000000, -0.1250000000, 0.1250000000, 0.1250000000, 0.1250000000, 0.1250000000, -0.1250000000, -0.1250000000, -0.1250000000, -0.1250000000, 0.1250000000, 0.1250000000, -0.1250000000, 0.1250000000, 0.1250000000, 0.1250000000, 0.1250000000, 0.1250000000, 0.1250000000, 0.1250000000, -0.1250000000, -0.1250000000, 0.1250000000, 0.1250000000, 0.1250000000, -0.1250000000, -0.1250000000, -0.1250000000, -0.1250000000, 0.1250000000, -0.1250000000, -0.1250000000, -0.1250000000, 0.1250000000, -0.1250000000, 0.1250000000, -0.1250000000, -0.1250000000, 0.1250000000, 0.1250000000, -0.1250000000, 0.1250000000, -0.1250000000, -0.1250000000, 0.1250000000, -0.1250000000, -0.1250000000, -0.1250000000, -0.1250000000, -0.1250000000, 0.1250000000, -0.1250000000, -0.1250000000, -0.1250000000, 0.1250000000, 0.1250000000, 0.1250000000, -0.1250000000, -0.1250000000, 0.1250000000, -0.1250000000, -0.1250000000, 0.1250000000, -0.1250000000, 0.1250000000, 0.1250000000, -0.1250000000, -0.1250000000, 0.1250000000, 0.1250000000, 0.1250000000, 0.1250000000, 0.1250000000, -0.1250000000, -0.1250000000, 0.1250000000, -0.1250000000, -0.1250000000, -0.1250000000, -0.1250000000, -0.1250000000, 0.1250000000, -0.1250000000, -0.1250000000, 0.1250000000, -0.1250000000, -0.1250000000, 0.1250000000, 0.1250000000, -0.1250000000, 0.1250000000, -0.1250000000, -0.1250000000, -0.1250000000, 0.1250000000, 0.1250000000, -0.1250000000, 0.1250000000, 0.1250000000, 0.1250000000, 0.1250000000, -0.1250000000, 0.1250000000, -0.1250000000, -0.1250000000, -0.1250000000, -0.1250000000, -0.1250000000, -0.1250000000, -0.1250000000, -0.1250000000, 0.1250000000, -0.1250000000, 0.1250000000, -0.1250000000, 0.1250000000, -0.1250000000, -0.1250000000, -0.1250000000, 0.1250000000, -0.1250000000, -0.1250000000, 0.1250000000, 0.1250000000, 0.1250000000, -0.1250000000, -0.1250000000, 0.1250000000, -0.1250000000, 0.1250000000, 0.1250000000, 0.1250000000, -0.1250000000, -0.1250000000, -0.1250000000, -0.1250000000, 0.1250000000, 0.1250000000, 0.1250000000, 0.1250000000, 0.1250000000, 0.1250000000, -0.1250000000, 0.1250000000, 0.1250000000, -0.1250000000, 0.1250000000, -0.1250000000, -0.1250000000, -0.1250000000, -0.1250000000, -0.1250000000, 0.1250000000, -0.1250000000, -0.1250000000, -0.1250000000, -0.1250000000, -0.1250000000, -0.1250000000, 0.1250000000, -0.1250000000, 0.1250000000, -0.1250000000, -0.1250000000, 0.1250000000, -0.1250000000, 0.1250000000, -0.1250000000, 0.1250000000, -0.1250000000, -0.1250000000, 0.1250000000, -0.1250000000, 0.1250000000, -0.1250000000, -0.1250000000, -0.1250000000, 0.1250000000, 0.1250000000, 0.1250000000, 0.1250000000, -0.1250000000, 0.1250000000, 0.1250000000, 0.1250000000, -0.1250000000, -0.1250000000, 0.1250000000, 0.1250000000, 0.1250000000, 0.1250000000, -0.1250000000, -0.1250000000, -0.1250000000, -0.1250000000, 0.1250000000, -0.1250000000, 0.1250000000, 0.1250000000, -0.1250000000, -0.1250000000, -0.1250000000, 0.1250000000, -0.1250000000, -0.1250000000, 0.1250000000, 0.1250000000, -0.1250000000, -0.1250000000, -0.1250000000, -0.1250000000, -0.1250000000, 0.1250000000, -0.1250000000, 0.1250000000, 0.1250000000, -0.1250000000, 0.1250000000, -0.1250000000, -0.1250000000, 0.1250000000, -0.1250000000, 0.1250000000, 0.1250000000, -0.1250000000, 0.1250000000, -0.1250000000, -0.1250000000, 0.1250000000, -0.1250000000, 0.1250000000, 0.1250000000, 0.1250000000, 0.1250000000, -0.1250000000, -0.1250000000, 0.1250000000, 0.1250000000, -0.1250000000, 0.1250000000, 0.1250000000, 0.1250000000, -0.1250000000, -0.1250000000, -0.1250000000, 0.1250000000, -0.1250000000, -0.1250000000, 0.1250000000, 0.1250000000, 0.1250000000, -0.1250000000, -0.1250000000, 0.1250000000, 0.1250000000, -0.1250000000, 0.1250000000, 0.1250000000, -0.1250000000, -0.1250000000, 0.1250000000, 0.1250000000, -0.1250000000, 0.1250000000, -0.1250000000, -0.1250000000, -0.1250000000, 0.1250000000, 0.1250000000, 0.1250000000, 0.1250000000, -0.1250000000, 0.1250000000, -0.1250000000, -0.1250000000, 0.1250000000, 0.1250000000, 0.1250000000, -0.1250000000, 0.1250000000, 0.1250000000, 0.1250000000, 0.1250000000, -0.1250000000, 0.1250000000, -0.1250000000, 0.1250000000, -0.1250000000, 0.1250000000, -0.1250000000, 0.1250000000, -0.1250000000, 0.1250000000, 0.1250000000, 0.1250000000, -0.1250000000, -0.1250000000, 0.1250000000, 0.1250000000, -0.1250000000, -0.1250000000, 0.1250000000, 0.1250000000, 0.1250000000, -0.1250000000, -0.1250000000, -0.1250000000, 0.1250000000, -0.1250000000, 0.1250000000, 0.1250000000, -0.1250000000, -0.1250000000, -0.1250000000, 0.1250000000, -0.1250000000, 0.1250000000, 0.1250000000, 0.1250000000, -0.1250000000, -0.1250000000, -0.1250000000, 0.1250000000, -0.1250000000, 0.1250000000, -0.1250000000, -0.1250000000, -0.1250000000, -0.1250000000, 0.1250000000, 0.1250000000, -0.1250000000, -0.1250000000, -0.1250000000, 0.1250000000, -0.1250000000, 0.1250000000, -0.1250000000, -0.1250000000, 0.1250000000, -0.1250000000, -0.1250000000, 0.1250000000, -0.1250000000, -0.1250000000, -0.1250000000, -0.1250000000, 0.1250000000, 0.1250000000, -0.1250000000, -0.1250000000, -0.1250000000, -0.1250000000, -0.1250000000, 0.1250000000, -0.1250000000, -0.1250000000, -0.1250000000, 0.1250000000, -0.1250000000, -0.1250000000, 0.1250000000, 0.1250000000, -0.1250000000, -0.1250000000, 0.1250000000, -0.1250000000, 0.1250000000, 0.1250000000, -0.1250000000, -0.1250000000, 0.1250000000, -0.1250000000, 0.1250000000, 0.1250000000, 0.1250000000, -0.1250000000, -0.1250000000, 0.1250000000, -0.1250000000, -0.1250000000, -0.1250000000, -0.1250000000, -0.1250000000, -0.1250000000, 0.1250000000, 0.1250000000, 0.1250000000, -0.1250000000, -0.1250000000, 0.1250000000, -0.1250000000, -0.1250000000, -0.1250000000, 0.1250000000, 0.1250000000, 0.1250000000, -0.1250000000, -0.1250000000, 0.1250000000, 0.1250000000, -0.1250000000, 0.1250000000, 0.1250000000, -0.1250000000, 0.1250000000, 0.1250000000, 0.1250000000, 0.1250000000, 0.1250000000, -0.1250000000, -0.1250000000, 0.1250000000, 0.1250000000, 0.1250000000, -0.1250000000, -0.1250000000, 0.1250000000, 0.1250000000, 0.1250000000, 0.1250000000, 0.1250000000, -0.1250000000, 0.1250000000, -0.1250000000, 0.1250000000, 0.1250000000, 0.1250000000, -0.1250000000, 0.1250000000, -0.1250000000, -0.1250000000, 0.1250000000, 0.1250000000, -0.1250000000, -0.1250000000, 0.1250000000, 0.1250000000, -0.1250000000, -0.1250000000, -0.1250000000, -0.1250000000, 0.1250000000, -0.1250000000, 0.1250000000, 0.1250000000, -0.1250000000, 0.1250000000, -0.1250000000, 0.1250000000, 0.1250000000, -0.1250000000, -0.1250000000, 0.1250000000, -0.1250000000, -0.1250000000, -0.1250000000, 0.1250000000, -0.1250000000, -0.1250000000, -0.1250000000, 0.1250000000, 0.1250000000, -0.1250000000, 0.1250000000, 0.1250000000, -0.1250000000, 0.1250000000, 0.1250000000, -0.1250000000, -0.1250000000, 0.1250000000, -0.1250000000, -0.1250000000, 0.1250000000, -0.1250000000, 0.1250000000, 0.1250000000, 0.1250000000, -0.1250000000, 0.1250000000, 0.1250000000, 0.1250000000, -0.1250000000, 0.1250000000, -0.1250000000, -0.1250000000, -0.1250000000, 0.1250000000, -0.1250000000, -0.1250000000, -0.1250000000, -0.1250000000, -0.1250000000, 0.1250000000, 0.1250000000, -0.1250000000, 0.1250000000, -0.1250000000, 0.1250000000, -0.1250000000, -0.1250000000, 0.1250000000, 0.1250000000, -0.1250000000, -0.1250000000, 0.1250000000, 0.1250000000, -0.1250000000, -0.1250000000, -0.1250000000, -0.1250000000, -0.1250000000, -0.1250000000, -0.1250000000, 0.1250000000, 0.1250000000, -0.1250000000, -0.1250000000, 0.1250000000, -0.1250000000, -0.1250000000, 0.1250000000, 0.1250000000, -0.1250000000, 0.1250000000, -0.1250000000, 0.1250000000, 0.1250000000, 0.1250000000, -0.1250000000, -0.1250000000, -0.1250000000, 0.1250000000, 0.1250000000, -0.1250000000, -0.1250000000, 0.1250000000, -0.1250000000, -0.1250000000, -0.1250000000, 0.1250000000, 0.1250000000, -0.1250000000, -0.1250000000, 0.1250000000, 0.1250000000, -0.1250000000, -0.1250000000, -0.1250000000, -0.1250000000, -0.1250000000, -0.1250000000, 0.1250000000, 0.1250000000, -0.1250000000, 0.1250000000, 0.1250000000, -0.1250000000, -0.1250000000, -0.1250000000, -0.1250000000, 0.1250000000, 0.1250000000, 0.1250000000, 0.1250000000, -0.1250000000, 0.1250000000, -0.1250000000, 0.1250000000, -0.1250000000, -0.1250000000, -0.1250000000, 0.1250000000, -0.1250000000, -0.1250000000, 0.1250000000, -0.1250000000, -0.1250000000, -0.1250000000, -0.1250000000, 0.1250000000, 0.1250000000, -0.1250000000, -0.1250000000, -0.1250000000, 0.1250000000, -0.1250000000, 0.1250000000, 0.1250000000, 0.1250000000, -0.1250000000, 0.1250000000, -0.1250000000, -0.1250000000, -0.1250000000, 0.1250000000, 0.1250000000, -0.1250000000, 0.1250000000, -0.1250000000, -0.1250000000, 0.1250000000, -0.1250000000, 0.1250000000, -0.1250000000, 0.1250000000, -0.1250000000, 0.1250000000, 0.1250000000, -0.1250000000, -0.1250000000, 0.1250000000, 0.1250000000, 0.1250000000, 0.1250000000, -0.1250000000, -0.1250000000, 0.1250000000, 0.1250000000, -0.1250000000, -0.1250000000, 0.1250000000, -0.1250000000, -0.1250000000, -0.1250000000, -0.1250000000, 0.1250000000, 0.1250000000, -0.1250000000, 0.1250000000, -0.1250000000, 0.1250000000, -0.1250000000, -0.1250000000, 0.1250000000, -0.1250000000, 0.1250000000, -0.1250000000, 0.1250000000, -0.1250000000, 0.1250000000, 0.1250000000, 0.1250000000, -0.1250000000, 0.1250000000, 0.1250000000, -0.1250000000, 0.1250000000, 0.1250000000, -0.1250000000, 0.1250000000, 0.1250000000, -0.1250000000, 0.1250000000, 0.1250000000, 0.1250000000, -0.1250000000, 0.1250000000, 0.1250000000, -0.1250000000, -0.1250000000, 0.1250000000, -0.1250000000, 0.1250000000, 0.1250000000, -0.1250000000, 0.1250000000, 0.1250000000, 0.1250000000, -0.1250000000, 0.1250000000, 0.1250000000, -0.1250000000, -0.1250000000, 0.1250000000, -0.1250000000, -0.1250000000, -0.1250000000, -0.1250000000, 0.1250000000, -0.1250000000, -0.1250000000, -0.1250000000, -0.1250000000, -0.1250000000, -0.1250000000, -0.1250000000, -0.1250000000, -0.1250000000, -0.1250000000, -0.1250000000, -0.1250000000, -0.1250000000, 0.1250000000, -0.1250000000, 0.1250000000, 0.1250000000, -0.1250000000, 0.1250000000, 0.1250000000, -0.1250000000, 0.1250000000, -0.1250000000, 0.1250000000, -0.1250000000, 0.1250000000, -0.1250000000, 0.1250000000, 0.1250000000, 0.1250000000, 0.1250000000, -0.1250000000, -0.1250000000, -0.1250000000, 0.1250000000, 0.1250000000, 0.1250000000, -0.1250000000, 0.1250000000, -0.1250000000, -0.1250000000, -0.1250000000, -0.1250000000, 0.1250000000, -0.1250000000, -0.1250000000, -0.1250000000, -0.1250000000, 0.1250000000, -0.1250000000, 0.1250000000, -0.1250000000, 0.1250000000, 0.1250000000, -0.1250000000, -0.1250000000, 0.1250000000, 0.1250000000, -0.1250000000, -0.1250000000, -0.1250000000, 0.1250000000, -0.1250000000, 0.1250000000, 0.1250000000, 0.1250000000, -0.1250000000, 0.1250000000, -0.1250000000, 0.1250000000, 0.1250000000, 0.1250000000, -0.1250000000, -0.1250000000, -0.1250000000, -0.1250000000, 0.1250000000, -0.1250000000, 0.1250000000, -0.1250000000, 0.1250000000, -0.1250000000, 0.1250000000, 0.1250000000, 0.1250000000, 0.1250000000, -0.1250000000, 0.1250000000, -0.1250000000, 0.1250000000, 0.1250000000, 0.1250000000, -0.1250000000, -0.1250000000, -0.1250000000, -0.1250000000, 0.1250000000, -0.1250000000, 0.1250000000, -0.1250000000, 0.1250000000, -0.1250000000, 0.1250000000, -0.1250000000, -0.1250000000, -0.1250000000, 0.1250000000, -0.1250000000, -0.1250000000, 0.1250000000, 0.1250000000, 0.1250000000, -0.1250000000, 0.1250000000, -0.1250000000, -0.1250000000, 0.1250000000, 0.1250000000, -0.1250000000, 0.1250000000, 0.1250000000, -0.1250000000, -0.1250000000, -0.1250000000, -0.1250000000, -0.1250000000, -0.1250000000, 0.1250000000, -0.1250000000, -0.1250000000, 0.1250000000, 0.1250000000, -0.1250000000, 0.1250000000, -0.1250000000, -0.1250000000, 0.1250000000, -0.1250000000, -0.1250000000, -0.1250000000, 0.1250000000, -0.1250000000, 0.1250000000, 0.1250000000, 0.1250000000, 0.1250000000, 0.1250000000, 0.1250000000, -0.1250000000, -0.1250000000, -0.1250000000, -0.1250000000, -0.1250000000, -0.1250000000, 0.1250000000, 0.1250000000, 0.1250000000, -0.1250000000, 0.1250000000, -0.1250000000, -0.1250000000, -0.1250000000, -0.1250000000, 0.1250000000, -0.1250000000, -0.1250000000, -0.1250000000, -0.1250000000, -0.1250000000, 0.1250000000, -0.1250000000, 0.1250000000, 0.1250000000, 0.1250000000, -0.1250000000, 0.1250000000, -0.1250000000, 0.1250000000, -0.1250000000, -0.1250000000, 0.1250000000, 0.1250000000, 0.1250000000, -0.1250000000, -0.1250000000, 0.1250000000, 0.1250000000, 0.1250000000, -0.1250000000, 0.1250000000, 0.1250000000, 0.1250000000, -0.1250000000, -0.1250000000, 0.1250000000, 0.1250000000, 0.1250000000, -0.1250000000, 0.1250000000, 0.1250000000, -0.1250000000, 0.1250000000, 0.1250000000, -0.1250000000, 0.1250000000, 0.1250000000, -0.1250000000, 0.1250000000, -0.1250000000, 0.1250000000, 0.1250000000, 0.1250000000, 0.1250000000, 0.1250000000, 0.1250000000, 0.1250000000, 0.1250000000, -0.1250000000, -0.1250000000, 0.1250000000, 0.1250000000, 0.1250000000, 0.1250000000, -0.1250000000, 0.1250000000, 0.1250000000, 0.1250000000, 0.1250000000, 0.1250000000, 0.1250000000, 0.1250000000, 0.1250000000, -0.1250000000, 0.1250000000, -0.1250000000, -0.1250000000, 0.1250000000, 0.1250000000, -0.1250000000, -0.1250000000, 0.1250000000, 0.1250000000, -0.1250000000, -0.1250000000, 0.1250000000, 0.1250000000, -0.1250000000, -0.1250000000, -0.1250000000, -0.1250000000, 0.1250000000, -0.1250000000, -0.1250000000, 0.1250000000, -0.1250000000, 0.1250000000, 0.1250000000, -0.1250000000, 0.1250000000, 0.1250000000, -0.1250000000, 0.1250000000, -0.1250000000, 0.1250000000, 0.1250000000, -0.1250000000, 0.1250000000, 0.1250000000, 0.1250000000, -0.1250000000, -0.1250000000, -0.1250000000, -0.1250000000, -0.1250000000, -0.1250000000, 0.1250000000, 0.1250000000, 0.1250000000, 0.1250000000, -0.1250000000, 0.1250000000, -0.1250000000, 0.1250000000, 0.1250000000, -0.1250000000, -0.1250000000, -0.1250000000, 0.1250000000, -0.1250000000, -0.1250000000, -0.1250000000, -0.1250000000, -0.1250000000, 0.1250000000, -0.1250000000, -0.1250000000, -0.1250000000, -0.1250000000, -0.1250000000, 0.1250000000, 0.1250000000, 0.1250000000, 0.1250000000, 0.1250000000, -0.1250000000, 0.1250000000, 0.1250000000, 0.1250000000, 0.1250000000, 0.1250000000, 0.1250000000, 0.1250000000, -0.1250000000, -0.1250000000, 0.1250000000, 0.1250000000, -0.1250000000, -0.1250000000, -0.1250000000, 0.1250000000, -0.1250000000, 0.1250000000, 0.1250000000, -0.1250000000, 0.1250000000, -0.1250000000, -0.1250000000, 0.1250000000, -0.1250000000, 0.1250000000, -0.1250000000, 0.1250000000, 0.1250000000, 0.1250000000, -0.1250000000, -0.1250000000, 0.1250000000, -0.1250000000, 0.1250000000, 0.1250000000, -0.1250000000, -0.1250000000, 0.1250000000, 0.1250000000, -0.1250000000, -0.1250000000, 0.1250000000, 0.1250000000, 0.1250000000, -0.1250000000, 0.1250000000, -0.1250000000, 0.1250000000, 0.1250000000, -0.1250000000, -0.1250000000, 0.1250000000, 0.1250000000, 0.1250000000, 0.1250000000, -0.1250000000, -0.1250000000, 0.1250000000, -0.1250000000, 0.1250000000, 0.1250000000, 0.1250000000, 0.1250000000, -0.1250000000, -0.1250000000, -0.1250000000, 0.1250000000, -0.1250000000, -0.1250000000, -0.1250000000, 0.1250000000, -0.1250000000, -0.1250000000, 0.1250000000, -0.1250000000, 0.1250000000, 0.1250000000, -0.1250000000, 0.1250000000, 0.1250000000, 0.1250000000, 0.1250000000, 0.1250000000, 0.1250000000, 0.1250000000, -0.1250000000, -0.1250000000, -0.1250000000, -0.1250000000, 0.1250000000, -0.1250000000, 0.1250000000, 0.1250000000, 0.1250000000, -0.1250000000, 0.1250000000, 0.1250000000, 0.1250000000, 0.1250000000, -0.1250000000, -0.1250000000, -0.1250000000, 0.1250000000, -0.1250000000, -0.1250000000, 0.1250000000, 0.1250000000, -0.1250000000, -0.1250000000, -0.1250000000, -0.1250000000, -0.1250000000, -0.1250000000, -0.1250000000, -0.1250000000, 0.1250000000, -0.1250000000, -0.1250000000, -0.1250000000, -0.1250000000, 0.1250000000, -0.1250000000, 0.1250000000, -0.1250000000, 0.1250000000, 0.1250000000, -0.1250000000, -0.1250000000, -0.1250000000, 0.1250000000, -0.1250000000, -0.1250000000, 0.1250000000, -0.1250000000, -0.1250000000, -0.1250000000, 0.1250000000, -0.1250000000, 0.1250000000, 0.1250000000, -0.1250000000, 0.1250000000, 0.1250000000, 0.1250000000, 0.1250000000, 0.1250000000, -0.1250000000, -0.1250000000, -0.1250000000, -0.1250000000, -0.1250000000, -0.1250000000, -0.1250000000, 0.1250000000, 0.1250000000, 0.1250000000, -0.1250000000, -0.1250000000, 0.1250000000, -0.1250000000, 0.1250000000, 0.1250000000, -0.1250000000, 0.1250000000, -0.1250000000, 0.1250000000, 0.1250000000, 0.1250000000, 0.1250000000, 0.1250000000, -0.1250000000, 0.1250000000, 0.1250000000, 0.1250000000, -0.1250000000, -0.1250000000, 0.1250000000, 0.1250000000, -0.1250000000, -0.1250000000, 0.1250000000, 0.1250000000, -0.1250000000, 0.1250000000, -0.1250000000, 0.1250000000, -0.1250000000, 0.1250000000, 0.1250000000, -0.1250000000, 0.1250000000, 0.1250000000, -0.1250000000, 0.1250000000, -0.1250000000, 0.1250000000, 0.1250000000, -0.1250000000, 0.1250000000, 0.1250000000, 0.1250000000, 0.1250000000, 0.1250000000, -0.1250000000, 0.1250000000, -0.1250000000, -0.1250000000, -0.1250000000, -0.1250000000, -0.1250000000, -0.1250000000, -0.1250000000, -0.1250000000, 0.1250000000, -0.1250000000, 0.1250000000, 0.1250000000, 0.1250000000, 0.1250000000, 0.1250000000, -0.1250000000, -0.1250000000, -0.1250000000, 0.1250000000, 0.1250000000, 0.1250000000, 0.1250000000, 0.1250000000, -0.1250000000, 0.1250000000, 0.1250000000, -0.1250000000, 0.1250000000, -0.1250000000, 0.1250000000, 0.1250000000, -0.1250000000, -0.1250000000, -0.1250000000, 0.1250000000, -0.1250000000, -0.1250000000, 0.1250000000, -0.1250000000, 0.1250000000, -0.1250000000, -0.1250000000, -0.1250000000, 0.1250000000, -0.1250000000, -0.1250000000, -0.1250000000, 0.1250000000, 0.1250000000, 0.1250000000, 0.1250000000, -0.1250000000, 0.1250000000, 0.1250000000, -0.1250000000, 0.1250000000, -0.1250000000, -0.1250000000, 0.1250000000, 0.1250000000, 0.1250000000, 0.1250000000, 0.1250000000, -0.1250000000, -0.1250000000, 0.1250000000, 0.1250000000, -0.1250000000, -0.1250000000, 0.1250000000, 0.1250000000, -0.1250000000, -0.1250000000, 0.1250000000, -0.1250000000, -0.1250000000, 0.1250000000, -0.1250000000, -0.1250000000, 0.1250000000, -0.1250000000, -0.1250000000, -0.1250000000, 0.1250000000, 0.1250000000, 0.1250000000, 0.1250000000, 0.1250000000, 0.1250000000, 0.1250000000, -0.1250000000, -0.1250000000, -0.1250000000, -0.1250000000, -0.1250000000, 0.1250000000, -0.1250000000, 0.1250000000, 0.1250000000, 0.1250000000, 0.1250000000, -0.1250000000, 0.1250000000, -0.1250000000, 0.1250000000, -0.1250000000, -0.1250000000, -0.1250000000, 0.1250000000, 0.1250000000, 0.1250000000, -0.1250000000, -0.1250000000, 0.1250000000, -0.1250000000, -0.1250000000, 0.1250000000, 0.1250000000, -0.1250000000, -0.1250000000, -0.1250000000, -0.1250000000, -0.1250000000, -0.1250000000, -0.1250000000, -0.1250000000, 0.1250000000, -0.1250000000, 0.1250000000, -0.1250000000, -0.1250000000, 0.1250000000, 0.1250000000, -0.1250000000, -0.1250000000, 0.1250000000, -0.1250000000, 0.1250000000, 0.1250000000, 0.1250000000, 0.1250000000, 0.1250000000, 0.1250000000, -0.1250000000, 0.1250000000, -0.1250000000, 0.1250000000, 0.1250000000, 0.1250000000, -0.1250000000, 0.1250000000, -0.1250000000, -0.1250000000, 0.1250000000, 0.1250000000, -0.1250000000, -0.1250000000, 0.1250000000, -0.1250000000, -0.1250000000, 0.1250000000, -0.1250000000, -0.1250000000, 0.1250000000, -0.1250000000, -0.1250000000, -0.1250000000, 0.1250000000, 0.1250000000, 0.1250000000, 0.1250000000, -0.1250000000, 0.1250000000, 0.1250000000, -0.1250000000, 0.1250000000, -0.1250000000, -0.1250000000, -0.1250000000, -0.1250000000, 0.1250000000, -0.1250000000, 0.1250000000, -0.1250000000, 0.1250000000, -0.1250000000, -0.1250000000, -0.1250000000, -0.1250000000, -0.1250000000, 0.1250000000, -0.1250000000, 0.1250000000, -0.1250000000, -0.1250000000, 0.1250000000, 0.1250000000, -0.1250000000, -0.1250000000, 0.1250000000, -0.1250000000, -0.1250000000, -0.1250000000, -0.1250000000, -0.1250000000, 0.1250000000, 0.1250000000, -0.1250000000, 0.1250000000, 0.1250000000, -0.1250000000, 0.1250000000, -0.1250000000, -0.1250000000, -0.1250000000, -0.1250000000, 0.1250000000, 0.1250000000, 0.1250000000, 0.1250000000, -0.1250000000, -0.1250000000, 0.1250000000, 0.1250000000, -0.1250000000, -0.1250000000, 0.1250000000, 0.1250000000, 0.1250000000, -0.1250000000, -0.1250000000, -0.1250000000, -0.1250000000, -0.1250000000, -0.1250000000, -0.1250000000, 0.1250000000, -0.1250000000, -0.1250000000, -0.1250000000, -0.1250000000, -0.1250000000, -0.1250000000, -0.1250000000, -0.1250000000, 0.1250000000, -0.1250000000, -0.1250000000, -0.1250000000, 0.1250000000, 0.1250000000, 0.1250000000, 0.1250000000, -0.1250000000, 0.1250000000, 0.1250000000, -0.1250000000, 0.1250000000, 0.1250000000, 0.1250000000, 0.1250000000, -0.1250000000, 0.1250000000, -0.1250000000, -0.1250000000, -0.1250000000, 0.1250000000, -0.1250000000, 0.1250000000, -0.1250000000, 0.1250000000, 0.1250000000, -0.1250000000, -0.1250000000, 0.1250000000, 0.1250000000, -0.1250000000, 0.1250000000, -0.1250000000, -0.1250000000, -0.1250000000, -0.1250000000, -0.1250000000, 0.1250000000, -0.1250000000, -0.1250000000, 0.1250000000, -0.1250000000, 0.1250000000, -0.1250000000, -0.1250000000, -0.1250000000, 0.1250000000, 0.1250000000, -0.1250000000, 0.1250000000, -0.1250000000, 0.1250000000, 0.1250000000, 0.1250000000, -0.1250000000, 0.1250000000, -0.1250000000, -0.1250000000, -0.1250000000, 0.1250000000, 0.1250000000, -0.1250000000, -0.1250000000, -0.1250000000, -0.1250000000, -0.1250000000, 0.1250000000, -0.1250000000, -0.1250000000, 0.1250000000, -0.1250000000, -0.1250000000, 0.1250000000, 0.1250000000, -0.1250000000, -0.1250000000, -0.1250000000, 0.1250000000, -0.1250000000, 0.1250000000, 0.1250000000, 0.1250000000, 0.1250000000, 0.1250000000, -0.1250000000, 0.1250000000, -0.1250000000, -0.1250000000, 0.1250000000, -0.1250000000, -0.1250000000, 0.1250000000, 0.1250000000, 0.1250000000, 0.1250000000, 0.1250000000, 0.1250000000, 0.1250000000, -0.1250000000, 0.1250000000, 0.1250000000, 0.1250000000, 0.1250000000, -0.1250000000, -0.1250000000, 0.1250000000, 0.1250000000, -0.1250000000, 0.1250000000, -0.1250000000, 0.1250000000, 0.1250000000, -0.1250000000, 0.1250000000, 0.1250000000, 0.1250000000, 0.1250000000, 0.1250000000, -0.1250000000, 0.1250000000, -0.1250000000, 0.1250000000, 0.1250000000, -0.1250000000, 0.1250000000, 0.1250000000, -0.1250000000, -0.1250000000, -0.1250000000, -0.1250000000, -0.1250000000, 0.1250000000, 0.1250000000, 0.1250000000, -0.1250000000, -0.1250000000, -0.1250000000, -0.1250000000, 0.1250000000, 0.1250000000, 0.1250000000, -0.1250000000, -0.1250000000, 0.1250000000, -0.1250000000, 0.1250000000, -0.1250000000, 0.1250000000, -0.1250000000, 0.1250000000, -0.1250000000, -0.1250000000, -0.1250000000, 0.1250000000, -0.1250000000, 0.1250000000, -0.1250000000, -0.1250000000, 0.1250000000, 0.1250000000, 0.1250000000, -0.1250000000, -0.1250000000, -0.1250000000, -0.1250000000, 0.1250000000, -0.1250000000, -0.1250000000, 0.1250000000, 0.1250000000, 0.1250000000, 0.1250000000, 0.1250000000, 0.1250000000, 0.1250000000, 0.1250000000, 0.1250000000, 0.1250000000, -0.1250000000, 0.1250000000, 0.1250000000, -0.1250000000, -0.1250000000, -0.1250000000, 0.1250000000, 0.1250000000, 0.1250000000, -0.1250000000, -0.1250000000, -0.1250000000, -0.1250000000, -0.1250000000, 0.1250000000, 0.1250000000, 0.1250000000, -0.1250000000, -0.1250000000, 0.1250000000, -0.1250000000, -0.1250000000, 0.1250000000, -0.1250000000, -0.1250000000, 0.1250000000, 0.1250000000, -0.1250000000, -0.1250000000, 0.1250000000, 0.1250000000, -0.1250000000, -0.1250000000, -0.1250000000, -0.1250000000, -0.1250000000, 0.1250000000, 0.1250000000, -0.1250000000, -0.1250000000, -0.1250000000, 0.1250000000, 0.1250000000, -0.1250000000, -0.1250000000, 0.1250000000, 0.1250000000, -0.1250000000, 0.1250000000, -0.1250000000, -0.1250000000, -0.1250000000, -0.1250000000, 0.1250000000, -0.1250000000, 0.1250000000, -0.1250000000, -0.1250000000, 0.1250000000, -0.1250000000, -0.1250000000, -0.1250000000, -0.1250000000, 0.1250000000, -0.1250000000, 0.1250000000, -0.1250000000, 0.1250000000, -0.1250000000, 0.1250000000, 0.1250000000, -0.1250000000, -0.1250000000, 0.1250000000, 0.1250000000, 0.1250000000, -0.1250000000, -0.1250000000, 0.1250000000, -0.1250000000, -0.1250000000, -0.1250000000, -0.1250000000, 0.1250000000, 0.1250000000, 0.1250000000, 0.1250000000, -0.1250000000, -0.1250000000, 0.1250000000, -0.1250000000, -0.1250000000, -0.1250000000, 0.1250000000, -0.1250000000, 0.1250000000, -0.1250000000, -0.1250000000, 0.1250000000, 0.1250000000, 0.1250000000, 0.1250000000, -0.1250000000, 0.1250000000, -0.1250000000, 0.1250000000, -0.1250000000, -0.1250000000, -0.1250000000, 0.1250000000, -0.1250000000, 0.1250000000, -0.1250000000, -0.1250000000, 0.1250000000, 0.1250000000, 0.1250000000, -0.1250000000, 0.1250000000, -0.1250000000, 0.1250000000, -0.1250000000, 0.1250000000, 0.1250000000, 0.1250000000, -0.1250000000, 0.1250000000, -0.1250000000, 0.1250000000, 0.1250000000, -0.1250000000, -0.1250000000, 0.1250000000, 0.1250000000, 0.1250000000, 0.1250000000, -0.1250000000, -0.1250000000, -0.1250000000, -0.1250000000, -0.1250000000, 0.1250000000, 0.1250000000, -0.1250000000, -0.1250000000, -0.1250000000, 0.1250000000, -0.1250000000, -0.1250000000, 0.1250000000, -0.1250000000, 0.1250000000, -0.1250000000, -0.1250000000, 0.1250000000, -0.1250000000, -0.1250000000, -0.1250000000, -0.1250000000, 0.1250000000, -0.1250000000, -0.1250000000, -0.1250000000, -0.1250000000, 0.1250000000, -0.1250000000, 0.1250000000, -0.1250000000, 0.1250000000, 0.1250000000, -0.1250000000, -0.1250000000, 0.1250000000, 0.1250000000, 0.1250000000, 0.1250000000, -0.1250000000, -0.1250000000, 0.1250000000, -0.1250000000, 0.1250000000, 0.1250000000, -0.1250000000, 0.1250000000, -0.1250000000, 0.1250000000, 0.1250000000, -0.1250000000, -0.1250000000, -0.1250000000, 0.1250000000, -0.1250000000, -0.1250000000, 0.1250000000, 0.1250000000, 0.1250000000, 0.1250000000, -0.1250000000, 0.1250000000, 0.1250000000, -0.1250000000, 0.1250000000, 0.1250000000, 0.1250000000, 0.1250000000, 0.1250000000, 0.1250000000, -0.1250000000, 0.1250000000, 0.1250000000, 0.1250000000, -0.1250000000, 0.1250000000, 0.1250000000, -0.1250000000, -0.1250000000, 0.1250000000, -0.1250000000, -0.1250000000, 0.1250000000, 0.1250000000, -0.1250000000, 0.1250000000, 0.1250000000, 0.1250000000, -0.1250000000, 0.1250000000, -0.1250000000, -0.1250000000, -0.1250000000, -0.1250000000, 0.1250000000, -0.1250000000, -0.1250000000, 0.1250000000, 0.1250000000, -0.1250000000, -0.1250000000, -0.1250000000, -0.1250000000, -0.1250000000, -0.1250000000, 0.1250000000, -0.1250000000, 0.1250000000, -0.1250000000, 0.1250000000, 0.1250000000, 0.1250000000, -0.1250000000, -0.1250000000, 0.1250000000, 0.1250000000, 0.1250000000, 0.1250000000, -0.1250000000, -0.1250000000, 0.1250000000, 0.1250000000, -0.1250000000, -0.1250000000, 0.1250000000, 0.1250000000, 0.1250000000, -0.1250000000, -0.1250000000, -0.1250000000, -0.1250000000, -0.1250000000, 0.1250000000, 0.1250000000, -0.1250000000, 0.1250000000, -0.1250000000, 0.1250000000, 0.1250000000, -0.1250000000, 0.1250000000, -0.1250000000, 0.1250000000, -0.1250000000, 0.1250000000, -0.1250000000, -0.1250000000, -0.1250000000, 0.1250000000, -0.1250000000, -0.1250000000, -0.1250000000, 0.1250000000, 0.1250000000, -0.1250000000, 0.1250000000, 0.1250000000, 0.1250000000, -0.1250000000, 0.1250000000, -0.1250000000, 0.1250000000, 0.1250000000, 0.1250000000, -0.1250000000, -0.1250000000, 0.1250000000, 0.1250000000, -0.1250000000, 0.1250000000, -0.1250000000, -0.1250000000, -0.1250000000, 0.1250000000, -0.1250000000, -0.1250000000, -0.1250000000, -0.1250000000, -0.1250000000, 0.1250000000, -0.1250000000, 0.1250000000, -0.1250000000, 0.1250000000, 0.1250000000, -0.1250000000, -0.1250000000, -0.1250000000, -0.1250000000, -0.1250000000, 0.1250000000, 0.1250000000, 0.1250000000, 0.1250000000, 0.1250000000, -0.1250000000, 0.1250000000, -0.1250000000, -0.1250000000, -0.1250000000, 0.1250000000, 0.1250000000, 0.1250000000, 0.1250000000, -0.1250000000, 0.1250000000, -0.1250000000, -0.1250000000, 0.1250000000, 0.1250000000, -0.1250000000, -0.1250000000, -0.1250000000, -0.1250000000, -0.1250000000, -0.1250000000, 0.1250000000, -0.1250000000, -0.1250000000, -0.1250000000, 0.1250000000, -0.1250000000, 0.1250000000, 0.1250000000, 0.1250000000, -0.1250000000, 0.1250000000, -0.1250000000, 0.1250000000, 0.1250000000, 0.1250000000, 0.1250000000, -0.1250000000, 0.1250000000, -0.1250000000, -0.1250000000, 0.1250000000, -0.1250000000, -0.1250000000, -0.1250000000, -0.1250000000, -0.1250000000, -0.1250000000, -0.1250000000, 0.1250000000, 0.1250000000, 0.1250000000, -0.1250000000, 0.1250000000, -0.1250000000, -0.1250000000, 0.1250000000, 0.1250000000, 0.1250000000, -0.1250000000, 0.1250000000, 0.1250000000, -0.1250000000, 0.1250000000, -0.1250000000, 0.1250000000, -0.1250000000, -0.1250000000, 0.1250000000, 0.1250000000, -0.1250000000, -0.1250000000, -0.1250000000, 0.1250000000, -0.1250000000, -0.1250000000, 0.1250000000, 0.1250000000, -0.1250000000, -0.1250000000, -0.1250000000, -0.1250000000, 0.1250000000, 0.1250000000, 0.1250000000, 0.1250000000, -0.1250000000, 0.1250000000, -0.1250000000, -0.1250000000, -0.1250000000, -0.1250000000, -0.1250000000, 0.1250000000, 0.1250000000, -0.1250000000, -0.1250000000, -0.1250000000, 0.1250000000, -0.1250000000, 0.1250000000, -0.1250000000, -0.1250000000, -0.1250000000, -0.1250000000, -0.1250000000, -0.1250000000, 0.1250000000, 0.1250000000, 0.1250000000, 0.1250000000, -0.1250000000, 0.1250000000, 0.1250000000, -0.1250000000, 0.1250000000, 0.1250000000, -0.1250000000, 0.1250000000, -0.1250000000, 0.1250000000, 0.1250000000, 0.1250000000, 0.1250000000, -0.1250000000, 0.1250000000, -0.1250000000, -0.1250000000, 0.1250000000, 0.1250000000, -0.1250000000, -0.1250000000, 0.1250000000, 0.1250000000, 0.1250000000, 0.1250000000, 0.1250000000, -0.1250000000, 0.1250000000, 0.1250000000, 0.1250000000, -0.1250000000, -0.1250000000, -0.1250000000, 0.1250000000, -0.1250000000, 0.1250000000, 0.1250000000, 0.1250000000, -0.1250000000, -0.1250000000, 0.1250000000, 0.1250000000, 0.1250000000, -0.1250000000, -0.1250000000, -0.1250000000, 0.1250000000, 0.1250000000, 0.1250000000, 0.1250000000, -0.1250000000, -0.1250000000, -0.1250000000, -0.1250000000, 0.1250000000, -0.1250000000, -0.1250000000, -0.1250000000, 0.1250000000, 0.1250000000, -0.1250000000, -0.1250000000, 0.1250000000, 0.1250000000, -0.1250000000, -0.1250000000, 0.1250000000, -0.1250000000, -0.1250000000, 0.1250000000, 0.1250000000, -0.1250000000, -0.1250000000, -0.1250000000, 0.1250000000, 0.1250000000, -0.1250000000, 0.1250000000, 0.1250000000, -0.1250000000, -0.1250000000, -0.1250000000, -0.1250000000, 0.1250000000, -0.1250000000, -0.1250000000, 0.1250000000, -0.1250000000, 0.1250000000, -0.1250000000, 0.1250000000, 0.1250000000, 0.1250000000, -0.1250000000, -0.1250000000, 0.1250000000, -0.1250000000, -0.1250000000, 0.1250000000, 0.1250000000, 0.1250000000, 0.1250000000, -0.1250000000, 0.1250000000, -0.1250000000, -0.1250000000, 0.1250000000, -0.1250000000, 0.1250000000, 0.1250000000, 0.1250000000, 0.1250000000, -0.1250000000, -0.1250000000, 0.1250000000, -0.1250000000, 0.1250000000, -0.1250000000, 0.1250000000, 0.1250000000, -0.1250000000, 0.1250000000, -0.1250000000, 0.1250000000, 0.1250000000, 0.1250000000, -0.1250000000, -0.1250000000, -0.1250000000, 0.1250000000, 0.1250000000, 0.1250000000, -0.1250000000, 0.1250000000, 0.1250000000, -0.1250000000, -0.1250000000, 0.1250000000, 0.1250000000, 0.1250000000, 0.1250000000, -0.1250000000, -0.1250000000, 0.1250000000, 0.1250000000, -0.1250000000, 0.1250000000, -0.1250000000, -0.1250000000, -0.1250000000, 0.1250000000, -0.1250000000, 0.1250000000, -0.1250000000, -0.1250000000, -0.1250000000, 0.1250000000, -0.1250000000, -0.1250000000, -0.1250000000, 0.1250000000, 0.1250000000, -0.1250000000, -0.1250000000, -0.1250000000, -0.1250000000, 0.1250000000, -0.1250000000, -0.1250000000, -0.1250000000, 0.1250000000, -0.1250000000, -0.1250000000, 0.1250000000, -0.1250000000, -0.1250000000, 0.1250000000, -0.1250000000, -0.1250000000, -0.1250000000, 0.1250000000, 0.1250000000, 0.1250000000, -0.1250000000, -0.1250000000, -0.1250000000, -0.1250000000, -0.1250000000, 0.1250000000, -0.1250000000, -0.1250000000, -0.1250000000, -0.1250000000, -0.1250000000, 0.1250000000, -0.1250000000, 0.1250000000, 0.1250000000, -0.1250000000, 0.1250000000, 0.1250000000, -0.1250000000, -0.1250000000, -0.1250000000, 0.1250000000, -0.1250000000, 0.1250000000, 0.1250000000, 0.1250000000, 0.1250000000, 0.1250000000, 0.1250000000, -0.1250000000, 0.1250000000, -0.1250000000, 0.1250000000, -0.1250000000, 0.1250000000, -0.1250000000, 0.1250000000, 0.1250000000, 0.1250000000, 0.1250000000, -0.1250000000, -0.1250000000, -0.1250000000, 0.1250000000, -0.1250000000, 0.1250000000, 0.1250000000, 0.1250000000, -0.1250000000, -0.1250000000, -0.1250000000, 0.1250000000, -0.1250000000, -0.1250000000, 0.1250000000, -0.1250000000, -0.1250000000, -0.1250000000, -0.1250000000, 0.1250000000, -0.1250000000, 0.1250000000, 0.1250000000, 0.1250000000, 0.1250000000, -0.1250000000, -0.1250000000, 0.1250000000, -0.1250000000, -0.1250000000, 0.1250000000, 0.1250000000, -0.1250000000, -0.1250000000, -0.1250000000, -0.1250000000, 0.1250000000, 0.1250000000, -0.1250000000, -0.1250000000, -0.1250000000, 0.1250000000, 0.1250000000, 0.1250000000, 0.1250000000, -0.1250000000, 0.1250000000, 0.1250000000, -0.1250000000, 0.1250000000, 0.1250000000, -0.1250000000, -0.1250000000, 0.1250000000, -0.1250000000, 0.1250000000, -0.1250000000, 0.1250000000, 0.1250000000, 0.1250000000, -0.1250000000, -0.1250000000, -0.1250000000, -0.1250000000, 0.1250000000, 0.1250000000, -0.1250000000, -0.1250000000, -0.1250000000, -0.1250000000, 0.1250000000, -0.1250000000, 0.1250000000, 0.1250000000, 0.1250000000, 0.1250000000, -0.1250000000, -0.1250000000, 0.1250000000, 0.1250000000, 0.1250000000, 0.1250000000, 0.1250000000, 0.1250000000, 0.1250000000, -0.1250000000, 0.1250000000, -0.1250000000, -0.1250000000, 0.1250000000, -0.1250000000, 0.1250000000, 0.1250000000, -0.1250000000, -0.1250000000, 0.1250000000, -0.1250000000, 0.1250000000, -0.1250000000, -0.1250000000, -0.1250000000, -0.1250000000, 0.1250000000, 0.1250000000, -0.1250000000, 0.1250000000, -0.1250000000, -0.1250000000, 0.1250000000, 0.1250000000, -0.1250000000, 0.1250000000, 0.1250000000, 0.1250000000, -0.1250000000, -0.1250000000, 0.1250000000, -0.1250000000, -0.1250000000, 0.1250000000, 0.1250000000, -0.1250000000, -0.1250000000, 0.1250000000, 0.1250000000, 0.1250000000, -0.1250000000, -0.1250000000, -0.1250000000, 0.1250000000, -0.1250000000, -0.1250000000, -0.1250000000, 0.1250000000, 0.1250000000, -0.1250000000, -0.1250000000, -0.1250000000, -0.1250000000, 0.1250000000, -0.1250000000, -0.1250000000, -0.1250000000, -0.1250000000, 0.1250000000, -0.1250000000, 0.1250000000, 0.1250000000, -0.1250000000, -0.1250000000, -0.1250000000, 0.1250000000, -0.1250000000, -0.1250000000, -0.1250000000, 0.1250000000, -0.1250000000, -0.1250000000, 0.1250000000, 0.1250000000, 0.1250000000, -0.1250000000, 0.1250000000, -0.1250000000, 0.1250000000, -0.1250000000, 0.1250000000, -0.1250000000, -0.1250000000, 0.1250000000, 0.1250000000, -0.1250000000, 0.1250000000, -0.1250000000, 0.1250000000, 0.1250000000, -0.1250000000, 0.1250000000, -0.1250000000, 0.1250000000, -0.1250000000, -0.1250000000, -0.1250000000, 0.1250000000, -0.1250000000, 0.1250000000, 0.1250000000, -0.1250000000, -0.1250000000, -0.1250000000, 0.1250000000, -0.1250000000, -0.1250000000, -0.1250000000, 0.1250000000, -0.1250000000, 0.1250000000, -0.1250000000, 0.1250000000, 0.1250000000, -0.1250000000, -0.1250000000, 0.1250000000, 0.1250000000, -0.1250000000, 0.1250000000, 0.1250000000, -0.1250000000, 0.1250000000, 0.1250000000, -0.1250000000, -0.1250000000, 0.1250000000, -0.1250000000, 0.1250000000, 0.1250000000, -0.1250000000, 0.1250000000, 0.1250000000, -0.1250000000, -0.1250000000, -0.1250000000, -0.1250000000, 0.1250000000, -0.1250000000, 0.1250000000, 0.1250000000, -0.1250000000, 0.1250000000, 0.1250000000, -0.1250000000, -0.1250000000, 0.1250000000, 0.1250000000, 0.1250000000, -0.1250000000, -0.1250000000, -0.1250000000, -0.1250000000, 0.1250000000, -0.1250000000, -0.1250000000, -0.1250000000, 0.1250000000, 0.1250000000, 0.1250000000, -0.1250000000, -0.1250000000, -0.1250000000, 0.1250000000, 0.1250000000, 0.1250000000, -0.1250000000, 0.1250000000, 0.1250000000, 0.1250000000, 0.1250000000, -0.1250000000, -0.1250000000, 0.1250000000, 0.1250000000, -0.1250000000, -0.1250000000, -0.1250000000, 0.1250000000, 0.1250000000, 0.1250000000, 0.1250000000, 0.1250000000, 0.1250000000, -0.1250000000, -0.1250000000, -0.1250000000, 0.1250000000, -0.1250000000, 0.1250000000, 0.1250000000, -0.1250000000, -0.1250000000, 0.1250000000, 0.1250000000, 0.1250000000, 0.1250000000, 0.1250000000, -0.1250000000, 0.1250000000, 0.1250000000, 0.1250000000, -0.1250000000, -0.1250000000, 0.1250000000, -0.1250000000, 0.1250000000, -0.1250000000, -0.1250000000, -0.1250000000, -0.1250000000, -0.1250000000, 0.1250000000, 0.1250000000, -0.1250000000, -0.1250000000, -0.1250000000, 0.1250000000, -0.1250000000, -0.1250000000, -0.1250000000, -0.1250000000, -0.1250000000, -0.1250000000, -0.1250000000, -0.1250000000, 0.1250000000, -0.1250000000, 0.1250000000, -0.1250000000, 0.1250000000, 0.1250000000, 0.1250000000, 0.1250000000, -0.1250000000, -0.1250000000, 0.1250000000, -0.1250000000, -0.1250000000, 0.1250000000, 0.1250000000, 0.1250000000, -0.1250000000, -0.1250000000, -0.1250000000, -0.1250000000, -0.1250000000, 0.1250000000, 0.1250000000, 0.1250000000, -0.1250000000, 0.1250000000, 0.1250000000, 0.1250000000, -0.1250000000, -0.1250000000, 0.1250000000, 0.1250000000, -0.1250000000, 0.1250000000, 0.1250000000, -0.1250000000, 0.1250000000, -0.1250000000, 0.1250000000, -0.1250000000, 0.1250000000, -0.1250000000, -0.1250000000, -0.1250000000, 0.1250000000, -0.1250000000, -0.1250000000, -0.1250000000, -0.1250000000, -0.1250000000, 0.1250000000, 0.1250000000, 0.1250000000, 0.1250000000, 0.1250000000, -0.1250000000, -0.1250000000, -0.1250000000, -0.1250000000, 0.1250000000, -0.1250000000, 0.1250000000, 0.1250000000, -0.1250000000, 0.1250000000, -0.1250000000, -0.1250000000, -0.1250000000, -0.1250000000, 0.1250000000, -0.1250000000, -0.1250000000, 0.1250000000, 0.1250000000, -0.1250000000, 0.1250000000, -0.1250000000, -0.1250000000, 0.1250000000, -0.1250000000, 0.1250000000, -0.1250000000, -0.1250000000, -0.1250000000, 0.1250000000, 0.1250000000, 0.1250000000, 0.1250000000, 0.1250000000, 0.1250000000, 0.1250000000, 0.1250000000, 0.1250000000, 0.1250000000, -0.1250000000, 0.1250000000, -0.1250000000, -0.1250000000, 0.1250000000, -0.1250000000, 0.1250000000, -0.1250000000, -0.1250000000, -0.1250000000, -0.1250000000, -0.1250000000, 0.1250000000, 0.1250000000, -0.1250000000, -0.1250000000, -0.1250000000, -0.1250000000, 0.1250000000, 0.1250000000, -0.1250000000, 0.1250000000, -0.1250000000, 0.1250000000, -0.1250000000, 0.1250000000, -0.1250000000, 0.1250000000, 0.1250000000, -0.1250000000, -0.1250000000, 0.1250000000, 0.1250000000, 0.1250000000, -0.1250000000, -0.1250000000, -0.1250000000, -0.1250000000, -0.1250000000, -0.1250000000, 0.1250000000, 0.1250000000, -0.1250000000, -0.1250000000, 0.1250000000, 0.1250000000, 0.1250000000, 0.1250000000, -0.1250000000, 0.1250000000, -0.1250000000, 0.1250000000, -0.1250000000, 0.1250000000, 0.1250000000, 0.1250000000, 0.1250000000, -0.1250000000, -0.1250000000, 0.1250000000, -0.1250000000, -0.1250000000, 0.1250000000, 0.1250000000, -0.1250000000, -0.1250000000, 0.1250000000, -0.1250000000, -0.1250000000, 0.1250000000, 0.1250000000, 0.1250000000, 0.1250000000, -0.1250000000, 0.1250000000, -0.1250000000, -0.1250000000, 0.1250000000, 0.1250000000, 0.1250000000, 0.1250000000, -0.1250000000, -0.1250000000, -0.1250000000, 0.1250000000, 0.1250000000, -0.1250000000, 0.1250000000, 0.1250000000, -0.1250000000, -0.1250000000, -0.1250000000, -0.1250000000, 0.1250000000, -0.1250000000, -0.1250000000, -0.1250000000, 0.1250000000, 0.1250000000, -0.1250000000, -0.1250000000, 0.1250000000, -0.1250000000, -0.1250000000, -0.1250000000, -0.1250000000, -0.1250000000, -0.1250000000, 0.1250000000, -0.1250000000, 0.1250000000, 0.1250000000, 0.1250000000, -0.1250000000, -0.1250000000, -0.1250000000, 0.1250000000, 0.1250000000, 0.1250000000, 0.1250000000, -0.1250000000, -0.1250000000, 0.1250000000, -0.1250000000, 0.1250000000, -0.1250000000, 0.1250000000, 0.1250000000, -0.1250000000, 0.1250000000, 0.1250000000, -0.1250000000, 0.1250000000, 0.1250000000, -0.1250000000, -0.1250000000, -0.1250000000, 0.1250000000, -0.1250000000, 0.1250000000, -0.1250000000, -0.1250000000, -0.1250000000, -0.1250000000, 0.1250000000, 0.1250000000, -0.1250000000, -0.1250000000, 0.1250000000, -0.1250000000, -0.1250000000, -0.1250000000, 0.1250000000, 0.1250000000, -0.1250000000, -0.1250000000, -0.1250000000, -0.1250000000, 0.1250000000, -0.1250000000, -0.1250000000, 0.1250000000, -0.1250000000, -0.1250000000, 0.1250000000, 0.1250000000, 0.1250000000, 0.1250000000, -0.1250000000, -0.1250000000, 0.1250000000, -0.1250000000, 0.1250000000, -0.1250000000, 0.1250000000, -0.1250000000, 0.1250000000, -0.1250000000, 0.1250000000, 0.1250000000, 0.1250000000, -0.1250000000, 0.1250000000, 0.1250000000, 0.1250000000, -0.1250000000, 0.1250000000, 0.1250000000, 0.1250000000, 0.1250000000, -0.1250000000, -0.1250000000, 0.1250000000, -0.1250000000, -0.1250000000, -0.1250000000, -0.1250000000, -0.1250000000, 0.1250000000, -0.1250000000, -0.1250000000, 0.1250000000, -0.1250000000, 0.1250000000, 0.1250000000, 0.1250000000, -0.1250000000, -0.1250000000, -0.1250000000, 0.1250000000, -0.1250000000, -0.1250000000, -0.1250000000, -0.1250000000, -0.1250000000, -0.1250000000, 0.1250000000, 0.1250000000, -0.1250000000, -0.1250000000, -0.1250000000, 0.1250000000, 0.1250000000, 0.1250000000, 0.1250000000, 0.1250000000, -0.1250000000, 0.1250000000, 0.1250000000, 0.1250000000, -0.1250000000, 0.1250000000, -0.1250000000, -0.1250000000, 0.1250000000, 0.1250000000, -0.1250000000, 0.1250000000, -0.1250000000, -0.1250000000, 0.1250000000, 0.1250000000, -0.1250000000, 0.1250000000, -0.1250000000, -0.1250000000, -0.1250000000, 0.1250000000, -0.1250000000, -0.1250000000, -0.1250000000, 0.1250000000, -0.1250000000, -0.1250000000, 0.1250000000, -0.1250000000, 0.1250000000, 0.1250000000, 0.1250000000, 0.1250000000, -0.1250000000, 0.1250000000, -0.1250000000, -0.1250000000, 0.1250000000, -0.1250000000, -0.1250000000, 0.1250000000, -0.1250000000, -0.1250000000, 0.1250000000, 0.1250000000, -0.1250000000, -0.1250000000, 0.1250000000, -0.1250000000, 0.1250000000, -0.1250000000, 0.1250000000, -0.1250000000, -0.1250000000, -0.1250000000, 0.1250000000, -0.1250000000, 0.1250000000, 0.1250000000, -0.1250000000, -0.1250000000, 0.1250000000, -0.1250000000, -0.1250000000, -0.1250000000, 0.1250000000, -0.1250000000, 0.1250000000, 0.1250000000, 0.1250000000, 0.1250000000, -0.1250000000, -0.1250000000, 0.1250000000, -0.1250000000, -0.1250000000, 0.1250000000, -0.1250000000, 0.1250000000, -0.1250000000, -0.1250000000, 0.1250000000, 0.1250000000, -0.1250000000, -0.1250000000, 0.1250000000, 0.1250000000, 0.1250000000, -0.1250000000, 0.1250000000, 0.1250000000, -0.1250000000, 0.1250000000, 0.1250000000, -0.1250000000, -0.1250000000, -0.1250000000, -0.1250000000, 0.1250000000, -0.1250000000, -0.1250000000, -0.1250000000, -0.1250000000, -0.1250000000, 0.1250000000, 0.1250000000, -0.1250000000, 0.1250000000, 0.1250000000, 0.1250000000, -0.1250000000, -0.1250000000, -0.1250000000, 0.1250000000, -0.1250000000, -0.1250000000, -0.1250000000, 0.1250000000, 0.1250000000, 0.1250000000, 0.1250000000, 0.1250000000, 0.1250000000, 0.1250000000, 0.1250000000, -0.1250000000, -0.1250000000, 0.1250000000, -0.1250000000, -0.1250000000, 0.1250000000, 0.1250000000, -0.1250000000, -0.1250000000, 0.1250000000, 0.1250000000, -0.1250000000, 0.1250000000, 0.1250000000, -0.1250000000, 0.1250000000, 0.1250000000, -0.1250000000, 0.1250000000, -0.1250000000, -0.1250000000, -0.1250000000, -0.1250000000, -0.1250000000, -0.1250000000, -0.1250000000, 0.1250000000, -0.1250000000, -0.1250000000, 0.1250000000, -0.1250000000, 0.1250000000, -0.1250000000, 0.1250000000, 0.1250000000, -0.1250000000, -0.1250000000, -0.1250000000, -0.1250000000, 0.1250000000, -0.1250000000, -0.1250000000, 0.1250000000, -0.1250000000, 0.1250000000, -0.1250000000, -0.1250000000, 0.1250000000, 0.1250000000, 0.1250000000, -0.1250000000, -0.1250000000, -0.1250000000, 0.1250000000, -0.1250000000, 0.1250000000, 0.1250000000, -0.1250000000, -0.1250000000, -0.1250000000, -0.1250000000, 0.1250000000, 0.1250000000, -0.1250000000, 0.1250000000, 0.1250000000, -0.1250000000, -0.1250000000, 0.1250000000, -0.1250000000, -0.1250000000, 0.1250000000, -0.1250000000, 0.1250000000, -0.1250000000, -0.1250000000, 0.1250000000, -0.1250000000, 0.1250000000, -0.1250000000, 0.1250000000, -0.1250000000, 0.1250000000, 0.1250000000, -0.1250000000, 0.1250000000, 0.1250000000, 0.1250000000, 0.1250000000, -0.1250000000, -0.1250000000, 0.1250000000, -0.1250000000, -0.1250000000, 0.1250000000, -0.1250000000, -0.1250000000, 0.1250000000, 0.1250000000, 0.1250000000, -0.1250000000, -0.1250000000, 0.1250000000, 0.1250000000, 0.1250000000, 0.1250000000, -0.1250000000, -0.1250000000, -0.1250000000, -0.1250000000, 0.1250000000, 0.1250000000, 0.1250000000, -0.1250000000, 0.1250000000, -0.1250000000, -0.1250000000, -0.1250000000, -0.1250000000, 0.1250000000, -0.1250000000, 0.1250000000, 0.1250000000, -0.1250000000, -0.1250000000, -0.1250000000, -0.1250000000, -0.1250000000, -0.1250000000, -0.1250000000, -0.1250000000, 0.1250000000, -0.1250000000, 0.1250000000, -0.1250000000, 0.1250000000, -0.1250000000, 0.1250000000, -0.1250000000, 0.1250000000, -0.1250000000, 0.1250000000, 0.1250000000, -0.1250000000, -0.1250000000, 0.1250000000, -0.1250000000, -0.1250000000, -0.1250000000, 0.1250000000, -0.1250000000, -0.1250000000, 0.1250000000, -0.1250000000, -0.1250000000, 0.1250000000, 0.1250000000, -0.1250000000, 0.1250000000, 0.1250000000, 0.1250000000, -0.1250000000, -0.1250000000, -0.1250000000, 0.1250000000, 0.1250000000, 0.1250000000, -0.1250000000, -0.1250000000, 0.1250000000, 0.1250000000, -0.1250000000, -0.1250000000, -0.1250000000, -0.1250000000, 0.1250000000, 0.1250000000, -0.1250000000, -0.1250000000, -0.1250000000, 0.1250000000, 0.1250000000, 0.1250000000, 0.1250000000, 0.1250000000, 0.1250000000, 0.1250000000, 0.1250000000, 0.1250000000, -0.1250000000, -0.1250000000, 0.1250000000, -0.1250000000, 0.1250000000, 0.1250000000, 0.1250000000, 0.1250000000, 0.1250000000, 0.1250000000, 0.1250000000, -0.1250000000, 0.1250000000, -0.1250000000, -0.1250000000, 0.1250000000, 0.1250000000, 0.1250000000, -0.1250000000, 0.1250000000, 0.1250000000, 0.1250000000, 0.1250000000, -0.1250000000, -0.1250000000, -0.1250000000, 0.1250000000, -0.1250000000, 0.1250000000, 0.1250000000, 0.1250000000, -0.1250000000, -0.1250000000, -0.1250000000, 0.1250000000, 0.1250000000, 0.1250000000, -0.1250000000, -0.1250000000, 0.1250000000, 0.1250000000, 0.1250000000, -0.1250000000, -0.1250000000, -0.1250000000, -0.1250000000, -0.1250000000, 0.1250000000, -0.1250000000, 0.1250000000, 0.1250000000, -0.1250000000, -0.1250000000, -0.1250000000, 0.1250000000, -0.1250000000, 0.1250000000, -0.1250000000, 0.1250000000, -0.1250000000, -0.1250000000, -0.1250000000, 0.1250000000, -0.1250000000, -0.1250000000, 0.1250000000, -0.1250000000, -0.1250000000, 0.1250000000, -0.1250000000, -0.1250000000, 0.1250000000, -0.1250000000, 0.1250000000, -0.1250000000, 0.1250000000, 0.1250000000, 0.1250000000, -0.1250000000, 0.1250000000, 0.1250000000, -0.1250000000, 0.1250000000, 0.1250000000, -0.1250000000, -0.1250000000, 0.1250000000, 0.1250000000, -0.1250000000, 0.1250000000, -0.1250000000, -0.1250000000, -0.1250000000, -0.1250000000, -0.1250000000, 0.1250000000, 0.1250000000, 0.1250000000, -0.1250000000, -0.1250000000, 0.1250000000, -0.1250000000, 0.1250000000, 0.1250000000, 0.1250000000, -0.1250000000, 0.1250000000, 0.1250000000, -0.1250000000, -0.1250000000, -0.1250000000, -0.1250000000, 0.1250000000, -0.1250000000, -0.1250000000, -0.1250000000, -0.1250000000, -0.1250000000, -0.1250000000, 0.1250000000, 0.1250000000, -0.1250000000, 0.1250000000, -0.1250000000, 0.1250000000, -0.1250000000, 0.1250000000, -0.1250000000, -0.1250000000, -0.1250000000, 0.1250000000, 0.1250000000, 0.1250000000, 0.1250000000, 0.1250000000, -0.1250000000, -0.1250000000, 0.1250000000, 0.1250000000, 0.1250000000, 0.1250000000, 0.1250000000, 0.1250000000, 0.1250000000, -0.1250000000, 0.1250000000, 0.1250000000, -0.1250000000, 0.1250000000, -0.1250000000, 0.1250000000, -0.1250000000, -0.1250000000, 0.1250000000, -0.1250000000, 0.1250000000, -0.1250000000, -0.1250000000, -0.1250000000, 0.1250000000, -0.1250000000, 0.1250000000, -0.1250000000, -0.1250000000, 0.1250000000, -0.1250000000, 0.1250000000, 0.1250000000, -0.1250000000, -0.1250000000, 0.1250000000, -0.1250000000, -0.1250000000, -0.1250000000, 0.1250000000, -0.1250000000, 0.1250000000, -0.1250000000, 0.1250000000, 0.1250000000, -0.1250000000, -0.1250000000, -0.1250000000, 0.1250000000, -0.1250000000, 0.1250000000, 0.1250000000, 0.1250000000, 0.1250000000, 0.1250000000, 0.1250000000, -0.1250000000, -0.1250000000, 0.1250000000, 0.1250000000, 0.1250000000, 0.1250000000, 0.1250000000, -0.1250000000, 0.1250000000, -0.1250000000, -0.1250000000, 0.1250000000, 0.1250000000, -0.1250000000, 0.1250000000, -0.1250000000, 0.1250000000, -0.1250000000, 0.1250000000, 0.1250000000, 0.1250000000, -0.1250000000, 0.1250000000, -0.1250000000, -0.1250000000, 0.1250000000, -0.1250000000, 0.1250000000, -0.1250000000, 0.1250000000, 0.1250000000, 0.1250000000, -0.1250000000, 0.1250000000, -0.1250000000, -0.1250000000, 0.1250000000, -0.1250000000, 0.1250000000, -0.1250000000, 0.1250000000, 0.1250000000, 0.1250000000, -0.1250000000, 0.1250000000, -0.1250000000, -0.1250000000, 0.1250000000, 0.1250000000, 0.1250000000, -0.1250000000, 0.1250000000, -0.1250000000, 0.1250000000, 0.1250000000, 0.1250000000, -0.1250000000, -0.1250000000, -0.1250000000, 0.1250000000, -0.1250000000, 0.1250000000, -0.1250000000, 0.1250000000, -0.1250000000, 0.1250000000, 0.1250000000, 0.1250000000, -0.1250000000, -0.1250000000, 0.1250000000, 0.1250000000, 0.1250000000, -0.1250000000, 0.1250000000, 0.1250000000, 0.1250000000, 0.1250000000, -0.1250000000, -0.1250000000, -0.1250000000, -0.1250000000, 0.1250000000, -0.1250000000, 0.1250000000, 0.1250000000, -0.1250000000, -0.1250000000, -0.1250000000, -0.1250000000, 0.1250000000, -0.1250000000, -0.1250000000, 0.1250000000, -0.1250000000, 0.1250000000, -0.1250000000, 0.1250000000, 0.1250000000, 0.1250000000, -0.1250000000, -0.1250000000, -0.1250000000, -0.1250000000, -0.1250000000, 0.1250000000, -0.1250000000, -0.1250000000, 0.1250000000, 0.1250000000, -0.1250000000, -0.1250000000, 0.1250000000, -0.1250000000, -0.1250000000, -0.1250000000, -0.1250000000, -0.1250000000, -0.1250000000, 0.1250000000, -0.1250000000, -0.1250000000, 0.1250000000, -0.1250000000, 0.1250000000, 0.1250000000, -0.1250000000, -0.1250000000, 0.1250000000, -0.1250000000, -0.1250000000, -0.1250000000, -0.1250000000, 0.1250000000, -0.1250000000, 0.1250000000, 0.1250000000, 0.1250000000, 0.1250000000, -0.1250000000, -0.1250000000, -0.1250000000, 0.1250000000, -0.1250000000, -0.1250000000, 0.1250000000, -0.1250000000, 0.1250000000, -0.1250000000, 0.1250000000, 0.1250000000, 0.1250000000, 0.1250000000, 0.1250000000, -0.1250000000, -0.1250000000, 0.1250000000, 0.1250000000, -0.1250000000, 0.1250000000, -0.1250000000, 0.1250000000, -0.1250000000, 0.1250000000, 0.1250000000, 0.1250000000, -0.1250000000, 0.1250000000, 0.1250000000, -0.1250000000, 0.1250000000, -0.1250000000, 0.1250000000, 0.1250000000, -0.1250000000, 0.1250000000, 0.1250000000, -0.1250000000, 0.1250000000, -0.1250000000, -0.1250000000, -0.1250000000, 0.1250000000, -0.1250000000, -0.1250000000, -0.1250000000, -0.1250000000, -0.1250000000, 0.1250000000, -0.1250000000, -0.1250000000, -0.1250000000, -0.1250000000, 0.1250000000, -0.1250000000, 0.1250000000, -0.1250000000, -0.1250000000, 0.1250000000, -0.1250000000, -0.1250000000, -0.1250000000, -0.1250000000, 0.1250000000, -0.1250000000, 0.1250000000, -0.1250000000, 0.1250000000, 0.1250000000, -0.1250000000, 0.1250000000, -0.1250000000, 0.1250000000, -0.1250000000, 0.1250000000, -0.1250000000, -0.1250000000, -0.1250000000, -0.1250000000, 0.1250000000, -0.1250000000, -0.1250000000, 0.1250000000, 0.1250000000, 0.1250000000, -0.1250000000, 0.1250000000, -0.1250000000, 0.1250000000, 0.1250000000, -0.1250000000, -0.1250000000, 0.1250000000, -0.1250000000, -0.1250000000, 0.1250000000, -0.1250000000, 0.1250000000, -0.1250000000, 0.1250000000, 0.1250000000, 0.1250000000, -0.1250000000, 0.1250000000, -0.1250000000, -0.1250000000, 0.1250000000, 0.1250000000, -0.1250000000, -0.1250000000, -0.1250000000, -0.1250000000, 0.1250000000, -0.1250000000, 0.1250000000, 0.1250000000, 0.1250000000, -0.1250000000, -0.1250000000, 0.1250000000, 0.1250000000, -0.1250000000, -0.1250000000, -0.1250000000, 0.1250000000, -0.1250000000, 0.1250000000, -0.1250000000, 0.1250000000, 0.1250000000, -0.1250000000, -0.1250000000, 0.1250000000, 0.1250000000, 0.1250000000, 0.1250000000, 0.1250000000, -0.1250000000, 0.1250000000, 0.1250000000, 0.1250000000, -0.1250000000, -0.1250000000, 0.1250000000, -0.1250000000, 0.1250000000, 0.1250000000, 0.1250000000, -0.1250000000, -0.1250000000, 0.1250000000, -0.1250000000, -0.1250000000, 0.1250000000, 0.1250000000, -0.1250000000, 0.1250000000, -0.1250000000, 0.1250000000, 0.1250000000, -0.1250000000, 0.1250000000, 0.1250000000, -0.1250000000, 0.1250000000, 0.1250000000, -0.1250000000, -0.1250000000, 0.1250000000, -0.1250000000, 0.1250000000, 0.1250000000, 0.1250000000, 0.1250000000, -0.1250000000, 0.1250000000, 0.1250000000, 0.1250000000, 0.1250000000, -0.1250000000, 0.1250000000, -0.1250000000, -0.1250000000, -0.1250000000, -0.1250000000, -0.1250000000, 0.1250000000, 0.1250000000, -0.1250000000, -0.1250000000, 0.1250000000, -0.1250000000, 0.1250000000, 0.1250000000, 0.1250000000, -0.1250000000, 0.1250000000, -0.1250000000, -0.1250000000, -0.1250000000, -0.1250000000, -0.1250000000, -0.1250000000, 0.1250000000, 0.1250000000, 0.1250000000, 0.1250000000, -0.1250000000, -0.1250000000, 0.1250000000, -0.1250000000, -0.1250000000, 0.1250000000, -0.1250000000, 0.1250000000, 0.1250000000, 0.1250000000, 0.1250000000, -0.1250000000, 0.1250000000, 0.1250000000, 0.1250000000, -0.1250000000, 0.1250000000, -0.1250000000, -0.1250000000, 0.1250000000, 0.1250000000, -0.1250000000, -0.1250000000, -0.1250000000, -0.1250000000, -0.1250000000, 0.1250000000, -0.1250000000, 0.1250000000, 0.1250000000, 0.1250000000, -0.1250000000, 0.1250000000, 0.1250000000, 0.1250000000, 0.1250000000, -0.1250000000, -0.1250000000, 0.1250000000, -0.1250000000, -0.1250000000, -0.1250000000, 0.1250000000, -0.1250000000, -0.1250000000, 0.1250000000, -0.1250000000, 0.1250000000, -0.1250000000, 0.1250000000, -0.1250000000, -0.1250000000, -0.1250000000, -0.1250000000, -0.1250000000, -0.1250000000, 0.1250000000, 0.1250000000, -0.1250000000, -0.1250000000, 0.1250000000, -0.1250000000, -0.1250000000, 0.1250000000, -0.1250000000, 0.1250000000, 0.1250000000, -0.1250000000, -0.1250000000, -0.1250000000, -0.1250000000, 0.1250000000, 0.1250000000, 0.1250000000, -0.1250000000, 0.1250000000, 0.1250000000, 0.1250000000, -0.1250000000, -0.1250000000, 0.1250000000, 0.1250000000, 0.1250000000, 0.1250000000, 0.1250000000, 0.1250000000, 0.1250000000, -0.1250000000, 0.1250000000, -0.1250000000, -0.1250000000, -0.1250000000, 0.1250000000, 0.1250000000, 0.1250000000, -0.1250000000, -0.1250000000, -0.1250000000, -0.1250000000, -0.1250000000, 0.1250000000, -0.1250000000, -0.1250000000, -0.1250000000, 0.1250000000, -0.1250000000, 0.1250000000, 0.1250000000, -0.1250000000, 0.1250000000, 0.1250000000, 0.1250000000, -0.1250000000, 0.1250000000, -0.1250000000, -0.1250000000, 0.1250000000, 0.1250000000, 0.1250000000, 0.1250000000, 0.1250000000, 0.1250000000, -0.1250000000, 0.1250000000, -0.1250000000, -0.1250000000, -0.1250000000, 0.1250000000, -0.1250000000, -0.1250000000, 0.1250000000, 0.1250000000, -0.1250000000, -0.1250000000, 0.1250000000, -0.1250000000, 0.1250000000, -0.1250000000, 0.1250000000, -0.1250000000, 0.1250000000, 0.1250000000, -0.1250000000, 0.1250000000, 0.1250000000, -0.1250000000, 0.1250000000, -0.1250000000, 0.1250000000, 0.1250000000, -0.1250000000, 0.1250000000, -0.1250000000, 0.1250000000, -0.1250000000, 0.1250000000, -0.1250000000, -0.1250000000, -0.1250000000, 0.1250000000, -0.1250000000, -0.1250000000, -0.1250000000, -0.1250000000, -0.1250000000, -0.1250000000, -0.1250000000, -0.1250000000, -0.1250000000, -0.1250000000, 0.1250000000, 0.1250000000, -0.1250000000, 0.1250000000, -0.1250000000, -0.1250000000, 0.1250000000, -0.1250000000, -0.1250000000, 0.1250000000, 0.1250000000, -0.1250000000, -0.1250000000, -0.1250000000, 0.1250000000, -0.1250000000, -0.1250000000, -0.1250000000, -0.1250000000, -0.1250000000, -0.1250000000, 0.1250000000, -0.1250000000, 0.1250000000, -0.1250000000, -0.1250000000, 0.1250000000, 0.1250000000, 0.1250000000, -0.1250000000, 0.1250000000, -0.1250000000, 0.1250000000, 0.1250000000, 0.1250000000, -0.1250000000, 0.1250000000, 0.1250000000, 0.1250000000, -0.1250000000, -0.1250000000, -0.1250000000, 0.1250000000, -0.1250000000, -0.1250000000, -0.1250000000, 0.1250000000, 0.1250000000, -0.1250000000, -0.1250000000, -0.1250000000, -0.1250000000, -0.1250000000, 0.1250000000, -0.1250000000, -0.1250000000, 0.1250000000, 0.1250000000, -0.1250000000, 0.1250000000, 0.1250000000, 0.1250000000, -0.1250000000, 0.1250000000, -0.1250000000, 0.1250000000, -0.1250000000, 0.1250000000, 0.1250000000, 0.1250000000, 0.1250000000, -0.1250000000, -0.1250000000, 0.1250000000, -0.1250000000, -0.1250000000, -0.1250000000, -0.1250000000, -0.1250000000, -0.1250000000, -0.1250000000, 0.1250000000, -0.1250000000, -0.1250000000, -0.1250000000, -0.1250000000, 0.1250000000, 0.1250000000, 0.1250000000, 0.1250000000, 0.1250000000, -0.1250000000, -0.1250000000, 0.1250000000, 0.1250000000, -0.1250000000, 0.1250000000, 0.1250000000, 0.1250000000, 0.1250000000, -0.1250000000, 0.1250000000, 0.1250000000, -0.1250000000, -0.1250000000, 0.1250000000, 0.1250000000, -0.1250000000, -0.1250000000, 0.1250000000, 0.1250000000, -0.1250000000, -0.1250000000, -0.1250000000, 0.1250000000, 0.1250000000, -0.1250000000, -0.1250000000, -0.1250000000, 0.1250000000, 0.1250000000, 0.1250000000, -0.1250000000, -0.1250000000, 0.1250000000, -0.1250000000, 0.1250000000, -0.1250000000, -0.1250000000, 0.1250000000, -0.1250000000, -0.1250000000, -0.1250000000, 0.1250000000, 0.1250000000, 0.1250000000, 0.1250000000, -0.1250000000, 0.1250000000, -0.1250000000, -0.1250000000, -0.1250000000, -0.1250000000, -0.1250000000, -0.1250000000, -0.1250000000, 0.1250000000, 0.1250000000, -0.1250000000, 0.1250000000, 0.1250000000, 0.1250000000, -0.1250000000, -0.1250000000, -0.1250000000, 0.1250000000, 0.1250000000, -0.1250000000, 0.1250000000, -0.1250000000, -0.1250000000, 0.1250000000, -0.1250000000, -0.1250000000, -0.1250000000, -0.1250000000, -0.1250000000, 0.1250000000, 0.1250000000, -0.1250000000, 0.1250000000, 0.1250000000, -0.1250000000, 0.1250000000, -0.1250000000, -0.1250000000, -0.1250000000, -0.1250000000, -0.1250000000, 0.1250000000, -0.1250000000, -0.1250000000, -0.1250000000, -0.1250000000, -0.1250000000, 0.1250000000, -0.1250000000, 0.1250000000, -0.1250000000, 0.1250000000, -0.1250000000, -0.1250000000, -0.1250000000, 0.1250000000, -0.1250000000, -0.1250000000, 0.1250000000, -0.1250000000, 0.1250000000, 0.1250000000, 0.1250000000, -0.1250000000, 0.1250000000, 0.1250000000, 0.1250000000, -0.1250000000, 0.1250000000, -0.1250000000, -0.1250000000, 0.1250000000, 0.1250000000, -0.1250000000, -0.1250000000, 0.1250000000, -0.1250000000, 0.1250000000, -0.1250000000, 0.1250000000, -0.1250000000, -0.1250000000, 0.1250000000, -0.1250000000, -0.1250000000, 0.1250000000, -0.1250000000, 0.1250000000, -0.1250000000, 0.1250000000, 0.1250000000, 0.1250000000, -0.1250000000, 0.1250000000, 0.1250000000, -0.1250000000, 0.1250000000, 0.1250000000, 0.1250000000, 0.1250000000, -0.1250000000, -0.1250000000, -0.1250000000, 0.1250000000, -0.1250000000, 0.1250000000, 0.1250000000, -0.1250000000, -0.1250000000, -0.1250000000, 0.1250000000, -0.1250000000, 0.1250000000, -0.1250000000, -0.1250000000, -0.1250000000, -0.1250000000, 0.1250000000, -0.1250000000, -0.1250000000, -0.1250000000, 0.1250000000, 0.1250000000, -0.1250000000, -0.1250000000, -0.1250000000, -0.1250000000, -0.1250000000, 0.1250000000, -0.1250000000, -0.1250000000, 0.1250000000, 0.1250000000, 0.1250000000, -0.1250000000, 0.1250000000, 0.1250000000, 0.1250000000, 0.1250000000, 0.1250000000, 0.1250000000, 0.1250000000, -0.1250000000, 0.1250000000, 0.1250000000, -0.1250000000, 0.1250000000, -0.1250000000, -0.1250000000, -0.1250000000, 0.1250000000, -0.1250000000, 