//Numpy array shape (84, 10)
//Min -0.062500000000
//Max 0.062500000000
//Number of zeros 0

weight_default_layer7_t w7[840] = {0.062500000000, -0.062500000000, -0.062500000000, -0.062500000000, -0.062500000000, -0.062500000000, -0.062500000000, 0.062500000000, -0.062500000000, 0.062500000000, -0.062500000000, -0.062500000000, 0.062500000000, 0.062500000000, -0.062500000000, -0.062500000000, -0.062500000000, 0.062500000000, 0.062500000000, -0.062500000000, -0.062500000000, 0.062500000000, 0.062500000000, -0.062500000000, -0.062500000000, -0.062500000000, -0.062500000000, -0.062500000000, -0.062500000000, -0.062500000000, -0.062500000000, -0.062500000000, -0.062500000000, -0.062500000000, 0.062500000000, 0.062500000000, -0.062500000000, -0.062500000000, 0.062500000000, 0.062500000000, -0.062500000000, -0.062500000000, -0.062500000000, -0.062500000000, -0.062500000000, -0.062500000000, -0.062500000000, 0.062500000000, 0.062500000000, 0.062500000000, -0.062500000000, 0.062500000000, -0.062500000000, -0.062500000000, 0.062500000000, -0.062500000000, -0.062500000000, -0.062500000000, -0.062500000000, -0.062500000000, -0.062500000000, -0.062500000000, 0.062500000000, 0.062500000000, -0.062500000000, 0.062500000000, -0.062500000000, 0.062500000000, -0.062500000000, -0.062500000000, -0.062500000000, -0.062500000000, 0.062500000000, -0.062500000000, 0.062500000000, -0.062500000000, 0.062500000000, -0.062500000000, -0.062500000000, -0.062500000000, 0.062500000000, -0.062500000000, 0.062500000000, -0.062500000000, 0.062500000000, -0.062500000000, -0.062500000000, -0.062500000000, -0.062500000000, 0.062500000000, 0.062500000000, -0.062500000000, -0.062500000000, -0.062500000000, -0.062500000000, 0.062500000000, 0.062500000000, -0.062500000000, 0.062500000000, -0.062500000000, 0.062500000000, 0.062500000000, -0.062500000000, -0.062500000000, 0.062500000000, -0.062500000000, -0.062500000000, 0.062500000000, -0.062500000000, -0.062500000000, 0.062500000000, -0.062500000000, -0.062500000000, -0.062500000000, 0.062500000000, 0.062500000000, 0.062500000000, -0.062500000000, 0.062500000000, 0.062500000000, -0.062500000000, 0.062500000000, -0.062500000000, -0.062500000000, -0.062500000000, 0.062500000000, -0.062500000000, -0.062500000000, 0.062500000000, -0.062500000000, 0.062500000000, -0.062500000000, -0.062500000000, -0.062500000000, 0.062500000000, -0.062500000000, 0.062500000000, -0.062500000000, -0.062500000000, 0.062500000000, -0.062500000000, -0.062500000000, 0.062500000000, -0.062500000000, 0.062500000000, 0.062500000000, -0.062500000000, -0.062500000000, -0.062500000000, -0.062500000000, -0.062500000000, -0.062500000000, -0.062500000000, -0.062500000000, -0.062500000000, -0.062500000000, 0.062500000000, 0.062500000000, -0.062500000000, -0.062500000000, 0.062500000000, -0.062500000000, -0.062500000000, 0.062500000000, -0.062500000000, -0.062500000000, -0.062500000000, -0.062500000000, -0.062500000000, -0.062500000000, 0.062500000000, -0.062500000000, 0.062500000000, 0.062500000000, -0.062500000000, 0.062500000000, -0.062500000000, -0.062500000000, -0.062500000000, -0.062500000000, -0.062500000000, -0.062500000000, -0.062500000000, 0.062500000000, 0.062500000000, -0.062500000000, -0.062500000000, 0.062500000000, -0.062500000000, 0.062500000000, -0.062500000000, 0.062500000000, -0.062500000000, -0.062500000000, 0.062500000000, -0.062500000000, -0.062500000000, 0.062500000000, -0.062500000000, -0.062500000000, -0.062500000000, -0.062500000000, -0.062500000000, 0.062500000000, -0.062500000000, 0.062500000000, 0.062500000000, -0.062500000000, -0.062500000000, -0.062500000000, -0.062500000000, -0.062500000000, -0.062500000000, -0.062500000000, -0.062500000000, 0.062500000000, -0.062500000000, -0.062500000000, -0.062500000000, 0.062500000000, 0.062500000000, 0.062500000000, 0.062500000000, -0.062500000000, 0.062500000000, 0.062500000000, -0.062500000000, -0.062500000000, -0.062500000000, -0.062500000000, 0.062500000000, 0.062500000000, 0.062500000000, 0.062500000000, -0.062500000000, -0.062500000000, -0.062500000000, 0.062500000000, -0.062500000000, -0.062500000000, -0.062500000000, 0.062500000000, -0.062500000000, -0.062500000000, 0.062500000000, 0.062500000000, 0.062500000000, -0.062500000000, -0.062500000000, -0.062500000000, -0.062500000000, -0.062500000000, 0.062500000000, 0.062500000000, -0.062500000000, 0.062500000000, -0.062500000000, -0.062500000000, 0.062500000000, 0.062500000000, -0.062500000000, 0.062500000000, -0.062500000000, -0.062500000000, -0.062500000000, -0.062500000000, -0.062500000000, -0.062500000000, 0.062500000000, 0.062500000000, -0.062500000000, -0.062500000000, -0.062500000000, -0.062500000000, -0.062500000000, -0.062500000000, 0.062500000000, -0.062500000000, -0.062500000000, 0.062500000000, -0.062500000000, -0.062500000000, -0.062500000000, 0.062500000000, -0.062500000000, -0.062500000000, -0.062500000000, -0.062500000000, 0.062500000000, -0.062500000000, -0.062500000000, 0.062500000000, -0.062500000000, -0.062500000000, -0.062500000000, -0.062500000000, 0.062500000000, 0.062500000000, -0.062500000000, -0.062500000000, 0.062500000000, 0.062500000000, -0.062500000000, 0.062500000000, -0.062500000000, 0.062500000000, -0.062500000000, -0.062500000000, -0.062500000000, 0.062500000000, 0.062500000000, -0.062500000000, 0.062500000000, 0.062500000000, -0.062500000000, -0.062500000000, -0.062500000000, -0.062500000000, 0.062500000000, -0.062500000000, -0.062500000000, -0.062500000000, -0.062500000000, -0.062500000000, 0.062500000000, -0.062500000000, -0.062500000000, -0.062500000000, 0.062500000000, -0.062500000000, -0.062500000000, 0.062500000000, -0.062500000000, -0.062500000000, -0.062500000000, -0.062500000000, -0.062500000000, 0.062500000000, 0.062500000000, -0.062500000000, -0.062500000000, 0.062500000000, 0.062500000000, -0.062500000000, -0.062500000000, -0.062500000000, -0.062500000000, -0.062500000000, -0.062500000000, -0.062500000000, 0.062500000000, 0.062500000000, -0.062500000000, -0.062500000000, -0.062500000000, -0.062500000000, -0.062500000000, -0.062500000000, -0.062500000000, 0.062500000000, -0.062500000000, -0.062500000000, 0.062500000000, -0.062500000000, 0.062500000000, 0.062500000000, 0.062500000000, -0.062500000000, 0.062500000000, -0.062500000000, -0.062500000000, -0.062500000000, -0.062500000000, -0.062500000000, -0.062500000000, 0.062500000000, -0.062500000000, 0.062500000000, 0.062500000000, 0.062500000000, -0.062500000000, 0.062500000000, -0.062500000000, -0.062500000000, -0.062500000000, 0.062500000000, -0.062500000000, -0.062500000000, -0.062500000000, -0.062500000000, -0.062500000000, 0.062500000000, -0.062500000000, -0.062500000000, -0.062500000000, 0.062500000000, 0.062500000000, -0.062500000000, -0.062500000000, 0.062500000000, -0.062500000000, -0.062500000000, -0.062500000000, -0.062500000000, 0.062500000000, -0.062500000000, 0.062500000000, -0.062500000000, 0.062500000000, -0.062500000000, -0.062500000000, -0.062500000000, -0.062500000000, 0.062500000000, -0.062500000000, 0.062500000000, -0.062500000000, -0.062500000000, 0.062500000000, -0.062500000000, 0.062500000000, -0.062500000000, -0.062500000000, -0.062500000000, -0.062500000000, 0.062500000000, -0.062500000000, 0.062500000000, -0.062500000000, -0.062500000000, 0.062500000000, -0.062500000000, -0.062500000000, -0.062500000000, -0.062500000000, 0.062500000000, -0.062500000000, 0.062500000000, 0.062500000000, -0.062500000000, -0.062500000000, -0.062500000000, -0.062500000000, -0.062500000000, -0.062500000000, -0.062500000000, 0.062500000000, -0.062500000000, -0.062500000000, 0.062500000000, -0.062500000000, -0.062500000000, 0.062500000000, -0.062500000000, -0.062500000000, -0.062500000000, 0.062500000000, 0.062500000000, -0.062500000000, 0.062500000000, -0.062500000000, 0.062500000000, -0.062500000000, 0.062500000000, -0.062500000000, -0.062500000000, 0.062500000000, -0.062500000000, -0.062500000000, 0.062500000000, -0.062500000000, -0.062500000000, 0.062500000000, -0.062500000000, -0.062500000000, -0.062500000000, -0.062500000000, 0.062500000000, -0.062500000000, -0.062500000000, -0.062500000000, 0.062500000000, -0.062500000000, 0.062500000000, -0.062500000000, 0.062500000000, 0.062500000000, -0.062500000000, -0.062500000000, -0.062500000000, -0.062500000000, 0.062500000000, -0.062500000000, 0.062500000000, 0.062500000000, -0.062500000000, -0.062500000000, 0.062500000000, -0.062500000000, -0.062500000000, 0.062500000000, -0.062500000000, -0.062500000000, -0.062500000000, -0.062500000000, -0.062500000000, 0.062500000000, -0.062500000000, -0.062500000000, -0.062500000000, 0.062500000000, -0.062500000000, -0.062500000000, 0.062500000000, 0.062500000000, -0.062500000000, -0.062500000000, -0.062500000000, 0.062500000000, 0.062500000000, -0.062500000000, -0.062500000000, 0.062500000000, 0.062500000000, -0.062500000000, -0.062500000000, -0.062500000000, 0.062500000000, 0.062500000000, -0.062500000000, 0.062500000000, 0.062500000000, 0.062500000000, 0.062500000000, 0.062500000000, -0.062500000000, -0.062500000000, -0.062500000000, -0.062500000000, -0.062500000000, 0.062500000000, -0.062500000000, 0.062500000000, -0.062500000000, 0.062500000000, -0.062500000000, -0.062500000000, 0.062500000000, -0.062500000000, -0.062500000000, 0.062500000000, 0.062500000000, -0.062500000000, -0.062500000000, -0.062500000000, -0.062500000000, -0.062500000000, -0.062500000000, 0.062500000000, -0.062500000000, 0.062500000000, -0.062500000000, 0.062500000000, -0.062500000000, -0.062500000000, -0.062500000000, -0.062500000000, 0.062500000000, -0.062500000000, 0.062500000000, -0.062500000000, -0.062500000000, 0.062500000000, -0.062500000000, -0.062500000000, 0.062500000000, 0.062500000000, -0.062500000000, -0.062500000000, -0.062500000000, -0.062500000000, 0.062500000000, 0.062500000000, -0.062500000000, -0.062500000000, -0.062500000000, -0.062500000000, -0.062500000000, -0.062500000000, -0.062500000000, -0.062500000000, -0.062500000000, 0.062500000000, -0.062500000000, -0.062500000000, -0.062500000000, 0.062500000000, -0.062500000000, 0.062500000000, -0.062500000000, -0.062500000000, -0.062500000000, -0.062500000000, -0.062500000000, 0.062500000000, -0.062500000000, -0.062500000000, 0.062500000000, -0.062500000000, 0.062500000000, -0.062500000000, 0.062500000000, 0.062500000000, -0.062500000000, 0.062500000000, -0.062500000000, -0.062500000000, -0.062500000000, -0.062500000000, 0.062500000000, -0.062500000000, -0.062500000000, -0.062500000000, -0.062500000000, 0.062500000000, -0.062500000000, -0.062500000000, -0.062500000000, 0.062500000000, 0.062500000000, 0.062500000000, -0.062500000000, -0.062500000000, 0.062500000000, -0.062500000000, -0.062500000000, -0.062500000000, 0.062500000000, -0.062500000000, -0.062500000000, -0.062500000000, -0.062500000000, -0.062500000000, -0.062500000000, 0.062500000000, 0.062500000000, -0.062500000000, -0.062500000000, -0.062500000000, -0.062500000000, -0.062500000000, -0.062500000000, 0.062500000000, 0.062500000000, -0.062500000000, -0.062500000000, 0.062500000000, -0.062500000000, -0.062500000000, 0.062500000000, -0.062500000000, -0.062500000000, -0.062500000000, 0.062500000000, -0.062500000000, 0.062500000000, -0.062500000000, 0.062500000000, -0.062500000000, -0.062500000000, 0.062500000000, 0.062500000000, -0.062500000000, -0.062500000000, 0.062500000000, -0.062500000000, 0.062500000000, -0.062500000000, -0.062500000000, 0.062500000000, 0.062500000000, -0.062500000000, 0.062500000000, -0.062500000000, -0.062500000000, 0.062500000000, -0.062500000000, -0.062500000000, -0.062500000000, -0.062500000000, -0.062500000000, -0.062500000000, -0.062500000000, -0.062500000000, 0.062500000000, 0.062500000000, 0.062500000000, 0.062500000000, -0.062500000000, -0.062500000000, -0.062500000000, 0.062500000000, -0.062500000000, 0.062500000000, -0.062500000000, -0.062500000000, -0.062500000000, 0.062500000000, -0.062500000000, -0.062500000000, 0.062500000000, -0.062500000000, -0.062500000000, 0.062500000000, -0.062500000000, -0.062500000000, 0.062500000000, -0.062500000000, 0.062500000000, -0.062500000000, -0.062500000000, 0.062500000000, -0.062500000000, 0.062500000000, -0.062500000000, 0.062500000000, -0.062500000000, -0.062500000000, 0.062500000000, -0.062500000000, -0.062500000000, -0.062500000000, -0.062500000000, -0.062500000000, 0.062500000000, -0.062500000000, -0.062500000000, 0.062500000000, 0.062500000000, -0.062500000000, 0.062500000000, -0.062500000000, 0.062500000000, 0.062500000000, 0.062500000000, -0.062500000000, 0.062500000000, -0.062500000000, 0.062500000000, -0.062500000000, 0.062500000000, -0.062500000000, -0.062500000000, -0.062500000000, -0.062500000000, 0.062500000000, -0.062500000000, -0.062500000000, -0.062500000000, 0.062500000000, -0.062500000000, -0.062500000000, -0.062500000000, 0.062500000000, 0.062500000000, -0.062500000000, -0.062500000000, -0.062500000000, -0.062500000000, 0.062500000000, 0.062500000000, 0.062500000000, -0.062500000000, -0.062500000000, -0.062500000000, -0.062500000000, 0.062500000000, -0.062500000000, 0.062500000000, -0.062500000000, -0.062500000000, 0.062500000000, -0.062500000000, -0.062500000000, -0.062500000000, -0.062500000000, 0.062500000000, -0.062500000000, 0.062500000000, -0.062500000000, 0.062500000000, 0.062500000000, -0.062500000000, -0.062500000000, -0.062500000000, -0.062500000000, -0.062500000000, -0.062500000000, 0.062500000000, -0.062500000000, -0.062500000000, 0.062500000000, -0.062500000000, 0.062500000000, -0.062500000000, -0.062500000000, -0.062500000000, -0.062500000000, -0.062500000000, 0.062500000000, -0.062500000000, 0.062500000000, 0.062500000000, -0.062500000000, -0.062500000000, -0.062500000000, -0.062500000000, 0.062500000000, 0.062500000000, 0.062500000000, -0.062500000000, -0.062500000000, -0.062500000000, 0.062500000000, -0.062500000000, -0.062500000000, 0.062500000000, -0.062500000000, -0.062500000000, -0.062500000000, 0.062500000000, -0.062500000000, -0.062500000000, -0.062500000000, -0.062500000000, 0.062500000000, 0.062500000000, 0.062500000000, -0.062500000000, -0.062500000000};
